467 100
li -0.0013562727 -0.10223188 0.21260111 0.15009171 -0.014968916 -0.3163841 0.1595573 0.31992087 -0.27313012 -0.13445379 0.10342026 -0.041957922 -0.020935252 0.21955384 -0.080022 -0.11584361 0.0678367 -0.11129056 -0.30510086 -0.45951778 0.13574494 0.053581 0.30406293 -0.3726006 0.051492963 0.022886822 -0.058246322 -0.05597272 -0.33262697 -0.10705647 0.006655382 0.005135548 0.08427154 -0.09657143 -0.22526209 0.115862966 -0.071405575 -0.1617585 -0.11655643 -0.15150572 -0.0042343475 -0.20173216 -0.06828259 -0.030794168 0.1864093 0.04287124 -0.2170507 0.1476085 0.005505261 0.08896819 0.067955896 0.015691502 -0.1387306 -0.03407491 0.036998153 -0.11417676 0.24119319 -0.19626649 0.029693382 0.15957187 -0.015188018 -0.23475885 0.025219629 -0.29952407 -0.00454195 0.35902977 0.121459715 0.021286622 -0.31767204 0.116455704 -0.04709532 -0.0069590877 -0.057866093 0.050001275 0.24573416 0.022180807 0.2460068 0.092707336 0.09811829 -0.13519606 0.08003729 0.15722582 0.0359987 0.16914773 -0.07046218 0.050983854 0.13249068 0.04311992 -0.0021814692 0.24875554 0.20128661 -0.0031005347 0.021124305 -0.06718099 0.26183635 0.18805239 0.08881552 -0.2886347 -0.111226045 0.018673157
. -0.1440363 -0.032830596 0.22128595 0.065083645 -0.21208444 -0.3575597 0.030051135 0.32487246 -0.1875078 -0.3846679 0.16181605 -0.1622663 -0.03227375 0.15461813 0.24165854 0.15653995 0.27456674 -0.0071980353 -0.25124452 -0.26232195 0.19193828 0.17951281 0.34705913 -0.45790422 0.24651279 -0.1804963 -0.13790222 -0.14573957 -0.22894467 0.1912992 0.21635957 -0.09040184 -0.036250792 -0.35444722 0.0045019872 0.11412833 0.13594748 -0.037785407 -0.11557134 0.010082831 0.11689516 -0.30146843 -0.1187785 -0.044357583 0.11392235 -0.028853273 -0.022179652 -0.07216075 0.15082854 0.16092338 0.08284624 -0.13014394 -0.058319367 0.088150114 0.0985944 0.17524533 0.2603005 0.13591194 -0.1521504 0.2834302 0.0037628263 -0.008387579 0.068091325 -0.33924204 0.015907962 0.4544373 0.05764042 0.03191703 0.022170484 0.057839137 0.093516104 0.13775407 0.3415709 0.043648746 0.11963165 0.18308766 0.23767084 -0.18892461 -0.24092594 -0.18457504 -0.2974827 0.0001422433 -0.13164511 0.06970878 0.09406 -0.11624455 -0.18513788 -0.029336572 0.21293461 0.06213164 0.2239267 0.049761843 -0.03471315 -0.09100728 0.18392499 0.22328064 0.10074207 -0.080837384 -0.14348434 -0.2481201
e -0.032065686 -0.1717339 -0.049150325 0.004228677 0.266686 -0.19873013 -0.034606457 0.43692806 -0.18276408 -0.02170249 -0.035081986 -0.08150907 0.1191409 0.16751145 0.3188187 -0.12190834 0.17442365 0.030881118 -0.34790668 -0.41973975 -0.088595614 -0.066910155 0.037920862 -0.35457423 0.29179215 -0.039331734 -0.021116026 0.105734564 -0.24618128 0.20174137 0.1603193 -0.039243408 -0.10727479 -0.108302295 -0.29531094 0.13390097 -0.057623688 -0.118093394 -0.058112845 -0.32478774 -0.11385534 -0.28101084 -0.13284361 0.12101433 0.1732101 -0.11658646 -0.17048605 -0.13984092 -0.023220593 0.0026743468 0.072378196 -0.07829828 -0.28486085 -0.11044154 -0.07784174 0.048569944 0.16357926 -0.20653981 -0.042480428 0.13380496 0.00028137505 -0.15938865 0.25142038 -0.110992044 -0.4672589 0.5261579 0.0626401 0.019174574 -0.21148409 0.30396867 0.06989065 -0.019463046 0.046240993 0.06630335 0.11519728 0.1465021 0.38803768 0.10277493 -0.17357759 -0.041061897 0.06325502 -0.13365619 -0.23786198 0.19460844 -0.10554314 0.050796475 -0.0655767 0.043067444 0.2523921 0.052708864 0.13770132 0.07683956 0.21376133 -0.047559187 0.17003259 0.1157272 0.14231421 -0.11496373 0.067901336 -0.2471093
jan -0.047012046 0.064311236 0.062863395 0.08036338 0.2265141 -0.2364778 0.12380282 0.1208285 -0.028504992 -0.09896137 0.19264375 -0.13329916 0.14869523 -0.0038202037 0.19290283 0.0048482185 0.18257144 -0.05998049 -0.37956336 -0.1792912 -0.041930366 0.050168227 0.51276344 -0.14405487 -0.15682958 0.12674981 6.14076e-05 0.15612707 -0.07054816 0.0016974636 0.065840155 0.05207094 0.2062873 -0.09662788 -0.220325 0.38094792 -0.07148677 -0.3504682 -0.4886676 0.10325189 0.18189807 -0.10313206 0.2117959 0.034649424 0.3733613 0.13778457 -0.0015723429 -0.26064017 0.013665629 0.04639749 0.34488687 -0.24340451 -0.23101187 -0.16305192 -0.084161505 -0.09954528 0.27844664 -0.031083541 0.19333799 0.075212106 -0.00227463 -0.07512367 0.31066358 -0.086115696 -0.04454512 0.20957965 -0.14575782 0.21001397 -0.33299002 0.058163088 0.04319153 -0.18926166 0.108728044 0.26861116 0.023721341 -0.14869444 0.26386127 0.017382402 -0.0766661 -0.10075136 -0.38676953 0.06729089 -0.30055034 0.094271444 -0.14805342 -0.0035576362 0.07657289 0.19265059 0.20516808 -0.026766365 0.06767253 -0.07838915 0.0051718466 0.008836526 0.35876742 0.017194467 0.050540872 -0.14610364 -0.1761953 -0.20237249
ni -0.053979322 0.014633601 -0.05618267 0.17391446 0.20880495 -0.30495226 0.08838702 0.49003223 -0.1701949 -0.24841781 0.094711274 -0.04103676 -0.037793078 0.26288015 0.23777865 -0.0051979087 0.21131733 0.042576827 -0.069912866 -0.42126882 -0.0006148371 -0.09512825 0.47628516 -0.056481164 0.22662221 -0.09000615 -0.19346344 0.07316158 -0.27286306 0.015306222 0.22738215 0.058191374 0.07031482 -0.24709737 -0.06359486 0.142041 -0.22344828 -0.28209373 -0.067527175 -0.06549234 0.07721835 -0.230412 -0.18942964 0.0753112 0.4379643 0.04865762 -0.08474613 -0.24982792 0.05092051 -0.101288944 0.32302442 -0.040230025 -0.09586824 -8.359812e-05 0.11559724 -0.072752476 -0.013358633 -0.11719501 0.072559744 -0.03083168 0.023411296 -0.30340633 0.15888575 -0.009249659 -0.2689268 0.39063278 0.052767005 -0.009941917 -0.24434471 0.3771256 -0.116629444 -0.019470125 0.10862143 0.027596863 0.03431749 0.1147398 0.050210223 0.13040572 0.11475029 -0.15300667 -0.05944396 -0.25221294 -0.1268089 0.16897212 -0.0962395 0.13230005 0.21406159 -0.08621053 0.016891608 0.047533996 0.0981465 -0.2636567 -0.121954195 -0.04016904 0.15036833 -0.05168094 0.02288335 0.027809955 -0.18992807 -0.22662513
pi -0.13419126 0.19120122 0.04248868 -0.017827533 -0.112059936 -0.26865357 0.029271184 0.3620282 -0.25664783 -0.39631826 0.079948924 -0.03017473 -0.003580363 0.0401381 -0.024044737 -0.08098691 0.11935951 -0.10145156 -0.16293347 -0.3303587 0.018841377 0.08422081 0.21149884 -0.07780948 0.033912472 -0.19440486 -0.04770298 -0.21949145 -0.23721449 0.27070284 0.18587294 -0.09721681 0.067431785 -0.2935641 -0.05490547 0.25325537 -0.096632235 -0.071001105 -0.096547656 -0.16506492 0.058348462 -0.26413387 0.019545631 0.09061024 0.10405295 -0.15032865 -0.1161322 -0.14230143 0.04518128 0.018605975 0.096000865 -0.1395015 -0.16290414 0.061524954 0.10108956 -0.018188354 0.17415935 -0.069930404 -0.15004286 0.032721866 0.15536673 -0.20514995 0.22460103 -0.2704932 -0.17552751 0.29401046 0.15774667 -0.09271667 -0.22736174 -0.05529872 -0.103296116 0.15464383 0.109089926 0.11667526 0.18612134 0.39311627 0.0035239665 -0.08208396 -0.27642298 -0.044943467 -0.036135927 0.078925565 -0.0081409365 0.042212036 -0.07832601 -0.026265865 -0.07391319 0.14090846 0.13726406 0.08024356 0.34667608 0.05914895 -0.20905912 0.008256195 0.18383932 0.06736733 0.060489155 -0.20316969 -0.08674518 -0.24071111
mi -0.10269389 -0.036985803 0.19836473 0.06665778 0.23552789 -0.41309148 0.120803334 0.34583592 -0.11004073 -0.31645072 0.16011898 -0.07223635 0.13716215 0.17877305 0.1180625 -0.050416335 0.27521074 0.0002631894 -0.077616185 -0.5954387 0.13030353 0.023277683 0.5107716 -0.26269215 0.14187078 0.13391267 -0.27819955 -0.030234165 -0.33094114 0.05502671 0.2603414 0.0633035 0.008541602 0.011013572 -0.18369457 0.18955249 -0.28751743 -0.2504765 -0.15379636 0.026898185 0.1831662 -0.15988111 -0.05921651 0.023428762 0.12504682 -0.16034478 -0.0335865 -0.43828538 0.07126961 -7.4379415e-05 0.19152944 -0.24333404 -0.09791542 0.14716294 0.04778048 -0.06272903 0.054804787 -0.2976179 0.04373597 -0.11595329 -0.066171125 -0.36206517 0.26967615 -0.1077622 -0.21080282 0.51637274 -0.118087575 -0.27144906 -0.30708346 0.17391306 -0.060212202 0.1413604 0.041474238 0.12680757 0.123157375 -0.052641224 0.17552012 0.012317758 -0.07035856 0.01692755 -0.08565724 0.041826062 -0.15817298 0.26408648 -0.111058064 0.0815249 0.08626751 -0.06769521 0.028956817 0.095752455 0.23262288 -0.13811293 -0.058698457 -0.18910956 0.0510674 -0.081530616 0.15990555 -0.11397623 -0.21048081 -0.022800392
la 0.13072963 -0.011933986 0.18158546 0.16805302 0.03439258 -0.25254682 -0.009627837 0.41826424 -0.21925494 -0.31338382 -0.11438314 -0.12900007 0.06726225 0.027667625 0.22891955 0.0027120167 0.18428361 0.086831994 -0.13435197 -0.5851449 0.1869174 0.07163513 0.21269864 -0.59243995 0.14053431 0.14434601 -0.3670422 -0.0451379 -0.1458798 0.27104548 -0.09212418 0.0069213402 0.038762566 -0.28204733 -0.16522829 0.14591734 -0.22578643 -0.19653413 -0.06338359 -0.21928495 0.09110461 -0.14190504 0.017931731 -0.014669972 0.30273888 -0.17341743 -0.37881684 -0.18540949 0.10348324 0.044767205 -0.10565469 -0.08101356 -0.016066771 -0.08720079 -0.08232314 0.15156344 -0.004005565 -0.041837916 -0.10036856 0.38319513 0.17088373 -0.2076488 0.030421734 0.021497682 -0.0642359 0.33596992 -0.27690098 0.061637286 -0.014190078 0.05667598 -0.10537129 -0.007542621 0.078453265 -0.12288292 0.11791931 0.13248841 0.38598272 -0.16468388 -0.066046365 -0.19330385 -0.15301234 -0.14754304 -0.25912032 0.20742789 -0.12712026 -0.011290657 0.24816531 0.010348503 0.35314885 0.050935 0.06137752 -0.16502048 -0.096541464 -0.062293127 -0.029602965 0.063396454 0.0064587793 -0.23216729 0.058584224 -0.08475796
toki -0.17185682 0.13173962 0.11052157 0.3550861 0.19305453 -0.3427612 0.28086212 0.25228292 -0.27487084 -0.011872942 0.26146924 -0.111378305 0.325586 0.09602468 0.42351678 -0.028089037 0.0048559415 -0.10974074 -0.18644795 -0.56559724 0.40596578 0.21973315 0.30184892 -0.062360577 -0.018289087 0.16201328 -0.35741013 -0.028415985 0.09761126 -0.22180498 0.09712719 0.28494015 0.2691805 0.07214953 0.10890376 0.26240557 -0.21483257 -0.10222502 -0.21553764 -0.14737114 0.15204646 -0.055633005 0.25505966 0.40383556 0.22580701 0.04511224 -0.20428076 -0.28800774 0.0040137665 -0.050904226 0.3550297 0.15952227 -0.07303078 -0.3419306 0.23674504 -0.36578727 0.05521055 -0.08901266 0.23211351 -0.2754249 -0.21369109 -0.11486343 0.111739285 -0.10278885 -0.22697258 0.24955249 -0.15463649 0.21420135 -0.45283034 0.11185606 -0.33928898 -0.0489338 0.12364754 0.17739028 0.07009081 -0.21111137 0.28886527 -0.13960958 -0.16088568 -0.014969915 -0.34673074 -0.09440659 -0.14913546 -0.012656294 0.008818006 -0.06412402 0.22645469 -0.097735845 -0.037277937 0.16943811 -0.06216604 -0.28208715 -0.11108312 0.091498576 0.30270013 0.14762984 0.14151831 0.26613796 -0.27248448 0.007822849
ona -0.08391152 0.02849969 0.085995406 -0.007942475 0.07398236 -0.35342214 0.101582035 0.517488 -0.048414476 -0.32811978 -0.098965116 -0.20981856 -0.08334703 0.25661793 0.12088331 0.014075447 0.05792234 -0.093574084 0.0004546482 -0.4880102 0.13492747 0.10429929 0.38187507 -0.15755935 0.1950792 -0.13995555 0.03424939 0.07513203 -0.15126838 -0.03324029 0.38544407 -0.0069877896 0.21692143 -0.05233589 -0.36459196 0.26103035 -0.12019031 -0.13558094 -0.19198318 -0.012917842 0.25958794 -0.022780962 0.025538396 -0.2899737 0.18023677 0.05483847 -0.20833494 -0.33218825 0.14670885 0.20070143 0.09556947 0.05255242 -0.23478802 0.14073765 0.16202867 -0.21585803 -0.0070242705 -0.16314496 0.09376466 0.016729023 0.051802054 0.053240314 0.3422437 -0.19421537 -0.23659238 0.1659533 0.19175841 -0.17176652 -0.18139102 0.16535705 0.21483813 0.15203957 0.024666667 0.00056719314 0.35495907 -0.06650383 0.25793818 -0.041404422 -0.08625414 -0.027846007 -0.09769663 -0.08973626 -0.2694903 0.30936754 -0.016870873 -0.122830905 0.08204942 0.005234696 0.09885662 -0.033465363 0.045935642 0.08034667 0.030366596 -0.12041456 0.14659955 0.02761801 0.013370679 -0.15800086 -0.017233757 0.026148945
tawa 0.07736816 0.002477394 0.047634304 -0.065552846 0.021792559 -0.31547064 0.025543164 0.39931774 -0.09429331 -0.1618839 0.12118561 0.017418923 0.051715862 -0.011056017 0.25500417 0.04840335 0.15700856 -0.03353432 -0.275814 -0.57234234 -0.13128373 0.15878956 0.29727814 -0.3044066 0.13375017 -0.0025577259 -0.1880368 -0.020760896 -0.09088745 0.34366253 0.18662293 -0.095513016 0.2053848 0.019791177 0.05101567 0.28301778 -0.014257278 -0.07818511 0.14762186 -0.16530676 -0.061388902 -0.29509634 -0.13151427 0.23189189 0.07908511 -0.08156184 -0.10333723 0.094594315 -0.1561587 -0.04665143 0.14629656 -0.027932735 -0.34034312 -0.071585484 -0.017075626 0.14904518 0.030788913 -0.16514283 0.1337283 0.15802404 -0.0014129175 -0.17673656 0.23204714 -0.11436252 -0.20720488 0.34151974 -0.060738254 -0.0995182 -0.29999334 0.15208277 0.10245268 0.09046819 0.01939171 0.35867888 0.06813841 0.08822434 0.050973095 -0.22242694 -0.15963529 0.07107835 0.0700283 0.051532503 -0.13624716 0.19148399 -0.14359295 0.09446408 0.07839597 0.017693361 0.19949876 0.15575399 0.20715897 -0.10613185 0.1319461 -0.00894825 0.055631705 -0.22472616 0.28862652 -0.15179312 -0.056088828 -0.3118025
, 0.09255807 0.060441297 0.24989218 0.10772088 0.06918832 -0.39367163 -0.09441515 0.4422554 0.029432898 -0.26607442 0.14796795 -0.13945614 0.008776188 0.07936889 0.24282522 -0.17393261 0.12601976 -0.2247927 -0.11966213 -0.3513185 0.011837793 -0.07059726 0.21588962 -0.43712872 -0.05476298 -0.060692288 -0.3983407 0.17678623 -0.09227062 -0.019824248 0.17248726 -0.14620058 0.11921885 -0.0041714637 -0.06282322 0.08097678 0.2350072 -0.19898659 -0.37717623 -0.29470608 -0.23948659 -0.15544431 0.08448296 0.006105235 -0.043100998 -0.07456248 -0.0821178 -0.2230654 0.063859075 0.19117886 -0.057043873 0.02010344 0.09667895 0.009487154 -0.029422147 -0.164679 0.14138304 -0.02760382 0.13541777 0.30701128 0.20094238 -0.052223053 0.12871793 -0.09929544 -0.18731454 0.34864554 0.1760607 0.09135997 -0.20492035 0.17694707 0.00093758566 0.16129214 0.12866472 0.12733369 0.30753058 0.15275508 0.30810422 0.14188072 -0.08070511 -0.20592822 -0.17127743 0.37282568 -0.22690801 0.2505696 -0.092233196 -0.013109992 0.02378638 -0.18382579 0.07248439 0.053359978 0.13068974 0.02343745 -0.00035490363 -0.0728289 0.042653285 0.021195166 -0.24546905 0.038170792 -0.1730425 -0.26235425
pona 0.033158097 -0.18533453 0.11330154 -0.16434474 0.255244 -0.22454725 0.032744586 0.4959859 -0.091013156 -0.13897458 0.03220136 -0.14227398 -0.22055957 0.08481396 0.23278752 -0.13722897 -0.006928725 -0.045670044 -0.036374997 -0.52399725 0.17106059 0.12434907 0.0757121 -0.07009129 0.027940737 0.1566925 -0.21892467 -0.29093742 -0.16694213 0.18691711 0.051448714 0.01496508 0.3374606 -0.17569084 -0.04830605 0.1568593 -0.33173776 -0.1497525 -0.10590437 -0.24821082 0.050715227 -0.16128077 0.036449954 0.1465176 0.08001881 -0.19170308 -0.036018185 -0.40300718 -0.040242676 0.21168616 0.17147069 -0.006966088 -0.26459265 -0.026434822 0.068818845 -0.1369249 -0.06707754 -0.2253999 0.15238166 -0.14305022 -0.03605241 -0.114819266 0.053661026 0.030307721 -0.32538316 0.43176025 0.17957063 -0.06008716 -0.3103052 0.41358796 -0.0063850638 -0.01995993 0.19523112 0.10539802 0.18400536 0.0008652571 0.21553765 -0.013296617 -0.24179031 -0.0031318024 -0.06849602 -0.19040263 -0.26103613 0.19451083 -0.13076492 -0.1603567 0.25162902 -0.06301362 -0.13284074 -0.0052673277 0.059123263 -0.08894063 0.055383187 -0.13822961 -0.119419836 0.026869906 0.029815616 0.05843712 -0.08563874 0.19025204
lon -0.17089003 0.3252812 -0.16113603 -0.058905248 -0.09829346 -0.3088149 -0.086675234 0.39304477 -0.11508531 -0.41024137 -0.196216 -0.100131065 -0.09214669 -0.0062346216 0.42203566 0.023226863 0.25810272 -0.057487357 -0.005889492 -0.48661023 0.14895433 0.14812657 0.14787808 0.09007005 0.1850007 -0.046550352 -0.29340777 -0.20668866 -0.041849297 0.26386788 0.34558105 -0.045677148 0.20583148 -0.26119456 -0.029941004 0.031235212 -0.14521249 -0.032261185 0.059287306 -0.22940691 -0.01951008 0.06116581 0.17505552 -0.008083569 -0.08627306 -0.09496657 -0.33473247 -0.18715067 0.12677856 0.1373172 0.112300135 0.07706418 -0.169738 0.020666303 -0.020829666 -0.0131993815 0.10365007 -0.09577741 -0.0822401 0.249351 0.2358311 0.023928158 0.16273014 0.008106105 -0.09923137 0.17614439 0.035456665 -0.048093826 -0.2898841 0.023590222 -0.086681664 0.20549323 -0.003574782 -0.058223065 0.27871844 0.17703004 0.24912107 0.05553249 -0.27848694 0.05650902 0.02661795 0.024998002 -0.055883374 0.34763396 -0.05495945 0.03436891 0.23007649 0.21181685 0.14067087 0.014728907 0.28372365 0.049410284 -0.059664704 0.08528842 0.13287455 0.0777774 0.239885 -0.06099636 0.024141377 0.011256297
mute 0.2643556 -0.008090233 0.090489075 -0.032221816 0.07525835 -0.37109837 0.05205597 0.34546778 -0.21286385 -0.29872742 0.13016462 -0.17632331 0.05619676 0.07868235 0.07659299 0.14230335 0.11678631 0.12248942 0.039100107 -0.34009245 0.20884392 -0.014194254 0.02290778 -0.14699821 -0.08070444 0.103718966 -0.13445552 -0.04846909 -0.11912845 0.073580466 0.19823493 0.027655961 0.2719159 -0.3475102 -0.19822523 0.06388691 -0.04295396 -0.00058706844 -0.18630163 -0.1385801 0.22196054 -0.16137454 -0.07221629 0.0007225395 0.14167245 -0.019519646 -0.17916729 -0.2599812 0.022890206 0.060344312 0.107998155 -0.071749866 -0.07943321 -0.33389863 0.16573384 -0.18977699 0.108599134 0.011996561 -0.03529442 0.106006876 -0.0005370396 -0.24608493 0.12539555 0.009456998 -0.16818967 0.4162212 -0.013564984 -0.034409817 -0.09004661 0.34182242 -0.21073319 -0.26249838 0.16581275 0.07857265 0.29739177 0.077954754 0.1408328 0.026847158 -0.208268 -0.011188848 -0.07625502 -0.03125296 -0.17844564 0.11657119 -0.156915 -0.14384572 0.22105116 0.060077462 0.18313009 0.079957694 0.26600048 -0.13953777 0.18720801 0.03104453 0.064334735 -0.12423584 -0.05759382 -0.061171725 -0.031052858 0.056939725
ala -0.041685514 -0.08825561 0.25806466 0.23667686 0.04842381 -0.2930619 -0.14407933 0.39801595 -0.15975058 0.020046799 -0.14809912 -0.16240536 0.13140532 0.36083543 0.11474609 0.059011064 -0.0083915 0.10545015 -0.04525265 -0.43218306 0.095854044 0.1279306 0.039365776 -0.16463278 0.21643865 -0.008156662 -0.1726579 0.17657706 -0.34146386 -0.10445683 0.15811327 -0.06675274 0.40942207 -0.11309996 -0.3683014 0.13769877 0.13165873 -0.25292373 -0.31424597 -0.089413725 0.0654409 -0.11422633 -0.0015243968 0.032804742 0.23356609 0.15561341 -0.45499697 -0.22983974 0.13575822 -0.044251222 -0.0033233261 0.13827185 -0.22862346 0.031150788 0.12237952 -0.087871276 0.21148033 -0.23929243 0.22850771 0.09152859 -0.07121377 -0.069632865 0.06938561 0.018294936 -0.35436568 0.37878814 -0.07654718 0.07368383 -0.16544065 0.459863 -0.0025961548 0.0063849804 0.16782488 0.18709642 0.4443646 0.00884548 0.35170028 -0.062030405 -0.16749041 -0.2071555 -0.11650505 -0.096478984 -0.15621594 0.31073585 -0.091937974 0.03137177 0.055930816 -0.017051864 0.2567486 0.15806267 0.180171 0.00605855 -0.0438644 -0.076545425 -0.02527506 0.17446329 -0.053288 0.047258805 -0.091788165 0.013139304
: -0.01737214 -0.023234308 0.113324314 0.054592043 0.25282076 -0.35252053 0.046038825 0.58052945 0.025381077 -0.08339709 0.039773595 -0.22721846 0.027528651 0.23961788 0.23989516 -0.007813693 -0.103075616 -0.20177862 -0.34354985 -0.61222947 0.08371169 0.25916326 0.25937608 -0.19502869 -0.055894237 0.20945708 -0.047713976 -0.07284907 -0.05013982 0.0579775 0.109860815 -0.22623512 -0.010894174 -0.07725079 0.09943887 0.20599432 0.15340737 -0.24406737 -0.30564424 -0.2902213 -0.025605544 -0.2970982 -0.08253491 0.30824476 0.24313186 -0.099538445 -0.13689841 -0.39272082 0.1098117 0.028745664 0.06786728 -0.2040969 -0.17052919 -0.038557205 0.054994572 0.07721353 0.09251761 -0.2739992 0.070375286 -0.035537064 0.074581675 0.005948104 0.14785115 0.16691065 -0.10332386 0.5044443 -0.14882173 0.22124806 -0.110004894 0.1687435 0.105276935 -0.006375765 0.18712638 0.2153791 -0.17414668 -0.065908745 0.34807804 -0.22315107 0.077425264 -0.22755028 -0.20588967 0.041922033 -0.29173058 -0.17643876 -0.06322273 0.11695203 -0.046780203 -0.1731686 -0.17120023 -0.012823888 0.365514 -0.12743542 -0.14293364 -0.00023701922 -0.055673257 0.259461 -0.14133604 -0.010098494 -0.2908844 -0.16149858
tenpo 0.1029838 0.14915916 0.14669164 -0.15445754 0.3447896 -0.43753943 0.2824632 0.37855372 -0.018505206 -0.509718 0.110962026 -0.13144635 0.3094562 0.069062226 0.42232275 -0.32923543 0.25969902 -0.14873843 0.11910323 -0.5405542 0.23505268 -0.04756701 -0.052346133 -0.29541817 -0.003801353 0.17556371 -0.35827178 0.038257834 -0.077559546 0.056743775 -0.04872431 0.12679741 -0.32996264 -0.32280076 -0.007190699 0.35663855 -0.34673944 -0.12641186 -0.044743866 -0.1445464 0.27269512 -0.26308247 0.21091692 0.04032413 0.09749601 -0.24642757 -0.20366035 -0.3394735 0.05745629 0.1202785 0.34949616 0.05536265 0.23434192 -0.12564959 0.048482712 -0.15584499 0.3252422 0.14966524 0.025535451 0.17854767 -0.056072608 -0.33219504 -0.08430207 0.06719543 0.08242605 0.394529 -0.042586148 0.012966085 0.020653175 -0.06770834 -0.07889905 -0.10346402 -0.043519642 0.17342949 0.38460472 -0.0015725569 0.31614587 0.43182614 0.2551206 0.25595886 -0.188809 0.35659224 -0.023111805 0.14853582 -0.0011098312 0.15711083 0.3604125 -0.042134073 0.20650557 0.16761886 0.37361416 0.0021621229 0.056537237 -0.17847711 0.10152586 0.18620324 0.06539945 -0.15993598 0.013053391 -0.040891856
kama 0.04721841 0.20227626 -0.1320653 0.0139998915 0.13898787 -0.36614028 0.043130185 0.3614036 -0.1476354 -0.20791066 -0.119720064 -0.1657915 0.16969775 0.055704173 0.33783385 -0.10062919 0.14849636 0.09662753 0.10067668 -0.41047373 0.13658534 -0.06830486 0.19056448 -0.27269924 0.13289106 0.13862173 -0.30866808 0.026493415 -0.10487339 0.08930512 0.2534834 -0.0070153796 0.0008346246 -0.14558274 -0.13671263 0.19343187 -0.0022359113 0.09727471 -0.07835569 -0.25986195 -0.005492713 -0.15928301 -0.016293233 0.06763171 0.093834914 0.13500395 -0.19653209 -0.087673694 0.15016618 -0.13752437 0.113781355 -0.08418382 -0.19310851 -0.04757415 0.086681016 -0.062346112 0.019015642 -0.23225176 0.094290875 0.045519393 0.03551496 0.04554433 0.28305522 0.0877068 -0.04675181 0.50396293 -0.07663902 0.03506288 -0.24080558 0.25051486 -0.060923267 0.08408014 0.11134874 0.2587288 0.19310883 0.14910555 0.02872597 0.19409244 -0.009054417 -0.26572928 -0.1270999 -0.044403594 -0.22595127 0.14501147 0.037628785 -0.054795638 0.25573438 0.12768191 0.23973952 -0.0018574746 0.25643423 -0.027794836 0.08336822 -0.00092257746 0.1689813 -0.18592015 0.10340785 -0.0094674155 -0.015313825 -0.19032018
sina 0.1452568 -0.14597894 0.17726567 0.12400204 0.18640575 -0.2918867 0.19900642 0.38772506 0.11721355 0.0138559975 -0.09132066 0.15649618 0.15953915 0.3032031 0.31966382 -0.017899636 0.2863932 -0.178952 -0.03153141 -0.5638477 0.06455055 0.09677847 0.3961769 -0.18930268 0.1234322 -0.0857515 -0.18409538 0.068498306 -0.19438915 0.18148212 0.3356315 0.10864805 0.18266463 0.0055706026 -0.5275161 0.21060097 -0.3745136 -0.21245524 -0.14908507 -0.24694589 0.06500378 -0.021337038 0.19516174 0.22491536 0.14633906 0.09293723 -0.22594564 -0.42423433 0.13200001 0.11136198 0.025203183 -0.13292581 -0.26418704 0.014801813 0.060513783 -0.049811974 -0.087496325 -0.30393323 0.09948711 -0.24350016 -0.049107358 -0.27479875 0.24389982 0.00881472 -0.31928515 0.4007952 -0.10220773 -0.070840135 -0.35537732 0.24923116 0.18497199 0.14056925 0.11378812 0.061438058 0.24507123 -0.17014632 0.29319882 0.1546193 -0.048360046 -0.06248862 0.12609746 0.16514932 -0.4651807 0.37509507 0.1714151 -0.12025186 0.1857157 -0.010691436 0.017145995 0.111039884 0.30116296 -0.09875736 -0.08954687 -0.15906562 -0.1503873 -0.050959237 -0.027391812 0.2912521 -0.036728933 -0.08723153
sona -0.011496242 0.021858308 0.001468775 0.23430824 0.15870656 -0.38284725 0.034455955 0.4676382 0.11770276 -0.22276051 0.29507387 -0.010763769 0.38951328 0.17152007 0.34883693 0.029250586 0.13848823 -0.07299759 -0.21100631 -0.5028989 0.022017352 0.30740792 0.27026764 0.048899285 -0.10511201 0.09838099 -0.24018972 0.12337018 -0.032636475 -0.0106176175 0.04619348 -0.021318141 0.19946308 -0.1688519 -0.0029722676 0.3110311 -0.323135 -0.23590809 0.035048 -0.18251775 0.25818774 -0.1337581 -0.04099032 0.19224596 0.19938123 -0.106932834 -0.40180033 -0.22966412 0.025992455 -0.25155398 0.22457378 -0.14607334 -0.019969134 -0.44357514 0.2953316 -0.10055378 0.071497165 -0.07506798 0.36350596 -0.054436684 -0.2185717 -0.29520604 0.22360428 -0.046522185 -0.34625462 0.4404939 -0.23279019 0.18023814 -0.35909718 0.1335998 -0.02466038 -0.013552426 0.026501346 0.16263488 0.12287967 -0.06456617 0.3430249 -0.08582772 -0.071274325 -0.06819151 -0.24593563 0.20872317 -0.2610576 0.13518709 -0.021273362 -0.01610232 0.31607267 -0.29145476 -0.13280644 0.41996732 -0.15551607 -0.4323569 0.11078299 0.014526455 -0.0022957816 -0.014323053 0.22169736 0.24127302 -0.108847 -0.117298596
nimi -0.12812313 0.03717833 0.20772232 0.48381892 0.017338047 -0.18464743 -0.00668347 0.24792488 -0.19035856 0.09487538 0.10199528 -0.20978555 0.087570146 0.33795187 -0.114825875 -0.19436747 -0.103735425 -0.39645508 -0.1532596 -0.09523065 0.43198356 0.058633767 -0.00546579 -0.28521392 0.11264739 0.028485801 -0.21410696 -0.15912601 -0.010299545 -0.3634107 0.19638124 0.19182552 0.5084265 -0.099383034 0.035364974 0.019461075 -0.19230208 -0.42188495 -0.35715714 -0.412384 0.08348644 -0.08914935 0.16266078 0.049295604 0.21796474 0.08366759 -0.084936254 -0.32604796 0.13132446 0.13168086 0.5594621 0.019312812 -0.18869402 -0.20374933 0.15923077 -0.2271995 0.25946233 0.13977192 -0.04318914 -0.029416513 -0.07824721 0.23280339 -0.11685693 -0.18207942 -0.13925387 0.05004021 0.34481195 0.19615002 -0.32757187 0.1356673 -0.32937276 -0.058986593 -0.0464858 -0.030980192 0.19466747 -0.29043642 0.4528629 -0.08833129 -0.10307832 0.05721718 -0.28019142 0.045925286 -0.060462087 0.12936531 -0.1432217 -0.03626546 0.37152267 -0.03134791 0.052511655 0.30716327 0.17977785 -0.14450099 -0.29829156 0.1575869 0.075801924 0.21986046 -0.1556321 0.30161828 -0.12323385 0.08117468
ma -0.18462428 0.16617343 -0.29759204 -0.07781739 -0.035070825 -0.1712342 0.12615986 0.23632896 0.005341284 -0.07758294 -0.26234728 0.046662543 0.055390958 -0.086327344 0.47441623 -0.11565041 0.13465449 -0.035146993 0.056859445 -0.084634125 0.23691998 0.19034758 0.16561759 -0.07254003 0.3148605 0.06394514 -0.34055796 -0.24774578 0.05498602 -0.024741305 -0.13789937 0.31424668 -0.011492538 -0.46807882 0.0061381008 0.51290673 -0.17432332 -0.032717645 -0.24857387 0.14671464 0.20733003 -0.108740084 -0.093171984 -0.25198308 0.27675575 0.09250684 -0.30234587 0.19419564 0.0127140125 -0.038884915 0.6240569 -0.108186744 -0.58479375 0.071615815 -0.15544358 0.09407241 0.12683083 -0.27580595 0.18203709 0.15437067 -0.14555942 0.080094315 0.22333898 -0.14509684 0.20813446 0.292715 -0.36078322 0.20723076 -0.27602023 0.059543975 -0.02130123 -0.04636108 0.017376257 0.31878093 0.14753354 0.011388919 -0.0662771 0.020547498 -0.03500214 0.12989382 -0.322631 0.053829037 -0.06897396 -0.026457788 0.13044953 -0.15208082 0.71782327 0.31686106 0.21835074 0.05427394 0.3986308 0.021425378 -0.09019581 -0.102307476 0.49093232 -0.048413906 0.14589328 -0.07701384 -0.037724346 0.029052047
ken -0.08479513 -0.16665243 0.07979244 0.17553607 0.020964956 -0.31815764 -0.056944806 0.5194538 0.01840417 -0.24551564 -0.008745351 -0.14208668 -0.013902381 0.28670803 0.34063336 0.000385357 0.3048688 -0.15868358 0.04300673 -0.49641037 0.109399475 0.045638427 0.42649776 -0.12793213 0.20264956 -0.12557065 -0.16324647 0.23488182 -0.15643859 0.13473716 0.49794638 -0.081470296 0.28472638 -0.19668016 -0.24884792 -0.11993509 -0.03228023 -0.13214387 -0.077214815 -0.2501066 0.018775653 0.017021395 0.066599585 -0.104401834 0.008550933 -0.14922658 -0.3583627 -0.24913995 0.054792102 0.06899465 0.02101874 0.09376483 -0.06510087 -0.021429898 0.08396334 -0.010557652 0.13964902 -0.10245129 0.08719587 0.24808416 -0.013461286 -0.16016547 0.2925962 0.0626544 -0.4695139 0.3418452 0.0413697 -0.02829934 -0.22190423 0.44757465 0.11077355 0.19741145 0.11924414 -0.13698916 0.4054313 -0.1379722 0.3572597 0.033874355 -0.10990354 -0.12589815 0.010995635 0.06831216 -0.26022097 0.3891259 -0.053391274 -0.15211979 0.08206194 -0.105604425 0.0013141552 0.09452241 0.15897256 -0.14558125 0.10299828 -0.1575343 0.041663192 0.05433806 0.04277388 0.06999986 -0.11194038 -0.0054384307
lili -0.03231281 0.0016399196 -0.034818884 -0.0852647 0.029352138 -0.48476294 -0.0988792 0.5235902 -0.07530024 -0.37864155 -0.010164988 0.0062666377 0.052777044 0.21138933 0.25916103 0.034698274 0.037185334 0.022779139 -0.15904883 -0.4077433 -0.12960485 -0.0045083673 -0.13168533 -0.075904205 0.06754367 -0.09788026 -0.1558542 0.04341767 -0.25319192 0.11312759 0.18233253 0.054084092 0.036984425 -0.11532027 -0.08767237 0.011740486 -0.034164328 -0.10457575 0.034150068 -0.046847202 -0.028192455 -0.09688297 -0.04450125 -0.06945323 0.19256625 -0.06287902 -0.09412188 -0.14101604 -0.007331839 0.024225159 0.050517347 0.080212936 -0.0850074 -0.23214196 0.36073107 -0.057093 0.22954632 -0.012409383 0.114480846 0.30752218 0.088171676 -0.2964286 0.1842345 -0.1858614 -0.25943846 0.27621415 0.11303968 -0.071528785 -0.17080645 0.29309186 -0.034789864 -0.19874035 0.036545075 0.06693266 0.1875125 0.17406736 0.13100842 0.046952367 -0.23279017 -0.13520236 -0.027697993 0.13468122 -0.1363806 0.2712738 0.063762546 0.14643875 0.0028830403 0.18758354 0.2213222 0.033335377 0.21962772 -0.17151853 0.17020224 0.12049717 0.1433338 0.008357528 0.20744419 -0.17610383 -0.13841996 -0.22088559
pali 0.2093501 0.12752028 0.04591857 0.03958816 0.06980646 -0.34210575 -0.104365006 0.6122856 0.059170697 -0.28056982 -0.014089149 -0.102081805 -0.008842058 0.15593141 0.431548 0.073888384 0.0705427 0.073241085 -0.106408685 -0.6088725 -0.0546746 0.12497815 0.37335107 -0.18173598 0.092144854 -0.07781235 -0.32016906 0.054697305 -0.06287141 0.042960815 0.13391945 -0.044670824 0.19102545 -0.21598504 -0.039596297 0.03526818 -0.123396866 -0.17994113 0.093737714 -0.20893674 -0.015275454 -0.13311704 -0.17442726 0.12993453 0.06214271 -0.0039627496 -0.19332212 -0.15383151 -0.009438242 0.06161084 0.033407357 -0.012160568 -0.14525655 -0.31872293 0.35568953 -0.08081018 -0.00046979453 0.00092708436 0.07444606 0.11045414 0.060479894 -0.12636158 0.1389164 0.013099499 -0.11591338 0.31590948 -0.07409082 0.17492023 -0.3002445 0.19067393 0.021855347 -0.042829473 0.19029398 -0.015105279 0.08964875 0.03951818 0.20815845 -0.05490773 -0.041270092 0.047755025 0.005970889 0.09134577 -0.31642753 0.307358 0.084615946 0.051991373 0.28354985 -0.09738042 -0.0038279174 0.14651923 0.0079121515 -0.27723008 0.23039128 0.06751487 0.06182209 0.22657715 -0.054422706 0.24088246 -0.1384802 -0.18491678
o -0.06406557 -0.16828503 -0.22649601 -0.051191103 0.26789394 -0.28102922 0.40178052 0.19722313 0.0016044438 0.14028253 0.27606484 0.09050367 0.017642254 -0.005306364 -0.07842682 0.06349481 0.43109947 -0.20989907 -0.28156912 -0.57234794 -0.044396568 0.19927828 0.36454743 -0.46882147 -0.14334129 0.045770254 -0.022355204 0.014195309 -0.3857466 0.12076993 0.37989572 -0.1982527 0.20421247 0.13502337 -0.28153157 0.31515625 -0.18975432 -0.02119056 -0.041381534 -0.22150005 0.2967024 -0.18748201 -0.25172836 0.099438965 0.0038040394 -0.122104496 -0.15058528 -0.0552428 0.27034858 -0.04261407 -0.06114421 -0.2999953 -0.09057232 0.33387405 -0.19263627 0.33766803 0.27853915 -0.33253595 -0.11554693 -0.1733273 -0.03772672 -0.28812978 0.24585667 -0.2500589 -0.39020848 0.6417235 -0.041962627 -0.22907129 -0.34517127 0.061614048 -0.17155957 0.07978762 0.14374414 0.17466901 0.01717004 -0.2724892 0.37531507 0.07433165 -0.31771553 -0.12442234 -0.043211937 0.36906278 -0.1805276 0.27509525 0.03722742 0.032680325 -0.0129187135 0.2352142 0.039073415 0.07023605 0.12389251 0.12791899 -0.18184394 -0.14405252 -0.10955261 -0.07693384 0.30203208 -0.09647493 0.19988249 -0.13366498
wile -0.0400355 -0.09671401 0.07050725 0.21009348 0.29214928 -0.41399783 -0.1597906 0.4596942 0.02122091 -0.106294446 0.13157658 -0.15683778 0.20121747 0.24602434 0.24468271 -0.0754214 0.10241577 0.0031387173 -0.20660129 -0.4019061 -0.02106491 0.15034957 0.26012546 -0.08345366 0.19636151 0.13276294 -0.2824119 -0.073112406 -0.26328093 0.12516642 0.09570849 -0.07969201 0.1993906 -0.13313028 -0.23170117 0.07035988 -0.2286388 -0.10621834 0.03620156 -0.075746894 -0.00841882 -0.124114245 -0.085334554 0.011276802 0.14087074 -0.096715085 -0.3960274 -0.17191441 0.001563246 -0.15978752 0.15561996 -0.28530112 -0.14199293 -0.21656655 0.27270737 -0.02677533 0.18669994 -0.18179296 0.19569378 -0.023099849 -0.14480785 -0.33128047 0.14598347 0.004769153 -0.24712908 0.5375126 -0.16098887 -0.05904522 -0.26059917 0.3302382 -0.08728915 0.02889893 0.114544526 -0.08756579 0.13919444 -0.07091308 0.3101729 -0.06146811 -0.07363106 -0.17339733 -0.096700445 -0.10982733 -0.28590712 0.23810814 -0.01828819 0.09085333 0.042170282 0.006661686 0.061921008 0.21356574 0.18213971 -0.22705814 0.06455923 -0.09370268 0.11040308 0.10855809 0.16527456 0.15975496 -0.2952412 -0.14564955
suli 0.18388198 -0.034162693 -0.058408633 -0.03271467 -0.052832995 -0.24841896 -0.011155799 0.38290554 -0.05404714 -0.26260027 -0.15901296 -0.038802564 0.02501328 0.117961 0.14769128 0.15187043 0.10488007 -0.048155855 -0.049085982 -0.36113778 0.22659846 0.16189907 0.23329306 0.16516761 0.21217588 -0.05053285 -0.24376674 -0.1942704 0.03246064 0.33567855 0.1525839 0.019494172 0.2822464 -0.46527806 -0.12483762 0.2166255 0.024535581 -0.056314357 -0.14452139 -0.11512126 -0.093108654 -0.016755393 -0.018809337 -0.17014225 0.15547279 0.062299304 -0.3294939 -0.071225666 0.03588712 0.07721838 0.029078936 -0.14068921 -0.31885782 -0.044939607 -0.04288393 -0.12502325 0.023094745 -0.017606976 -0.03834168 0.41499504 0.18001632 -0.07974062 0.105962954 -0.046350144 -0.10725949 0.25844538 -0.050832976 -0.003307863 -0.20556347 0.19213639 0.03464654 -0.0011763322 0.1594589 0.06503633 0.20364249 0.09576418 -0.14967173 0.11320244 -0.19942531 -0.035649028 -0.032450136 -0.13970275 -0.30330116 0.1834663 -0.20017946 -0.021617644 0.47155106 0.10884809 0.15005966 -0.066961914 0.3076498 0.13952456 0.06188145 0.020894842 0.08142597 -0.21637693 0.05366048 -0.062961705 -0.042093746 0.009897767
tan -0.04363343 -0.12181471 0.025286332 -0.030498387 0.10375992 -0.12575494 -0.11107335 0.23380136 -0.12775373 -0.046688024 0.0002444699 -0.071161896 0.091440745 0.18824153 0.31226054 -0.16265936 0.18405156 -0.2569555 -0.30760992 -0.5760989 -0.034367 0.17193444 0.17432055 -0.14674315 0.22732124 0.19650947 -0.05434923 0.0063905152 -0.09919303 0.17401294 0.00053382746 0.11914095 0.023804108 -0.117538035 0.072800286 0.069207124 -0.22915971 -0.3474445 -0.057933297 -0.11374865 -0.23230213 -0.19828455 0.06436175 0.074123584 0.18622968 -0.17220089 -0.27917024 0.1453345 -0.094674975 0.045559112 0.27912983 0.008832688 -0.45102915 -0.101879396 -0.08716702 -0.15540142 0.19819991 -0.07305214 0.0771214 0.3184574 0.17177871 -0.2766662 0.2687877 -0.01629749 -0.07691045 0.29392332 -0.022061642 0.154721 -0.37720162 0.264449 0.04808585 -0.017143946 -0.058306318 -0.10837995 -0.0025344705 0.033595886 0.2663278 0.15803823 -0.030430749 0.058032703 -0.113248274 0.029253015 -0.36468753 0.15774529 0.062352072 0.1811208 0.21200463 0.18267618 0.08840679 0.05200054 0.31363696 0.09182049 -0.07045982 0.101898566 0.28513736 0.32209215 0.23913515 -0.20228018 -0.124535255 -0.09259016
taso 0.005144295 -0.10819664 0.064789936 0.24880691 -0.063699886 -0.28846264 -0.036736403 0.44446352 -0.2006611 -0.19472241 -0.039320722 -0.27547923 0.010297161 0.21935098 0.19505629 0.042715933 0.11716791 0.039888207 -0.15332331 -0.25606653 0.28831348 -0.013585889 0.020645559 -0.29135898 0.24372803 0.02835862 -0.20324916 -0.048249155 -0.15083657 -0.0719567 0.15809631 -0.02646195 0.30447903 -0.44830605 -0.061567117 -0.15564132 0.03970311 -0.1076925 -0.14046422 -0.29256657 -0.065919876 -0.157907 -0.0013350686 -0.091080055 0.20588462 0.02954291 -0.27453637 -0.16655041 0.22061414 0.035648465 0.04359322 0.043822754 -0.10201155 -0.13112628 0.050319318 -0.048775412 0.22910191 -0.075919956 0.046870146 0.34879512 0.016428662 -0.11739503 0.06459697 0.010010466 -0.22183026 0.39235827 -0.047661837 0.090135664 -0.054929975 0.24990587 -0.15663317 -0.1327891 0.10280508 -0.064782634 0.1989253 -0.0063017616 0.4164272 -0.03536293 -0.1183306 -0.0923373 -0.08426901 -0.14217415 -0.1578068 0.12972611 -0.26276675 -0.11993973 0.12001373 -0.10155819 0.18356964 0.22077318 0.065634735 -0.15169562 -0.0023441021 0.0024274797 0.13359185 0.16876565 -0.08722214 -0.054185696 -0.06515896 -0.111104995
pilin 0.030674871 -0.12197063 0.28193495 0.28929448 0.3152438 -0.50451237 0.20688346 0.24138117 -0.10297453 -0.18679725 0.36614686 -0.214446 0.13043234 0.17305353 0.1816626 0.32147962 0.098538265 -0.1708683 -0.315091 -0.5463348 0.051734705 0.26150027 0.58179283 -0.35186648 0.41339514 0.24891894 -0.31142387 0.1551727 -0.08956819 -0.015397465 0.1594356 0.100030914 0.47879842 -0.099000536 -0.061893024 0.407163 -0.06378119 -0.34614557 -0.050534423 -0.19542612 -0.021543816 -0.3215313 0.10632657 0.24384145 0.47676426 0.12700123 -0.22247252 -0.11617639 -0.11644428 -0.05887658 0.18765557 0.18798201 -0.16517499 0.077119604 -0.15615083 -0.115703024 0.026705766 0.04012001 -0.04281862 0.04259911 -0.13485897 -0.13932896 0.037779048 0.17907481 -0.113512985 0.3108548 -0.14105043 0.036415968 -0.15821318 0.48257458 -0.2273692 0.1814034 -0.063421 0.032787953 0.20710857 -0.355239 0.121734075 -0.13677327 0.17367196 0.13734008 -0.08090614 -0.13112912 -0.11641016 0.015760008 -0.08549015 0.16589269 0.06298641 -0.0586768 0.083258085 0.13866395 -0.008154645 -0.1648214 -0.13590527 -0.09396425 0.1567038 -0.0032543947 -0.11649909 0.060298674 -0.31147578 -0.21825138
jo 0.076541506 -0.07348271 0.073526286 0.16767706 0.02480633 -0.36105537 -0.2111413 0.4357746 0.11337189 -0.577527 -0.085065775 -0.12741137 0.031004561 0.17205776 0.07290089 0.19313194 0.10964262 -0.13518009 0.08935156 -0.4312015 -0.022125384 0.26117995 0.28428742 -0.0095829945 0.21639393 -0.13249 -0.16412939 0.046836063 -0.13155274 0.24443056 0.36603248 -0.20753859 0.09537435 -0.22568716 -0.027259473 -0.024148453 -0.015590994 -0.078765154 0.25221634 -0.074106455 0.07388596 -0.2050461 -0.3486253 0.00019178353 0.06308012 0.09630353 -0.23757072 -0.2105619 0.21477701 -0.0027980655 0.14810973 -0.20231485 0.058656797 -0.22687392 0.2887127 -0.016985595 0.31217134 -0.01361226 -0.20952272 0.408366 -0.1503684 -0.06171254 0.114372164 -0.23885934 -0.15248242 0.30263433 0.09542108 -0.038808644 -0.2825895 -0.006606736 0.002580506 -0.041694265 0.25861067 -0.00031992473 0.1354804 -0.02821449 0.10565344 0.08519005 -0.19286977 -0.060169484 -0.063937634 0.093360245 -0.027543198 0.35200566 0.14468221 0.23460211 0.31581932 -0.046356343 0.17335194 0.079965875 0.2336543 0.033676732 0.16957644 0.14666265 0.04320967 0.11872171 0.21930906 0.049356245 -0.0035371548 -0.28743187
ike 0.08904566 -0.1487706 -0.036940373 -0.029471973 0.24201263 -0.3515573 0.26187634 0.5922717 0.09907714 -0.16312063 0.0040032854 -0.04164622 -0.1821059 0.22238755 0.24592067 0.20247334 -0.010827416 -0.13467371 -0.17802168 -0.48635533 -0.12699537 0.19868036 0.19587666 -0.03993221 0.2460821 0.092651635 0.08025388 0.07822589 -0.23915085 0.15839408 0.16052936 -0.18447173 0.36876988 -0.4351724 -0.3880919 0.43330535 -0.299789 -0.20015015 -0.09869864 -0.2727944 0.051331617 -0.2527514 0.11966024 0.02997643 0.43391937 0.030760169 -0.33259913 -0.24327858 -0.13006698 0.10100807 -0.06592291 0.095100194 -0.2379009 0.07726359 -0.007202851 -0.058219638 -0.004675511 -0.23286073 0.09870474 0.16877466 -0.03168922 -0.18637441 0.16630678 0.2601395 -0.3172043 0.3580547 -0.113298714 0.123454295 -0.15733823 0.45827618 0.26364788 -0.024927823 -0.11584451 0.021454472 0.5307644 -0.32446828 0.07124772 0.043244183 0.15103143 -0.116198234 0.079489455 0.0846008 -0.14020571 -0.07100425 0.09715181 0.025607131 0.1118259 -0.017176647 0.0555999 -0.12721284 0.08900509 -0.24075216 0.17224802 -0.21607414 -0.040286273 0.15786633 -0.23086257 -0.28170332 -0.12677647 -0.026801705
ante 0.12892336 0.08783117 0.10151434 0.16438836 -0.047037013 -0.33873257 -0.108071074 0.54149497 -0.045017917 -0.19402912 0.12759562 -0.31394666 -0.030334767 0.14184414 0.10595172 -0.1348477 0.039517168 0.13690944 0.0024396465 -0.23577254 0.14737254 0.056664925 0.24699949 -0.029099895 -0.017322991 -0.11650226 -0.03790346 -0.20829096 -0.12255248 -0.055160303 0.067539334 -0.06416657 0.48313043 -0.26802438 -0.24572034 0.054793835 -0.13729365 -0.23277524 -0.086190104 -0.21167426 0.1867123 -0.019619238 0.02024994 -0.23123854 -0.049143676 -0.04054864 -0.28048596 -0.07399636 0.07908225 0.097175315 0.12287115 -0.2597025 -0.31339794 -0.2551211 0.27221233 -0.12239334 0.07704908 -0.08860886 0.31815776 -0.11324725 0.07864074 -0.015190636 0.23115893 -0.090739176 -0.11879178 0.33378884 0.07108072 0.1983281 -0.33939263 0.13998926 0.009615425 -0.007785942 0.22757901 -0.1051052 0.30808848 0.22583379 0.17157169 -0.051149826 -0.18417123 -0.02780873 -0.16097605 -0.06777815 -0.29617834 0.3845453 -0.06435014 -0.2766906 0.31655812 -0.10108621 -0.06241856 0.19031987 0.034741245 -0.07881476 0.116165355 0.044943105 0.2691266 0.092758246 -0.12151783 0.19675395 -0.117956 0.071227126
kepeken 0.25654697 -0.15635042 0.16354223 0.060938213 -0.0911075 -0.2927311 -0.025823636 0.50210214 -0.18335845 -0.33167034 0.06890428 -0.07426747 -0.11482265 0.2573132 0.16037133 0.101083085 0.024329672 0.022906287 -0.12241796 -0.41872105 0.16622299 0.1403094 0.20266844 -0.040881753 0.09407455 -0.22187579 -0.05430411 -0.0343596 -0.26252696 0.29045886 0.31542042 -0.036972154 0.37103337 -0.39781532 -0.07050914 0.009308427 -0.0768647 -0.105638005 -0.00041372693 -0.28587633 -0.15753828 -0.13878272 0.0150595615 0.18282597 0.04157211 -0.06066213 -0.02271542 -0.15218145 0.20470306 0.11052716 0.034477137 0.07258414 -0.15007934 -0.25467324 0.23232313 -0.21313925 0.022000741 0.13761805 0.086751886 0.08063356 0.03456158 -0.05363275 0.19936335 -0.16618513 -0.44018924 0.29206836 0.20981805 -0.028119732 -0.37144166 0.056639254 0.0034945675 0.057941943 0.1390308 0.011997369 0.1966966 0.22030881 0.059449747 0.01982433 -0.28988868 0.12658763 0.04358671 0.11869688 -0.19092433 0.30258125 -0.2137347 -0.09604705 0.14104913 -0.16536158 0.04726345 0.19016278 0.08080484 0.057393968 0.19979976 0.08635742 -0.008937394 -0.027776802 0.04789869 0.022537919 0.014449212 -0.22889069
nasin 0.023092056 0.18290143 -0.0073266593 -0.025129052 -0.07814957 -0.32695782 0.25128236 0.4155541 0.2030481 -0.030118521 0.27205828 0.046418652 0.111917324 0.02666163 0.27638206 -0.1045493 0.17946649 -0.14480898 -0.34093472 -0.23698145 0.12424834 0.12288508 0.16991876 -0.0796143 -0.02676768 -0.05952523 -0.27506548 -0.18005717 -0.23164739 -0.018975912 -0.119486354 0.02818609 0.30933717 -0.25662184 -0.015829332 0.21304102 -0.19933274 -0.21225832 -0.27215075 0.028575111 -0.2097412 -0.029611025 0.35438025 -0.034667097 0.2996303 -0.024263361 -0.10065632 0.1066891 -0.06331637 0.26825866 0.30985767 0.09141364 -0.51463675 -0.19723473 0.027521309 -0.26954553 0.15118833 -0.020952053 0.3000787 -0.11535747 0.10877727 -0.18528484 0.13143742 -0.18669483 0.16588496 0.3812511 0.11989003 0.3331907 -0.29875445 0.022049207 -0.034645967 0.23879632 0.112659715 0.045033358 0.1928849 0.0794054 0.26709187 0.01705644 -0.13380192 -0.08547557 -0.37160927 0.17969505 -0.30388936 0.13314243 0.28455782 -0.2302544 0.13334894 0.14940715 -0.2326365 0.075368546 -0.010094883 -0.0852089 -0.14142746 -0.056453824 0.3739578 0.117513664 0.17742628 0.29665655 -0.31330734 -0.15388389
pana 0.320811 0.0027585176 0.20884922 0.06685305 0.15259346 -0.40126503 0.17339005 0.39702117 -0.07849799 -0.32877672 0.19608267 -0.26852238 -0.1217325 0.12793748 0.16205162 0.0155888675 0.10007078 0.08486759 -0.1156384 -0.39930373 -0.09937262 0.053377792 0.4367783 -0.43193403 0.22192691 0.07749284 -0.22337838 -0.13471489 -0.3142191 0.10660009 0.14172749 -0.005516681 0.3179468 -0.27136958 -0.13338897 0.085887775 -0.057306167 -0.18956155 0.04146889 -0.24754503 -0.28774774 -0.13941841 -0.14210957 0.2125793 0.1033714 -0.011469879 0.23582058 -0.19922495 0.16477038 0.016502418 -0.17003466 -0.28545886 0.09915093 0.10410812 0.32682732 -0.058880087 -0.16798106 0.03595366 0.091331035 0.014822695 0.09465082 -0.25106 0.1665533 0.020320786 -0.42189857 0.4446554 -0.08254974 -0.06733339 -0.62560344 0.39746657 0.043532364 0.23087056 0.46781936 -0.1712062 0.01163689 0.08019688 -0.114976496 0.08260525 -0.15339795 0.05593718 0.079946 0.1876093 -0.42961136 0.18339092 -0.009361478 0.06271529 0.1401735 -0.13669822 0.1116486 -0.040011387 0.063913815 -0.05461378 0.22153744 0.058599055 0.028071906 -0.015949704 -0.1292558 0.20650029 -0.20159633 -0.41601768
sama 0.04962491 -0.005027949 0.08473129 0.119602755 0.15099616 -0.2018412 0.07242813 0.5240378 -0.25173312 -0.21841048 -0.049504094 -0.20597306 -0.15597685 0.21303369 0.03418748 -0.09071279 -0.1836431 -0.02567916 -0.14264265 -0.29067382 0.13626131 -0.078801505 0.00869776 -0.24396902 0.2821295 -0.1286672 -0.056169886 -0.107762046 -0.083101615 -0.030505896 0.03969548 -0.047149073 0.30157626 -0.17071056 0.025317252 0.03501153 -0.071652845 -0.26512688 -0.041339703 -0.36544773 -0.1709262 -0.1718537 0.058730427 0.11308752 0.1559383 0.030560847 -0.13969167 -0.1820679 -0.024021026 0.2564736 0.19502074 0.067059256 -0.20486867 -0.14555861 0.10002755 -0.11766464 0.24280594 0.107396156 -0.17177767 0.16577162 0.025999278 -0.0007676858 -0.0033575508 -0.13523293 -0.32719746 0.13776231 0.32054648 0.10592204 -0.24568878 0.17483176 -0.14328025 -0.04889201 0.073135436 -0.08831192 0.19849816 0.019515825 0.3083524 -0.026147945 -0.17728937 0.1658863 0.050760914 -0.048058365 0.026477462 0.11417715 -0.118640125 0.106449924 0.20282726 0.0062281946 0.13447206 0.03912683 0.07391626 0.04699631 -0.10706339 0.1539615 0.08300045 0.31944695 -0.023049746 -0.14490531 -0.054776784 -0.07714017
! 0.060866807 -0.0853948 -0.105642125 -0.16047312 0.09326947 -0.39456517 0.068772346 0.095104426 -0.35257462 -0.06639534 0.5152779 -0.3131294 -0.17481437 0.101396926 0.42064255 0.15379883 0.3880029 -0.14309439 -0.34535417 -0.49878615 0.077998795 0.21807253 0.45102578 -0.52400374 -0.200271 0.30451676 -0.038599737 -0.084745936 0.04453166 0.02682253 0.35534945 -0.22001259 0.3434292 -0.17328548 0.15636551 0.26955885 0.23104978 -0.024114378 -0.24332732 -0.40818933 0.04630635 -0.3548391 -0.18952073 0.39173838 0.08216816 0.12380774 0.059076853 -0.16887431 0.2969538 -0.065016344 -0.08862465 0.020057835 0.24422292 0.35821438 0.07554334 0.057420988 0.19412147 0.012231305 -0.10678015 -0.035605576 -0.04606391 0.004395625 -0.061428096 0.045992233 -0.23469146 0.7254159 -0.09918932 -0.06943549 -0.34731495 0.48775336 -0.17721748 -0.16579078 0.35369754 0.16938315 -0.07265825 -0.10524558 0.24669825 0.20658158 -0.20706566 -0.25247473 -0.3104628 -0.012127344 -0.43758425 -0.051778942 -0.018343246 0.026033144 -0.14644831 -0.0752851 0.22444616 0.17543745 -0.1061314 0.01713345 -0.067094535 -0.07699349 0.07491 -0.038627535 -0.18925859 -0.01926812 0.041003477 -0.2420153
tomo -0.16115531 -0.05046341 -0.17754622 -0.20899329 0.06481789 -0.52524525 0.10408254 0.13283914 0.17058933 -0.034820784 -0.11393869 0.23641771 0.23172604 0.044030044 0.26166123 -0.13929696 0.022110255 -0.006232256 0.009499322 -0.19873637 0.19997434 0.07973236 0.052557826 -0.0471196 0.26671124 0.10116582 -0.12868935 0.0029688687 -0.2271125 0.03126051 0.1739482 0.01839552 0.011945925 -0.23751014 -0.11926343 0.13841902 -0.015137132 0.18081692 -0.08901577 0.10873568 0.008415435 -0.014754382 -0.24357572 -0.14454298 -0.017849078 -0.050298773 -0.23292522 -0.07578699 -0.047966357 0.05229403 0.17697403 -0.35171884 -0.31315672 -0.006741899 0.23230311 0.24431793 0.15469146 -0.26980808 -0.1169754 0.18965615 -0.23694384 -0.12854153 0.029765435 -0.18202764 -0.2016942 0.6047065 -0.2998005 0.07199447 -0.230655 0.4127435 0.026249254 0.0031074286 0.26474494 0.4106261 0.24713713 -0.22841638 -0.11134932 -0.052153774 -0.28341746 -0.1877938 -0.19102684 0.37084723 -0.29569855 0.25019512 0.091077074 -0.0746735 0.39508876 0.1741157 0.29423806 -0.0963109 0.5671591 -0.13776267 0.3148617 -0.13707621 0.14860834 -0.09641048 0.288707 -0.009066459 -0.24969597 -0.07693203
ale -0.045363 0.35656494 0.1304206 -0.009713634 0.09558907 -0.37507257 0.050338242 0.42707253 -0.040712573 -0.31170028 0.004739399 -0.21126403 0.18306133 0.21172974 0.113248795 -0.25041538 -0.027675264 -0.10505976 0.0346591 -0.47809258 0.26522544 0.049234577 0.09120758 -0.22522664 0.12509672 0.02403623 -0.11900116 0.1166091 -0.15282115 -0.11484833 0.1530203 0.0047920938 0.19792934 -0.18204445 0.03932245 0.17896663 -0.13978094 -0.17314228 -0.18262535 -0.20669268 0.0050945585 -0.0052428925 0.14739634 0.05213854 0.23832509 -0.09786264 -0.12456192 -0.40163818 -0.026444068 0.06359231 0.16655456 0.1357829 -0.22812858 -0.14991707 0.18775555 -0.21634705 -0.023478149 -0.12189301 -0.01752983 -0.01436369 0.13143125 -0.015380572 0.051851187 -0.008436385 -0.10378963 0.23204997 0.03421137 0.019209294 -0.3547006 0.21424127 -0.18245284 0.33269817 -0.048028287 0.062832125 0.32625452 -0.064917654 0.2219396 -0.20666596 -0.14532131 -0.05587575 -0.15311176 0.10901491 -0.3046257 0.14931114 0.030486919 -0.110119306 0.22033781 -0.13231277 -0.030819833 0.056842484 0.16790195 -0.29294947 -0.1430359 -0.07195535 0.09821793 0.00043635519 0.008367939 -0.052584782 -0.13139105 -0.10449732
sewi -0.19539553 0.20825785 -0.39155623 -0.12890732 0.3216399 -0.342118 0.6211966 0.3497577 0.20712395 0.0011682407 0.27918804 0.0025488916 -0.18375728 -0.47608107 0.13709737 -0.18779032 0.0117001375 -0.094303906 -0.099354625 -0.16981663 0.22653987 -0.094396494 0.35407507 -0.25734544 -0.06581909 0.03398058 -0.10328848 0.032628864 -0.10115757 -0.104435526 -0.0060935398 -0.16297218 0.27512679 -0.024228185 0.10193827 0.5220472 -0.16084678 -0.24154815 -0.35037488 -0.16756281 0.068926886 -0.14019261 0.22082305 -0.1694656 0.42972556 -0.0918853 -0.22204608 -0.18498442 -0.28344244 0.2655232 0.25444266 0.10444799 -0.3404022 0.1923619 -0.44608146 0.2084625 0.058626145 -0.2969648 -0.03754165 0.13206565 0.1110117 -0.035846997 0.11160948 -0.1951691 -0.036562372 0.3457254 -0.14034477 0.29631838 -0.26380628 0.038556352 -0.46254036 0.15410402 -0.1306062 0.12615305 0.23307529 -0.10210307 -0.11686813 -0.12532464 -0.33522427 -0.33439982 -0.3892933 0.09057286 -0.141596 0.04425717 -0.12703349 -0.037535477 0.4094821 -0.0055500665 -0.047515616 -0.53600234 -0.17119424 -0.3221446 -0.41731232 -0.16794668 0.2543052 -0.335615 -0.06465862 -0.22532889 -0.24192737 -0.10878042
soweli -0.09426334 -0.2765347 -0.13166723 -0.098278135 0.2405379 -0.51333195 0.15696405 0.4595894 0.008687354 -0.12203165 -0.057390377 -0.11793347 -0.039331757 0.29901037 0.13601032 0.2505429 -0.13020132 -0.045500968 -0.11821793 -0.31494462 -0.1188229 -0.0020498561 -0.024917731 -0.20418252 0.19393753 -0.13655709 0.0689279 0.06724442 -0.10662875 -0.09067829 0.34056556 0.07415594 0.28562078 0.09715678 -0.25505522 0.153346 0.116250396 -0.09801528 -0.06304086 -0.065664425 0.31403434 -0.0856182 -0.2665668 -0.3058699 0.14302914 0.12815188 -0.22886887 -0.05494754 0.12466115 0.108277254 -0.051592603 -0.25097394 -0.0110716205 0.16881397 0.37347066 0.3847018 0.37936488 -0.109530985 0.17885184 0.3645083 -0.12791145 -0.16643558 0.33194804 -0.2515773 -0.41814435 0.18124525 -0.04205724 -0.10454828 0.046119858 0.20787975 0.13596986 -0.45834032 0.21272583 0.27299023 0.059417613 -0.20290355 0.18014088 -0.094279565 -0.26209804 -0.089618646 0.10833289 0.11735324 -0.20477335 0.2218046 -0.13902701 0.28949875 0.06383447 0.24692231 0.45677602 0.04511516 0.32752693 0.14178164 0.013518312 0.1708136 0.07978985 0.1290354 0.045962974 -0.23205866 -0.002811627 -0.1029509
telo -0.2790511 -0.19815816 -0.013753716 -0.07013898 0.18113141 -0.67952466 0.3082665 0.39504078 0.12760355 -0.33380312 0.045275353 0.050499305 0.12781322 -0.096588396 0.3009088 0.26232967 -0.006545821 -0.26561385 -0.01632146 -0.15227449 0.05315651 0.23702167 -0.15822197 -0.25484458 0.624896 -0.112022325 -0.29178283 -0.074662715 -0.20906104 -0.14040652 0.15716274 0.20358029 0.13695244 -0.027337324 -0.16722398 0.42048892 -0.010686867 -0.18971193 0.042621695 -0.24321464 0.2614509 -0.2755436 -0.23204984 -0.5285193 0.2087462 0.07410141 -0.091743276 -0.16303942 0.022179034 0.17055298 -0.06021526 -0.19629286 -0.34335768 0.3379349 -0.046996135 0.34957254 -0.027280299 -0.13885652 0.1885228 0.4777776 0.0476636 0.085770614 0.15839347 -0.21288249 -0.22172351 0.45500332 0.10036171 -0.031827006 0.18842188 0.40333998 0.21223603 0.029663576 0.21023716 0.28536272 0.26723742 -0.010662543 -0.13042414 -0.072071016 -0.096592456 -0.019640831 0.13486345 0.07849528 -0.12552711 0.4170489 -0.1800646 -0.0008254505 0.22824144 0.025397254 0.24705404 -0.21510452 0.16254516 0.17660111 0.034244273 0.021420779 -0.004772479 -0.05062623 0.03237006 -0.021107258 -0.083623014 -0.18331912
wan 0.29180473 0.13587552 -0.026014386 -0.25673407 0.2333518 -0.5951451 0.13460913 0.65216273 -0.116015404 -0.4370274 -0.1008255 -0.08923465 0.1085514 0.17959955 0.2534738 -0.023536047 -0.21678796 -0.008577393 0.1306501 -0.2735103 0.20466636 0.19470379 -0.009301205 0.024940705 -0.13005306 -0.10478896 -0.23908223 0.017597765 -0.15198117 0.15990789 0.12978116 -0.098649286 0.024318656 -0.010287842 -0.03906563 0.42735758 -0.122084625 0.05498027 -0.1933442 -0.05002706 0.07672691 -0.04796401 0.03762826 0.18905237 0.10362718 0.13428934 -0.2555447 -0.36044303 -0.117044926 -0.037030485 -0.089607574 -0.08749729 0.21738772 -0.44938916 0.3875027 -0.1910145 0.13463616 -0.024347896 -0.11495876 0.008898507 0.1677956 -0.29374883 -0.03499239 -0.2726969 -0.15020064 0.29552355 0.23926218 -0.0952261 -0.16292226 -0.06146655 -0.41176182 -0.021388216 0.05123642 -0.028799752 0.2692027 0.29999754 0.24130078 0.026813056 -0.2543918 -0.16190732 -0.12500562 0.097289905 -0.2718273 0.2214211 0.10036122 0.19871329 0.14783229 -0.013044608 0.055520866 -0.10969621 0.18779838 -0.099442534 -0.16719697 0.07824551 -0.064170785 -0.0038793595 0.02478647 -0.14912035 -0.09826706 -0.21876065
lukin -0.17509392 0.03734622 0.16811685 0.20987959 0.21776451 -0.28211468 0.15140401 0.4620197 -0.22945365 -0.24298343 0.042855628 -0.200705 -0.108715616 0.07253165 0.24682765 -0.01761439 0.11627609 -0.13715039 -0.026768187 -0.5697896 0.08357287 -0.031643324 0.3114429 -0.31904817 0.2416827 -0.108863205 -0.45019534 -0.028898647 -0.14828926 -0.13160972 0.24862126 -0.010644213 0.2516274 -0.11117558 0.025207995 0.02774848 0.15965167 -0.27060947 0.09410177 -0.37216613 -0.06393665 -0.0860219 -0.1890773 0.22061035 0.07088498 -0.03100509 -0.15595575 -0.23819092 0.18437618 0.0816289 -0.05682667 0.09183633 0.20013574 0.29164016 0.15490049 0.09075938 0.035162393 0.111277625 0.009743434 0.22256675 -0.13422522 0.047938894 -0.026185086 -0.037674826 -0.4224885 0.27794877 -0.05565596 -0.026331 -0.2802319 0.3295986 -0.07087983 0.27502334 0.25964096 0.13554743 0.12393789 -0.0664688 0.14741656 -0.038812354 -0.1100205 -0.069498464 0.16009948 0.12543243 0.023082947 0.23548761 -0.2955122 0.18719625 0.2435027 -0.21249504 0.09570202 0.21466477 0.081636675 0.008629668 -0.08280273 0.019166322 -0.074109815 0.035038542 -0.034086958 0.21354826 0.06797579 -0.21490401
ijo 0.056659978 -0.1895097 0.023057753 0.08910892 0.24481408 -0.40276316 0.1820207 0.46270558 -0.10692563 -0.15196542 0.07705377 -0.170889 0.20312177 0.14596741 0.16478582 0.089339286 0.1974466 -0.029555878 -0.18901587 -0.30020687 0.16745792 0.1301832 0.34967119 -0.19108757 0.29462638 -0.09068172 -0.22883679 0.01494953 -0.1952645 -0.029479729 0.12797159 0.15575698 0.21787828 -0.15800859 -0.34719938 0.14320306 -0.18467772 -0.21981147 -0.0855556 -0.15030006 0.18088421 -0.10658621 -0.11344683 -0.0018846049 0.15783206 0.029889783 -0.21392721 -0.26311 -0.06432773 0.00668736 0.109942675 -0.1594859 -0.11730103 -0.33623204 0.12686549 -0.16244034 0.10268676 0.074829176 0.077599436 0.029078543 0.010371317 -0.25076318 0.11185424 -0.22138746 -0.084258966 0.43834582 -0.00814368 0.07736737 -0.11055211 0.14286663 -0.14311703 0.033492338 0.18486395 -0.07172067 0.10719538 -0.08267273 0.2983131 0.037358597 -0.07876975 0.050228186 -0.03378193 -0.14197724 -0.27099472 0.21345596 0.053987328 -0.04016752 0.2387321 -0.08021035 -0.054886363 0.15237562 0.027082615 0.0027258948 0.12835878 0.004896155 0.21589296 0.11902106 0.01825244 0.29433143 0.0017720587 -0.1025232
lipu 0.22904877 0.21741143 0.15867858 0.041338198 -0.015052772 -0.47030184 0.14591786 0.41876194 -0.16027856 -0.26665908 -0.080455504 0.012501342 0.32390752 0.33849245 0.37169218 -0.1715209 0.095402464 -0.06670003 -0.13234332 -0.59111327 0.32220292 -0.23354767 0.038354326 -0.43319649 -0.13472691 -0.17679666 -0.23194832 0.22993033 -0.04123053 -0.31415132 0.16216841 0.29851812 0.070050985 -0.12742123 -0.05245978 -0.19097207 -0.2935986 -0.2009631 -0.24824026 -0.35090223 0.15038012 0.1197737 0.14980039 0.21937686 0.1985921 0.024123104 0.07046889 -0.45746487 -0.014020539 0.30559513 0.12995715 -0.11063314 -0.26810533 -0.5219968 0.35879204 -0.09452733 -0.1501101 0.055727214 -0.17711511 -0.07652075 0.116797544 -0.009092028 0.08616707 0.06675914 -0.034859207 0.15994743 0.17177449 0.25241485 -0.1669935 0.10151231 -0.1332866 -0.050039276 0.16822417 0.09952775 0.008788257 -0.1381058 0.376453 -0.24430573 -0.07997675 0.0037791932 -0.045565434 0.35139498 -0.39580876 0.32368332 0.0228494 -0.24491067 0.3657502 -0.14132948 0.06468431 0.2148818 0.24880075 -0.4326017 -0.13507383 0.16649531 0.019137941 0.19078514 -0.047246445 0.10931178 -0.061819695 -0.15119877
? 0.10388385 -0.20598297 0.11884467 0.17873763 -0.18519253 -0.31595865 -0.2297033 0.6045186 0.10163519 -0.20924987 -0.32672846 0.13086419 -0.39940405 0.3934678 0.5586017 0.15396933 -0.07854645 -0.5111541 -0.23887329 -0.3391954 0.10626357 0.4752503 0.49314865 -0.39785329 0.22744079 -0.028110825 -0.4723631 -0.22207731 0.21985109 0.16798608 -0.005678783 0.08720801 0.077807106 -0.29661998 -0.007275611 -0.02939861 -0.39558855 -0.23594277 -0.13460317 -0.2364964 -0.13981752 -0.25672597 0.10172098 0.16364297 0.594062 0.47911808 -0.34349984 -0.19471398 0.21979438 0.19411862 0.30893984 0.10832867 -0.29910368 -0.07432266 0.25360185 -0.01298735 -0.0570007 -0.32656974 0.15319361 0.11492623 -0.09893747 -0.025151907 0.14039284 -0.0036792534 0.19736116 0.43176344 0.1672252 0.079638995 -0.07004172 0.4408519 0.27635896 -0.25637448 0.085188486 -0.17140192 -0.19018039 0.04369386 0.46939987 -0.14186636 0.33360568 -0.26347783 -0.07787375 -0.004128742 -0.47215295 0.011207188 0.48574916 -0.17488603 0.2277148 0.28915265 -0.1873965 0.3712804 0.3169901 -0.4277432 -0.3395686 -0.3364402 -0.0398073 0.38520625 -0.034315083 0.13495539 -0.38904607 -0.21794808
ilo 0.31074643 -0.23747419 -0.26339266 -0.04180341 -0.23060544 -0.39342827 0.3583448 0.5293817 -0.14135984 -0.015709935 0.19139186 0.12701291 -0.084355116 0.3689484 0.11721265 -0.16925837 0.14086136 -0.091074474 -0.15659145 -0.217285 0.33254206 -0.041972354 0.025083285 -0.2691223 -0.0063985162 -0.33983442 0.09934632 0.03346226 -0.12975289 -0.022704283 0.40677047 0.21533413 0.2538333 -0.44900736 -0.057955 0.04781825 -0.11092567 0.16419414 -0.15885375 -0.2950785 0.30741933 -0.027955683 -0.06639588 -0.001649934 0.039828382 -0.05137249 -0.013460052 -0.041224554 0.13486922 -0.027673522 -0.13003105 -0.20298375 0.057314288 -0.4547607 0.5045476 0.13834968 -0.040311642 0.09971819 0.33088958 0.24460979 0.22880943 -0.44733202 0.29139015 -0.28707302 -0.2867673 0.15291505 -0.08879977 0.095768824 -0.39102748 0.010461385 0.00048499036 -0.16743739 0.12534933 0.23167102 0.15825176 -0.15015349 0.15323566 -0.103714466 -0.20741017 -0.12682249 0.17373051 0.34089547 -0.5900477 9.133818e-05 -0.16666421 -0.34292933 0.28679296 -0.2244895 0.1354191 0.18237872 0.19972013 -0.34191215 0.2016037 0.11531669 -0.023604754 -0.27438048 -0.102440916 0.009792501 0.22124457 -0.25101572
musi 0.3526487 0.09930726 0.257668 0.03539429 0.16749212 -0.44987637 0.12963529 0.6357946 -0.27742046 -0.2722247 0.3170167 -0.06408564 -0.123009056 0.34027284 0.27363154 0.16416341 0.030670604 0.18997662 -0.21612158 -0.617544 0.26698205 -0.049930785 0.31267002 -0.10334511 0.021373527 -0.04070463 -0.21537375 -0.15758501 0.10335141 -0.076150045 -0.09704334 -0.0056981533 0.511119 -0.4502951 -0.11124093 0.106927104 -0.20873977 -0.19808675 -0.032421242 -0.29119593 0.16456993 -0.1556676 0.26383692 0.08131758 0.1367493 -0.090524234 -0.18684536 -0.29980958 0.030975036 0.3524003 -0.08595937 0.00974203 -0.18347216 -0.034039654 0.2992848 -0.21698126 0.07807344 0.19679023 0.15017389 -0.20100774 0.01141189 -0.18824649 -0.13701984 0.17344908 -0.16881011 0.36153173 0.004806844 0.085096315 -0.10109327 0.30457097 -0.0040474785 -0.24696928 0.21924809 -0.02874812 0.27367684 -0.12814172 0.12052533 -0.04690384 0.063571155 0.28611875 -0.010467613 -0.12697226 -0.28248647 0.17636819 -0.2326996 -0.09144524 0.1169157 -0.14293057 0.042666223 0.3769093 -0.02160115 -0.2861345 0.1145161 -0.17852175 0.053136133 0.17409547 -0.17934656 0.014404159 -0.22329558 0.2247524
lawa -0.06328705 0.1028562 -0.20606737 0.23923297 0.05896738 -0.22831225 0.21844718 0.3754148 0.17633267 -0.23728651 0.0015174287 -0.010841241 0.19715174 -0.032411486 0.071915306 -0.08897301 0.102532335 0.028905679 -0.15760994 -0.21881936 -0.06386434 0.08385192 0.49617773 0.083214976 0.08653246 -0.10156396 0.075107105 0.115909226 0.025262654 0.12563357 0.14917004 -0.25580856 0.0976562 -0.29555193 -0.15923977 0.22080886 -0.16661818 -0.18938716 0.017364278 -0.08725136 0.034200124 -0.09930813 -0.13128753 0.07139822 0.17788842 0.078509964 -0.32877386 -0.21498877 -0.17022452 -0.114659004 0.36405295 -0.43574333 -0.27085522 -0.31222215 0.087912165 0.044119373 0.12915275 -0.23694074 -0.12205177 0.16393688 -0.18864694 -0.18881233 0.24806021 -0.10590578 -0.39240274 0.27889654 -0.1317056 0.28311846 -0.43951282 0.08286864 0.059069622 0.02764017 0.16790485 0.17639378 0.11786812 -0.12849267 0.019718645 -0.10235929 -0.23174934 -0.11742682 -0.112858705 0.26942137 -0.041550804 0.019908104 -0.0034753496 -0.054321125 0.39866695 -0.08043592 0.05015622 -0.15057127 0.16028574 -0.289143 0.14269881 0.06731117 0.33817825 -0.03192701 0.19599533 0.07023623 -0.1863133 -0.2863905
moku 0.23312289 -0.2503538 0.10670812 0.047018625 0.24064355 -0.49762484 -0.1944618 0.51209146 0.14422494 -0.266716 -0.14963694 -0.30975166 -0.1049815 0.09466237 0.43926027 0.30265707 -0.04521387 0.03205643 -0.051088307 -0.30779967 -0.21381786 0.3587503 -0.16250278 -0.28260913 0.37668592 0.15785159 -0.49526685 -0.2895683 -0.3116198 0.06399638 0.12778984 0.047744077 0.38684964 -0.16734946 -0.26806614 0.25439495 -0.023656324 -0.10882153 0.23453902 -0.21349223 0.045064185 -0.2859617 -0.43575212 -0.28314254 0.062567376 0.17321844 -0.3130343 0.1275374 0.25594166 -0.07317875 0.0362351 -0.23224795 -0.0970283 0.1267481 0.1993528 0.24578804 0.0398476 -0.23662837 0.39656332 0.32287344 -0.107344516 -0.059139628 0.09989138 0.037715554 -0.22038838 0.535432 -0.009370278 -0.2113015 -0.07663747 0.455745 0.16382019 -0.22203408 0.22930095 0.031115713 0.18062404 0.1453162 0.20725252 0.096793324 0.055909276 0.066010535 0.18306723 0.06521007 -0.15536144 0.5125973 -0.1363813 0.26763463 0.29889393 0.17507057 0.2555931 0.13581693 0.19300254 0.17717028 0.26254275 0.089744896 -0.1827111 0.14065635 -0.025346909 0.15611556 0.056021273 -0.31433594
kulupu -0.18541025 0.05303967 -0.019298328 0.0856117 -0.09437686 -0.35329664 -0.033972006 0.31582475 -0.17173916 -0.14872345 0.03273629 0.06572152 0.31624842 0.063557066 0.37073347 -0.019481339 0.063145444 -0.039108876 -0.19304731 -0.39535248 0.3473063 0.16319677 0.21654233 0.118686214 -0.047789697 0.017303582 -0.24937712 -0.080079846 0.10803346 0.042167876 0.03486165 0.17424186 0.09904203 -0.32723653 -0.009312379 0.18262188 -0.051921174 0.06924272 -0.29448736 0.097830154 0.19147004 -0.036239374 0.02297456 0.11139947 0.17291197 0.064196974 -0.17900395 -0.24900676 0.039997242 0.015077461 0.27571136 -0.055126645 -0.18931788 -0.36251587 0.34203815 -0.26767302 0.19390438 -0.14494891 0.27070478 0.1191086 -0.17229725 -0.09458907 0.09497003 -0.3012391 0.021078398 0.33889258 -0.29598957 0.16831703 -0.34652555 0.017403875 -0.015981037 -0.21893115 0.20311153 0.37949705 0.16880652 -0.0880497 0.09258282 -0.0770061 -0.29450777 -0.13832353 -0.31652394 -0.06112247 -0.22034204 -0.12853625 -0.02695613 -0.20052648 0.19898912 0.003099894 0.16321148 0.21590635 0.15789178 -0.261882 0.23680022 0.04536166 0.36471477 -0.04746094 0.1789386 0.086693764 -0.2775539 0.08982731
pini -0.049523093 0.23911765 -0.09354871 0.05395213 0.25021055 -0.5807041 0.009232888 0.3964614 -0.26895928 -0.46257755 0.11801374 -0.19703351 0.176357 -0.0025462923 0.33547816 -0.17627497 0.080523625 -0.12145557 -0.035109892 -0.346631 0.034297075 -0.19592166 0.15415369 -0.24739204 -0.21895915 0.32393783 -0.41740483 -0.09282706 0.0069311215 0.08745396 0.10323657 0.06871218 -0.0090242205 -0.16872445 -0.04265327 0.1351334 -0.12941168 0.0070813284 -0.116720006 -0.36600524 0.014830609 -0.013065758 0.12583248 -0.092911914 0.116777584 -0.0565116 -0.1679215 -0.24836648 0.035926357 -0.14220773 -0.04448448 -0.19605775 0.09323631 -0.031423602 0.09402928 -0.062135912 0.07198825 -0.13971095 0.057213485 0.26201463 0.10898271 -0.15329663 0.16338432 0.13665618 -0.054314874 0.44916877 -0.07365827 -0.107743315 -0.17277947 0.2624687 -0.2719837 -0.078561544 -0.08083766 0.01785698 0.14050165 0.15669796 -0.04191903 0.17481224 0.1646093 -0.2976823 -0.005538745 0.20118055 -0.222609 0.03974678 -0.28619632 0.0020584445 0.18779844 0.15230638 0.18562256 0.17129613 0.22191912 -0.3073795 -0.14443745 -0.066715255 0.10698982 -0.29638827 -0.04818575 -0.25910625 -0.15865909 -0.100870416
tu 0.18201286 0.021580411 -0.0017500083 -0.24196275 0.33169675 -0.67462605 0.21399194 0.7805898 0.0036716165 -0.5509907 -0.20804118 -0.11148381 0.08800527 0.13984868 0.3755477 0.0038125599 -0.168699 0.04536013 -0.14800751 -0.21635683 0.14588577 -0.0239164 0.025812278 -0.17366001 0.17985347 -0.06344046 -0.37616065 -0.0074900105 -0.17176206 0.14315714 0.112634905 -0.052429054 -0.14480734 0.0015824392 -0.15850927 0.23529802 -0.066438995 -0.049887463 -0.1701855 -0.018734666 -0.27831244 0.12233152 0.041560814 0.086890854 0.21569662 0.087081574 -0.053004954 -0.55494356 -0.19660592 0.12862408 -0.07768518 -0.09557827 0.2014582 -0.3548732 0.2674307 -0.23059863 0.103928305 0.0028504378 -0.17635375 0.19214399 0.055957574 -0.26344278 -0.04997857 -0.3679393 -0.24696442 0.27935398 0.18560009 -0.19324034 -0.13352935 -0.030468065 -0.33722818 0.15358575 -0.04659731 -0.101464786 0.1248581 0.09204897 0.326797 -0.014672732 -0.31358555 -0.089839 0.045030177 0.13905355 -0.17387907 0.21384612 0.048022017 0.2705972 0.017921016 -0.091854304 0.015965758 -0.14081164 0.15475413 -0.13680097 0.035407856 0.035437826 0.12058108 -0.02807208 0.057828035 -0.13554758 -0.20603554 -0.3372094
sitelen 0.0712568 0.22886716 0.20855801 0.1409708 0.12960993 -0.5278457 0.40530458 0.70685434 -0.05785994 -0.2319236 0.2005868 -0.18484525 0.2542039 0.27854618 0.3869112 -0.15843555 0.037233386 0.11925029 -0.1372037 -0.39248592 0.40119007 -0.15723205 0.08208657 -0.3046193 0.10848124 -0.2797947 -0.079439424 0.046294942 0.086263195 -0.3992226 0.07084977 0.11996881 0.19702722 0.119837396 -0.016964743 -0.07863923 -0.20410691 -0.352131 0.012274013 -0.38795847 0.0671286 0.19560574 0.22773594 0.142468 0.06762638 -0.0892262 -0.13109012 -0.4651299 0.009379854 0.31202725 0.053242505 -0.23981217 -0.1549422 -0.49196 0.4060062 -0.10507677 -0.10061816 0.14277552 0.053115472 -0.33429667 -0.006763052 -0.067279406 -0.0037080708 -0.21123382 -0.43394554 0.18039897 0.10253453 0.3089749 -0.35504076 -0.00022689311 -0.23029524 0.22905925 0.34928185 -0.19723217 0.024379374 -0.12245896 0.610963 -0.38041094 -0.4464461 0.20252247 -0.027622717 0.09234492 -0.48567128 0.46829525 0.045661174 -0.22801657 0.18781076 -0.4347044 -0.11874278 0.15266147 -0.11860255 -0.28845772 -0.11311917 0.18613732 0.27235562 0.25935787 0.07008422 0.4228263 0.032108374 -0.11208302
en -0.024832746 0.17983498 0.06342877 0.2178902 0.19147573 -0.13690445 0.0907635 0.5676978 -0.26663652 -0.030176617 -0.10854377 0.014483823 -0.30848834 0.24867415 0.16767131 -0.49764466 -0.08303541 -0.05588935 -0.37787896 -0.24763975 -0.13939066 -0.35902485 0.26243868 -0.20304109 0.025598934 -0.43106645 -0.098597325 -0.48238418 -0.024704628 0.32537386 -0.018187433 -0.032388955 0.07450033 -0.10665532 -0.16026236 0.06826272 -0.022139877 -0.09371842 0.16703933 -0.2874837 -0.21671991 -0.11288785 0.29881763 0.105673544 0.106438756 0.0029755384 -0.1835123 0.15073633 0.008282374 0.3137584 0.20590746 -0.24306314 -0.13071394 -0.04296549 0.06613394 0.2841588 0.44611982 0.19172712 -0.10480574 0.120431915 0.08374666 0.043284792 -0.015080991 -0.27650243 -0.089514814 -0.105676085 -0.031089945 0.26177242 -0.33067146 -0.15593636 -0.045237828 -0.082129404 0.20507005 0.11389246 0.11430714 0.11822962 -0.12799457 0.06842504 -0.107369736 -0.15441321 0.27290392 -0.1177738 -0.173654 0.13981871 0.0016687997 0.17497864 0.17302014 0.21404856 0.35160106 0.23935376 0.71182144 0.12852171 -0.13895868 0.13402006 0.3975745 0.16790523 -0.043736413 0.056632582 -0.22681117 -0.19502892
wawa 0.076794684 -0.32718045 0.1374847 -0.07530177 0.21163982 -0.31692055 0.34777156 0.3180596 0.11324752 -0.060562078 0.077845186 -0.01734231 -0.103418015 0.0062733307 -0.007550696 0.18043435 -0.101829834 -0.114961304 -0.39200148 -0.40924725 0.15446924 0.23132227 0.38069728 -0.13867359 0.19440274 -0.08926186 -0.021170128 0.057512432 0.019603001 0.07231893 0.2928657 -0.08285714 0.4155191 -0.12181517 -0.34362525 0.3603558 0.102934934 -0.00486503 -0.20037618 -0.044156823 0.15064807 -0.23642157 -0.0044934056 0.077763975 0.10339831 0.007472567 -0.21228935 -0.30422926 -0.19193497 0.3215831 -0.14000644 -0.082411855 -0.26278928 -0.14000292 0.1299979 -0.13195449 0.023875719 -0.036486518 -0.087605454 0.32720163 -0.12104288 -0.11470136 0.330512 -0.35883874 -0.36641726 0.12110884 0.073472306 -0.03541458 -0.19845085 0.22471736 0.24564531 -0.009418852 0.022485383 0.3186689 0.3616582 -0.36254445 0.21477121 -0.23754948 -0.37429893 -0.15603918 -0.0859231 0.21127848 -0.19201446 -0.05620515 -0.21988744 -0.08496085 0.08026644 -0.10351121 0.07163906 -0.23472759 0.029057844 -0.10545712 0.33102393 -0.088351 0.032332335 -0.18526365 0.061669495 -0.21319462 -0.15202893 -0.24991362
seme 0.081114404 -0.15963134 0.33478874 0.32652336 0.04897303 -0.4551016 -0.30058223 0.4040742 0.024374343 0.1264575 0.11808114 -0.055564847 0.086631455 0.4334376 0.65494967 0.11952798 -0.29060873 -0.45741537 0.18466222 -0.73889303 0.17423242 0.44552827 0.112503275 0.17564264 -0.16533923 0.2379359 -0.0919841 0.13950627 -0.26727477 0.474186 0.34781626 0.0431404 0.23062839 0.11764458 -0.017752355 0.24085361 -0.38543475 -0.19536027 -0.11187977 -0.28190058 0.010130982 -0.27009338 0.17713958 0.3805939 0.3737167 0.14206126 -0.2597667 -0.17293976 -0.16221341 -0.05056538 0.29404974 0.26204714 -0.30775777 -0.33836058 0.5445793 0.13357179 -0.0012404721 -0.1939419 0.13199697 -0.09478893 -0.04748565 -0.027206397 -0.15286417 0.20457788 -0.039056003 0.40867323 0.033542138 0.28148738 -0.2401755 0.42665148 -0.19944109 -0.18274662 0.003621789 -0.1814213 0.33576876 0.14222258 -0.042416196 0.057691775 0.013402227 -0.4353489 0.049374603 -0.23441374 -0.65411973 0.4145513 0.22564983 0.23238304 0.06705179 0.3247831 0.22077166 -0.23784909 0.4197888 -0.36695203 -0.40234753 0.2600893 -0.15307477 0.24021497 -0.18511468 0.438699 -0.41821864 0.06201414
kon -0.07581915 -0.12122607 0.049483195 -0.027104454 -0.14955123 -0.25306624 0.18342552 0.23858859 0.13341476 -0.0042476924 0.12646511 0.1974242 -0.09808748 0.13336928 0.19394924 -0.14277172 0.112863205 -0.27573487 -0.26610816 -0.41067427 0.20427786 0.120544866 0.23042211 -0.31705564 0.42645246 -0.21342374 -0.1637609 0.040606093 -0.20594044 0.0680814 0.19002162 0.23631711 0.24039327 -0.26445636 0.05696542 0.23356768 -0.10059295 -0.20347017 -0.12956744 -0.029654706 -0.0021852036 -0.2367861 0.058726605 -0.05582875 0.30703217 -0.07426952 -0.014928483 0.01914974 -0.03842137 0.19582932 0.15603258 0.19678167 -0.28499323 0.056600813 0.108790584 0.13677679 0.009802938 0.0635349 0.22837016 0.44455317 0.1132199 -0.24816091 0.23789792 -0.21293628 -0.06799522 0.07293022 -0.112394355 0.053718265 -0.31534335 0.24307129 0.14212377 0.16522373 -0.1159188 0.29509133 0.26631925 -0.19767064 0.021544155 -0.17780851 -0.18066873 -0.016093578 0.105084054 0.18426391 -0.2766404 0.061195336 -0.021959694 -0.06950613 0.21907182 -0.07610214 0.1300745 0.058428127 0.25094342 -0.18114078 0.04788179 -0.10185541 0.09659145 -0.100742415 0.042083398 -0.02758679 -0.15372492 -0.27995515
luka 0.23432721 0.0005114494 -0.033932447 -0.1361992 0.31077072 -0.5024471 0.41172442 0.800041 -0.21694267 -0.44737768 -0.43138227 -0.27300587 -0.25219938 0.20474091 0.36878276 -0.0016843779 -0.41965884 -0.16700007 -0.033657607 -0.5652102 0.24167964 0.2404711 0.11712709 -0.13493106 -0.12364557 -0.15137094 -0.17825092 -0.07052377 0.05383918 0.055697277 0.27377245 0.106685214 0.11960516 0.15376882 -0.1333305 0.15402403 -0.0008889956 0.23812932 -0.0042000744 -0.27687177 0.0653167 0.16734341 0.036929905 0.37390932 0.23634873 0.38668758 -0.18845865 -0.4414053 -0.0726759 0.29746363 -0.060624495 0.4187292 0.3628781 -0.58566004 0.23094475 -0.3330684 0.064516425 -0.09017926 -0.30572337 0.19737999 -0.0231978 0.23926899 -0.14143315 -0.5182127 -0.19546336 -0.10272299 0.2945894 0.10933698 -0.4363848 -0.18909776 -0.45550153 -0.045472458 0.0850823 -0.03720722 0.21484184 -0.10865705 0.38210812 0.041573606 -0.25538158 -0.30938816 0.05662221 -0.014555616 -0.22927265 0.13975565 0.24909595 0.060043555 0.50991356 -0.03482129 -0.06015032 -0.18056399 0.008828736 -0.0636151 0.07884848 0.20719013 0.28827846 0.19446182 0.08243262 -0.11974409 0.013949664 -0.0835691
sin -0.01721908 0.3219134 0.13978502 0.005073412 0.055299964 -0.44778228 -0.12387178 0.4680204 -0.02252527 -0.3846498 0.022095405 -0.2292636 0.18640131 0.12861282 0.29479235 -0.29156432 0.0755039 0.0038256044 0.10294901 -0.5838534 0.18769558 -0.061008196 0.009297812 -0.36271 -0.14586775 0.024078099 -0.22704488 0.108718544 -0.22740473 -0.099014625 0.064600326 -0.08169243 0.15424053 -0.13125728 -0.028972002 -0.10311487 -0.30673975 -0.16211951 -0.0036093553 -0.25594908 0.14652 -0.040057935 0.054460306 -0.10051612 0.14651975 -0.113002084 -0.026295079 -0.4194928 0.20077515 0.14358857 0.14259714 0.07868951 -0.18742663 -0.1626882 0.35578695 0.007303414 0.11515075 -0.14566988 0.18539526 0.013252766 0.019231766 -0.0052569895 -0.021338547 0.040263284 -0.05279702 0.40119737 0.121727794 -0.040578667 -0.22377726 0.12758303 -0.11319327 -0.0820872 0.110286444 0.047161408 0.16390595 0.067991726 0.26228064 -0.061221294 -0.17629597 0.002076834 -0.09424962 0.14680013 -0.26204228 0.50093275 -0.07359887 -0.083778016 0.16945477 -0.045913354 0.17140353 0.18677442 0.017549364 -0.34720957 -0.07383809 -0.032560408 -0.03984889 0.08869719 0.06793478 0.026115786 -0.07317279 -0.01528032
nanpa 0.26380253 -0.047035128 -0.046251412 -0.023451697 0.24225515 -0.6310643 0.04065878 0.6281377 -0.026135636 -0.54722375 0.0025856926 -0.06662932 0.18841733 0.040316228 0.4871998 -0.053798616 -0.097217776 -0.043325685 -0.17602904 -0.272746 0.19515018 0.061960228 -0.2737439 -0.1373561 -0.10691885 0.06886471 -0.400198 0.04004701 -0.13931309 0.24491121 0.016120497 0.025512123 -0.109745234 -0.2692365 -0.0027533458 0.23071538 -0.29044166 -0.14372583 -0.22060469 -0.14376149 -0.13078721 0.040848352 0.20606509 0.12797512 0.15162614 -0.09373637 -0.0461938 -0.41306865 -0.055577364 0.14469913 0.26757523 -0.029449249 0.28179935 -0.6344714 0.17400944 -0.30449128 0.19515753 0.13379824 0.12223039 0.2525461 0.04169344 -0.20584092 -0.115090266 -0.2927363 0.0012796425 0.30550352 0.018610405 0.015721899 -0.09224397 -0.3103086 -0.4893862 -0.22338684 -0.30508906 -0.03817575 0.20990692 0.009684082 0.30814755 0.20552766 -0.17644328 -0.08731959 -0.19830309 0.45714766 -0.095601745 0.13578302 -0.005996461 0.17228034 0.18757232 -0.07090478 0.04411105 -0.038358696 0.10389797 -0.2823924 0.09108869 0.21960983 0.11551599 -0.025259968 0.066068985 -0.15103492 -0.09936931 -0.3145982
kin 0.00021691539 0.07273751 0.14307868 0.12016812 0.12876798 -0.3188331 0.018365119 0.3116148 -0.20879835 -0.08293829 0.15905346 -0.16590051 0.078112595 0.13492016 0.22172649 -0.07252927 0.10527027 -0.06155317 -0.04260424 -0.47479993 0.14055093 -0.009634872 0.18930507 -0.14079024 -0.004718144 0.097699426 -0.33418083 0.08530966 -0.13116537 -0.053903185 0.1911311 -0.03413252 0.3549549 0.019578665 -0.034103505 0.12076386 0.061236423 -0.080274135 -0.14223638 -0.22296537 -0.052887354 -0.12137283 0.11577223 0.07227128 -0.009160749 -0.017766908 -0.2922817 -0.026393484 0.0633228 0.061007675 0.06082241 0.18553671 -0.15134537 -0.0016262531 -0.012504414 -0.20811924 0.23179184 -0.09357164 0.08542077 0.016142689 -0.002165719 -0.103807 0.09860554 0.00123744 -0.2614804 0.39029592 0.14994827 -0.0036448748 -0.30365792 0.36770806 -0.25054896 0.059636403 0.08455203 0.13466386 0.36906052 0.069006234 0.19309485 0.16681091 -0.10972307 -0.019236537 -0.07945701 0.03147533 -0.14588101 0.30574775 -0.21797791 -0.035900824 0.1176339 0.042494386 0.09027073 0.18313207 0.08153436 0.059681617 -0.027395174 -0.06391541 0.1465494 -0.015700469 0.07679181 0.010829573 -0.1272812 0.036581688
suno -0.01617008 0.31798482 -0.03794798 -0.11893788 0.1391406 -0.5891877 -0.032059293 0.37984958 -0.17882523 -0.65174586 0.11063815 -0.051648505 0.2320083 0.01453603 0.42457184 -0.17212337 0.07505955 -0.37869078 0.06961528 -0.3877825 0.08897819 -0.0891224 -0.10923498 -0.23018113 0.04539503 0.101697214 -0.5951423 -0.2336403 0.1318901 0.13325667 0.07850771 0.35523307 -0.115092225 -0.22607169 0.02478645 0.35439855 -0.29711106 -0.052495513 0.049544107 -0.3951969 0.10608342 -0.03845677 0.19494393 -0.20438735 0.03690337 -0.040132474 -0.15836634 -0.24365729 -0.064324364 0.11480643 -0.044448875 -0.087808065 0.08355723 0.027755031 0.2627199 -0.10942344 -0.11789172 0.24354942 -0.054817118 0.39521515 0.21923429 -0.05785788 0.050840717 -0.033538148 0.064804636 0.2567171 0.17870706 -0.129956 -0.097849555 0.26957545 -0.031554967 0.14293645 -0.12402687 -0.03143864 0.3052451 0.21904428 -0.091340676 0.199472 0.19012514 -0.107837364 -0.024368463 0.18542695 -0.38308635 0.23380321 -0.0730623 -0.03390627 0.34427172 0.17308952 0.26961187 0.21396449 0.22424501 -0.14267392 0.031046169 -0.053961396 -0.076275416 -0.18605469 0.09625923 -0.08441757 -0.0015109403 -0.031671766
a 0.48786315 -0.13972086 -0.222083 -0.07951738 0.15518951 -0.44935334 0.15996604 0.1484023 -0.48416618 -0.029652795 0.48092124 -0.20285018 -0.097649 0.115808636 0.2908823 0.32705906 0.18978254 -0.27945638 -0.17756833 -0.60728574 0.021437107 0.29797578 -0.055589117 -0.31679156 -0.4167265 0.36659598 -0.22014688 -0.13274908 0.13453022 -0.078906804 0.40249366 0.04914725 0.64072174 -0.21704422 0.087493345 0.46794394 -0.1973502 -0.024807775 -0.18598029 -0.60405755 0.40276054 -0.36604097 -0.097278744 0.43370992 -0.016274476 0.25064364 -0.22097762 -0.061812717 0.23709054 -0.058620173 0.12255213 -0.029048633 0.1924707 0.041513704 0.11827056 -0.1678286 0.123244494 0.10130064 -0.072311796 -0.27736875 -0.15041943 -0.1159432 -0.061943054 0.10710864 -0.16158739 0.6279592 0.25134626 -0.21909046 -0.36137488 0.4225279 -0.41804123 -0.42355037 0.03680701 0.091705605 0.16567926 -0.26206484 0.31850472 0.36635712 0.08608457 0.1689539 -0.21063367 0.14701173 -0.41098863 0.08726632 -0.28003797 -0.056366675 0.21344604 0.19685178 0.2261271 0.5662498 -0.22361572 0.03572481 -0.043061078 0.03256 -0.22970402 -0.10703731 -0.0727065 -0.056907594 0.34365097 0.04271677
sike 0.096244834 0.11141462 -0.075068586 -0.31007025 0.26157552 -0.70805705 0.18466832 0.4432268 -0.39763853 -0.530138 0.012376566 -0.3041192 0.16602479 -0.08332868 0.29693943 -0.046918195 -0.076403074 -0.086070694 -0.1967739 -0.4646097 0.26990747 -0.013085206 -0.023226636 -0.28310683 -0.09003563 0.15589106 -0.2833131 -0.30841076 0.11600671 0.100590505 0.12573744 0.19811209 -0.1518955 0.09551963 -0.10970808 0.26750645 0.008074433 0.2332899 0.00050696725 -0.16690503 0.22199732 -0.04346174 -0.08929567 -0.074638955 0.03849831 0.1284913 0.09111849 -0.21709163 0.0048641153 0.13769151 -0.013301103 -0.44263193 0.1553808 -0.09853935 0.22772957 0.029450314 0.016765902 -0.18777543 -0.07729308 0.22786742 0.082184955 0.05578793 0.030057935 -0.37046862 0.23086534 0.4478844 0.13619497 -0.2171799 -0.18547672 -0.15706868 -0.09620694 -0.21183716 0.24265544 0.08002572 -0.12501045 0.18078896 -0.09442083 0.08019297 -0.03329138 -0.014324706 -0.03617582 -0.18085057 -0.31182843 0.11672347 -0.1680401 0.295503 0.1490041 0.22562295 0.42318612 0.048272476 0.28103015 0.14740296 0.12414214 0.09086397 0.20192581 -0.25523478 0.21915518 -0.4085098 0.020962203 -0.13006958
insa -0.04478634 0.11512905 -0.11112483 -0.21546964 0.18279672 -0.40689895 0.5762934 0.50235105 -0.0961651 -0.36221957 -0.113399945 0.28209382 0.011870446 0.16683759 0.32871464 0.335213 0.074216336 -0.059273805 -0.24290486 -0.5631527 0.09224071 0.10771541 0.16647671 0.121380694 0.38752776 -0.26116633 -0.045361727 0.13651462 -0.18244892 0.100992605 0.032251798 0.07139088 0.0138220275 -0.488598 -0.22895332 0.41113874 -0.16416346 -0.13373803 0.04211807 -0.17970707 0.10546968 -0.03894286 0.24798444 0.13879876 0.507695 0.1406045 -0.28478447 -0.33299178 0.013095666 0.23564544 -0.18189257 0.05180445 -0.18948059 0.28117973 -0.15208401 0.1213244 -0.019781508 -0.009622102 -0.15540522 0.21381116 0.06627371 -0.13992013 -0.03132885 0.08228856 -0.40772256 0.37770757 -0.030133147 0.2304736 -0.22088699 0.31708857 0.29115158 0.37900275 0.27184033 0.21935552 0.27823356 -0.15219706 -0.13745354 0.004631918 0.060307693 0.022446621 0.26685902 0.10230678 -0.030049872 0.0990802 -0.030589491 0.07444885 0.21494852 0.041604973 0.031175584 0.0024314711 0.12604924 -0.03477208 -0.096495464 -0.18186189 -0.13910519 0.10625883 0.19823252 -0.24651697 -0.046232913 0.07094694
anu 0.15340887 -0.26469773 0.291104 0.17930815 -0.20137951 -0.08206016 -0.32688805 0.49654666 -0.08672628 0.21413879 -0.21883513 0.16728431 -0.30954033 0.22404657 0.31565312 0.039363842 -0.06709762 -0.27061787 -0.27748555 -0.31945932 -0.097474195 0.33115342 -0.08726199 -0.36660638 0.17559277 -0.17955758 -0.33357313 -0.2323032 -0.3565733 0.35381442 -0.061524466 0.009058017 0.23859654 -0.09701529 -0.18970628 0.097616084 -0.2204641 -0.3809978 -0.12575655 -0.14325936 -0.3391339 -0.24783546 0.051160548 0.37079012 0.27838367 0.12275649 -0.28097937 0.13520783 0.008254709 0.17382476 0.1360497 0.15168953 -0.2777416 -0.12602511 0.33175784 0.0466281 0.1763048 -0.039819535 0.21475285 0.0952386 -0.031725816 -0.19567867 0.036841474 -0.3997972 -0.17327681 0.25084236 0.08607357 0.06189937 -0.34351242 0.16072343 0.046460893 -0.04080767 0.05513231 -0.12970662 0.1753977 0.27804947 0.50879216 -0.13512082 -0.35540164 -0.13441755 0.10147944 0.19358629 -0.24644251 0.23427157 0.27279347 0.10956527 -0.06975346 0.402382 0.17847061 0.2637896 0.301434 0.012120004 -0.16647378 0.09589888 0.010178023 0.4771769 0.028919684 0.22145574 -0.09459856 -0.34025002
weka -0.14093243 0.19397801 -0.056262754 0.046936497 0.035820916 -0.43899944 0.14191341 0.51585615 0.29892468 -0.30457512 0.012940387 -0.088918716 -0.091299 0.08262737 0.30630028 0.15294869 0.10494567 -0.05378675 0.0027741974 -0.33462974 0.050515026 0.18717402 0.31537333 -0.11015227 0.20682259 0.006893398 -0.18698932 0.13296705 -0.4007183 0.057116456 0.18321185 -0.10621564 0.20260422 -0.28961453 -0.13574922 0.23626092 -0.020298323 -0.27783102 0.08244151 -0.04352913 -0.09210146 -0.09600806 -0.14200881 -0.218362 0.5127001 0.091211855 -0.09373159 -0.0048584817 0.054565027 -0.14568746 0.06549691 0.15346868 -0.13860019 0.091829196 0.2201139 0.13853626 0.013888659 -0.08884835 0.34217456 0.3878671 0.041790746 -0.10664307 0.15784913 0.03196693 -0.112970196 0.32809293 -0.26225388 0.15624146 -0.13639443 0.31968364 0.04116614 0.08158894 -0.07167777 0.14081644 0.19151238 0.0659821 -0.20618424 -0.11118562 -0.10371711 -0.35069045 0.028654499 0.2178389 -0.023402868 0.24722421 0.19778393 0.2346713 0.29802382 0.006917793 0.01992594 -0.14228003 0.3143315 -0.3717279 0.03130241 -0.060844667 0.2017838 -0.09094118 -0.016938588 0.018742938 -0.16702026 -0.42063048
awen -0.111024655 0.19438155 -0.100368254 -0.12850098 0.051195186 -0.36745095 -0.07668616 0.44290033 -0.022239828 -0.31619486 -0.10380713 -0.09059564 0.052145675 0.1815093 0.3731498 0.07429618 0.07700454 0.1457418 0.0629131 -0.3489405 0.13348949 0.124554366 -0.075604 -0.05583974 0.09788856 0.037137307 -0.19461757 -0.0077099386 -0.2868685 0.0033184222 0.1443018 -0.163197 0.21078314 -0.28357264 -0.010269756 0.183536 0.10527892 -0.0049159476 -0.08911382 -0.21166271 -0.028473347 -0.03735109 -0.09182866 0.029321255 0.21926652 0.08253918 -0.26421872 -0.2360361 0.32901815 -0.12516856 -0.07401422 0.074630365 -0.037719343 0.077967025 0.22605614 0.024264688 0.18745156 -0.12528981 0.11683189 0.05458569 -0.048750456 0.11885097 -0.0024925522 0.017212698 -0.31107095 0.56088907 -0.1278443 0.0011399233 -0.19207723 0.2788703 -0.14185676 0.12177499 0.11587193 0.26117858 0.22564109 0.13052946 0.14098477 -0.0022049842 -0.29915336 -0.34048647 -0.09198027 0.059437208 -0.19433235 0.31619745 0.005950294 0.13490598 0.15576497 -0.109638326 0.13527228 0.23169565 0.15020199 -0.103945136 -0.067097306 -0.041120328 -0.10732043 -0.00070777105 0.043999836 -0.021039799 0.10352341 -0.19613923
kasi -0.08585344 -0.24158204 -0.102726154 0.0025727933 0.09182201 -0.5590111 0.24003837 0.3843839 -0.06762713 -0.1059376 0.17793116 -0.015080726 -0.0013355009 0.14055489 0.15762916 0.17449588 0.03851841 -0.2732569 -0.14630578 -0.2446447 0.3000212 0.40481514 0.21285869 0.33571544 0.30204606 -0.09396031 -0.1380129 -0.32288027 0.118633255 -0.0017633379 0.1832314 0.1389484 0.35261893 -0.16459161 -0.25555468 0.53605586 0.081908986 -0.10619903 -0.076184526 -0.19233106 0.44290984 -0.18032557 -0.04019411 -0.6137531 -0.056572884 0.10099572 -0.61116856 0.10242287 -0.005957964 0.030629525 -0.16145167 -0.26346397 -0.24206339 0.13577786 -0.077199094 -0.004273419 0.059967987 0.021677658 0.42705068 0.41976032 0.35594785 -0.14268002 0.055881966 -0.2895835 0.078015424 0.26724127 0.031459156 0.03655331 -0.022813842 0.23203498 0.06322241 -0.0609244 0.071555324 0.16692133 0.35044548 -0.0061458554 -0.13632213 0.20552394 0.011246111 -0.17920645 0.1467669 -0.2023122 -0.40703756 0.25723007 -0.30795437 -0.037860513 0.36696887 -0.085188136 -0.074306265 -0.0364977 0.30667016 0.25284174 0.010091261 -0.020029327 0.18464608 -0.1251811 0.04381463 0.0015970382 -0.032118767 0.2004999
meli -0.2982452 -0.17729203 0.049359333 -0.083841056 0.39949143 -0.5166183 -0.21960975 0.38844365 -0.075881384 -0.061045866 -0.071856126 -0.0016816936 -0.23733383 0.096295334 0.17272925 0.016041532 -0.25015903 -0.24968988 -0.2523031 -0.24066813 0.12518099 0.016849898 0.059130054 -0.2600898 0.31031707 0.07988286 -0.48982686 -0.027313689 -0.015320427 -0.02967563 0.06786714 0.15166935 0.36307132 -0.03270054 -0.088465855 0.2083201 -0.041862193 -0.2701645 -0.24299687 0.014017695 0.016447328 -0.12141907 0.07670871 -0.18373956 0.38312095 -0.05050335 -0.21297482 -0.41041526 0.18105105 0.23551673 0.04264684 0.06477052 -0.11899526 0.4112678 0.450623 0.18650603 0.3532675 -0.014880169 0.17080477 0.11948545 -0.31554767 -0.10137837 0.095454834 -0.29860854 -0.31989738 0.24503632 0.07126168 -0.4613802 0.11794154 0.35072172 -0.31831756 -0.29941896 -0.21833688 0.2829856 0.036828578 -0.009007574 0.2553507 -0.18514283 -0.34969822 -0.16852804 -0.04270987 -0.023612937 -0.16078824 0.15839623 -0.38016748 0.3209103 -0.103590354 0.416357 0.3374106 0.22881284 0.15605253 -0.12960026 -0.38716426 -0.17530929 0.07047585 -0.14956422 0.0632959 -0.110458955 -0.25520372 -0.26746374
mama -0.4614352 0.11206964 -0.04116295 -0.19540653 0.43909314 -0.5370786 -0.13170907 0.5413281 0.07039152 -0.19434679 -0.029337106 0.012140262 -0.090135485 -0.03574252 0.29583594 -0.12945133 -0.36815256 -0.07828028 -0.21556872 -0.64037246 0.076705225 0.089105174 0.22031981 -0.1578166 0.28300005 0.2821063 -0.40460318 -0.058144007 0.033185326 -0.04019874 -0.135279 -0.088297606 0.093666315 0.26348874 0.19773287 0.19976184 0.002980494 -0.15406162 0.1013791 0.08072324 -0.004776009 -0.29242688 -0.23262101 -0.13672443 0.2188013 -0.17704839 -0.037896045 -0.33497745 -0.044100113 0.18410209 0.17581338 0.21333487 -0.2206976 0.2807613 0.40271533 0.18651187 0.3080594 -0.31933334 0.26375222 0.2487 -0.26049104 -0.10669537 0.06477434 -0.25973144 -0.30328318 0.37020847 -0.06650421 -0.23703805 -0.18113665 0.44536054 0.000861492 -0.40726414 0.16372529 0.5318974 -0.085739344 0.035072155 0.16258527 -0.21247107 -0.26504356 0.06586309 -0.15401244 -0.27117875 0.08577045 0.058390863 -0.16229504 0.38276428 0.08781081 0.28261575 0.30416608 -0.09995918 0.07521025 -0.13554634 0.24659118 -0.13283676 0.16862915 0.07400591 0.43460187 -0.23490867 -0.4978645 0.1397508
moli 0.034276146 -0.08175187 -0.1609596 -0.09077233 0.3451983 -0.4109957 0.16484158 0.59256715 0.18110934 -0.24657062 -0.3177638 -0.21827531 -0.24009685 0.15505438 0.5608542 0.062808186 -0.13891359 0.04042754 -0.13994323 -0.37350026 -0.24224702 0.2899821 0.3939017 -0.17308302 0.11794809 0.09670802 -0.13546658 0.23686808 -0.14055239 0.10339307 0.143668 -0.25180277 0.12985048 -0.048192974 -0.17321777 0.2820721 0.08346894 0.13222627 0.07295842 0.084211685 -0.09106588 0.027061166 -0.20330378 -0.08397799 0.31926915 0.26882192 -0.46260598 0.04942093 -0.006642422 -0.07848738 -0.11053232 0.23104525 0.1361856 -0.17535056 0.09664407 0.053731363 0.3171452 -0.26768574 0.061543856 0.4412993 -0.1848076 -0.048734862 0.15739164 -0.16029115 -0.26532337 0.16404621 -0.22530764 0.055136584 -0.32435927 0.257773 -0.13279033 -0.08712259 -0.06411408 -0.012608576 0.25244904 -0.24161053 0.31560183 0.12092192 -0.067749314 -0.36085525 -0.017193167 0.13355106 -0.23365489 0.19911876 0.22976528 0.23328446 0.25025606 0.08083386 0.08434434 -0.20623247 -0.023688912 -0.14161193 0.2064932 -0.038760472 0.3154419 0.12716697 0.07708156 -0.32862988 -0.15171659 -0.3204053
kalama 0.06253368 0.16538246 -0.08114712 0.099768594 0.25053403 -0.6792387 0.53065443 0.58442855 -0.1884384 -0.3276652 0.48662674 -0.021827742 0.02242414 0.25900477 0.42325124 0.42856193 0.12887083 0.029393353 -0.46583048 -0.6894744 0.00048216272 -0.14915529 0.41233242 0.008509809 0.18265337 -0.17774831 -0.23246507 0.021375995 0.34220734 0.064341255 0.37690344 -0.01837506 0.44804844 -0.2575694 -0.27928653 0.21753249 0.006752025 -0.08713722 0.042725034 -0.31747556 0.116772205 -0.24837834 0.42798686 0.1957659 0.14319408 0.11089548 -0.1869816 -0.4441632 -0.0932585 0.41444683 -0.24278149 0.20731038 -0.032484762 0.24610394 0.25176337 -0.1994827 0.09400569 0.17743285 -0.13512705 0.027319245 -0.07391555 -0.31117114 0.17555541 0.13020797 -0.36826146 0.28956607 0.18285754 -0.16295025 -0.06558321 0.50281054 0.15137474 -0.17564529 0.048202086 -0.10898609 0.31373435 -0.27314654 0.014403635 0.053997353 0.020221662 0.24775839 -0.055211183 -0.037373863 -0.056951787 -0.21569616 -0.16039376 0.06752546 -0.3576439 0.102120735 0.24128531 0.11562003 -0.08755348 -0.29673007 0.19976532 -0.2356308 0.124591015 -0.05807561 0.02017599 -0.17388158 -0.39964658 -0.011270251
seli 0.18946858 0.21011536 -0.21635929 -0.31385684 0.15409149 -0.6653138 0.23350497 0.49303994 0.09271269 -0.5529646 -0.068686344 -0.3071669 -0.17686203 0.2608719 0.35738117 0.33007002 -0.030657435 0.0016828803 -0.026101196 -0.5220052 -0.14248712 0.37957865 0.12609385 -0.051366795 0.0810547 0.1956097 0.1073227 0.034005404 -0.2162847 0.11519174 0.34497145 -0.21567434 0.2961926 -0.12181323 -0.14047554 0.45864272 -0.015392736 0.05261018 0.14163308 -0.22876267 0.28005084 -0.022504374 -0.16157019 -0.4029491 0.28286022 0.29041788 -0.26451582 0.03154258 0.20969653 -0.16730268 -0.15109858 0.0070846956 0.04404511 0.2295354 -0.06473813 0.24432841 -0.12291936 -0.28050715 0.18862021 0.41246936 0.3188124 -0.06523329 0.16603787 0.18991767 -0.03916365 0.30894613 0.01577184 -0.16171062 -0.2397545 0.3987463 0.025529955 -0.018786293 0.05951417 0.07280642 0.22918351 -0.011516324 -0.05734826 0.101034224 0.1697263 -0.23545581 0.1617354 0.09719175 -0.30261618 0.35033783 -0.036588527 0.17145465 0.280405 0.10528772 0.16140862 -0.17854607 0.1790904 0.047556415 0.04591272 0.020398943 0.09890122 -0.06776786 0.04384593 -0.53350216 0.06963493 -0.13268736
utala 0.044126578 0.19761343 -0.20552713 0.14516743 0.0026800456 -0.20065956 0.1646544 0.2809743 0.10312822 -0.14882807 0.17360951 -0.17407185 0.008940898 0.109710604 0.16259031 0.09385722 0.011536599 0.01452227 -0.28145257 -0.3449682 -0.102972515 0.32338732 0.5608638 0.088243164 0.043581635 0.06706345 0.17604129 0.017491851 0.21124804 0.1312374 0.17684908 -0.24434733 0.39109302 -0.5137191 -0.06848298 0.6209116 0.019874182 -0.07578977 0.032821216 -0.14354202 0.24694921 -0.32887664 -0.051940154 -0.076059476 0.23702724 0.14591517 -0.50908697 0.12538792 -0.011853655 -0.26193818 0.17148544 -0.17913392 -0.25738284 -0.16691098 0.1307055 0.015638206 0.097368486 0.0074811927 0.17741007 0.31520104 -0.03461501 -0.06534255 0.36613733 0.084639385 -0.22369936 0.11512157 -0.37044865 0.29838708 -0.4163292 0.22803017 0.26507005 -0.11968883 -0.045765657 0.39495552 0.31723338 -0.1674346 -0.1526852 -0.14758566 0.008004807 -0.13378052 -0.19170973 0.07132778 -0.28973264 -0.17916667 -0.1221464 -0.07316344 0.39001277 -0.13938633 0.1960484 0.03058957 0.12596957 -0.27670696 0.31571832 -0.036361214 0.2583198 -0.13335817 -0.020154862 -0.19363381 -0.073630534 -0.24758518
waso -0.12800036 -0.2711152 0.07198912 -0.018071607 0.42478347 -0.50126284 0.07097652 0.6083544 -0.23755558 -0.29090846 -0.11755813 -0.36743304 -0.40308106 0.34954083 0.17174077 0.01827839 -0.26945803 -0.12057575 -0.09510413 -0.30336863 0.032978702 0.06042802 0.28467712 -0.22315119 0.25986433 -0.12228274 0.036039747 -0.11227523 -0.017103137 -0.20832911 0.30213377 0.2890413 0.22903712 0.13861285 -0.1943043 0.19873981 0.29258892 -0.16157374 0.03597836 -0.0460652 0.46403277 -0.05956533 -0.34579188 -0.48127088 0.008503963 0.11680774 -0.17712882 -0.097699605 0.24310279 0.2108508 -0.075288214 -0.123851344 0.3580913 0.12757325 0.42650673 0.23255761 0.29740277 0.09643374 0.37330186 0.49709287 0.030222032 -0.0060897814 0.17510119 -0.54279953 -0.3449584 -0.10239439 -0.07628544 -0.07378654 -0.22531062 0.2580229 0.09155559 -0.42683893 0.2914899 0.15427484 0.12746008 -0.097328834 0.20276943 0.07226178 -0.02481948 -0.074812904 0.21064205 -0.15482575 -0.3330165 0.28440952 -0.26998252 0.18347293 0.3071821 -0.018962173 0.2931884 0.09554524 0.21142511 0.25842637 0.25543454 0.20921025 0.3014458 0.18286231 -0.0818024 -0.191031 0.007754025 0.03004257
poka -0.1487906 0.33869517 -0.13715526 -0.16368522 -0.011803913 -0.36390483 0.17225069 0.48130128 -0.03840601 -0.24491899 -0.0777747 -0.05600236 0.05436948 0.03319279 0.50941163 -0.082022466 0.010016574 0.16305582 0.029031822 -0.28321394 0.2503524 0.09729468 -0.07358579 -0.053150587 0.36473945 -0.11438498 -0.29490554 -0.19452393 -0.08759589 0.0014689738 -0.16985597 -0.12000285 0.009337467 -0.36363336 0.2074689 0.20212145 0.16509254 0.0140482625 0.21757981 -0.099761 -0.2309184 -0.0071091987 -0.15897739 -0.098750286 0.102644704 0.092324734 -0.2979909 0.15285477 0.1118933 0.12753612 0.096997455 0.046378836 -0.23780158 0.11085914 0.15282169 0.15492365 0.18500167 0.1532271 0.031108826 0.25516126 -0.06893036 0.18253154 -0.29718828 -0.2246396 -0.09818838 0.50361264 -0.09472617 0.22230297 -0.25447237 0.21536185 -0.08096393 0.3092784 0.34419993 0.13757887 0.15243138 0.15346459 -0.07795426 -0.016023885 -0.29323375 -0.024176296 -0.013230925 0.035864197 -0.162788 0.32820788 0.0780596 0.1160339 0.33845872 -0.037897915 0.1696046 0.109842055 0.1962576 0.08014463 0.01126226 -0.03198248 0.2365797 0.15940963 0.3055138 0.1270452 0.039667252 -0.13584873
anpa -0.074147284 0.006553489 -0.036111604 -0.12894621 0.18925443 -0.32285893 0.41197926 0.36795107 0.23075894 -0.33066547 -0.14900428 -0.1505813 0.057056766 -0.122914985 0.26607373 0.107509226 0.11070849 -0.037869263 -0.050432723 -0.36578304 0.15661557 0.21439837 0.39951596 -0.11387882 0.334552 0.0048337555 -0.16879536 -0.01922811 0.0016662293 0.1574912 0.14954053 -0.11739113 0.107849464 -0.19991884 -0.19309653 0.47051036 0.25123596 0.013933617 0.002757241 -0.10633339 -0.06377362 -0.0133767 -0.10990642 -0.2175388 0.1551309 0.09144698 -0.42800695 -0.020206705 -0.013658478 0.054245193 -0.109831914 -0.109039135 -0.13520303 0.19264482 -0.2549914 0.10190351 -0.020574909 -0.15536033 -0.059247795 0.5578989 -0.032872744 0.098358035 0.17789954 -0.1907041 -0.27172714 0.256297 -0.2672597 0.12804012 -0.2252526 0.14882538 0.16726542 0.38711601 0.15950194 0.22888716 0.28537634 -0.11237294 -0.055548757 -0.04245931 -0.2663103 -0.22436094 0.0053687477 0.15269968 -0.21704614 0.18919364 -0.06626466 0.096379705 0.50391215 -0.13830675 0.11014595 -0.2632213 0.20503387 0.16670501 0.09997353 -0.09620282 0.17610134 -0.1863079 0.12123755 -0.11381681 0.048678905 -0.26269105
kiwen 0.037315127 0.106816664 -0.07531254 -0.33698386 0.11169408 -0.5381169 0.41073415 0.51157314 0.26954317 -0.354703 -0.07882939 -0.07024577 0.0901394 0.23700818 0.22889966 0.09871554 0.12093095 -0.13731614 0.008369198 -0.39987135 0.04187437 0.15978363 -0.26595175 -0.034415245 0.31837636 -0.24994905 0.14625485 -0.13062395 -0.32726765 0.12030947 0.28767145 0.10915419 -0.027170472 -0.26661804 -0.35935113 0.38357425 -0.2464747 -0.13792211 0.31690612 -0.280438 0.20297177 -0.053143837 0.13052486 -0.37111744 0.14355187 -0.012954492 -0.29288882 0.0741741 0.0627753 0.12945081 0.0021180809 -0.27635717 -0.20810351 0.10683455 0.1268093 0.32335022 -0.034469675 0.12978011 0.007445288 0.356345 0.22631899 -0.12422122 0.23223342 -0.10732967 -0.14355184 0.1728827 0.028522672 0.14538375 -0.0008495468 0.09314567 0.35659283 0.20679262 0.097090326 0.05276783 0.33764464 0.068925545 -0.08643659 0.10450342 -0.14207697 -0.028748337 0.2158755 0.3363302 -0.30226186 0.4468251 0.1458583 0.17415123 0.34947574 0.14434926 0.24738944 -0.095424324 0.5939958 0.21973097 0.00734604 0.119833186 0.070032656 0.14219071 0.15349169 -0.04183056 0.18481131 -0.20477362
poki -0.16394587 0.0882487 -0.25154695 -0.2642891 0.076109774 -0.65893114 0.33051565 0.42335087 -0.09221577 -0.49464864 -0.17394063 -0.15533738 0.027588356 0.24935895 0.32141584 0.13542971 0.085824646 -0.1108754 -0.09912482 -0.26809874 0.01472744 0.115184024 -0.23656592 -0.031370968 0.35593724 -0.13961412 -0.060292143 -0.09582893 -0.3207206 -0.10648256 0.35902742 0.13083126 0.055239342 -0.17311908 -0.0010955284 0.16707098 0.16105038 -0.031704403 0.11264386 -0.15922414 0.14178468 -0.0074464567 -0.22775444 -0.33729738 0.17583454 0.18684082 -0.08758582 -0.12367527 0.34450185 0.021532578 -0.05719579 -0.07011906 0.10011419 0.27148336 0.10112938 0.24701354 0.10007461 -0.030493822 0.06886397 0.46656615 0.22174464 -0.03888883 0.028909897 -0.15172921 -0.29744506 0.32740158 0.20601389 -0.11092353 -0.17954436 0.30861467 -0.029342256 0.085106395 0.30026942 0.19467346 0.058821492 0.035339497 0.07985006 0.1607339 -0.10568967 -0.08958333 0.14551388 0.1869491 -0.109045595 0.34309423 -0.051939238 0.21378659 0.22805095 0.10507189 0.24304748 -0.090461224 0.3007956 0.26532575 -0.015956894 0.18562894 0.076264225 0.04222064 0.24167097 -0.17302121 0.18029626 -0.26988557
