460 100
li -0.021664614 -0.1362791 -0.029568555 0.037229992 -0.09328676 -0.32088098 0.13437995 0.06459447 -0.2702401 -0.11705334 0.04724725 -0.0058484743 -0.06966215 0.06281925 -0.026926033 -0.019602522 0.18085301 0.013219299 -0.086919986 -0.061011467 0.19155352 0.10108913 0.27201658 -0.09928311 0.016998606 0.068369545 -0.2222934 -0.05952887 -0.19018328 -0.11503497 0.17117809 -0.030261079 0.3116827 -0.18809476 -0.183611 0.17974705 0.2391446 0.024033768 -0.08115393 -0.18633191 -0.16567498 -0.19877876 -0.17827944 -0.06748426 0.04068399 0.12412947 -0.15659374 0.156564 0.033094972 0.29636422 -0.10007686 -0.02011056 0.17110188 0.026223289 0.0024319834 -0.111484945 0.18523408 -0.14883436 -0.27370796 0.11642515 -0.021258377 -0.01243512 0.14240159 -0.17902455 0.036295403 0.09066658 0.07171039 0.09568595 -0.24491926 0.16925195 0.13631336 0.35198617 0.037760925 -0.0689344 0.38044703 0.02381073 -0.0011256988 0.2632084 -0.15482455 -0.24746074 -0.14345643 -0.01866045 0.05848542 0.22767454 -0.06327297 -0.014202117 0.13697304 -0.010543667 0.11816441 0.035045397 0.4626639 0.18792602 0.12720738 -0.28250858 0.29207912 0.1804892 -0.14909013 -0.25573668 -0.13824748 0.10379829
e -0.1856118 0.10014628 0.110307455 0.06322244 0.007908035 -0.28295183 0.116398156 0.1351313 -0.29671526 -0.14968994 -0.10158669 -0.29580396 -0.22485334 0.11461496 0.041428294 -0.0042368113 0.29636958 0.20166075 -0.102205895 -0.4210981 -0.01723966 -0.056033056 0.16453174 -0.31973088 0.079455376 0.07047062 -0.28608784 -0.08211011 -0.041365776 0.06771192 0.24296905 -0.19187161 0.30959377 -0.08257248 -0.029756702 0.12024056 0.13537246 0.21807785 0.1036812 0.058764126 0.24467605 -0.4276643 -0.11004928 -0.06887404 -0.111754514 0.038360316 -0.052161776 0.009818275 -0.050081324 0.18903154 0.11671382 -0.22321993 0.12817533 0.34524065 -0.12520388 0.1257104 0.49473527 0.006762134 -0.2617956 0.088660926 -0.16732396 -0.06812212 0.009263893 -0.028982142 -0.033085324 0.34589684 0.062642306 0.0013091017 0.043101475 0.2380958 0.031068737 0.17421502 0.37941223 0.17803913 0.22030877 -0.16758098 -0.05715589 0.24520412 0.07311636 -0.111609034 -0.21702453 0.029562669 -0.014811439 0.13845223 -0.059529133 -0.050146095 -0.005878724 0.0021758978 0.20493004 0.16846314 0.36712393 0.18115535 0.010841223 -0.3145658 0.029736405 0.1928452 0.110732816 -0.06961209 -0.19041947 0.08457662
jan -0.2300108 0.010833147 -0.059187956 0.19091807 0.024040021 0.047124375 -0.0457696 0.23781785 -0.30572325 -0.004108234 -0.3168427 -0.24333566 0.015731808 -0.06067805 0.108150266 -0.21005759 0.21444505 -0.014279015 -0.28011274 -0.33237156 -0.025826761 -0.036868412 0.11771049 -0.1725786 0.22124055 -0.079355404 0.015193084 -0.049782272 -0.22330005 0.10149984 0.21144795 -0.1395916 0.04224995 -0.12319635 -0.23357573 0.10650545 0.25825578 0.23751454 -0.006775808 0.046728373 0.082252905 -0.004134968 0.02534502 0.044748902 0.21890457 0.1820017 -0.008924479 -0.052867997 0.0708313 0.13102253 -0.0024322886 0.062210493 0.05721154 -0.060907055 -0.39571133 -0.034632426 0.34131384 -0.1354097 -0.18836021 -0.022953378 0.1202021 0.08953801 0.42532167 -0.024161154 -0.26260072 0.30434304 0.21855931 0.19638263 -0.3023627 0.15136263 0.3871978 0.19541031 0.3403912 0.22419223 0.03518438 0.18277954 0.37715194 0.12786412 0.054035075 -0.2770454 0.014203889 -0.21244977 -0.070853345 0.144593 -0.06921869 -0.15663044 -0.13206747 0.013041145 0.22524987 0.021795893 0.06525317 0.13939683 0.1527809 -0.2562704 0.1704935 0.50207084 -0.032172527 -0.242276 0.2293439 -0.108980544
ni -0.3801796 0.3712605 0.15902784 -0.05510181 -0.0073552597 -0.22760293 0.024031362 0.32349327 -0.18460223 -0.10260171 0.033038683 -0.12081556 -0.055425566 -0.1540402 0.04399722 -0.040705826 0.32932028 -0.13698885 -0.12907214 -0.41996497 0.13699277 -0.16016403 0.15879935 -0.04468769 -0.15256757 0.21412352 -0.19163676 0.002208431 -0.071963415 0.028869791 0.14930412 -0.058231544 0.070614025 -0.28941104 0.11314523 0.25604942 0.21447618 -0.025313515 -0.16537236 -0.0030727405 0.24646856 -0.088339336 -0.060192235 -0.06741907 0.1587133 -0.013410194 -0.08056913 0.09995459 -0.034952164 0.26416463 0.02744866 -0.06553784 0.03922696 0.033494428 -0.09516031 -0.03720933 0.2870221 0.12413018 -0.075273365 0.076573595 0.015192466 0.007710404 0.2907269 0.04642046 0.0124977175 0.07772759 0.0063837827 0.30024463 -0.08979001 0.11833315 0.052711416 0.1258962 0.20720653 0.14154044 0.20601487 0.0075579053 -0.19062352 0.07754611 0.083094135 -0.19112587 -0.21341756 0.057378665 -0.067911185 0.16031484 -0.092863575 -0.12742549 0.10533345 0.1515617 0.19159815 0.091153845 0.24017723 0.16636994 0.0450969 -0.21841814 0.32042482 0.19677988 -0.05388609 -0.24272406 -0.10636139 -0.06180438
pi -0.09742243 0.045809396 0.06686262 0.11815987 0.008630538 -0.18839547 0.06775738 0.22522768 -0.14464755 0.058057565 -0.029988116 -0.038027145 -0.37926143 -0.02432797 -0.015393054 0.03371304 0.002376302 -0.07550833 0.011607798 -0.46137902 -0.057879757 0.07723006 0.24932596 -0.032996673 0.07666644 0.07747538 -0.36847496 0.16121335 -0.22356516 0.11885965 0.10489926 0.022951234 0.29902154 -0.40330216 0.03488366 0.15136826 0.15326753 -0.07063116 -0.25649592 -0.21529816 0.003910093 -0.30017814 -0.06444848 0.05455421 0.09765212 -0.012498056 -0.011376829 0.119076885 0.043757845 0.10886733 0.026055772 -0.18823887 0.3188836 0.2195798 -0.093103305 -0.18480755 0.0691278 -0.18639098 -0.28607005 0.045569856 -0.03506665 -0.123374715 0.08020974 -0.18210576 -0.00043013037 0.2197517 0.124674655 0.18387349 -0.22281033 0.13311222 -0.19329673 0.3751869 0.15433925 -0.07739759 0.124032885 0.02422229 -0.14375187 0.15028402 0.12526456 -0.4093242 -0.10353695 -0.002454518 -0.112846956 0.098089345 -0.21838346 0.015239837 0.037901707 -0.066851296 0.05456909 0.30076692 0.20501618 -0.056242403 -0.021350555 -0.1700698 -0.023206497 0.17715451 -0.15580708 0.021126052 -0.054402016 0.06794625
mi -0.18930522 0.04324803 0.014305895 -0.2182681 -0.30630848 -0.0025224974 0.23767377 0.04116458 -0.19134107 -0.13891754 -0.061217006 -0.15120295 -0.2882647 -0.30313796 -0.050936114 -0.10099182 0.12696119 -0.13033667 -0.114286005 -0.21810262 0.008869151 0.12772687 0.09615688 0.19740756 -0.20610964 0.19696662 -0.026971146 -0.25899315 -0.12743506 -0.10900349 0.2880358 -0.26351273 0.14085631 -0.38754717 0.012764121 0.13918754 0.37587786 0.21394159 -0.05451266 -0.053522713 0.14914332 -0.34988865 -0.12416982 -0.072200075 0.07009408 -0.07492999 -0.17803603 0.22423011 -0.07455997 0.32288638 -0.1105954 -0.21033326 0.27775723 0.10969859 0.03399533 0.14856938 0.34796098 -0.0700792 -0.32030168 -0.06961711 0.07552655 -0.037357222 0.40550625 -0.17751639 -0.006231003 0.25477126 -0.068371356 0.23198037 -0.14760222 -0.08757517 0.31512937 0.35679007 0.3103758 0.12552424 0.29486886 -0.008789085 -0.05886445 0.23258361 0.337108 -0.14831574 -0.012034076 -0.0037329611 -0.041370217 -0.043879315 0.046109993 -0.1761686 -0.13241027 0.27774 -0.03749634 0.044971574 0.28430134 0.27002832 0.060308956 -0.2544122 0.104561314 0.29719588 0.015873363 -0.2135159 0.057294447 -0.08852309
la -0.15773353 0.28523725 0.19664475 -0.07597664 -0.016608918 -0.26028112 0.41951048 0.039572656 -0.25641206 -0.12882973 0.18743747 -0.11281933 -0.05713176 0.015302923 0.20324878 -0.09839022 0.33947936 0.0065346574 -0.07298659 -0.42885688 0.21546425 0.115947045 0.20323806 0.0850343 -0.16568004 0.101601735 -0.39306206 -0.20133048 -0.074753664 0.019016996 0.30802885 0.019200603 0.010305833 -0.06892512 -0.04880421 0.0517404 -0.005430668 0.036770716 -0.165965 -0.1889627 0.47651753 -0.24272756 0.04443447 -0.076573 -0.056617495 -0.09953708 -0.04581851 -0.14561658 -0.04668225 0.32825878 -0.09938843 -0.30985212 -0.026965447 0.20907979 -0.090028524 -0.09906827 0.13438208 -0.026183207 -0.2196834 -0.06423045 -0.20180136 -0.10083181 0.30393693 -0.07196811 -0.06777162 0.21316138 -0.14266162 -0.09578682 -0.20454462 0.06409636 0.20434286 0.18602972 0.29588935 0.15875141 0.30172712 -0.18773542 -0.055590313 0.3615172 0.06988863 -0.17011105 -0.06081005 0.0059332796 -0.098074496 0.16139862 -0.27359277 -0.085817315 0.14994289 0.018752187 0.022282505 0.17756113 0.3739591 0.10648603 -0.07404194 -0.18386164 0.012818866 0.055975825 0.15780649 -0.30338627 -0.17072217 0.06407585
toki 0.00593946 -0.1064373 0.15700291 0.13124096 -0.1268969 0.02739594 0.2624943 0.09689358 -0.5155729 -0.17630374 -0.14211388 -0.3472207 0.0015487302 -0.11350309 0.07952943 -0.0045838137 0.42081484 -0.1462924 -0.10989401 -0.33465415 0.16848415 0.18111013 0.34067658 -0.09401559 0.018433776 0.09234159 0.11570169 0.09755736 -0.17167546 0.30586392 0.045318812 -0.20144941 0.12247457 -0.43619645 -0.05308305 -0.044545818 -0.018898157 0.020894628 -0.088502645 0.009906195 0.3550996 -0.037872743 0.24707398 0.2738717 0.36650914 -0.12487813 -0.19836456 -0.042159088 0.27068332 0.16757941 -0.17205991 0.012481958 0.17894164 -0.039856385 -0.048247978 -0.04025518 0.3770306 0.19851436 0.029033327 0.05339074 0.048623253 -0.010131404 0.1893327 0.36173186 -0.34657443 0.56291777 -0.32410935 0.27200553 -0.083070256 -0.18890989 0.28093824 0.08755081 0.43484828 -0.035173215 0.23576653 0.027218265 0.43161985 -0.1652123 0.003953722 -0.45058578 -0.25152 -0.032795586 -0.3295951 0.08742285 0.2643001 -0.2134547 0.0378087 0.25741753 0.27527657 0.16735427 0.09217675 -0.14707324 -0.15224287 0.01762114 0.25629 0.4067918 -1.2670047e-05 -0.31921637 0.250155 -0.19685605
ona -0.19269492 0.44258133 0.022282097 -0.12190529 -0.04384612 -0.11357099 0.27505016 0.23579063 -0.3073165 -0.2057384 0.049507704 -0.07795431 -0.039910585 -0.124104746 0.30282795 -0.17349659 -0.0053303586 -0.094701804 -0.22342585 -0.35521907 0.24499643 0.03561799 0.23419772 -0.084917456 -0.06517849 0.09080588 -0.165852 -0.15923624 -0.22206946 -0.07256814 0.13821529 -0.40414175 0.15917452 -0.2696002 0.044089716 -0.0621686 0.14867988 0.18784277 -0.0081347525 -0.027501341 -0.1083192 -0.11320864 -0.14361376 0.1147993 0.18872003 -0.036488906 0.08991573 0.14473344 -0.1698696 0.20267518 0.13373321 -0.09966464 -0.04905258 0.14400409 -0.15444866 -0.1339749 0.28578782 -0.151889 -0.41530088 -0.27379858 -0.059120692 -0.06564158 0.13671383 -0.036264896 0.020330798 0.3122281 0.030330418 0.268217 -0.20712957 0.2782194 -0.111380175 0.33255267 0.17330953 0.123321354 0.14526573 -0.051813256 -0.18152073 0.19177079 -0.0021340034 -0.16958347 -0.0050651794 -0.09992774 0.02603784 0.006191763 0.0877704 -0.13405907 0.055344712 -0.022824224 -0.06912258 0.28268155 0.31210694 0.16206218 0.04110184 -0.23383127 0.40897796 0.26660636 0.04702622 -0.14755327 -0.24724142 -0.18533398
tawa -0.2758627 0.14083336 0.10739932 0.047980264 -0.17551818 -0.29156944 -0.050447814 0.20463465 -0.18020739 -0.27514073 0.0056932513 -0.012855094 -0.22875078 0.14134501 0.08554454 -0.099614814 0.1347741 -0.13456462 0.10857871 -0.5037467 0.1820741 -0.06541493 0.09106734 0.012592354 0.03670697 0.025771225 -0.31763515 0.048090067 -0.16434962 0.16332576 0.149931 -0.23018081 0.20729338 -0.17091954 -0.13397339 0.26151216 0.12853946 0.09110517 -0.081811234 0.10734539 0.279632 0.040431574 -0.17516753 -0.23384403 -0.027558472 -0.05370066 -0.045290936 0.10101937 0.10588528 0.30808 0.12678225 0.038440876 0.09155943 0.2823311 0.10766062 -0.15309441 0.14078972 0.08314781 -0.18342878 -0.1679655 -0.19714968 0.041317116 0.2006244 0.03516613 -0.043139067 0.14110734 0.085762165 -0.10522506 -0.054016616 0.22194982 0.13630934 0.51454943 0.24855 -0.033764206 0.20037952 -0.11057293 0.0038733697 0.21767864 0.18088928 -0.14898108 -0.17177016 0.008376717 0.019438092 0.2343992 -0.19449493 -0.18928652 -0.13272442 0.07637653 0.15974349 0.3955968 0.3053223 0.2277011 -0.0918723 -0.32448393 0.10996972 0.10868265 -0.06721121 -0.09358672 -0.09930769 0.086511105
pona 0.030262977 0.13247341 0.16684887 -0.16192497 -0.12677662 -0.19370185 0.1752393 0.39989424 -0.012117157 -0.36791828 0.031585768 -0.21145663 0.12892565 -0.25715268 0.09905969 0.04603793 0.017205983 -0.01044293 0.004111327 -0.32647046 -0.06695856 -0.17593434 0.10771678 -0.004496245 -0.2977203 0.14243871 -0.13056235 -0.014706218 0.026351161 0.14198467 0.05518307 -0.08156852 0.18419959 -0.2789372 0.2269131 -0.05673504 0.19838889 0.21339835 0.1029119 0.10537385 0.21038267 -0.1911814 -0.092941046 0.10957527 0.033714395 -0.30073306 -0.020388449 0.07371435 -0.08277836 0.1966493 -0.03729774 -0.077190325 0.1327047 0.08254018 -0.0375319 0.13348821 0.14790212 0.021665063 -0.11462577 0.01207743 -0.1596044 -0.062235627 0.27158695 0.24101605 -0.040620472 0.4914095 -0.08172327 0.21159862 -0.02078397 -0.106650956 0.33233988 0.3341008 0.33160025 0.31026933 0.35629427 0.03973301 -1.6300852e-05 0.073294416 0.07536595 -0.10765351 -0.014482004 0.092133544 -0.046252053 0.08846461 -0.15809883 -0.05355238 0.3065058 0.06893211 0.1572065 0.25858223 0.4853654 0.053044338 0.03457923 -0.08645963 0.25863168 0.25042954 0.038314003 -0.2990362 -0.08521958 -0.25340828
lon 0.20789485 0.14953062 0.052599125 0.12644225 -0.14903054 -0.07336071 0.032389946 0.30084512 -0.2945373 -0.011858874 -0.10763537 -0.01829447 -0.15517016 -0.021677842 -0.15286343 0.017491082 0.053539492 -0.09344526 -0.1565213 -0.7704081 0.03579806 -0.113123 -0.113536224 -0.28043488 -0.2968023 -0.010230998 -0.4685265 -0.06491632 0.09883833 -0.027454974 0.02092648 -0.045959976 0.09834075 -0.12786701 -0.16954938 0.12593268 0.17552832 -0.15754062 -0.2730112 -0.36085674 0.10763898 -0.2339198 -0.13884494 0.06924156 0.18252848 -0.08034855 -0.107786335 -0.021316055 0.08517172 0.31501782 0.048794232 -0.06189774 0.054865584 0.1782509 -0.118854925 0.06547904 0.09385824 -0.10201915 -0.15816708 -0.25210777 0.09824857 -0.14676768 0.0113824755 0.06264035 -0.16546685 0.52238894 -0.01539679 0.17188871 -0.17708571 0.23836857 -0.27022788 0.2759276 0.048722584 0.042547327 -0.0034580657 0.08770623 -0.08064989 0.16808878 0.019366825 -0.1042782 -0.08742849 0.12961751 -0.22218111 0.09793819 -0.06531596 -0.11781455 0.07997529 -0.050175786 0.12760526 0.35052046 0.17642616 0.10943052 -0.13422349 0.24634829 0.3333198 -0.11575986 -0.11990733 -0.03205054 -0.16291825 -0.12803173
mute -0.09183463 0.1623495 0.032898247 -0.18287957 0.12159121 -0.21737137 0.17963618 0.5289355 0.020893492 -0.20165442 -0.20683576 -0.3772931 -0.018360278 0.109434135 -0.06049812 -0.088324524 0.15650491 -0.13780391 -0.24926564 -0.38093895 -0.13917495 0.062200088 0.099308416 0.10890527 -0.006505176 0.01929225 -0.38934913 0.043910857 -0.11785636 0.07074418 0.16725919 -0.04044825 0.2575199 -0.4160409 -0.00837212 0.030001568 0.27287883 0.0015996862 -0.033582635 -0.00770005 0.029122597 -0.20252173 0.03924589 0.05944731 0.06259137 0.014266145 0.0124838315 -0.17446837 -0.20602016 0.11491947 -0.079040244 -0.17308542 0.015991546 -0.068733215 0.07657919 -0.17935275 0.22174142 -0.0708083 -0.032348763 0.24858229 0.007912206 -0.0818666 0.3024338 0.01491971 0.0020753888 0.07801812 0.11132083 0.07994375 -0.18672334 -0.028494393 0.14849116 0.27245656 0.2793037 0.085367784 0.22236927 -0.19715962 -0.07891764 0.017535562 -0.12445694 -0.3007659 -0.07689002 0.095292956 -0.05934151 0.06576895 -0.046061486 -0.020859374 0.18610623 0.0155289 0.052597918 0.103829145 0.10999582 0.13995941 0.20281968 -0.2662316 0.09288375 0.11093932 0.05313514 0.010111465 0.018567313 0.1896405
ala -0.4055372 0.34367788 -0.113683194 -0.14444874 -0.18591249 -0.32637176 0.07410452 0.16808207 -0.2309037 -0.081881605 0.015725361 -0.27279654 -0.041077774 -0.16141029 0.10357326 0.21461374 0.23085548 -0.087508984 -0.17746341 -0.31934187 -0.0270072 0.040700577 0.019461054 0.11336498 0.01038431 0.29771194 -0.39548895 0.06547389 -0.10713612 -0.026051054 0.2979561 -0.0682874 0.025638022 -0.2139433 0.108380824 -0.098012835 0.1418922 0.014103522 -0.0049449434 -0.10910037 0.003746888 -0.16948466 -0.119956665 -0.058437195 0.08179595 -0.14063935 -0.057475638 0.12485838 -0.009471506 0.0965265 0.029902982 -0.0645883 -0.017276134 0.2687546 -0.085945666 0.12732549 0.28928816 -0.03366477 -0.17309503 0.014971761 0.017430555 0.20044841 0.17904443 0.16992086 0.018579965 0.44844761 -0.09048782 0.30486017 -0.094968304 0.014064863 0.24980846 0.1769126 0.17580323 0.25279778 0.43626338 -0.08287116 -0.31898254 0.2804898 0.0038497208 -0.3522356 -0.124645635 -0.17270696 -0.051314484 0.212555 0.009597823 0.025690785 0.16373788 0.11241246 0.2215475 0.11843381 0.3626373 0.3371741 -0.025647117 -0.18852553 0.08795994 0.21658501 0.24327305 -0.2046738 -0.11548039 0.18010363
tenpo 0.14401971 0.30383003 -0.048579775 -0.35638738 0.12090323 -0.055389 0.35056692 0.19608732 -0.10144477 -0.27737632 0.17262767 -0.51193184 -0.2697069 -0.29306158 -0.11289332 0.039370406 0.40130123 -0.22551735 -0.23763543 -0.50349724 0.23842831 0.20111312 -0.02471549 0.09811827 -0.27225244 -0.006236241 -0.10954081 -0.37247056 0.1989348 -0.15099524 -0.22821707 -0.1800884 0.27716124 -0.41980794 -0.30594578 0.07397989 0.19788842 0.15080976 -0.046058122 -0.06266519 0.18794447 -0.2878914 0.11213318 0.058805447 0.13715832 0.16663684 -0.27242884 -0.1698124 0.15104687 0.49238214 0.044556063 0.0489251 0.28933668 -0.19679157 -0.038805846 -0.15722457 0.4151031 -0.046103504 -0.0468382 0.23015699 -0.06751578 -0.21306357 0.15227489 0.12376593 -0.14228626 0.22518115 -0.08979938 0.022190554 -0.18633796 0.039453026 0.06440128 -0.02357594 0.41537046 0.081148684 0.07169227 -0.3159743 0.3767947 0.28097072 0.12157881 -0.0399874 -0.21291618 0.15395647 -0.14903249 -0.005487327 0.0113362335 -0.08829859 0.08723808 0.25240672 0.027802108 0.08357142 0.5099562 0.16430408 0.44876742 -0.064766824 0.00951663 -0.13070661 0.0139636295 -0.0316684 0.05885679 0.17941575
kama -0.34262618 0.3168335 0.1252522 -0.14943345 -0.15912323 -0.28182444 0.14665323 0.2369607 -0.30958387 0.028024247 -0.14471975 -0.4260034 -0.18122938 0.10776592 -0.11703508 -0.23907897 0.04193053 -0.055191983 -0.27890578 -0.3776747 0.17702705 0.07734768 -0.0077934256 0.003741604 -0.2547515 0.099189855 -0.22223501 -0.008606384 -0.004689824 -0.041858654 0.05773954 -0.1302754 0.22548328 -0.34244165 -0.032459356 0.29933712 0.27548596 0.10925837 -0.3593733 -0.10096386 0.23757084 -0.106875196 -0.19556242 0.13850722 0.16523468 -0.087533385 -0.08555124 -0.15319623 0.14795001 0.04096815 -0.25701052 -0.11588079 0.18713981 0.14516938 -0.073191576 0.03942463 0.29188323 -0.015772348 0.12631586 0.18083729 0.105262026 -0.08609241 0.21660097 -0.05925243 0.16078961 0.065383375 -0.012936228 0.35662824 -0.06458455 0.1321552 -0.13186012 0.12416015 0.14629973 0.007447413 0.25568166 -0.034528818 -0.053823948 0.028630348 -0.042902425 -0.18348394 -0.24712023 -0.042274326 -0.14897712 -0.075637646 0.01248891 -0.30541688 0.099458724 0.029655062 0.20769481 0.36351523 0.12663499 0.12339458 0.0650347 -0.23810412 0.049887355 0.06871562 0.12714116 0.049883 0.051841956 0.1779949
sina -0.3092466 0.28112411 0.11083237 -0.127782 -0.11461345 -0.17896837 0.094897225 0.2483955 -0.17617604 -0.20791665 -0.076113105 -0.36814687 0.051152796 -0.04491216 0.10174523 0.03244863 -0.06458083 0.0048279827 -0.1574939 -0.332427 0.19614622 -0.13384703 -0.023361335 0.14615226 -0.23599416 0.2448749 -0.085407145 -0.29220608 -0.24752784 -0.11478831 0.19127801 -0.2766123 0.015178785 -0.37772426 0.12245046 0.148277 0.5099166 0.28952223 -0.117482916 -0.08335712 0.16216752 -0.113469265 -0.20975275 -0.10054422 0.1794423 -0.18556386 -0.14037265 0.23695204 0.15014407 0.36665836 -0.11088631 -0.5010027 0.1055858 0.2597775 0.11019333 0.22236064 0.48049557 -0.09043645 -0.46862116 0.004918597 0.10862243 -0.054554358 0.41014835 0.2572475 0.13332267 0.31707743 -0.19724938 0.17650343 0.26972944 0.10248327 0.20573932 0.12395131 0.33345592 0.15356676 0.32134488 -0.03327948 0.0499762 -0.005624427 0.46400726 -0.20554806 0.007866376 -0.21491626 -0.081125855 -0.18367028 -0.2326879 -0.3448877 -0.13027427 0.09719044 0.14171544 0.2337085 0.27012604 0.40413353 0.08879111 -0.11603494 0.2692685 0.33036187 -0.08524844 -0.22025312 -0.14399947 -0.14748318
sona -0.14322518 -0.061621338 0.19348387 -0.046127185 -0.06147416 -0.18385786 0.29406527 0.10097363 -0.3524149 -0.15216269 -0.044930626 -0.27229115 0.3174215 -0.15715185 0.28085458 -0.19438104 0.3817639 -0.26519072 -0.20915824 -0.4843167 0.14004146 0.12037088 0.040440526 -0.11217407 -0.04272569 0.20725149 -0.2794876 0.17568068 0.07513038 0.23743667 0.10006286 -0.113507524 0.090757035 -0.29515952 -0.13991195 0.15283246 0.07761249 0.22825098 -0.055479757 0.20832148 0.29241046 -0.24697135 0.23966105 0.13359886 0.09573165 -0.16915227 -0.20928684 0.08909648 -0.05475 0.07230032 0.20497127 -0.12554665 0.21289055 0.014613675 -0.06004203 -0.09749504 0.35544044 0.19905858 -0.100634396 0.3838177 -0.16707566 -0.16418584 0.41771317 0.32624432 0.09096616 0.234283 -0.41656852 0.097773515 0.060596015 -0.10437929 0.41601843 0.35530078 0.3292631 0.021215646 0.32280976 -0.22035159 0.46450225 0.16162902 0.14726736 -0.12290031 -0.3268923 -0.22022724 -0.124208696 -0.091762275 -0.012965611 0.017402554 0.093096375 0.15408039 0.3270721 0.3688229 0.3914888 0.2426706 0.17429468 -0.07747426 0.3019249 0.06698776 -0.15148616 -0.20818879 0.060916178 -0.15464738
nimi 0.30230552 -0.19185273 -0.07370989 0.048902363 -0.22769925 -0.39781886 0.3117336 0.16887864 -0.33955017 -0.52563244 -0.17469431 -0.18263492 -0.016568467 -0.009712633 0.12745476 0.15956536 0.1312492 -0.05844539 0.041119535 0.03548263 0.06188297 0.16763173 0.21601266 0.008247768 0.13071978 0.0016531006 -0.23154755 0.25177753 -0.014940291 0.062484726 0.15041889 -0.08835029 -0.20280084 -0.17987084 -0.081047826 -0.12352373 -0.03897483 0.056494344 0.15582716 -0.17829518 -0.18069191 -0.22319967 0.1951282 0.19042625 0.24011897 0.015027004 -0.40767398 -0.06408128 0.38639626 -0.17802966 -0.01445258 -0.28495833 0.0056822826 -0.22016548 -0.17732064 0.31417796 0.08790832 0.029415704 -0.12908451 0.31116933 0.17093894 0.25582257 0.26717412 0.40086886 -0.44729018 0.4121087 -0.08744595 0.34855828 0.08550638 -0.04043737 0.40914175 0.029761085 0.43423453 0.16053677 0.5250332 0.061231896 -0.025680333 -0.050611634 -0.25668207 -0.21076836 0.039292958 -0.064740784 -0.15464017 0.3331458 0.3234707 -0.065336786 0.119767524 0.26252097 0.04292081 -0.16323867 0.60070324 0.26836762 -0.06295431 -0.033983205 0.16252808 0.23219296 0.2922965 -0.29303437 0.07029859 -0.22249372
ma 0.08150216 0.30047572 0.02389852 0.18952416 -0.3950024 0.009998589 0.17683987 0.16735467 -0.209916 0.029719168 -0.19621596 0.015017959 0.0017846676 -0.02023303 0.012663072 -0.05213816 0.10882706 -0.34531528 -0.109774716 -0.27094474 -0.080500185 0.0405965 0.00576821 -0.24873288 -0.46805635 0.28280923 -0.30123812 -0.40295088 -0.030226193 0.3090485 0.16151777 -0.092957385 0.31403145 -0.0050340816 -0.6826976 0.65339243 0.023389086 -0.12024808 -0.5123138 -0.33081308 -0.19080336 0.17726421 0.0015940049 0.21073183 0.010579451 0.0015847246 -0.06304417 -0.1709854 0.27754256 0.3372439 -0.24218588 -0.035802305 -0.1396799 -0.15803626 0.12825911 0.029748479 0.086588696 -0.17727034 0.106836095 -0.09317179 -0.046645034 -0.39221215 0.15680356 -0.27976504 0.024305131 0.11567297 0.08741014 -0.14008252 -0.63327235 0.2135175 0.061631605 0.21502756 0.22531916 -0.0048987633 0.046550296 0.30813563 0.34676033 0.24902064 0.078573436 -0.14451467 -0.3918657 -0.075809665 0.0069498434 -0.0872031 0.10656178 -0.45314193 0.121358626 0.24298908 0.22879112 -0.1838186 0.35787684 0.2487373 -0.12747242 0.050697528 -0.082006454 -0.14972119 -0.4686823 0.19322324 0.28532803 0.20454921
ken -0.2449141 0.4313836 0.18002012 0.014610337 -0.31355315 -0.31729484 0.24541269 0.34957525 -0.1636296 -0.12922959 0.17948502 -0.21890363 0.10149178 -0.0503547 0.035740074 -0.17520855 0.12740555 -0.15690847 -0.14740731 -0.45622775 0.31537306 -0.041929144 0.040627267 0.001937119 -0.25016603 0.02879782 -0.24526273 -0.030652113 -0.043726586 -0.21351698 0.10940735 -0.37718517 0.081328 -0.3169001 -0.06058846 0.031931467 0.26057413 0.09549605 0.011295122 -0.006341766 -0.06110881 -0.112165235 -0.22099434 -0.121342555 0.085197814 -0.06204512 -0.25680193 0.23704498 -0.029507106 0.2334208 0.35390332 -0.047716554 0.05516642 0.17964359 -0.007602102 0.10326755 0.434713 -0.01628369 -0.23805305 0.012500918 0.033967245 -0.14635871 0.26794308 0.116644524 -0.13993026 0.4445516 -0.09922694 0.052054647 0.1117105 0.16207264 0.18620495 0.29202867 0.020945951 0.057370543 0.31903073 0.02617362 -0.037779473 0.10906058 0.026419291 -0.07656066 -0.2525968 -0.019316103 -0.010112058 -0.0800635 -0.10894956 0.0046346933 0.08126626 -0.05643405 0.16561483 0.48432192 0.23976013 0.17290244 -0.11603626 -0.12028758 0.42352194 0.008682083 -0.025892032 -0.03193933 -0.41233304 -0.09992437
lili -0.2349429 0.38129172 0.07067028 -0.23284587 -0.024723375 -0.115788996 0.009970922 0.37783083 -0.05887219 -0.12616469 0.052334618 -0.009899591 -0.07562177 -0.030681077 0.04142722 -0.072973914 0.2199618 -0.33445677 -0.035226837 -0.25414133 0.10501475 -0.16799694 0.0456806 -0.02122869 -0.037424687 0.11316719 -0.40946975 0.04437559 -0.099929005 -0.10394667 0.058576554 -0.1643427 0.35873446 -0.26417455 0.1114474 0.18745181 0.1280978 -0.103057414 -0.09765106 0.1269918 -0.03619882 -0.25715593 -0.0008670625 -0.08301329 0.012725656 0.053316303 -0.029089963 0.22364701 -0.15591864 0.24606913 0.11834548 0.033526212 0.08558167 0.12186459 0.044298757 -0.25355637 0.29448688 0.15726633 -0.20251362 -0.011717844 0.09905998 -0.066030495 0.033556037 0.14271171 -0.09185696 0.21732035 0.1412504 0.21721324 -0.11610903 0.29225087 0.24281232 0.27135774 0.013524366 0.12410273 0.30622187 -0.46044633 -0.20087251 0.08995437 0.2600681 -0.13094264 -0.3223601 0.134139 -0.20250908 0.14766476 0.08459299 0.17349848 0.3117294 0.11460662 0.13485327 0.17555188 0.5842308 -0.06954627 0.08784238 -0.28138342 -0.07129527 0.16449627 -0.06094684 0.027853634 -0.19861089 -0.17148197
pali -0.28062108 0.24072891 0.18879214 -0.05419427 0.01952348 -0.14158413 0.036606908 0.40956506 -0.46026033 -0.39322037 -0.06830273 -0.34244743 0.0887962 0.03804462 0.18198963 -0.25183702 0.32754722 -0.03123906 -0.1367353 -0.3436675 0.1594498 -0.06284931 0.11208512 0.04821559 -0.049307156 0.11817457 -0.3926937 -0.037819173 -0.011123729 -0.12891491 -0.2057135 -0.1561029 0.22541505 -0.49472907 0.08009578 0.25807086 0.2624688 -0.12135167 -0.2432863 0.084657095 0.18495683 -0.23944849 0.0726111 -0.1252607 0.036587723 -0.23809737 -0.17783523 -0.018253693 -0.06928034 0.16867803 -0.07732753 -0.17814757 -0.13882701 0.0784399 0.24110238 -0.16223988 0.3472109 0.0675876 -0.0740743 -0.102665685 0.052970596 -0.15856715 0.32820836 0.31612322 0.063264295 0.23243912 -0.22740278 -0.007480819 0.040903214 0.052968234 0.22284822 0.15953413 0.22481076 0.06804832 0.05455513 -0.2637773 0.15880382 -0.032041833 0.023317609 0.02689602 -0.30198932 0.004595215 -0.036606792 -0.022448067 0.08468281 -0.038664233 0.25336695 0.113255024 0.19220114 0.30523127 0.3422108 0.03502806 0.06576071 -0.045278728 0.23655374 0.058213428 -0.111912265 -0.04748659 -0.1096232 -0.100267805
o -0.37921897 -0.16084962 0.1861742 -0.07050635 -0.20503333 0.034891404 -0.11427893 0.09982171 -0.14509818 0.08691147 -0.20828578 -0.22953287 -0.3804176 0.1380674 -0.22391856 -0.15524794 0.15277147 -0.008826953 0.1903813 -0.38289255 0.23265237 0.049766786 0.20240068 -0.24201149 -0.20177451 0.32264858 0.042667612 -0.37225592 -0.015749382 -0.1230386 0.35950923 -0.10115699 0.13402039 -0.2049272 -0.15653518 0.18995872 0.5893635 0.29289576 -0.12442216 -0.07726337 0.2209237 -0.3144983 0.052129462 -0.12617171 -0.0039865724 -0.15090775 -0.24724023 0.31536758 0.10259158 0.19587688 0.17893994 -0.27502558 0.6617617 0.22672635 -0.13279846 0.32689932 0.4174731 -0.12199084 -0.35398915 -0.20811318 -0.004338858 -0.01808565 0.17543171 0.036279894 0.01058629 0.17402694 -0.02466446 0.120308205 0.1302132 0.08722112 0.031888563 0.47770205 0.14829879 -0.008396066 0.26946864 0.17944323 0.22522594 0.11129175 0.25994527 -0.196281 -0.1416283 0.005934671 -0.050810523 -0.16114391 -0.018606303 -0.05046157 -0.15742281 0.29994425 -0.0099726375 0.18723163 0.47518966 0.21975498 -0.05617724 -0.17467716 0.15620804 0.3799204 -0.056945726 -0.2704537 0.004539557 0.130217
wile -0.43231338 0.17455463 0.21789835 -0.05072226 -0.13394594 -0.47468913 0.23362361 0.31742015 -0.4724151 -0.101819225 -0.18959701 -0.28548202 0.0024581365 0.12901172 -0.012122492 -0.10336521 0.35586736 -0.026257306 -0.19239786 -0.27932918 0.112460785 0.010666437 0.09685673 -0.021142872 -0.23603836 0.08585327 -0.32397634 -0.076318294 -0.1648121 -0.13520889 0.21972091 0.027240826 0.13597517 -0.11516816 -0.04896029 0.04269207 0.27878726 0.17879048 0.03610302 0.20068134 0.17978776 -0.2246529 0.15296403 -0.14463167 0.069778666 -0.08733415 -0.1236063 0.2349625 -0.014087737 0.050122295 0.23456609 0.17630391 0.1643759 0.21693267 0.024016364 -0.062927626 0.50692415 0.046001755 -0.035774708 0.15593642 0.06838346 -0.10110458 0.2601924 0.26677927 0.13726872 0.18624038 -0.08249888 -0.04827674 -0.0759681 0.17635192 0.39902306 0.07747727 0.16180134 0.16451685 0.3659852 -0.07151847 0.04436534 0.12690555 0.21672082 -0.10390742 -0.16171488 0.120546274 -0.032144032 0.05154144 -0.13872021 0.059839744 0.23243849 0.27347896 0.12419405 0.38373405 0.2620547 0.18183392 0.03680724 -0.18809064 0.1295076 0.12934121 -0.11135341 -0.056097254 -0.021675508 -0.1232961
suli 0.03809202 0.49963242 0.09832543 -0.061351124 0.058179148 -0.28150705 -0.056933496 0.45198366 -0.06552322 -0.061769836 -0.107142776 0.1027344 -0.08733092 0.20635238 0.15493435 -0.01319801 0.054038353 0.17879674 -0.25238723 -0.39471406 -0.14662923 -0.024869729 -0.14531508 -0.12775995 -0.21312207 0.12807919 -0.24803232 -0.085916504 -0.24355173 0.25580263 0.18121433 -0.23244718 0.03695497 -0.5083624 -0.14578354 0.37407756 0.34268606 0.09167982 -0.19314158 -0.20386624 -0.09665104 0.11183728 -0.018819457 0.015022268 -0.12894835 -0.2716126 -0.011126646 0.00641048 0.032003973 0.16592495 -0.04213724 -0.17537025 -0.07891786 0.021634554 0.11121691 -0.12099012 0.08069162 -0.10117661 -0.061289273 -0.18726893 0.014199419 -0.11216948 0.21325912 0.039601866 0.22664896 0.37475982 0.17472047 0.05945011 -0.48442307 0.019338658 -0.040615108 0.12640835 -0.020893045 0.013161259 0.23279196 0.01914748 -0.16547161 0.40095088 0.10477629 -0.2707195 -0.17558442 0.081047095 -0.19891092 0.017871061 -0.17158055 -0.05797138 0.11348896 0.16416925 0.1127797 0.26895213 0.2627558 0.101642564 0.059972525 -0.18106934 0.20237488 -0.020587081 -0.16033237 0.1692179 -0.062217545 0.0012465547
tan -0.21571293 0.004276536 0.028181324 0.17578718 -0.09385178 -0.17651804 0.13006824 0.15457805 -0.37074614 -0.21014322 -0.13452172 -0.10684971 -0.08360692 -0.018193869 -0.3809285 0.033403534 0.30086264 -0.048036505 -0.119711265 -0.17736185 0.24012828 -0.1201699 0.25483787 -0.07843015 -0.27243686 0.036261737 -0.28144076 0.015729053 -0.08547481 0.07249379 -0.048110213 -0.0570846 0.2647128 -0.1418877 -0.139341 0.18990533 0.100527205 -0.11217791 -0.18104923 -0.096661426 -0.12587184 -0.18424392 -0.17367946 -0.22460712 0.020451538 -0.18024196 -0.11858112 -0.016764382 0.30751467 0.081019856 -0.010654768 -0.03471808 0.07609384 0.106768414 -0.014998714 -0.0042630527 0.26383972 -0.3737875 -0.3929992 -0.10972622 0.10978684 -0.20197165 0.05563372 -0.03410036 -0.20422348 0.42072546 0.14832641 -0.07002833 -0.07803561 0.11764067 0.054077875 0.056178357 0.10901635 0.04088388 0.25386706 -0.07185233 0.052754365 0.13580173 -0.030056102 0.005088302 -0.08839008 0.1768553 0.09517821 0.11622721 0.033871528 -0.33571717 0.2439311 0.12491219 0.09859637 0.24926579 0.61212337 0.24343611 0.20700131 -0.25084424 0.1674961 -0.08627206 -0.056883626 -0.1024757 0.03454348 0.17250842
taso -0.049446356 0.23266342 0.073809616 0.13725677 -0.13511778 -0.34230703 0.25880376 0.2591397 -0.2537539 -0.11064344 0.023650011 -0.18479377 0.10162571 0.14715594 -0.093201056 -0.091691 0.2859114 -0.13598043 -0.13688344 -0.3882334 0.041104704 0.057213783 0.18751226 -0.13617551 -0.05449609 0.01816142 -0.49265167 0.11091511 -0.14460903 0.06407534 0.26007983 -0.010966207 0.055670943 -0.21332937 -0.073618725 -0.1847134 0.03326301 -0.030584114 0.10264472 -0.23314278 -0.046008013 -0.112454176 -0.030735774 0.01755328 0.03949516 -0.103800416 -0.14028686 0.028750587 0.075499006 0.2504217 -0.09410581 -0.16782938 -0.110576704 0.15363307 0.041128524 -0.01702646 0.34485775 -0.013530774 -0.113066904 0.06403912 -0.07333132 -0.057981364 0.13174583 0.07059683 -0.13234474 0.33712602 -0.054112032 0.06813322 -0.12235142 0.038716212 0.08864654 0.12991287 0.10329565 0.02868556 0.3633199 -0.11039973 -0.28762057 0.17969553 -0.15513986 -0.28621566 -0.13059875 0.09036079 -0.12669612 0.2647521 -0.030004285 -0.1376899 0.24904586 -0.0947413 0.16679257 0.16864403 0.18621443 0.17324004 -0.1398723 -0.20389423 0.24802431 0.13361807 0.06664451 -0.060873874 -0.21316731 0.08481301
pilin -0.13710637 0.059514582 -0.2844826 -0.10980258 -0.2647026 -0.36594206 0.25921828 0.21347174 -0.2745819 -0.21317127 -0.25081232 -0.09372826 0.06997224 -0.01108183 -0.06814513 0.07478845 0.20460439 -0.16677468 -0.0053888243 -0.47511292 0.3306885 -0.046331577 0.23236297 0.19562623 -0.04699629 -0.028257074 0.087730125 -0.08660715 -0.15857907 0.2954263 0.35598215 0.08612756 0.19451949 -0.26243886 0.057668094 -0.15785447 0.26046062 0.18797429 -0.010382055 -0.011549589 0.11707928 0.2551473 0.12506203 -0.41223016 0.3439924 -0.17395157 -0.07049631 0.1015853 0.20275179 0.2722521 -0.23148902 0.06761453 0.11278315 0.2008408 0.12797919 -0.111010805 0.44830528 0.11316078 -0.19774558 0.09997045 0.18086404 -0.011107901 0.1750579 0.16992082 -0.2313141 0.32615 -0.3064405 0.01102441 -0.039889514 -0.0025918905 0.21330412 0.17731072 0.43749347 0.19724199 0.34716648 -0.17449532 -0.0813161 0.078703284 -0.14260162 -0.26357853 0.03904931 -0.2498349 -0.23531294 0.3986069 -0.051184848 -0.28024003 0.17931966 0.17418954 0.081534445 0.16834275 0.16898304 0.28438812 -0.12913752 -0.3114227 0.23311487 0.24814689 -0.17283602 -0.5159604 0.20571007 0.18737198
jo -0.07180639 0.11081502 0.20900309 -0.14833158 0.29266903 -0.28110632 -0.17572421 -0.05536649 -0.4063745 -0.07450753 -0.081373475 -0.08145294 0.020766936 0.10483844 0.20723708 -0.3001195 0.12560622 -0.07228803 -0.37533876 -0.41768393 -0.052209053 0.033312146 -0.10015172 -0.122186325 -0.16097568 0.03154024 -0.21282648 0.17678222 -0.09334712 -0.13309762 -0.03533357 -0.17620128 0.16661769 -0.32721677 0.10105791 0.07347644 0.09961721 -0.0986568 -0.077535816 0.0060403724 -0.13933331 -0.39581972 0.36676106 -0.09041627 -0.20640388 -0.26540273 -0.3382561 0.28030136 -0.012111243 0.16403781 0.045456853 -0.06399782 0.04007326 0.2772729 -0.008506751 -0.16200444 0.35298446 0.03915245 -0.111483686 -0.013259012 0.10662141 -0.15713228 0.10146961 0.3003948 0.16527642 0.19018915 0.05212998 0.03674091 -0.4693854 0.26497987 0.07020687 0.28636765 -0.012182894 -0.088692866 0.093114935 -0.031750705 0.2832921 0.41085577 0.036670778 0.14889027 -0.2187298 0.00713022 -0.31958994 0.31031278 -0.25025526 0.23419896 -0.097344905 0.32390553 0.16216308 0.5268944 0.28460523 0.20800383 0.16579425 -0.12401027 -0.0075274617 0.16974874 -0.11555476 -0.12205434 -0.10992447 -0.14825381
ike -0.15112342 0.26602402 0.12094225 0.0065561165 -0.08809814 -0.1621892 0.19554476 0.20543468 -0.11209858 -0.1552363 -0.17173705 -0.31880906 0.23459405 -0.29035687 0.068027265 -0.04674846 0.041508403 -0.20530944 -0.029263277 -0.37954998 0.2331896 -0.34976283 0.13385078 0.15304407 -0.08171587 -0.001680509 -0.10163825 -0.20723662 -0.07718606 0.15841407 0.099693425 0.017375398 0.2092069 -0.3418319 0.008386843 -0.03450406 0.36938798 0.16078742 -0.14348096 0.030006856 -0.17874156 0.079095595 0.0829128 -0.20763248 -0.18158157 -0.29417992 0.19836044 -0.027808765 0.06222545 0.14781566 0.10108964 -0.17408368 -0.0483244 0.2331677 -0.12502064 -0.23317753 0.45702428 -0.009081381 -0.4906112 0.16573654 -0.09121661 0.10260306 0.11638979 -0.019779708 -0.17644113 0.14048581 -0.029367795 -0.06535144 0.053591892 -0.15011837 0.08115104 0.20597123 0.2285953 0.2232735 0.3469941 -0.10942704 -0.09620134 0.35404286 -0.07742555 -0.092060015 -0.020625507 -0.0014199257 -0.020909104 0.20029739 -0.3384399 -0.07799468 0.16154517 0.11209141 0.25430015 0.25994694 0.42118025 0.35610738 0.16830291 -0.24995819 0.4741265 0.44166952 -0.26727822 -0.44144002 -0.15748751 -0.03513524
ante -0.1220813 0.21642298 0.20026283 0.042258646 -0.12954552 -0.56957126 0.12270262 0.19135582 -0.23994058 -0.1452886 0.06668541 -0.23873082 0.44809872 0.00029202024 0.12311805 -0.22985177 0.045517564 -0.014046792 -0.11853046 -0.31641525 0.080054045 0.14168924 0.2883182 -0.2139576 0.022941357 0.21831457 -0.43237296 0.37153974 -0.041840523 0.043280028 0.2625416 -0.21985906 0.30836928 -0.23206468 0.21783228 0.1201708 0.11748843 0.013664629 0.022709787 -0.2628916 -0.025426067 -0.27781633 -0.0131251635 0.105117135 0.16411786 -0.17866501 0.109375425 0.09516976 -0.24683616 -0.011407081 -0.028260738 -0.1403213 -0.103014536 0.06585678 0.1441334 0.11776163 0.12053052 0.02985353 -0.0478855 0.11591956 -0.0043470897 -0.1217354 0.37198907 0.043004263 0.074972026 0.22646533 -0.053920258 0.19131564 -0.092079595 0.3115674 0.33701438 0.15545033 0.40752324 0.36529684 0.18384945 0.10372769 -0.008206037 -0.025186537 -0.04586292 -0.06078197 -0.20192565 0.09116675 -0.091003716 -0.1452464 -0.039934747 -0.1590458 0.17581111 -0.066769205 0.20960353 0.34571314 0.25275135 0.117919475 -0.16727889 -0.12527911 0.33352745 -0.11197308 0.07006804 -0.27506033 -0.14235337 -0.28924423
kepeken 0.14036746 -0.11703954 0.25592813 0.06212086 0.057235017 -0.057953198 -0.15752414 0.30491492 -0.010383937 -0.22464806 0.06741464 0.09928412 0.16583769 0.05580369 0.13042586 0.038469996 -0.009868357 -0.1648399 -0.027421549 -0.34555858 -0.15393615 0.050549027 0.226919 -0.19223641 -0.11117546 -0.045687467 -0.24916834 0.24117021 -0.2043808 0.20284435 0.044724304 -0.3176969 0.35269386 -0.39091855 0.06522226 0.07148856 0.15358214 -0.08517939 -0.01582367 0.070192784 0.10807846 -0.25804192 -0.09995913 -0.06542357 0.09878621 -0.2862176 -0.055179108 0.026688756 -0.16097623 0.31380707 -0.13139056 -0.5858768 -0.04702832 0.36399794 0.29941538 -0.23283423 0.3710256 0.10954422 -0.3631926 0.01860408 -0.1609136 -0.0572187 0.1121549 0.2476564 -0.031854834 0.51383084 0.17594303 0.08306862 -0.01444147 0.09147121 -0.044867046 0.30843976 0.2218061 -0.11152994 0.34283164 -0.058611825 -0.058249034 -0.031657647 0.039385963 -0.29054078 -0.08702482 0.09162488 -0.3717597 0.3054604 -0.10311149 0.10807985 0.01705777 0.0707741 0.08528311 0.5464757 0.2275843 0.0582322 -0.032724164 -0.11250661 0.30044705 0.24455588 0.115970016 0.020594148 -0.25213587 -0.40251347
nasin -0.03530955 0.03577459 -0.062898256 0.10335236 -0.29222423 -0.23434106 0.1041034 0.42587364 -0.30355778 -0.33575353 -0.11061372 -0.19965215 0.22178131 0.38216504 -0.041836124 -0.09604201 0.18876207 -0.08815374 -0.05578245 -0.21809825 0.08005784 -0.1379628 0.22503608 -0.051803913 -0.16106305 0.119956166 -0.035416838 -0.023351667 0.04288456 0.3524773 0.20103508 -0.22301649 0.11090725 -0.46946493 -0.072433576 0.20380923 -0.023563974 0.14790493 -0.07806746 -0.33628708 -0.13577232 -0.06796895 0.004959438 -0.009024437 0.33229202 0.17192343 -0.16798465 -0.015122214 0.04771674 0.026056282 0.07666529 0.08526367 0.05042355 -0.40900385 -0.17526215 0.042124018 -0.16493098 -0.20298971 -0.22104967 0.24326533 -0.085263126 -0.34993267 0.27216494 0.3465868 -0.25544423 0.1687848 -0.0037648869 0.2777172 -0.05818489 0.5347937 0.40542254 0.05734561 -0.051557016 0.11368613 0.3137074 -0.058180545 0.25460055 0.12691844 0.2243205 -0.14133814 -0.19556043 -0.09975224 0.09017667 -0.14412348 0.17375438 -0.30814257 0.2886483 -0.048483647 0.29220468 0.13503751 0.49293178 -0.19044437 0.067752406 -0.023647454 0.21547538 0.11815403 -0.23099656 -0.5081931 0.15697847 -0.03368388
pana -0.117439024 0.09078288 0.1316049 -0.1926047 0.10172681 -0.2606438 -0.31250906 0.22646996 -0.1144542 -0.11952879 -0.05012572 -0.081937484 0.05668894 0.11646849 -0.018798918 -0.13862821 0.20557691 0.122997254 -0.123386435 -0.13744818 0.08266566 -0.12090061 0.38680527 0.07476303 -0.27083504 0.16606812 -0.035149373 -0.1071258 -0.25439733 0.038841117 -0.005172997 -0.2334299 0.36827892 -0.6433685 0.21966808 0.21421844 0.15423147 -0.0482798 -0.18234354 0.098486416 0.30220836 -0.33661523 -0.09009036 -0.36095405 0.118227884 -0.17768815 -0.11197325 0.025135677 -0.0920261 0.16842861 -0.391546 -0.28251538 -0.04144658 0.38682482 0.28651488 -0.2099828 0.52143276 0.07891649 -0.13327347 -0.06341087 0.14523266 -0.2717256 0.27150422 0.33415213 0.08329833 0.32582656 0.13521917 0.17081736 -0.18082234 0.23942207 0.07531887 0.13480774 0.31223512 0.078652374 0.15041329 0.16792946 -0.29298925 0.13726634 0.0035541125 -0.108033314 -0.17649588 0.04821262 -0.087713115 0.24605389 0.06221507 -0.090013534 0.25010008 0.26289523 0.0460228 0.52832603 0.28271905 0.005636692 0.24537884 -0.29162344 0.03177576 0.3307112 0.007469013 -0.06478966 -0.30963448 -0.11668956
sama 0.09098273 0.0003491974 0.23413324 0.11506172 -0.009544352 -0.35965994 0.16123371 0.21062556 -0.3352682 -0.26495638 -0.05215487 0.07049552 -0.020036029 0.00018733504 0.09872116 -0.026428027 -0.06927041 -0.036793523 -0.022966286 -0.27610612 0.07422212 -0.007758053 0.21804988 -0.14240688 0.038612872 -0.035988506 -0.36919078 0.17552659 -0.16068481 -0.023116736 -0.0553486 -0.015531867 0.19989033 -0.30804282 0.27842718 0.016226305 0.035206605 -0.19858123 -0.09184695 -0.2395336 -0.23506443 -0.41883588 0.0068887165 -0.024433998 0.008600416 -0.12995882 -0.102651566 0.030761484 0.08245537 0.09981217 0.030969938 -0.0065133483 -0.10594599 0.18404056 0.09248533 -0.079709135 0.15118228 0.010467793 -0.2897243 -0.04308828 -0.07799523 0.06399498 -0.014806761 -0.10094428 -0.27439594 0.28231546 0.02267525 -0.04876679 -0.16393763 0.114243634 -0.0691607 0.06487296 0.264167 0.09058625 0.29561442 -0.1772716 -0.19584706 0.07938638 -0.19541255 -0.08313608 -0.123901665 0.21758707 -0.15533352 0.39906946 -0.092977636 0.04582774 0.16102345 0.044063214 0.17794535 0.18335918 0.40384424 0.16223076 0.1190049 -0.016686196 0.19973348 0.21874724 -0.06702238 -0.13558073 -0.20619161 -0.2671228
tomo -0.14338537 0.40347692 -0.046880726 -0.25959992 -0.19237383 -0.003182948 0.13127778 0.3119821 -0.03637446 0.21067192 -0.21309367 -0.49203476 -0.1432351 0.22408344 -0.054623812 -0.027763743 -0.10403112 0.081228144 -0.008755791 -0.39149398 -0.13700266 -0.18427539 -0.19255564 -0.14978646 -0.30743402 0.008442121 -0.26233128 -0.32298532 -0.15922895 -0.27714926 0.038503498 -0.06736574 0.43818596 -0.16828378 -0.4116655 0.27956203 0.2910442 0.055900373 -0.37052998 0.0310138 -0.09591868 0.10269428 -0.04652043 0.06544224 0.04265988 -0.2914596 0.21047442 -0.01476265 0.25341865 0.31927818 0.016876623 0.052819833 0.06707412 0.1576089 0.043250903 0.0011506978 0.11481171 -0.022518156 0.013431801 -0.25683472 -0.11258293 -0.16979176 0.025920967 0.24587277 0.11519542 0.28269848 0.124607526 0.057470288 -0.29478744 0.27174637 0.21862122 0.4586704 0.06628149 0.23424433 0.34518513 0.167189 0.3821403 0.19619136 0.33712915 -0.11591507 -0.24567436 -0.09902365 -0.021917518 -0.076514706 -0.11065331 -0.3006268 0.13659605 0.28072453 0.040130295 0.32947403 0.16576298 0.23274961 -0.060754996 -0.17549644 0.121182464 0.1381692 0.30462727 0.19655026 -0.0014936997 0.17445019
ale -0.1270894 0.30830187 -0.02419345 -0.08024477 -0.32734084 -0.059803464 0.23052973 0.03146915 -0.33397996 -0.177186 0.11507939 -0.34184566 -0.13882726 -0.16733108 0.08949232 -0.014915652 0.23358345 0.11828829 -0.09724134 -0.37518823 0.2003745 -0.04183898 0.17574412 0.23622228 -0.019537859 0.19222161 -0.22664833 -0.18080595 0.004243831 -0.043677397 -0.13945079 -0.16918232 0.147016 -0.53443426 0.08035124 0.042902514 0.15216568 -0.08810283 -0.252594 -0.25707033 0.098913155 -0.124131136 0.10101418 0.0018227496 0.039527684 -0.20801267 -0.059706263 -0.0076970556 0.109288 0.2484039 -0.043134388 -0.25449872 0.00994295 -0.25030848 -0.07865043 -0.07660514 0.29500172 0.17866696 -0.14669594 0.08955069 0.12218141 -0.11308792 0.2568785 0.22668423 -0.18787958 0.18234095 -0.19093259 0.39588743 -0.0245005 0.12978187 0.11440117 0.07217939 0.35636953 0.21965943 0.10099053 -0.16711666 -0.19010095 0.1784487 0.09344251 0.010932203 -0.032260545 0.0233675 -0.11271692 0.11678103 -0.053935118 -0.3133988 0.1703341 0.06383224 0.03904835 0.16423875 0.3370386 0.15146148 -0.0051111206 -0.19012783 0.2397743 0.17640588 0.17774022 -0.3117574 -0.16684411 0.02611652
sewi -0.45222378 0.07319681 -0.045841143 0.09033667 -0.37115568 -0.07870768 0.06626364 0.23184858 -0.08498443 -0.16794637 -0.1310982 -0.21225046 -0.13133796 0.015068922 0.021194756 -0.29023704 -0.17915998 0.10011187 0.09777247 -0.3266079 0.18517639 -0.140151 0.05903781 0.19102606 0.09080974 0.1642886 0.15952833 -0.23899448 -0.021060798 0.49683982 -0.051018562 0.035486445 0.42802477 -0.31758285 0.019955361 0.46917024 0.30928442 0.17232074 -0.22303854 -0.4460544 0.14011231 0.14254801 0.1390934 -0.3043114 0.10305175 -0.27800128 0.19789441 -0.2643537 0.21621981 0.093814135 -0.15909715 0.0008823483 0.21068709 -0.13080443 -0.05211895 0.0379999 -0.24129821 0.17167708 -0.4264094 -0.24053289 -0.26927054 -0.14512008 0.2385405 -0.16713701 -0.20669785 0.11626053 0.03495141 0.3523182 -0.4714995 0.42064732 0.18825018 0.399534 0.26011145 0.102924414 -0.053887185 0.29427296 0.13456838 0.4619114 0.12702852 0.09924655 -0.07056903 -0.15045126 0.1335031 0.046037693 -0.30886993 -0.1932536 -0.027937643 0.102247365 0.37245944 0.12430772 0.14803772 -0.113717236 -0.2191159 -0.07106751 -0.028373266 0.32196453 -0.45708594 -0.5924474 0.25842154 0.24869464
soweli -0.28216344 0.4771014 -0.13692337 -0.3844766 0.010167377 -0.35705736 -0.11163878 0.074763335 -0.3271527 0.07768917 -0.13438639 -0.15724382 -0.021475775 -0.025962755 0.22003941 -0.19163173 -0.21667576 -0.30339095 -0.054208517 -0.1427804 0.2226982 0.19334386 0.16727524 -0.09993036 0.13156651 0.0426192 -0.41114402 0.01587607 -0.21688451 -0.36087894 -0.01976561 -0.11544491 0.34282047 0.057405747 -0.07663902 0.20306772 0.17511205 0.06562305 -0.08716249 -0.05334129 -0.39028317 -0.17742173 0.14029954 -0.06711043 -0.16266757 -0.0031984549 0.0069606416 0.13341618 -0.05004318 -0.09717511 0.13417314 0.18962623 0.2401106 0.4674036 0.063451864 -0.31634793 0.4114394 -0.031920146 -0.4247165 -0.3125741 0.3317652 0.090863675 -0.084400535 0.16485076 0.052221026 0.40025422 0.14947051 -0.023970386 -0.24315177 0.3777516 0.18934938 0.23385066 0.13072772 0.2907674 0.21663254 0.038421698 -0.18603708 0.19101584 -0.016766077 -0.3165103 -0.22296157 -0.045311984 -0.27306685 -0.060386226 0.0002487029 0.34554243 0.1882726 0.28681856 0.18061195 0.1044398 0.5348029 0.383394 -0.0011480299 -0.5033286 -0.013353908 0.30049446 -0.13579395 0.11591307 -0.28619114 -0.20029339
telo -0.26239493 0.55932206 -0.06534685 -0.64655674 -0.27364334 -0.4551335 0.14065823 0.07655875 0.051018056 0.08688837 -0.426936 0.00156657 -0.108153105 -0.046681665 0.24732795 -0.30818897 -0.2230445 -0.19786014 0.026589714 -0.42931807 0.18813054 0.043138888 -0.113469005 -0.13060617 -0.21229437 0.17630032 -0.36983934 -0.096954025 -0.44048092 0.10154944 0.13979192 -0.13420892 0.28904942 -0.0023682886 -0.35542843 0.091608934 0.061977606 0.35007823 -0.16703634 -0.022046601 -0.08312782 0.269038 -0.15719458 -0.21379432 -0.05061301 -0.36246595 0.25195214 0.033044558 0.027255319 0.21770187 -0.039780155 0.15014957 0.2855062 0.076939136 0.39687523 0.102930106 0.10210688 0.1209547 -0.252601 -0.4355087 -0.28776538 -0.15221775 -0.021323733 0.06510522 0.31305394 0.2309146 -0.082459435 0.07224654 -0.38253582 0.33748543 -0.17067873 0.4049801 0.45691597 0.028426073 0.16287853 -0.01910309 -0.3793957 0.35483763 0.05169213 -0.1019379 -0.21032132 0.17157178 -0.19975379 0.29635692 -0.038684614 -0.12946056 0.009760883 0.40749997 0.29255715 0.1107312 0.65684676 0.39488575 0.1727263 -0.45040292 0.1366208 0.014610056 -0.37384924 -0.0042624194 -0.039358843 0.0018128895
wan 0.0333667 0.34380245 0.43928498 -0.3783469 0.13998133 -0.31562912 0.003272414 0.1637776 -0.056125633 -0.20558459 0.06911401 -0.3499282 -0.08540509 0.112026885 0.053398702 -0.12883912 -0.097752035 -0.14851925 -0.18099156 -0.7140142 0.32344225 0.14960495 0.050896596 0.22732164 0.015361709 0.020299379 -0.12178089 0.09554458 -0.009145677 -0.11487203 -0.16920057 0.04659855 0.12873524 -0.5055739 0.14832364 0.20947681 0.111415334 0.20176253 -0.21151274 -0.42648613 0.20918548 -0.2630784 0.20988755 0.22818406 0.024196152 -0.1584031 0.11722842 -0.07341469 -0.026564874 0.3600222 -0.026732028 -0.10883181 0.21980451 -0.19700305 0.04591943 -0.31463435 0.15865062 0.13201274 -0.38776407 0.05511638 0.0032825929 0.057401817 0.08135345 0.09294836 -0.17197652 -0.041814182 0.12808126 0.29477608 0.0011068335 0.2393074 0.04707925 -0.086101964 0.23420481 0.13472469 0.15501437 -0.22614016 -0.055045944 0.0943039 0.090347745 -0.14043093 0.059003595 0.36878282 -0.35545915 0.010603956 -0.04702353 0.15790978 -0.0020141774 0.061473355 -0.070770204 0.41127414 0.45188022 -0.16449879 0.28159118 -0.07036874 0.005358396 0.037139185 0.010663797 -0.4016808 -0.13794392 -0.12697798
lukin -0.042473834 0.13280049 -0.06547418 -0.18713604 -0.01797413 -0.38481548 0.02738969 0.30075154 0.043613344 0.008388513 0.2250441 -0.02986013 0.025009377 -0.14821762 -0.031507045 0.060432285 0.22827841 -0.0748245 -0.10251762 -0.44787258 0.1880346 -0.0007152248 -0.05513773 -0.08380061 -0.12824593 0.19370677 -0.09186748 0.15181322 -0.055900704 -0.17758739 0.104968384 -0.14681387 0.2684641 -0.1883576 0.32539058 -0.018557081 0.22239895 -0.13466723 0.09334893 -0.019652244 0.12343242 -0.17888008 -0.07128403 -0.3616373 0.092797294 -0.28864056 -0.2872372 0.32132033 -0.093857914 0.4096469 -0.093304805 -0.036780182 0.15195031 0.3361477 0.23074281 0.2490739 0.35790476 0.3840667 -0.001031706 -0.10724918 -0.06266425 -0.19324106 0.19994576 0.38965425 -0.05938988 0.5511547 -0.14069076 0.3515955 -0.3919405 0.21833642 0.0059766723 0.2659173 0.28791267 -0.1251905 0.2616647 -0.061455857 -0.1522463 0.053429004 -0.07824177 -0.06504692 -0.33066872 0.053518765 -0.26505587 0.4492905 -0.23278257 0.10584727 0.015182224 0.18332346 0.30324662 0.06606965 0.03894719 0.19324559 0.034925513 -0.016083123 0.2523899 0.16063745 -0.07809585 -0.028080754 -0.29606006 -0.024318555
ijo -0.30255926 0.4003345 0.15692742 -0.124831356 -0.053239863 -0.4080792 0.11270422 0.27625617 -0.1697994 -0.3222284 -0.22663665 -0.19130075 0.1312424 0.13341893 0.19354324 -0.19572155 0.15844633 0.17908137 -0.025435444 -0.3916623 -0.00734494 0.083969 0.083242655 -0.09913655 0.00031857012 0.03625495 -0.36550674 0.12090771 -0.16243674 -0.11550256 0.061560545 -0.24268405 0.11569904 -0.4655359 0.07404324 -0.07530318 0.1743032 -0.00982695 -0.2604906 -0.09126209 -0.12702136 -0.033335753 0.16257249 -0.10213213 0.045826413 -0.2605375 -0.13068914 0.094929345 -0.27493158 0.09058957 -0.030244872 -0.19948962 0.00033687646 -0.007957386 0.2750386 0.10879559 0.23477788 -0.16637903 -0.114284694 0.013635337 -0.044491526 -0.16741163 0.38363245 0.14536111 -0.05107484 0.35815704 -0.091484755 0.14662895 0.049827907 0.05008459 0.33424804 0.03161234 0.448138 0.090381265 0.26054382 -0.20176758 -0.06636619 0.084738925 0.07243796 -0.14651367 -0.25579652 0.18811569 -0.028791515 0.07402687 0.21351303 0.025748894 0.15467985 0.08368436 0.19759753 0.16871625 0.21353826 0.14678957 -0.13690525 -0.29274464 0.14345323 0.1714226 -0.27698573 -0.26748952 -0.12940079 -0.13370407
lipu -0.090811856 0.083894126 -0.028389836 -0.11818335 -0.0939274 0.07948914 0.35078272 0.216708 -0.23736387 -0.25534683 -0.1666782 -0.49573392 0.20292646 -0.19031069 -0.030308956 -0.27503356 0.32262114 -0.19875672 -0.040461965 -0.2969752 -0.015569292 -0.018161235 -0.07314847 -0.20510443 0.08949014 0.11022934 -0.38595808 -0.11443032 0.010126082 -0.19626367 -0.15223086 0.09002491 0.03721059 -0.4212405 -0.08772177 0.27806017 -0.2036391 -0.25104246 -0.20900352 -0.26739177 -0.035392296 -0.3635045 0.0025711504 -0.020345533 0.083420426 -0.24175476 -0.2260054 -0.22828458 -0.045274336 0.14823659 -0.05352943 -0.6490449 -0.029664772 -0.23730685 0.026980082 0.1106742 -0.024916181 -0.010233716 -0.00058490306 0.17835324 0.16884924 -0.30685318 0.26781678 0.3302738 -0.31753603 0.32963437 -0.565051 0.58534414 0.21018845 0.17505261 0.08888637 0.24804737 0.34858277 0.092998125 0.38289824 -0.3732502 -0.004606708 -0.1921562 -0.03318133 -0.0865582 -0.1732791 -0.12933773 -0.54877746 0.22986016 -0.0077397237 -0.30539653 0.27047172 -0.09946989 0.14817758 -0.11160194 0.4162232 0.19662693 0.039427023 -0.0010495076 0.29972988 0.0933225 0.11194877 0.19263524 -0.062498208 -0.43414497
ilo 0.115893126 0.34170747 -0.09683454 0.021678668 0.12834664 -0.17801984 -0.061483026 0.4976404 0.038923718 -0.10048398 -0.32854688 -0.09481799 0.118930526 0.0932308 0.25847703 -0.2983367 0.080407 0.06820477 0.024787597 0.017537776 0.22568583 0.22288421 0.34905088 0.120850414 0.047270518 -0.019289657 -0.31507424 0.2417849 -0.13854755 0.031303108 0.20225307 -0.39180812 0.49784768 -0.3435817 0.12565646 0.30914307 0.28948128 0.17031206 -0.47844166 0.5166854 -0.11206861 0.12803206 0.04849684 0.06388775 -0.22827032 0.15627639 -0.13699733 -0.03230212 -0.06807949 -0.025461614 0.03687346 -0.5497967 0.0016040676 -0.22225675 -0.03182243 -0.026422378 0.42124778 0.16749321 -0.19611807 0.09678706 0.23517708 -0.103089646 0.32841712 0.37826568 0.02103464 0.31879577 0.09688161 0.27573436 -0.14803384 0.22512527 0.31827208 0.17455423 0.23820692 -0.034668263 0.5116024 -0.21452029 0.24144982 -0.071569696 0.030037217 0.022507444 -0.46540824 -0.19678248 -0.20132937 -0.2906071 -0.07464641 0.010310324 0.05349998 -0.043583438 0.13427135 0.031068917 0.32303587 -0.017277937 -0.1485813 -0.3844555 -0.10470525 0.035662793 0.027561864 0.25794676 -0.6796725 -0.23063566
musi 0.098019935 0.15096596 -0.28232703 -0.09070609 0.08164073 -0.17733274 0.2665386 0.6408808 -0.16079386 -0.23044428 0.09610381 -0.24023624 0.2554355 -0.14159814 0.10768591 -0.14639406 0.34845543 -0.21918066 0.24185397 -0.3813717 0.14207812 0.18493448 0.21251546 0.2904717 -0.095084324 -0.042087067 -0.2976385 -0.1308804 -0.12884843 -0.0038772793 0.18633161 -0.020792887 0.110904366 -0.44664294 0.24601617 -0.17743275 0.4977491 -0.011999759 -0.0676761 -0.063115425 0.21503511 -0.059033502 -0.022744158 -0.0037171107 0.054228604 0.10792329 -0.0026528798 0.043784007 -0.046538793 0.27922016 -0.19603874 -0.16250369 0.13282399 0.05235723 0.23245043 -0.0013216613 0.29602748 0.1667527 -0.084907115 -0.055039227 -0.067909285 0.05351484 0.27915505 0.26685664 0.0013792699 0.43085933 -0.35682786 -0.06954147 -0.13156144 -0.22592187 0.17961085 0.034979828 0.49475276 0.28370816 0.07855491 -0.34214392 -0.05821266 0.07192519 -0.06335654 -0.180951 -0.08926267 0.18738103 -0.21365781 -0.074349865 -0.19930708 0.10026683 0.44410306 0.02975572 0.28537804 0.27308118 0.47935462 0.039819848 -0.03868664 0.3509104 0.34070194 0.21400052 0.02576712 -0.16979265 0.009624262 -0.37724745
lawa -0.2883231 0.1299145 0.22818372 0.08076525 -0.07342266 -0.033993002 0.13192904 0.14539741 -0.29322076 0.11637273 -0.22091359 -0.34095424 -0.032001466 -0.11575473 0.1020505 -0.11782938 0.13512877 0.0771893 -0.08483182 -0.14801338 0.1321923 -0.075427495 -0.040574457 -0.18069115 0.18661511 0.061929513 -0.084632866 -0.06785221 -0.12576388 -0.15900622 -0.19856842 0.02537986 0.36311737 -0.42626512 -0.0927258 0.33008125 0.090144135 0.046808742 -0.24914533 0.085609615 -0.11981147 -0.03126677 0.059703447 0.06983009 -0.04497179 -0.42775944 -0.033386737 -0.06530773 0.059050947 -0.0114769265 0.30400845 0.056493845 -0.13116619 0.27053022 -0.17628911 -0.16850193 0.2626979 0.09357025 -0.2501715 -0.031002633 -0.18874563 -0.1587053 0.25265402 0.001435251 -0.17114791 0.4194559 -0.07745711 0.22985835 -0.33666113 0.19157298 0.22429867 0.39751583 0.031379174 -0.14101085 0.48160028 0.02706773 0.3975868 0.28309005 0.094493754 0.00909498 -0.3792338 -0.16086344 -0.03584559 -0.07214015 -0.354788 -0.037651405 0.03196104 0.31078702 0.20275974 0.3340756 0.08302897 0.13686651 0.07273389 -0.12763578 0.24204767 0.19278526 -0.03928286 0.21896239 0.051865447 0.010146568
moku -0.113297634 0.42336705 0.17785446 -0.5015082 -0.012921722 -0.7590749 0.026973227 0.12503949 -0.2722048 -0.12161963 -0.25169122 -0.23663476 0.23292069 0.01976719 0.26173723 -0.15491602 -0.114487216 -0.26617226 -0.2173828 -0.5531405 0.06659663 0.056238525 0.07695989 -0.06343285 -0.5382545 0.15624587 -0.42823657 0.010878731 -0.20500517 -0.21789484 0.2647528 -0.20642196 0.35128233 0.062382374 -0.34460807 0.1337402 0.30165938 0.28175974 -0.06430929 -0.07243486 0.15833451 -0.02206473 -0.035379514 -0.37922212 -0.03465123 0.011736974 -0.06502089 0.07498871 -0.25420666 0.1057785 -0.1637472 0.10371179 0.1321227 0.15532544 0.36312354 -0.05114452 0.27899006 0.13427573 -0.24707207 -0.16173923 0.11104252 -0.12144749 0.06786264 0.4535001 0.5100262 0.0038597514 0.14490771 -0.21621698 -0.15354146 0.24536699 0.035769887 0.34533942 0.33474633 0.27796856 0.021392116 0.120639786 -0.24959525 0.01072001 -0.1768508 -0.1316756 -0.043864526 -0.09959414 -0.037866425 0.36009026 -0.09997097 0.034148823 0.13862267 0.24201865 0.3243367 0.20983224 0.52601224 0.4219374 0.3170116 -0.25250167 0.18627775 0.08497344 -0.40661258 0.009413126 -0.32380626 0.04373583
kulupu -0.0740186 0.26570305 -0.055637453 0.17485316 -0.17987327 0.0738157 0.20866 0.4398099 -0.35029176 -0.25001803 -0.16232507 -0.23222233 -0.08341494 0.057527613 0.26039386 -0.110101506 0.2502389 -0.23207442 -0.27099696 -0.29035422 -0.047975074 0.1479684 0.042405356 7.059556e-05 -0.080702 0.06955286 -0.40106946 -0.013922472 -0.08857299 0.1219351 -0.13089286 -0.08798144 0.08840359 -0.45283344 -0.1605944 0.16158126 0.18150191 -0.017595353 -0.32292917 0.10809854 -0.044535503 -0.09376548 0.082058094 0.48474967 0.12016544 0.009065668 -0.18920957 -0.09985779 -0.0021628144 0.3694189 -0.07468354 -0.027966421 0.0399542 -0.16703467 -0.12095256 -0.15365785 0.21636297 -0.16500528 -0.054594744 0.017342145 -0.030722186 -0.1899609 0.31563988 0.09140542 0.084887706 0.5021597 -0.12652136 0.2798337 -0.30517602 -0.094601765 0.39862812 0.17514506 0.06441994 -0.17591967 0.25261593 -0.059194256 0.35947472 0.1626209 0.30178568 -0.2674184 -0.28140748 -0.13806088 -0.031893216 -0.29031828 0.18146329 -0.058921378 0.28243357 0.07057147 0.22017793 0.15581559 0.08202403 -0.13909581 -0.22960354 -0.13706216 -0.09085097 0.13777918 -0.17114235 0.0855645 0.10748912 0.060461573
pini -0.11463656 0.073181905 -0.23201638 -0.22844161 -0.24317746 -0.21332236 0.3394215 0.46678424 -0.14863154 0.046381537 0.12786426 -0.111198194 -0.13873847 0.1848351 -0.040315475 -0.32110962 0.21116468 -0.2068757 -0.32612795 -0.3059175 0.2509584 -0.09607719 -0.017818578 0.15989837 -0.22065805 -0.13861318 -0.041089177 -0.14409058 -0.026799787 -0.022303311 0.17052422 0.016044015 0.3172214 0.031545077 -0.12888934 0.2088966 0.25364882 0.29036978 -0.017608736 0.013844066 0.24162433 -0.20859967 -0.12018011 0.044814818 -0.1306402 -0.015377289 -0.08581388 -0.049378287 0.16835822 0.26130518 -0.32297444 -0.1826418 0.1761575 -0.0023910345 0.0048420504 0.047731105 0.42206243 0.17769775 0.1827361 0.24295641 0.31241292 -0.28920928 0.2849403 -0.112465575 -0.22070758 0.12891778 -0.075327896 0.32035396 -0.37379712 0.16093901 0.16019908 0.1046585 0.2302611 0.15785792 0.17543986 -0.15611224 -0.18117528 0.17808701 -0.15876839 0.12081564 0.07863922 0.09410788 -0.29281858 0.06483024 -0.16585244 -0.05691052 0.15639754 -0.074519694 0.18246502 0.19907291 0.34438786 0.08921493 0.28071684 -0.121394284 -0.04920329 0.053777598 0.10373011 0.18260434 0.1057987 0.055796962
tu -0.045580726 0.3859839 0.26462826 -0.2356947 -0.05746275 -0.22608642 0.19504102 0.12702799 -0.36491114 -0.2198884 0.11309419 -0.27240106 -0.0458893 0.20240083 0.32479203 -0.1705164 -0.11047415 -0.03672108 -0.29016516 -0.4146938 0.2438606 -0.04257043 -0.16483872 0.13116364 0.21783413 -0.25120372 -0.1917462 -0.12198277 -0.14986143 -0.16831149 -0.20122057 -0.10694598 0.1700244 -0.40780026 0.16347495 0.16320305 0.022164907 0.2977132 0.07189562 -0.40265492 -0.06103955 -0.2961651 0.16662233 0.15395086 -0.05189115 -0.12876973 0.107676536 0.026422579 -0.10231721 0.4469006 -0.11664182 -0.18044735 -0.10396501 0.06268318 0.056295026 -0.27710468 0.20287533 0.14385915 -0.3287198 0.11965159 0.026361156 0.0079571735 -0.0019806342 -0.05808042 -0.3636992 0.105647594 0.022182088 0.4307701 0.024489531 0.49443963 0.307229 -0.049942803 0.2590989 0.15152055 0.2781205 -0.44487536 -0.22953677 0.3002608 0.24572384 -0.168374 0.02421721 0.23478997 -0.39867362 0.20271148 -0.062609546 0.12398092 -0.17869972 -0.036302302 0.15619604 0.22191218 0.31207052 -0.12785639 0.12234277 -0.285607 0.009689191 0.35108307 -0.14563471 -0.31567314 -0.12666133 -0.28544956
sitelen 0.020868348 0.04871774 0.042693123 -0.0015839412 -0.23547004 0.014681888 0.35275206 0.03988706 -0.49167737 -0.093391016 -0.04603168 -0.50497496 0.51541483 -0.026015684 0.12988666 -0.30104592 0.20314808 0.036942806 0.017081227 -0.2780148 0.36878675 0.29672867 0.32597902 -0.20913562 0.30468336 0.18893711 0.039874103 -0.025062513 -0.20143169 -0.19192033 -0.16149817 -0.3700552 0.27812922 -0.49156353 0.3658949 -0.11148159 -0.027504155 -0.074147254 0.034411427 -0.30357128 0.0025984072 -0.3483251 0.32546666 0.13946407 0.15242912 -0.24885489 -0.1669418 -0.07189327 -0.23125128 0.2191764 0.06460267 -0.5211036 -0.1469529 -0.10940342 0.2728559 0.16390459 0.40165377 0.29107192 -0.35590386 -0.08808176 -0.07728369 -0.2899224 0.08696756 0.6224457 -0.40439135 0.58454835 -0.5415733 0.5499608 0.07136465 0.46400675 0.12394388 -0.02553682 0.7387377 0.050957598 0.2706818 -0.16839671 0.13256548 -0.33604127 0.11628206 0.018865742 -0.24557862 0.06325153 -0.50582284 -0.090675466 -0.08347676 -0.28640726 -0.14754982 0.1299825 0.20244119 -0.011561696 0.15209743 0.074099034 -0.23201154 0.07529687 0.359091 0.28757986 0.114841916 -0.06545617 -0.20970346 -0.59879017
en 0.0084385285 0.1538386 0.121500336 0.44013345 0.37668848 -0.4629647 0.13267723 0.6352223 -0.3202546 -0.33659032 0.16103329 -0.13496219 -0.44664186 0.28359318 0.28037935 0.25519723 -0.05538579 -0.14638115 0.08132784 -0.094066866 0.03656763 0.16302294 0.07090238 -0.03733575 -0.08240442 -0.09230206 -0.4359135 0.09874571 -0.18464531 -0.18371375 0.28968203 -0.07746953 0.3801656 -0.09414564 0.13711286 0.27296448 0.41999507 -0.10716022 -0.12106427 -0.1498937 -0.08706829 -0.31751302 -0.052293424 -0.11328282 0.109588034 0.2613339 -0.26611295 0.41930622 0.34317982 0.19951211 -0.017650364 -0.21978712 0.02201999 0.43245128 -0.06992249 0.060518757 0.046909843 -0.15789445 -0.14799929 0.062747546 0.07424176 0.061305996 -0.06664332 -0.0032371348 -0.18344785 0.1454547 0.117834255 -0.14424229 -0.26396075 0.45203993 0.05555153 -0.20932272 0.13078712 -0.11773637 0.34392735 -0.13373859 0.19390807 -0.010297493 0.41599962 -0.20170379 -0.03931852 -0.033161454 -0.123917215 0.08013574 -0.39765427 0.15797558 0.06136456 0.051092517 0.14916989 0.03951985 0.13902625 -0.0003968308 -0.082107894 0.21821587 -0.31473553 0.12156836 -0.19640984 0.02669338 0.16028027 -0.34528103
wawa -0.21448235 0.09105714 0.08865923 -0.17247294 -0.016522856 -0.17577878 0.12751523 0.48437884 0.013850602 -0.09769579 -0.36792725 -0.061668184 -0.08595465 -0.10748762 0.13028799 0.041243862 -0.16075557 0.023386784 -0.096995726 -0.35713458 0.19644564 0.01890695 -0.023278564 0.18593232 0.09614143 -0.12544955 0.033382013 0.026378231 -0.25873223 0.050480444 -0.0157063 -0.12934741 0.28869843 -0.26406989 0.04561772 0.18782803 0.4178475 0.23061575 -0.036387227 0.2851665 -0.08325656 0.22127998 0.032304905 -0.16517632 0.13909772 -0.14403172 0.2609228 0.013213978 0.085459985 0.04726734 0.27698898 -0.034448862 0.025588367 0.18329525 -0.15505183 -0.103851475 0.23706026 0.037821636 -0.3494799 -0.05867656 -0.06577894 0.2906329 0.16894692 -0.085352734 -0.044697158 0.26369163 0.23830266 0.030832987 -0.14320697 -0.032484908 0.24213092 0.4983536 0.2692282 0.09441704 0.5528453 -0.085077725 0.18397193 0.06759072 -0.033318236 -0.17777966 -0.07838201 -0.022425774 0.08420325 0.110081255 -0.25893518 -0.026959993 -0.33923686 0.09109673 0.110932544 0.13498092 0.387138 0.17196022 0.16979994 -0.34292963 0.31657127 0.4206832 -0.004496564 -0.26796976 -0.23737513 0.11976248
seme -0.3153505 0.4044721 0.16343991 0.13780984 -0.14665468 -0.31064844 0.12915556 0.24964705 -0.4386438 -0.47503266 0.039350398 -0.26597315 0.108918905 -0.0725059 0.15042423 0.013783799 0.122340634 -0.08017397 -0.036360182 -0.27581987 0.02315872 -0.17621635 0.19730172 0.0797313 -0.28154454 0.18298294 -0.47342134 -0.13743214 -0.16317815 0.15264669 0.013702221 0.051213022 -0.17942281 -0.2210736 0.022350105 -0.011412131 0.17157985 -0.011195408 -0.019350827 -0.16983114 0.29020935 0.08712649 0.06444613 0.11480432 0.10120918 -0.19850825 -0.05582596 -0.039385896 0.20908195 0.080047235 -0.049220446 -0.33903712 0.15954074 -0.009865896 0.015693484 -0.21265042 0.26675236 0.054020714 -0.2752689 0.26305017 0.24624097 0.041505124 0.37110662 0.33980832 0.10208302 0.19745348 -0.20794824 0.0029236237 0.21845002 -0.10627517 0.12192897 0.08397632 0.33124682 0.20604011 0.29267967 0.11539875 -0.15083893 -0.015281924 0.31770438 -0.36268044 0.16137853 0.16359518 -0.22769596 -0.03000116 -0.42390588 -0.28467482 0.3447441 0.2578089 0.14717613 0.36131588 0.30567852 0.3590807 -0.24558777 -0.20434858 0.4210052 0.12963147 -0.038640454 -0.30574754 0.12903364 -0.26711893
kon 0.1400744 0.33629787 -0.19906385 0.046051804 -0.19165678 -0.19312413 0.22980028 0.21830279 -0.07453108 -0.42267847 -0.37673596 -0.059214246 -0.16908939 -0.2977065 0.17061913 0.07557211 -0.019150661 0.16975199 -0.028997196 -0.25038236 0.28819576 -0.08901485 0.08838649 0.21196984 -0.034441702 0.057108525 -0.31905955 0.03483792 -0.080614306 0.2879236 0.09034076 -0.39939332 0.40748397 -0.4193478 0.06885841 0.14941539 0.047601976 0.10160316 -0.29921448 0.09116452 -0.016574316 0.17208317 -0.052484713 -0.39207086 0.333672 -0.005904954 -0.19713481 -0.07341585 0.25953525 0.16686206 0.04664911 0.05922068 -0.010277751 -0.16293861 0.0067436034 -0.17987365 0.2493581 -0.015573863 -0.43164602 -0.07494299 0.1136658 -0.2523657 0.14531554 0.18931298 -0.13210705 0.3996789 -0.03499619 0.045892097 -0.18091673 0.30886427 0.019932698 0.36887705 0.06430267 0.042490207 0.3348357 -0.14227073 0.16087925 0.17986265 0.040163666 0.015209157 -0.3104643 -0.24435633 -0.040444057 0.31135178 -0.10022051 -0.3007795 0.12274232 -0.039024852 -0.00067078864 0.15514338 0.2442739 -0.0013068782 -0.1742593 -0.26452246 0.054275412 -0.07498324 -0.35266477 -0.1866336 -0.30530256 0.070559844
luka -0.26143727 0.5709625 0.58278495 -0.20687388 0.16959898 -0.27507514 0.15242994 0.18374947 -0.45301548 -0.5120511 0.37415355 -0.59318876 -0.117785 0.039379124 0.49653053 -0.09578221 0.021910734 -0.052342728 -0.29671708 -0.30548668 0.09203659 -0.3735187 -0.17734852 0.15011661 -0.08878265 -0.33901548 -0.031196855 0.44392833 0.23399848 -0.19656092 -0.33619675 -0.1774113 0.24961373 -0.3099127 0.21551274 0.083190486 0.23128678 -0.39063114 -0.024895882 -0.32778862 0.06415154 -0.11288931 0.38293326 0.22679558 -0.22881363 -0.44935668 -0.1193138 -0.016941115 0.027817085 0.53425264 -0.34407073 -0.45478314 0.008103292 0.03996951 0.20249556 -0.18676436 0.12447183 0.47561884 -0.21928166 -0.010741287 -0.062356662 0.09751943 -0.21323192 0.019572916 -0.3835819 0.42091653 0.14956875 0.2828974 0.007958918 0.103036195 0.02544759 0.23124269 0.18221077 -0.22093369 0.41390273 -0.11010654 0.21405725 -0.18795672 -0.26467854 -0.16026022 -0.15253094 0.16812815 -0.58693945 0.4666906 0.10770839 0.18380979 -0.104165964 0.05116481 0.29773825 0.24928464 0.2054386 -0.22181433 -0.34725592 -0.20995063 0.36449927 0.32539496 -0.04608841 -0.41420403 0.15682036 -0.19718191
sin -0.10636778 0.2962447 -0.08091884 -0.0052028466 -0.08114462 -0.16469817 0.18074606 0.30591157 -0.34677863 -0.36733556 0.22052939 -0.23263878 -0.10051504 -0.026468832 0.19768699 -0.25882304 0.24683969 -0.06836923 0.008936128 -0.29941797 -0.0078326175 0.13504706 0.2794428 -0.082302764 -0.013900948 0.14115354 -0.5367506 -0.20616716 -0.030060906 -0.06266005 -0.1507978 -0.2627824 0.20590974 -0.48056808 -0.09063255 -0.051757675 0.18115142 0.10419493 0.12901597 -0.14373556 0.08485171 -0.36033717 0.065146476 0.13865504 -0.033263337 0.040994067 -0.28683847 0.108703546 -0.004387176 0.13017231 0.093907565 -0.17236495 0.15420043 -0.22059865 0.036508687 -0.14176743 0.31019843 0.14067896 -0.08177944 0.13495712 0.043061845 -0.16029719 0.28878397 0.3702768 0.05268762 0.0045157745 -0.32549027 0.23629992 -0.0036634994 0.11595332 0.10594938 0.24584126 0.2797251 0.21709591 -0.03185575 -0.22985874 -0.19380543 0.24869767 0.0520125 -0.14110047 -0.050920255 -0.09967027 -0.038516644 0.069010355 -0.10962041 -0.0036095306 0.41126704 -0.012451138 0.06876231 0.31898946 0.5192899 0.19062068 0.14948331 -0.029777547 0.26894808 0.07152159 0.02111869 0.13423744 -0.22577459 -0.17086637
nanpa 0.18960746 0.38258785 0.37117964 -0.19309121 0.14643286 0.063161716 0.18020166 0.10205627 -0.2372435 -0.372099 -0.046863906 -0.46229988 -0.055188395 -0.14041685 0.083311625 -0.25427637 0.049624026 -0.25104862 -0.33015597 -0.52437395 -0.012143833 0.07029048 -0.04042078 0.124143206 -0.2029523 -0.27030864 -0.36564225 -0.14322941 0.15329845 -0.09417597 -0.34493852 -0.1689801 0.26445618 -0.38780484 -0.1984516 0.11065331 0.000831446 0.15981746 -0.10874575 -0.06658402 0.25129995 -0.3587446 0.3027479 0.16882299 -0.031417616 -0.044157747 -0.16796741 -0.39543343 -0.1155227 0.4681157 -0.21725905 -0.24944426 -0.04705856 -0.27612868 -0.004806671 -0.32809812 0.20278509 0.27917233 -0.20921037 0.23835683 -0.07303754 0.013152663 0.15396924 0.16569375 -0.38487327 -0.01913472 0.24804069 0.29899424 -0.060265634 0.15820855 0.2995016 -0.051308647 0.28478143 0.027645936 0.30079424 -0.31934726 0.059416987 0.21944013 0.17005001 0.023979833 0.048703995 0.21186097 -0.33696172 0.2607713 -0.021963028 0.11510654 -0.024856128 0.21414499 0.115028635 0.12164094 0.21675792 -0.072684966 0.26131815 -0.20655061 -0.10274597 0.10339388 0.036555573 -0.24864838 -0.1299551 -0.18263106
kin -0.15189725 0.13785547 -0.07190289 -0.027478501 -0.15690657 -0.33753026 0.051934868 0.3959353 -0.24543785 -0.11250283 0.21462478 -0.14014861 -0.14804105 0.005278818 -0.04151285 0.075938694 0.14305466 -0.10747193 -0.10184713 -0.39810103 0.09751097 0.14212736 0.11712993 0.093910545 -0.20241599 0.14779845 -0.003034597 0.074027486 -0.068553746 0.13788685 0.17685565 -0.17870356 0.2041263 -0.3454395 0.06837484 0.06745179 0.29719913 0.038015194 0.13339944 -0.25352755 0.12701091 -0.09695687 -0.09714997 0.035547376 0.21990602 0.008137079 -0.14475721 0.28491193 0.10890423 0.17751965 -0.0831171 -0.03300461 0.22862807 -0.005184756 0.08474167 0.06754312 0.232234 0.07450595 -0.06762688 0.011570518 0.09365948 -0.018666986 0.13073926 0.12144606 -0.009237305 0.3130248 -0.05635392 0.35519865 -0.18958327 0.09090943 0.048677057 0.08024467 0.15075764 0.13038032 0.20676313 0.037154384 -0.10948703 0.09065727 0.020494606 -0.2347935 -0.024186239 -0.007530127 -0.08680795 0.027479256 0.03277602 -0.1394491 0.13988264 0.03155083 0.12931602 0.21022001 0.32564387 0.09822376 -0.008506286 0.03418416 0.31252426 0.1285723 0.0060797394 -0.0996863 0.0154204685 0.047701426
suno 0.33611232 0.504513 0.022566298 -0.4708279 0.023228057 -0.3700844 0.489493 0.39688045 0.21787418 -0.28977203 -0.06498201 0.01750671 -0.22728449 0.07751306 0.18259376 -0.3144615 -0.15319294 -0.07129078 -0.20104915 -0.5189024 0.37521955 -0.058080483 -0.16725263 0.16997957 -0.28941703 -0.0755145 -0.42661288 -0.15810107 0.09405263 0.027153583 0.00900407 0.022876604 0.22602479 -0.09208869 0.14084412 0.34243697 0.15540293 0.28509933 -0.31463432 -0.028213816 0.21255752 -0.17277265 -0.12510306 -0.0156202065 0.022618184 -0.10183992 0.13783798 0.044466536 0.20043424 0.34616336 -0.28113794 -0.19004977 0.23180936 -0.048675347 -0.026103217 0.101916 0.06994942 0.08591668 -0.021946488 0.060974445 0.176499 -0.4088632 0.33117223 -0.051289126 -0.13392742 0.08041371 -0.050039086 0.08815055 -0.2107607 0.25428155 0.08365866 0.24251609 0.3402312 0.17377625 0.11080952 -0.28909346 -0.060553484 0.10235399 -0.027586475 0.127744 0.10402267 0.12523866 -0.19954383 0.035406817 0.066138774 -0.17992522 0.33122277 -0.07272764 -0.017654045 0.32136622 0.50486577 -0.020567138 0.19152185 -0.16128491 -0.20489019 -0.2353311 -0.01877264 -0.1458432 0.0065642446 -0.17615634
a 0.30495808 -0.15535717 0.11126494 -0.33535352 0.20529853 -0.46454304 0.14640267 0.49669462 -0.11818342 -0.28497264 -0.44378364 -0.324988 0.21620093 0.28337914 -0.12961343 -0.17650685 0.012105429 -0.33899873 -0.005749788 -0.7134511 0.22367318 0.38124788 0.5083062 0.12848231 -0.33849862 0.028084585 -0.08871162 0.16853432 0.19449127 0.12474588 0.496358 0.11642325 0.24754556 -0.11567103 -0.051493037 -0.22466107 0.5041951 0.22494566 -0.08260853 0.05381452 0.4859013 -0.049921293 -0.0071247783 0.27452165 0.14088091 -0.07365157 -0.13736542 -0.2885305 -0.22260219 0.34428403 -0.33440554 -0.16204163 0.35244915 -0.14202523 0.061328843 -0.25946248 0.4218774 -0.018238287 -0.29951805 -0.06028059 0.052939102 0.23731284 0.12169137 0.25311804 0.14444189 0.3042733 0.18164003 -0.0014016745 -0.14891948 -0.40073723 -0.12565072 0.25616956 0.25219077 0.08643571 0.28284493 -0.15560283 0.14201398 -0.05561204 -0.3584129 -0.16488788 -0.082068235 -0.04210186 -0.27409002 0.102214605 0.2542503 -0.05419394 0.6306753 0.022089114 -0.29114258 0.23814225 0.2677377 0.1539795 0.22896287 -0.07600334 0.47091308 0.08153767 0.39588678 -0.11952909 -0.25011843 0.15139304
sike -0.033880215 0.4023372 0.004907688 -0.38132674 0.120177306 -0.2643453 0.113160916 0.268753 -0.38656127 -0.27639866 0.14464289 -0.07021883 -0.36645955 0.2993577 0.12642041 -0.63978183 0.03804484 -0.085471444 0.0035517486 -0.56751156 -0.027113248 0.054353304 0.017425572 -0.078153044 -0.325651 -0.3595282 -0.12484334 -0.16015653 -0.17041901 -0.22540608 0.18913428 -0.4030972 0.21163003 -0.021387892 -0.29268146 -0.06625225 0.11931435 0.275258 0.09848224 0.010080073 0.15585057 -0.22574332 0.112086795 0.34568492 -0.13253208 0.14587629 -0.09718229 -0.08176403 -0.04769376 0.50250596 -0.25194284 0.004045705 0.26918644 -0.003506833 0.08220971 -0.02887071 0.10296509 -0.01086059 0.27160132 -0.2630511 0.24028552 -0.008948712 0.07815379 0.019511819 0.054103598 -0.047336854 0.31402415 0.2359162 -0.7366834 0.34348008 -0.08965928 0.23777017 0.33671626 0.077683635 0.027805518 -0.044061646 0.017394494 0.3282025 -0.00082891656 0.11892466 0.074550614 0.17725593 -0.41721055 0.22306505 -0.025592493 0.014159729 -0.2863502 0.023205092 0.15705234 0.24589987 0.30576834 -0.07670603 -0.15066116 -0.10281351 -0.114019915 0.28573602 -0.07157065 0.18942022 -0.23102741 -0.21932784
insa -0.20240092 0.25240937 -0.24411388 -0.20946056 0.09024645 -0.06875691 0.14308403 0.36078617 0.12013376 0.017230956 -0.11544676 -0.07572824 -0.14015087 -0.08302136 0.2208738 0.14701806 0.015225408 0.253142 -0.03255385 -0.27863783 0.3317781 -0.3645878 -0.22219416 0.046042792 0.036390662 0.28039715 -0.05909625 -0.48878866 -0.26645908 0.119399935 -0.07414975 -0.051144317 0.036997765 -0.6019674 0.061212588 0.34317553 0.31046343 0.07463318 -0.35420674 -0.09057071 -0.2313486 0.053357106 -0.05809831 -0.25345126 -0.10157399 -0.28557917 0.12368966 0.012262503 0.11614374 0.28256062 0.102275886 -0.29086107 0.29259366 0.13903692 -0.11639949 -0.089896426 0.21220969 0.076836154 -0.2028097 0.01428832 -0.002852824 -0.25238854 -9.6254575e-05 -0.14848994 0.0647615 0.62100524 -0.22485255 0.27243033 -0.24556105 0.006837783 -0.41536367 0.41591772 0.11425187 -0.041997366 0.28580108 -0.30058265 -0.16369174 0.6044497 0.15996242 -0.28018352 -0.36512598 -0.004480654 -0.2739427 0.09815424 -0.32731807 0.060721137 0.2563786 -0.06571536 0.45275605 0.20607288 0.5585463 0.08778648 0.07773214 -0.011310836 0.26619074 0.40659633 -0.17068747 -0.092369296 -0.07322102 -0.10350782
anu -0.120146275 0.02514793 0.2745824 0.21633272 -0.3525324 -0.2609908 -0.2813791 0.09063559 -0.24955474 -0.40518916 -0.07185703 -0.2073172 0.11213433 0.096353695 -0.1220267 0.34059647 0.068369634 -0.29040757 0.070651114 -0.2415432 0.10216952 -0.09069033 0.19636658 0.26416957 -0.064281784 0.23827672 -0.63096344 0.33515254 -0.23343375 -0.223653 -0.19036129 0.06734095 -0.011550363 -0.029792294 0.13455698 0.062308885 0.24990521 -0.33701277 -0.15433615 -0.21721095 -0.05664966 -0.2370348 -0.2248682 -0.09186656 0.056836203 -0.08799013 -0.2710841 0.052850336 0.1482249 0.4833401 -0.11274121 -0.11408698 -0.026365357 0.051173948 0.12234184 0.056632165 0.28083256 -0.2676608 -0.66209644 -0.030077334 0.014147448 0.13389875 0.03424625 0.42403072 -0.055742916 0.24188322 0.33356333 -0.06527684 0.3468026 0.26896185 0.2651436 -0.0006461935 0.23997104 0.04916026 0.4217943 0.16164638 -0.024800379 -0.29425994 0.3488069 -0.12449972 0.002073781 0.47371036 0.13516499 0.21813785 -0.25029108 -0.13787399 0.10752286 0.32449195 0.19180207 0.114459746 0.68301976 0.39592308 -0.030147621 -0.112565 0.07223634 0.30818373 0.004871351 -0.41152358 -0.22318868 0.10782184
weka -0.42896512 0.6571849 -0.061445042 0.01292401 -0.060564235 -0.13328263 -0.27021712 0.14622538 -0.03132836 -0.13241163 0.03710163 -0.008367241 0.12515278 -0.061751623 0.039028868 -0.13750178 0.3478617 -0.22348723 -0.055646505 -0.39582008 0.03596083 -0.11405887 -0.006565557 0.048204876 -0.16736904 0.15354492 -0.4477564 -0.216054 -0.11153075 0.19462295 -0.039026342 -0.04580487 0.11480823 -0.35371107 -0.16124305 0.53581727 0.113344826 -0.15029553 -0.38073888 -0.142558 0.08418218 0.40409622 -0.08095701 -0.60278845 0.16200808 -0.07211541 -0.012555305 -0.08295536 0.18133357 -0.0330973 -0.077370025 -0.21988854 -0.042091314 0.18312319 0.018695496 -0.23991483 0.28211594 0.07365709 -0.39928845 0.10341959 0.27717716 -0.14357056 0.5098155 0.15808155 -0.059947897 -0.021006452 0.21435057 0.09372304 -0.12389238 0.39541712 0.11190597 0.19576609 -0.083393306 0.055429198 -0.08397872 0.16600764 -0.3529378 0.4019122 0.20551631 -0.18778712 -0.10850119 0.15258947 -0.067783795 0.28482452 -0.2807385 -0.11253078 0.19342728 0.46781895 0.41932684 0.43786803 0.32380545 0.2638584 0.03982809 -0.39212063 0.122510254 0.092467405 -0.31873858 -0.20761329 -0.033067025 0.15620281
awen 0.06484923 0.2352537 -0.05173824 -0.13184527 -0.022392271 -0.10114781 -0.061970204 0.10342844 -0.3503585 0.058559444 -0.08067434 -0.3617585 0.12600115 0.013036222 0.2978466 0.075361654 -0.046977017 -0.22366542 -0.30163097 -0.6288982 -0.054374408 -0.1320334 -0.12316508 -0.015215873 -0.28625947 0.23918581 -0.32996178 0.00078094914 0.094647616 0.32752478 0.28854403 -0.075887814 0.07728484 -0.27849662 0.19312389 0.09485081 0.1536856 0.062823705 -0.34572703 -0.0913352 0.28806108 -0.18609971 -0.010115349 0.19879587 -0.08299788 0.101368755 -0.14186503 0.058763195 -0.011438485 0.2489955 -0.07671952 -0.15572248 0.1118992 0.16738686 -0.18882129 -0.08964425 0.28568152 0.281332 -0.20319214 0.11383553 -0.17799203 0.016992377 -0.12961805 0.32249576 0.20138842 0.2487183 -0.008510489 0.2527625 -0.099029 0.2990373 -0.18315224 0.15602878 0.05405679 0.18213925 0.039461214 -0.24404556 -0.16651595 0.35626253 0.24367896 -0.07856088 -0.28131014 -0.124189675 -0.33407992 0.17643896 -0.20642269 -0.047015965 0.2659456 0.18660158 0.35382894 0.3440907 0.23417598 0.3532484 0.016122967 -0.038067743 0.075969875 0.24745585 0.047365278 -0.16669688 -0.060116943 -0.01913711
kasi -0.12848154 0.60728794 -0.010404301 -0.41267726 -0.006049541 -0.56749123 0.36984757 0.3995378 0.048243534 0.1718837 -0.27814338 0.0037976599 0.118112184 0.0149304755 0.47692752 -0.16802132 -0.18698095 0.10126045 -0.113732696 -0.36475843 0.3458858 0.27837247 -0.19640213 0.024148265 -0.2995949 -0.11488933 -0.235488 0.2716551 -0.28646418 0.05025347 0.34202075 -0.1593753 0.077230744 0.10753474 -0.2522985 0.011025926 0.41096482 0.3567681 -0.21694918 -0.07295098 -0.11837925 0.47241664 -0.050325625 0.118282855 0.1438493 -0.12612028 0.32335547 0.23239282 -0.034390677 0.12120077 0.15008698 0.020883426 0.35312784 -0.31519988 0.13144735 0.38082427 -0.1312834 -0.23388985 -0.29191738 -0.309797 -0.19299988 -0.020211216 0.24384189 -0.14054674 0.26504207 0.5915078 0.07024414 0.15858199 -0.49598762 0.20784432 0.15507515 0.12222668 0.31812233 -0.0065260595 0.2503571 0.12955837 -0.001059165 0.20359139 -0.0347673 -0.2469509 -0.11980401 0.06435088 -0.20648305 -0.064580716 -0.058470063 0.16515276 0.018975312 -0.011526926 0.42087176 0.2307554 0.5282234 0.09000323 -0.04161235 -0.22146972 0.36640415 -0.41185808 -0.40468568 -0.30636653 0.15522695 -0.12995428
meli -0.029938506 0.45379952 -0.32457972 -0.17183533 -0.4468901 -0.2698649 0.2638902 0.16012043 -0.21943758 -0.037795242 -0.13565789 -0.0020086411 -0.20364724 -0.22853614 0.1771097 0.1571447 -0.30339608 -0.4064829 -0.19017047 -0.54222417 0.04336867 0.20614466 -0.1869204 0.14075497 -0.032372423 0.2142417 -0.5562195 -0.04703147 -0.07815464 0.062109943 -0.19256137 0.14248398 0.13440832 0.061102882 0.055186357 -0.043549214 0.28642035 0.11391394 0.16274752 -0.25743404 -0.13287474 -0.10761613 0.36362547 -0.06159866 0.19340375 0.039755173 0.06760342 0.37127787 0.021902835 0.35276356 -0.075799495 0.2373747 0.36051494 0.026539477 -0.1965182 -0.059339803 0.30063257 0.42935213 -0.40107918 -0.121719785 0.10922009 -0.04245116 -0.17236628 0.16529009 0.12652029 0.34812817 0.07621794 0.36677724 -0.13748777 0.11986834 0.42107663 0.40409175 0.2488414 0.5468158 0.16293202 -0.041185286 -0.33079192 0.30119485 0.38451687 -0.26603714 0.12984212 0.1607275 0.055720795 0.15529622 0.11551969 -0.044540167 0.4435691 0.2425612 0.09283929 0.022305075 0.41200572 0.30577585 -0.296127 -0.26568583 -0.15575626 0.5283719 0.019909708 -0.39752406 -0.09186133 0.1535196
mama -0.22572546 0.6108838 -0.0870714 -0.0149594 -0.06361296 -0.3682099 0.10329942 0.10816052 -0.5030349 -0.14404632 -0.13838096 0.13133602 -0.54505235 -0.22707307 0.19205225 -0.12718144 0.32830524 0.1950215 -0.038533 -0.40429723 -0.020660246 0.18016964 -0.22412208 -0.12512043 0.0035718186 -0.061878428 -0.48021337 -0.22953747 0.12245489 0.10948564 -0.5637924 -0.1538807 0.31247917 -0.115896605 -0.06606697 0.45250818 0.087917574 -0.15348375 0.26604313 -0.07802332 0.3277775 -0.11062099 0.4191159 -0.16620323 0.16127962 0.1194567 0.04735324 0.22069645 0.2132397 0.21263143 0.006352897 0.6288056 0.38090205 0.08960033 0.003941582 -0.023541568 0.27674672 0.69666153 0.20498061 -0.26157737 0.1425044 0.08130643 -0.046324503 -0.16428648 0.01238968 0.29296073 -0.13554843 0.016302787 -0.32263672 -0.056521945 0.39366975 0.47184622 0.50765514 0.32991138 0.2877499 0.11440349 0.08373643 0.39919293 0.007420104 -0.49255398 -0.24165364 0.27699807 0.06477124 0.09850718 0.37499374 -0.13312922 0.031904433 0.28306162 0.49462107 0.081224546 0.35224453 0.15434511 -0.3949955 -0.26024082 0.21316986 0.3213677 -0.16555928 -0.37074968 -0.0057040444 -0.09075473
moli -0.44394135 0.74179083 0.33642855 -0.09755145 -0.05909804 -0.31946862 0.0021170177 0.14103447 -0.5109705 -0.007330657 0.124166794 -0.32850108 0.042243008 -0.14840816 0.3670423 0.07315117 0.057405002 -0.2558085 -0.4704971 -0.404321 0.31344694 -0.3229009 -0.03427603 -0.15339239 -0.29720855 0.017026024 -0.14531665 -0.02941754 0.19708593 -0.06668523 0.07586913 -0.092675425 0.5282005 0.025709696 -0.060765754 0.2698966 0.3663847 0.16112252 -0.12768133 -0.120320484 -0.026832793 0.08118427 0.19464858 -0.004934034 -0.026552835 -0.21853803 0.14056854 0.23459892 0.06447993 0.3026668 -0.13427603 0.11640038 -0.2822286 0.44914442 -0.18859431 -0.4845333 0.6660519 0.24057785 -0.25877652 0.051130023 0.09920309 0.06669862 -0.11205661 0.0042206836 -0.1092205 0.07815602 0.12603045 0.14640944 -0.060781125 0.5107791 0.21354489 -0.019056197 -0.17976621 0.32130587 0.2270417 -0.1550993 0.102876954 0.25458607 0.050283443 -0.062404715 -0.18991013 -0.032921832 -0.033013433 0.0748008 0.08255366 -0.057901535 0.11832442 0.2766861 0.1004452 0.3522184 0.47215942 0.0150169805 0.12774715 -0.2604273 0.3134795 0.30394906 -0.2523717 -0.38968727 -0.011019956 0.037493125
kalama -0.028748045 0.3110873 -0.22571783 -0.3135371 0.15072021 0.038299717 0.34544525 0.81083983 0.0913438 -0.33131936 -0.40551344 -0.1704436 -0.06662621 0.18901132 -0.14246437 -0.27199858 0.3081381 -0.2988783 0.2770136 -0.6732467 0.52038616 -0.11581886 0.056642145 0.16529733 0.25499123 -0.22769763 -0.00039782093 -0.33126524 -0.3026082 -0.09544387 0.13483427 0.0018043462 0.04459313 -0.44219053 0.06481472 -0.13901255 0.6181661 0.17855495 -0.11332075 0.29178932 -0.019197991 0.21356119 0.13099611 -0.08079916 0.29643553 -0.037250996 0.124655664 0.010322852 0.2678092 0.34493434 -0.07449898 0.09062222 0.09546495 0.3396574 0.17743999 -0.09601933 0.7806012 0.038292304 -0.20024809 -0.3397758 0.18344821 0.16946359 0.21326606 0.098267056 -0.340115 0.43916526 -0.22395834 -0.07078238 -0.04561222 -0.2715104 -0.18702422 0.17824912 0.19432083 0.12357317 0.28746614 -0.41863862 -0.25558904 0.042020928 -0.17304856 -0.20155741 -0.07206548 0.22282748 -0.30283207 0.036122438 0.30212837 0.12181067 0.35502845 -0.035320543 0.24477522 0.29377028 0.26258764 0.1294749 -0.05882723 0.066226274 0.374626 0.5554566 -0.2100434 -0.17332143 -0.07653591 -0.16658784
seli -0.2885746 0.52302164 0.10178485 -0.5820793 0.13910043 -0.34993196 0.032120492 0.011055005 -0.25975874 0.30372435 -0.22068323 -0.33978197 0.023053907 -0.27061102 0.17654687 -0.21638598 -0.12579265 0.035411276 -0.07612289 -0.43431115 0.40653333 -0.26958168 0.066975564 0.12974387 -0.39926267 -0.19054875 0.043620974 -0.38916537 -0.00036068534 0.04848048 0.35872057 -0.1488608 0.25229406 -0.18625359 -0.34728926 0.43390268 0.31630763 0.22484063 -0.38209093 -0.1875608 0.31788206 0.36112586 0.02807658 -0.31339452 -0.042423036 0.04609568 0.08547602 -0.078390285 0.14367905 0.06361045 -0.00036929836 -0.12262895 0.25270158 0.0311179 -0.0024293638 -0.37296855 0.22814581 0.10132091 -0.17648071 -0.049068872 0.36210752 0.15721504 -0.0019571069 -0.117581524 -0.030614948 0.05375044 0.20288219 -0.015096518 -0.26777688 0.22863047 -0.22912665 0.32369426 0.18230075 0.4076262 0.05930496 0.0045134253 -0.15405522 0.30316314 -0.16512723 -0.29364917 -0.12013456 -0.18597867 -0.64229727 0.28449073 -0.3961149 -0.17707734 0.01701468 0.05048738 0.27443406 0.37359017 0.5880159 0.30013815 0.13513698 -0.41097447 0.603416 0.02709842 -0.14894131 -0.17116104 -0.07245226 -0.1635881
utala -0.17848125 0.14533861 0.033584584 0.20263599 0.22775641 -0.23526086 0.13671502 0.18896584 -0.47120494 0.27721173 -0.2074378 -0.12658837 0.17240964 -0.29124522 0.3341363 -0.037739467 0.33387613 -0.14122798 -0.34885553 -0.2005584 0.39037007 0.2623624 0.2852675 0.006652853 0.082211114 -0.03602916 -0.18894087 0.2217422 -0.05584951 0.44186988 0.22952265 -0.057887733 0.34652406 -0.32659742 -0.23117563 0.42691472 0.26655683 0.19884324 -0.515999 0.39182234 0.20223327 0.39520612 0.10985807 0.13391522 0.20903218 0.030160021 0.082404844 -0.06899382 0.31598368 -0.28385553 0.11575933 -0.010561994 -0.2584034 0.37116992 -0.43961582 -0.36386263 0.48005825 -0.028104248 -0.06132351 0.114455625 0.006558803 0.12378412 0.35050085 -0.067963816 -0.055312466 0.23377082 0.009795813 0.049119674 -0.43878487 0.10059859 0.09969831 0.25885373 0.058663204 0.13814756 0.23300229 0.06141927 0.3765998 0.23776223 -0.3809682 -0.24176261 -0.25735536 -0.3982503 -0.032821223 -0.060923114 -0.22826937 -0.13257334 0.037211258 0.23306751 0.23540278 0.60161924 0.25955495 0.21432042 0.07813528 -0.15339828 0.41727388 0.061910823 -0.044056606 0.03318868 0.06265277 0.004809734
waso -0.5309707 0.80862004 -0.12836799 -0.49726602 0.26080543 -0.6721866 0.1949234 0.49393347 -0.07543007 -0.07235254 0.17867526 0.009731353 -0.06307132 -0.23444489 0.62123823 -0.09280055 -0.2635213 -0.22629362 -0.3492703 -0.15632324 0.22207318 0.16873746 0.17104468 0.012623174 -0.13015679 0.03613509 -0.15543284 0.36954764 -0.08778791 -0.50916576 0.08150613 -0.5186727 0.54220283 0.28900093 0.10222299 0.18415388 0.6312323 -0.2667293 0.039807834 -0.113214925 -0.42520162 -0.17789978 0.17500779 -0.3496987 -0.17210339 -0.12774014 0.16423795 0.28218183 -0.23313142 0.04329575 -0.038388714 -0.094027534 0.23666039 0.21085039 0.18033467 0.006312805 0.36997524 0.35276082 -0.33275524 -0.26622373 0.44847098 0.009629307 -0.011465234 -0.23538673 0.10247778 0.7630812 0.23801737 -0.27498308 -0.48814672 0.07488113 0.25077465 0.22810437 0.48806015 0.25578117 0.045846008 0.07582796 0.2189507 -0.11265775 -0.26932207 -0.23778409 -0.23080933 -0.23731002 -0.1803468 -0.2628657 0.19427475 0.44983637 0.013494627 0.07543977 0.37173146 -0.1457154 0.52143866 0.116034806 -0.003184576 -0.4247027 0.044446018 0.0036002374 0.14593573 -0.15185672 0.009701789 -0.11443939
poka -0.060513522 0.35128048 -0.071719505 -0.034670815 -0.13592944 -0.25067484 -0.16336654 0.251713 -0.21367487 0.12578087 0.20971972 -0.39314407 0.0012625137 0.29650646 0.2382112 0.16572921 0.10069622 0.054158524 0.018488435 -0.29559934 0.07886853 0.11206523 0.04597665 -0.019520829 -0.2515115 0.13121699 -0.23724438 -0.03884032 0.12990221 0.05831154 0.07745739 -0.22378036 0.38451478 -0.2090074 -0.100347154 0.09910133 0.38598657 0.030493258 -0.15538846 -0.23834558 0.16235887 0.07920372 -0.18635523 -0.12616147 -0.040205207 0.02573061 -0.25307384 0.045277957 0.19303574 0.39228725 -0.18756261 0.14641671 0.10160247 -0.005016454 0.21563323 0.14036846 0.1856759 0.13843769 -0.10197499 -0.16128464 -0.3790056 -0.15166645 -0.04514562 0.39309192 0.034922507 0.32486415 0.07765859 0.1653101 -0.27921 0.6482543 0.0019276519 -0.101152085 -0.060259458 0.027113235 -0.011158259 0.015740814 0.03973113 0.34915537 0.10539967 -0.11825299 -0.4115428 -0.027900226 -0.10629734 0.2727403 -0.23805813 -0.009473028 0.35226196 0.27654558 0.4769394 0.2985969 0.27190414 0.1219832 0.11414108 0.09552711 0.20404918 0.0082728695 -0.05739025 0.06589823 -0.041278403 0.22364365
anpa -0.17187454 0.6271897 0.07125406 -0.12228077 -0.06905512 -0.28598592 0.09697451 0.18403153 -0.021730473 0.10965117 0.041590404 -0.20103236 -0.019912748 0.22021899 0.40226486 -0.056271818 -0.17159268 0.1318776 -0.35969344 -0.44704962 0.1102745 -0.08427118 -0.40420902 -0.002295514 -0.17717578 0.005701986 0.11500126 -0.2936757 -0.12248546 0.25203952 0.12779441 -0.11812305 0.19778214 -0.24707024 -0.103750244 0.33541515 0.37380388 0.37752187 -0.12058755 -0.1874246 0.07391184 0.31801566 -0.069177486 -0.088141546 -0.059090428 -0.28334197 -0.0153090535 0.021184705 0.2433053 0.37502885 -0.17582656 -0.03408385 -0.026159711 0.45559078 -0.028497053 0.14235204 0.21267587 0.13414966 -0.3232239 -0.25605154 -0.25116262 -0.15329292 0.10835248 0.020618407 0.01772883 0.3477582 0.09021537 0.18079711 -0.5519682 0.4497495 0.07026794 0.31613958 -0.039097995 -0.15500058 0.2525327 0.2801619 0.015762817 0.541642 -0.059037946 -0.16349603 -0.09228585 -0.3083884 -0.11541978 0.19317839 -0.38440728 -3.2926302e-05 -0.2754707 0.3116625 0.40523514 0.35246062 0.0066547776 0.1693564 -0.039500285 -0.19717774 0.05033484 0.29451263 -0.3442549 -0.06063557 -0.014256903 0.28696793
kiwen 0.039338827 0.69269675 0.008885642 -0.447937 0.38707846 -0.42893064 0.2222747 0.15837064 0.057880435 -0.13415171 -0.058725674 -0.36382005 0.032929067 0.102237836 0.09612096 -0.1276293 -0.14957406 0.17496207 -0.099433094 -0.41837424 0.39271832 0.027127128 -0.051314827 -0.17478588 -0.19376747 0.095388845 -0.36955264 -0.40727237 -0.05312913 -0.08012063 -0.024014737 -0.35372388 0.19635805 -0.37837574 -0.18111138 0.3985856 0.09989925 0.08613763 -0.23454052 -0.32219207 -0.15541026 0.10201784 0.0016091843 -0.41282806 0.04649523 0.019312553 0.07946572 -0.11604963 0.21036611 -0.16628104 0.4203991 -0.27873152 0.29366988 0.1530672 -0.15190928 -0.028608749 -0.1348176 -0.08751499 -0.50032115 -0.07969671 0.14337718 -0.44199565 0.031057877 0.20780209 -0.007842087 0.26347443 0.1575932 -0.18129383 -0.19581082 0.67720616 -0.36300084 0.37039745 0.18894944 -0.01159461 -0.064244084 -0.040044468 0.074063875 0.30243468 0.072590604 -0.11224761 -0.14632605 -0.02325498 -0.34057224 -0.10475845 -0.4435319 -0.098011024 0.035039943 0.13623054 0.21049668 0.31059295 0.5625263 0.3273051 0.14449522 -0.22395855 0.2716133 -0.29056132 -0.20463651 0.031828385 -0.1282486 -0.16841075
poki 0.00401502 0.4796341 -0.0100203445 -0.4767447 0.10599763 -0.37544343 0.08054237 0.03088714 -0.020155156 0.23880808 -0.348993 -0.31186274 -0.19916616 -0.12226606 0.090457834 0.01145726 -0.27088138 0.017392 -0.02645818 -0.37652105 0.11823076 -0.21497728 0.07952011 -0.26687154 -0.39905623 0.14782654 -0.077247486 -0.065731056 0.02713346 -0.09598478 0.2759371 -0.2637093 0.4126758 -0.1392023 -0.17563021 0.20768543 -0.0053758114 -0.015479392 -0.25630015 -0.28542504 -0.03939541 -0.2850204 0.13267088 -0.30895448 0.0102522485 0.050125856 -0.14414424 0.06808234 -0.02953807 0.14457965 0.12553626 -0.08381509 0.45294937 -0.18816799 0.023655565 -0.012544912 0.0879976 0.205543 -0.3046765 -0.14095269 0.09773087 -0.23501931 -0.42535758 0.20252407 0.02085507 0.46060616 0.14543684 0.32942536 -0.32676834 0.45822692 -0.41110015 0.26753658 0.10119282 0.13478439 0.34000206 -0.071344815 -0.26629105 0.17438306 0.051446214 -0.17220972 -0.4218807 -0.27214426 -0.6321892 0.4023747 0.02633303 -0.017206104 0.28247815 -0.04058636 0.21183796 -0.017446889 0.53456944 0.06339624 0.09563202 -0.2988962 0.13278909 -0.09329443 -0.10395073 0.023756292 -0.22199583 -0.1710699
ali -0.21901324 0.3229437 0.18127213 -0.27862647 0.25022447 -0.4450742 0.07347049 0.4566781 -0.19487663 -0.079818465 -0.2498873 -0.37477753 -0.09523301 0.088644095 -0.028360307 -0.27432394 -0.026605116 -0.16012566 -0.1334719 -0.36091006 0.0074835503 -0.013258064 0.26840803 -0.050745767 -0.32165962 0.11855701 0.07350092 -0.23570703 -0.04876107 0.0758103 0.53928024 -0.01771065 0.28963995 -0.15018682 -0.10870032 0.05522062 0.5452975 0.3851036 0.10546597 0.072020076 0.116056316 -0.013579209 0.029650275 0.010263901 -0.008900943 -0.09009094 0.058870982 0.110983446 0.0027970911 0.11172647 -0.14240564 -0.012116273 0.20258197 0.096737094 0.019394444 -0.059166927 0.35614702 0.049571294 0.09802722 0.08253821 0.1479661 0.1655112 0.3729218 -0.09184218 0.14288454 -0.17547473 0.22478081 0.010448357 -0.44937474 -0.05070402 0.19366762 0.12022952 0.2806716 0.2435333 0.1777712 0.07107823 0.043047886 0.25340357 -0.061903104 -0.22834961 0.024283998 -0.25111046 -0.11219403 0.03028379 -0.04770355 -0.1591615 0.2177448 0.1925872 0.0007560436 0.09579273 0.22380011 0.24970756 0.3378677 -0.25272867 0.16669655 0.16638677 0.022676224 -0.086416684 0.14859504 0.15067312
pimeja 0.12308811 0.32867244 -0.28891578 -0.38420963 0.004383231 -0.32829738 0.2254706 0.3468618 0.20775864 0.10023829 -0.19380668 0.09834256 0.19655667 0.2463787 0.07096144 -0.47326085 -0.22674379 -0.04353166 -0.094001494 -0.5492966 0.45514557 0.01897829 -0.21753138 0.23634334 -0.12099876 -0.07592355 -0.31286627 -0.3550827 -0.29874617 -0.1360538 0.028593304 -0.031002626 -0.10194363 -0.04249308 0.0712461 0.23071109 0.18079595 0.107657626 -0.17124864 -0.13867354 -0.12381578 0.020022871 -0.15009208 -0.17617315 -0.22049637 0.072763875 0.045280334 -0.08656383 0.0590956 0.39908862 -0.012535101 -0.38514155 0.18590857 0.00095964817 0.029099077 0.12614399 0.18785274 0.14095801 -0.25768188 -0.13780339 0.30428737 -0.239854 0.045380473 0.0058054468 -0.061852023 0.2779957 -0.014588485 0.16411069 -0.42625198 0.35842565 -0.29009083 0.41871744 0.42155975 0.03412953 0.12315933 -0.064110994 -0.40400922 0.3747663 -0.10345271 0.09302587 0.078582495 0.23261175 -0.44880983 0.16057524 -0.45097145 -0.020625187 -0.06507602 -0.1275046 0.23850456 0.16821861 0.43367264 0.43506333 -0.0013057465 -0.0841389 0.0972445 0.16441782 0.00038078916 0.1739512 -0.39694738 -0.30414504
sijelo -0.03527821 0.40391836 0.0432813 -0.29596215 0.0060496912 -0.36662355 0.17777468 0.1307678 -0.20166795 -0.13125615 -0.4592066 -0.322026 0.022621362 0.3250751 0.30304056 0.053851426 -0.35943505 0.049772125 -0.16199814 -0.3002855 0.45009175 -0.22043891 -0.2855443 0.10437864 -0.09619467 -0.010072317 -0.13464956 -0.119662516 -0.28040412 -0.045820866 0.0039096205 0.06964486 0.012307005 -0.31236833 0.164785 0.061285708 0.2408207 0.2906146 -0.32702914 -0.021725286 -0.21753101 0.3109197 -0.07936559 0.08476343 0.16314968 -0.17911755 -0.05105957 0.13805155 0.251523 0.15551747 -0.07935677 -0.01945955 0.12184633 0.34814432 -0.14756793 -0.031506013 0.23396172 -0.20403315 -0.49221182 -0.024554502 0.047156278 -0.07573287 -0.078227475 0.25206682 0.05256854 0.2603693 0.0024431066 0.2728796 -0.027054086 0.4525541 -0.27763346 0.3239266 -0.021213206 -0.22714859 0.44480577 -0.060691103 -0.15124735 0.09112534 0.0052263965 -0.26899442 -0.022719547 -0.20552026 -0.230283 0.2918998 -0.1398807 -0.14110963 0.14685678 0.175098 0.27028507 0.373133 0.2487643 0.33472618 -0.00035204398 -0.2702393 0.07941371 0.40773103 -0.4043232 -0.13880946 -0.00036612662 0.12018859
mani -0.42127445 0.3972324 0.35988003 -0.5380675 0.20654655 -0.19356933 -0.1003161 0.3218071 -0.12236614 -0.16406204 -0.42514578 -0.86948794 0.49563974 0.26985225 0.021583015 -0.54013157 0.07866849 -0.27273318 -0.16972323 -0.32844877 -0.10118839 -0.028837236 -0.28969696 -0.088460326 -0.012377798 -0.039662957 -0.22281262 -0.07161744 -0.20455354 -0.36449572 0.15342407 -0.07691683 0.065619774 -0.5841951 -0.43642184 0.5446272 0.07329333 0.043103125 -0.1575269 0.0022285488 0.036842365 0.14771083 0.07851276 0.033497117 -0.06657349 -0.4157436 -0.12049801 -0.16152596 -0.010723064 0.0008356422 0.0370909 -0.6144896 -0.11064066 0.24330054 0.32140434 -0.041104306 0.15582366 -0.07650603 -0.13315463 0.14510652 0.25363258 0.004678464 0.5893963 0.41379705 0.12713398 0.039282538 -0.14136763 -0.12729572 0.24537303 0.0073089073 0.5847277 0.5107477 0.13914794 -0.005650852 0.50292635 0.107222386 0.49135914 -0.1664242 0.1524362 -0.21066095 -0.34207627 -0.28680453 -0.48227757 -0.29170635 -0.20892179 -0.17529348 -0.10714165 0.34564677 0.1760288 0.3016904 0.23172642 0.4555505 0.09318322 -0.52308357 0.23336361 -0.0054518767 0.15362115 0.26945108 0.14325602 -0.12123058
pakala -0.3845113 0.2979267 0.057795495 -0.15154071 0.06061605 -0.5480329 0.13335297 0.17047152 -0.1461008 0.06776 -0.11626427 -0.42071497 0.25104856 0.06658877 0.15972461 -0.13104856 0.03641295 0.06461581 -0.21020989 -0.32401785 0.40629834 -0.03418544 0.006369158 0.082920246 -0.07993326 0.22166233 0.0795494 -0.15259624 -0.16271605 0.12369003 0.23774087 -0.10292266 0.15990028 -0.35797542 0.19953212 0.17551921 0.27248606 0.32602984 -0.14178795 -0.119466566 0.04392168 0.06169437 -0.14862105 -0.52328575 0.121024884 -0.32984644 -0.013963917 0.0068229493 0.08911917 -0.18627274 0.06345772 -0.10381916 -0.098750725 0.5503613 0.0038379307 0.057784665 0.29248685 -0.04877431 -0.41160113 -0.08628741 -0.15111434 -0.24264495 0.2574721 0.19994727 -0.05314259 0.35597312 -0.079175726 0.18575296 -0.33626765 0.5668795 -0.10892007 0.0991957 0.2723662 -0.064473286 0.04024811 0.10839008 -0.20427948 0.38590217 -0.12109391 0.008082602 -0.13751777 -0.30697918 -0.021722129 0.18607439 -0.3497615 -0.07829145 -0.07273361 0.2666817 0.3373048 0.4448017 0.12787355 0.3673388 0.28764853 -0.078888975 0.20951355 0.08689665 -0.29645127 -0.059887115 0.022188313 0.0959316
nasa -0.050156638 0.4159865 0.09274585 0.09639366 -0.08320619 -0.37708583 0.13664839 0.40772104 0.09790991 -0.3792217 0.03178729 0.079215564 0.16180937 -0.14209138 0.06891855 -0.120050445 0.23619077 0.07885248 -0.05684555 -0.44659057 0.08512515 0.12550686 0.15813577 0.15427282 -0.021775521 -0.011598406 -0.2456828 0.26099896 -0.047770415 0.13108751 0.025633043 -0.3010177 0.25009248 -0.33929825 0.14945857 -0.018260982 0.45750946 -0.06295571 0.09263798 0.08143184 -0.053219143 0.0067566233 0.035394084 -0.45025167 -0.05428343 -0.22864985 -0.09083958 0.07163812 -0.13450246 0.19944713 -0.015305879 -0.32151294 -0.0144688925 0.09697353 0.23170832 0.04364781 0.48163664 0.07268851 -0.45918286 -0.104031555 -0.009638046 -0.045705166 0.29457024 0.018767046 -0.049049094 0.61223525 0.11043145 -0.04027366 -0.040589776 -0.16213013 0.25624797 0.22113085 0.33334014 0.046099085 0.32905495 6.83678e-05 -0.17106964 0.16828665 -0.18602267 -0.07507214 -0.060360182 0.12323188 0.06115269 0.1880548 0.03238788 0.0876725 0.078904405 -0.024021257 0.18056703 0.24725088 0.26927832 0.20458923 -0.19179165 -0.324288 0.30141127 0.1049515 -0.18853141 -0.27379665 -0.4414491 0.001849677
