276 100
li -0.027130332 0.25548816 0.035086762 0.17077099 -0.118164934 -0.30769074 0.12281651 0.45553175 -0.0866889 -0.27713612 -0.022263372 -0.20590347 0.020048156 0.13080847 0.15275711 -0.013454522 0.14325468 -0.14391126 0.025506979 -0.3341309 0.11365258 0.14560719 0.19261181 -0.052096564 -0.005800333 0.067852296 -0.21959849 0.03286267 -0.082204565 0.14602701 0.032959577 -0.13181975 0.03090481 -0.19646543 -0.15832448 0.18551357 0.10350416 -0.07972133 0.01042489 -0.10636798 0.053628128 -0.08506047 -0.08832544 -0.1193051 0.035750605 -0.030387372 -0.11631749 -0.01928982 0.055957872 0.08967416 0.08479216 -0.096627556 -0.02837861 -0.08610167 0.051275622 0.13464247 0.19440316 -0.027658273 -0.017970676 0.16402896 -0.07765481 0.00092297024 0.012551591 0.01889663 -0.011388288 0.25282505 0.008010822 0.21718617 -0.20200562 0.07152972 0.009843821 0.115828454 0.1353226 -0.06373703 0.21132024 0.11806448 -0.12402924 0.24283795 0.03363259 -0.14324895 -0.11852876 0.05917235 0.026997512 0.33730078 -0.04576064 0.019547118 0.20624818 -0.056052532 0.12400983 -0.026140895 0.23602656 0.060641292 -0.033531826 -0.1278255 0.189075 0.15140513 -0.03809908 -0.0848458 0.019982727 0.06783334
e -0.07885508 0.26619047 0.0821002 0.27276582 -0.015056128 -0.33013484 0.026099771 0.4594306 -0.08576307 -0.34795004 0.024441043 -0.28386503 0.12808365 0.1469213 0.30011326 0.08431526 0.24598438 -0.07430467 0.10750742 -0.31102175 0.08045913 0.008213689 0.28206003 -0.21598645 0.031906046 0.03927585 -0.2659854 -0.010253234 -0.05921991 0.1969834 0.13654274 -0.11567922 0.0043563885 -0.17639032 -0.15923955 0.1527972 0.03709995 0.04777206 0.12062517 -0.14226373 0.20038074 -0.0798471 -0.059155215 -0.07492682 -0.05830499 -0.002361929 -0.036858916 -0.011756208 0.05450729 0.07737439 0.16481231 -0.1416943 -0.105859704 -0.12976538 0.07487164 0.071450345 0.22089489 -0.019292973 -0.084504835 0.075155176 -0.22729954 0.07132908 0.06811933 -0.0067482996 -0.09452223 0.33305508 0.04462317 0.15239447 -0.21411411 0.043577243 0.06481253 0.058392037 0.1467395 0.076120906 0.24529524 0.011272684 -0.1423197 0.19269727 0.021267671 -0.09997418 -0.14727736 0.028348744 0.10493815 0.28135082 0.020408519 -0.047072366 0.20995495 -0.100373335 0.19653592 -0.07226353 0.13661961 0.05913779 -0.013268729 -0.05270609 0.17308955 0.0917198 -0.114703625 -0.043243777 -0.04263423 0.118383154
jan -0.08362579 0.17105171 0.09877976 0.13141292 -0.030392718 -0.23505823 0.030395234 0.27302414 -0.2528215 -0.22766441 -0.073375404 -0.19538167 0.28718975 0.16886568 0.38927284 -0.019551564 0.24030247 -0.067653544 -0.13765511 -0.34561273 0.020226868 0.07056662 0.15768436 -0.19971056 0.09175242 0.087971926 -0.20262894 0.103758134 -0.0020474123 0.18016392 0.07184875 -0.1732976 -0.007320151 -0.122720696 -0.23905557 0.16042799 0.0002344765 -0.08146086 -0.038151067 -0.21924345 -0.050090745 -0.13646452 0.16597098 0.054954022 0.023686497 -0.06692726 -0.14434975 -0.11615136 -0.05743592 0.019962514 -0.0029028023 -0.044239555 -0.14130269 -0.24475645 -0.084867835 -0.05164685 0.09950624 -0.071308285 0.03736695 -0.0068032374 -0.0013296723 -0.123109974 0.116778836 0.08561852 -0.26116532 0.38251728 0.09136966 0.28401965 -0.343752 0.306798 0.024769126 0.094959654 0.18924075 0.10722962 0.14943856 0.22017178 -0.062290654 0.27593443 -0.13230437 0.040022716 -0.1606041 0.013829416 -0.1395403 0.3227366 0.019848615 0.0028078745 0.13326198 -0.04312667 0.14224678 -0.13590187 0.1334598 0.09711609 0.028857064 -0.11745821 0.20728485 0.18616252 0.055435717 -0.05518612 0.06396388 -0.027026046
mi -0.007859831 0.15308735 0.041074917 0.15958299 0.05091317 -0.30052954 0.10571304 0.33937517 -0.1389968 -0.21298574 0.051118065 -0.1448401 0.30561087 0.13175827 0.34006056 0.14026974 0.26916322 -0.20410638 0.10177405 -0.3896678 0.30060512 0.16981436 0.33776382 -0.21586114 -0.07486367 0.06068628 -0.14028598 0.039646517 -0.00047514538 0.19049804 0.30011845 -0.10787665 0.082850985 -0.23710532 -0.064588055 0.2321345 -0.004476865 0.007267177 -0.009050331 -0.22601125 0.17180833 0.019018885 0.025880177 0.08141293 0.074850075 0.050476782 -0.14864394 -0.109646566 0.012955588 -0.006843351 0.098312005 -0.067898974 -0.21659495 -0.24412401 0.21522099 0.040639374 0.15679082 0.107296996 -0.11033596 0.045801476 -0.25720268 -0.00046610736 0.10878408 0.13835861 -0.061309364 0.29751322 -0.12119537 0.21334454 -0.24550371 0.010421407 0.0031337277 0.14193335 0.19832008 0.11523523 0.2480952 -0.16557507 0.055745892 0.09882072 -0.043330085 -0.13145532 -0.23633859 -0.0029878384 -0.030625267 0.34590644 -0.0011273031 -0.040137265 0.26358914 0.021721771 0.15273191 -0.042685576 0.202471 0.05901571 0.059536483 0.052349146 0.121911824 0.0724226 -0.1408057 0.077760726 0.09361361 0.028593194
ni -0.019078718 0.117871724 0.030195592 0.23392674 0.019648632 -0.22472253 0.024264775 0.29220548 -0.1742186 -0.21951084 -0.041284546 -0.23424116 0.19704196 0.20921649 0.37292418 0.0365686 0.19523637 -0.13275018 0.039659124 -0.4041543 0.24787222 0.10059979 0.32721224 -0.18735442 -0.008822821 0.053044364 -0.18759724 0.09089119 -0.11416396 0.18671073 0.22355424 -0.11029563 0.16754918 -0.2270419 -0.12486323 0.17501952 -0.06060094 0.010874338 -0.08528583 -0.06989066 0.07588165 -0.05102799 0.046212744 0.10411074 0.017910209 -0.041461013 -0.13397016 -0.062048577 0.005714904 0.05774505 0.151601 -0.07533427 -0.09994626 -0.23693925 0.09853704 -0.05075296 0.08891796 0.027124431 -0.062915236 -0.0012256884 -0.17384706 -0.034965653 0.048571963 0.10818357 -0.14602137 0.3461551 -0.062816486 0.24365506 -0.3246446 0.13923518 -0.041909985 0.12071312 0.19482085 0.05516611 0.24688956 -0.025524687 -0.04289278 0.23233375 0.034549568 -0.13793768 -0.23525955 -0.018517414 -0.1100162 0.29638374 0.0064657032 0.017682685 0.27197644 -0.053695537 0.178404 -0.05485655 0.20746817 0.031524606 -0.030346755 -0.055143386 0.081061244 0.10362238 -0.063758366 0.029823773 0.1002028 0.009221838
pi -0.12310521 0.13011059 0.10208597 -0.05034826 -0.071148664 -0.32352257 0.05949822 0.40278447 -0.13291556 -0.35032088 -0.047633693 -0.24092953 0.06781779 -0.013387548 0.06558518 -0.029658273 0.074823596 -0.17794435 0.06543078 -0.32416356 0.019628 0.13850264 0.09811097 0.0415025 -0.012455336 0.12115775 -0.24009068 0.005359003 -4.1918945e-05 0.10080185 0.0043008043 -0.054944485 -0.05967191 -0.098673716 -0.18752046 0.2751217 0.09409982 -0.15425812 -0.017385915 -0.20196033 0.18969865 -0.13389291 -0.027428307 -0.059858233 0.03765024 -0.1617355 -0.06600668 -0.1049832 -0.060811013 0.051288724 0.13427307 -0.18875526 -0.14133735 0.03296147 -0.114334054 0.03244568 0.22405624 -0.15661244 -0.037817862 -0.0165323 0.05517889 -0.0037849427 0.22202444 0.0077094845 -0.05194757 0.31273383 0.14061816 0.15588813 -0.20196837 0.09789571 0.05780606 0.2073632 0.13208205 0.08607662 0.20518644 0.28429234 -0.13583168 0.0812876 -0.09164858 0.079658456 -0.06983589 0.04454176 0.011590221 0.28393072 -0.142038 0.0045153163 0.12338984 0.13123704 -0.015265051 -0.042100046 0.2908075 0.17589289 -0.028559586 -0.0005796356 0.2865044 0.16863215 0.03496641 -0.08408052 -0.09491636 0.060963914
tawa 0.022206236 0.033175536 0.123781905 0.110606745 -0.078394994 -0.23127125 0.09056759 0.26605064 -0.12090362 -0.27645874 -0.060964577 -0.25566667 0.15525374 0.1306991 0.15980667 0.019105952 0.18907078 -0.15379937 0.028132357 -0.33971825 0.13059776 0.1481469 0.14019212 -0.06065113 0.0679143 0.14120826 -0.21114634 0.05394687 -0.034676198 0.13807331 0.045362476 -0.04250762 -0.0016018187 -0.13832638 -0.19147167 0.19500586 0.005866751 -0.16031016 -0.007514188 -0.15397996 0.051541157 -0.15158412 0.035671055 -0.013237442 0.06308577 -0.105808996 -0.06637171 -0.15537457 -0.04827193 0.024901884 0.15469131 -0.17771511 -0.1949132 -0.0638686 -0.024906022 -0.029623587 0.14332208 -0.027138628 -0.042697012 0.02339741 -0.09853142 -0.04786859 0.116435684 0.105790354 -0.09260479 0.36149088 -0.021777382 0.123736605 -0.17409076 0.11177564 0.05172653 0.15553191 0.14489174 0.0013023916 0.22450115 0.061944794 -0.088574715 0.16901504 -0.009515799 -0.0012987226 -0.14040478 0.005303599 -0.047556672 0.29393178 -0.05420701 0.010680498 0.16440268 0.015351673 0.091485426 -0.054887965 0.21607547 0.11439337 0.013870223 -0.0649561 0.23286024 0.12588356 0.029278647 -0.10121696 -0.022977198 0.06375339
ona 0.063676685 0.1783842 0.057241414 0.1160068 -0.06972207 -0.2123442 0.034079686 0.28594205 -0.08222608 -0.185252 -0.08487102 -0.22748104 0.20480385 0.14321628 0.2591065 -0.032489378 0.053139545 -0.14405301 0.026955267 -0.3308017 0.16957174 0.12731817 0.103460476 -0.1299236 -0.07426222 0.051093232 -0.109662265 0.002593633 -0.106513046 0.09033888 0.040834054 -0.06644755 0.082324825 -0.19982803 -0.069262594 0.16770063 -0.040337604 -0.14191848 -0.07144325 -0.08390156 0.040418234 -0.10963143 -0.037592053 -0.032812066 0.075418204 -0.06104507 -0.10709704 -0.13185859 0.021507757 0.035147723 0.08993466 -0.10253824 -0.020982802 -0.14840461 0.14137173 0.13039255 0.03151654 0.016777325 -0.035450302 0.081952125 -0.0398487 -0.040223703 -0.1085616 0.12258579 -0.034808353 0.3613409 -0.06786653 0.19268543 -0.20871234 0.16452141 -0.026679628 0.08577892 0.16449851 -0.056570098 0.24391258 0.08600212 -0.014849344 0.14132054 0.050043236 -0.083674945 -0.19542846 0.022960842 -0.2442219 0.34217608 -0.06369747 0.0111391125 0.2698026 0.04616371 0.28183103 -0.027089713 0.2170267 0.0059774728 -0.07690989 -0.018833289 0.083562866 0.115022674 -0.050182294 -0.006359657 0.048239734 -0.08611362
toki -0.1869248 0.28127024 -0.039190788 0.23235759 0.10137471 -0.27785283 -0.014949923 0.28361875 -0.2585498 -0.20121287 0.12506701 -0.11909405 0.44708887 0.18292665 0.4799584 0.083699115 0.21494168 -0.19080898 0.04321248 -0.41983542 0.21309486 0.08048925 0.39972922 -0.38556165 0.017994728 -0.010772286 -0.1978306 0.028856292 -0.007149153 0.12111221 0.3724536 -0.16298269 0.1944792 -0.12909631 -0.15637565 0.18402761 -0.1860104 0.13436876 -0.0446021 -0.31367466 0.16055669 0.13271877 0.09284755 0.0404007 -0.091596 0.05121878 -0.18618421 -0.11741361 -0.0028814597 0.07785128 -0.04827088 -0.012688551 -0.2425345 -0.30010414 0.20378144 -0.08529505 0.065787554 -0.032176156 -0.034622867 -0.113366954 -0.14411512 -0.05797162 0.14625275 0.057046317 -0.28876892 0.3198993 -0.015363379 0.2686726 -0.5193083 0.28595462 -0.09173572 0.15484087 0.2170888 0.25027698 0.22928503 -0.118572704 -0.051946487 0.085208304 -0.1703154 -0.031916194 -0.2612436 -0.073137864 -0.19202521 0.4125412 -0.027866323 -0.14161466 0.23626433 -0.12597959 0.11062571 -0.084182896 0.1154406 0.043074578 0.017722908 0.07603714 0.03360958 0.115174554 -0.16015074 0.18081197 0.09582165 0.042471066
la -0.015112225 0.021204334 -0.02373401 0.17306477 0.11952921 -0.24993777 -0.059375588 0.36824247 -0.13757408 -0.2335247 -0.008540424 -0.3322135 0.09712507 0.104224905 0.15508427 0.16638088 0.12381604 -0.3216432 0.24165113 -0.47682527 0.26615888 0.21550676 0.25169376 -0.16249976 -0.03263042 0.05223718 -0.25017592 0.11575179 -0.13015157 0.07936601 0.2513183 -0.05937752 0.1843286 -0.14873166 -0.24356218 0.26413992 0.01434206 -0.021083772 -0.09078972 -0.086174354 0.2205128 0.125895 -0.11246742 0.029945863 0.014957114 -0.0029483412 -0.1906011 -0.064137265 -0.013503772 0.12124792 0.23732644 -0.121261954 -0.19098556 0.013522766 0.19950756 -0.076252975 0.16623043 -0.0049649123 -0.1563074 0.020937804 -0.22144286 0.13167873 0.10227786 0.052048367 0.0012590922 0.29407498 -0.055275157 0.0018681695 -0.21350855 -0.082268015 -0.07793016 0.24601007 0.079778016 -0.091566004 0.26899558 -0.16753541 0.040768865 0.003489285 0.07149819 -0.20546116 -0.1964036 -0.039612267 -0.10222643 0.34202704 -0.1512573 0.0070590978 0.16549708 0.033855125 0.17064878 0.046304643 0.16067103 0.19813044 -0.06348356 0.1756255 0.20860732 0.038229216 -0.26163647 0.113198526 0.12961826 0.13633738
pona 0.035688803 0.048078142 0.11174799 0.20262337 -0.01857421 -0.27449775 0.056615654 0.2875055 -0.14569338 -0.23397149 -0.048500497 -0.28058454 0.2480748 0.18873626 0.3823168 0.09201975 0.24970242 -0.10266781 4.5382156e-05 -0.39926693 0.24406368 0.14399613 0.27721617 -0.19288932 -0.0065853996 0.13901033 -0.21403974 0.07962238 -0.013153744 0.21672745 0.2060661 -0.11889233 0.09385534 -0.13214938 -0.12655786 0.18774407 0.027124561 -0.0114936335 -0.024469983 -0.112270534 0.05634277 -0.0661491 0.048427 0.08837597 -0.03651553 -0.065760486 -0.086548425 -0.091001086 -0.043972366 0.03375241 0.1322788 -0.15212533 -0.16075079 -0.21196452 0.099990085 -0.012632521 0.13360597 0.10440679 -0.03286978 0.03797549 -0.25611317 -0.062077723 0.09404197 0.09831306 -0.12606238 0.37296948 -0.096986264 0.14631718 -0.26197392 0.055716965 0.06632328 0.12382497 0.23989776 0.06331133 0.19334231 -0.033403363 -0.0068567316 0.15501149 -0.03291823 -0.07307995 -0.23975497 0.029729595 -0.003769529 0.27250385 -0.00643741 0.03275699 0.17097025 -0.017625626 0.16334265 -0.06532876 0.15410294 0.07446027 0.062341325 -0.061380964 0.11432399 0.074689314 0.007904951 -0.011058155 0.115215875 0.020463377
ala 0.03826769 0.17652068 0.028758092 0.30956832 -0.053735014 -0.25237677 0.08586465 0.3359197 -0.06932847 -0.21913174 -0.01242839 -0.16133453 0.20876144 0.18630122 0.3439265 0.04625646 0.21568613 -0.16677403 0.076470375 -0.304517 0.20024593 0.07814501 0.2383513 -0.21417488 -0.021259433 -0.008734731 -0.1917504 0.03288727 -0.093850605 0.18928067 0.17553464 -0.10699037 0.086215936 -0.20979773 -0.11854448 0.17491707 -0.043308627 -0.00025333354 0.0014899306 -0.117603555 0.07947116 -0.068293035 0.007762101 0.010938685 0.043134205 0.0025687646 -0.05486133 -0.058019552 0.035807308 0.050822977 0.1440844 -0.08056745 -0.079762116 -0.225349 0.13789871 0.10013305 0.09596616 0.0809093 -0.0709592 0.08871276 -0.20337605 -0.0030708967 -0.03065858 0.103513725 -0.089981735 0.32612357 -0.110418275 0.23082726 -0.2502904 0.08284711 0.01685447 0.09926722 0.20664926 0.013625761 0.27077505 -0.04759649 -0.0904727 0.2281846 0.06317428 -0.15868641 -0.18060355 0.0077797547 -0.06384568 0.33801478 0.041983068 0.010359492 0.2700828 -0.090671085 0.25260738 -0.027828032 0.19933066 -0.019695755 -0.027931368 -0.050571743 0.046605397 0.057539888 -0.13869078 0.029135386 0.07770607 -0.0059651593
lon -0.009401526 0.14100334 0.04883576 0.0022527806 -0.022669505 -0.19469911 0.028790805 0.3759982 -0.008350793 -0.22552684 -0.09387729 -0.29475242 0.024294976 0.08519692 0.08280784 -0.10669331 0.033402864 -0.17131113 0.11380814 -0.31981808 0.07896705 0.16747867 0.082745574 0.05459888 -0.051610712 0.11984745 -0.22973064 0.03768579 -0.094020925 0.12771465 0.03853583 -0.05978076 0.0002222751 -0.10299597 -0.12069324 0.17758583 0.05430466 -0.119834416 -0.029850235 -0.013948317 0.14207312 -0.023540158 -0.10566714 -0.10175586 -0.057776526 -0.1263943 -0.04609847 -0.05543745 -0.06682776 0.052794594 0.23194441 -0.29240778 -0.06188736 0.045400787 -0.013718572 0.124553196 0.18536417 0.015635775 -0.04233737 0.09374523 -0.05275147 -0.014370909 0.076374784 0.09774191 0.063998826 0.26394054 0.10877621 0.08255061 -0.2315966 0.10430963 -0.019244313 0.26168406 0.14363316 -0.1416059 0.19465442 0.114129454 -0.1466446 0.09626845 -0.01117103 -0.09473306 -0.19974406 0.03406115 -0.09229322 0.3846914 -0.19754283 0.08069992 0.20453146 0.027187923 0.11914837 0.049332574 0.3252883 0.075806595 -0.065569386 -0.07342473 0.15641071 0.08941179 0.10574533 0.0079922695 -0.03499245 0.08937142
mute -0.074422136 0.19269434 -0.013031078 0.034486692 -0.007414383 -0.23458277 0.10322991 0.25712806 -0.14744546 -0.24419975 0.095176004 -0.006614988 0.2515158 -0.038650647 0.17752112 0.046995014 0.2021881 -0.17362364 0.1113103 -0.3179903 0.15201035 0.096509516 0.2243052 -0.14061797 -0.021027246 0.044533007 -0.2326701 -0.016479822 -0.010269481 0.14185902 0.16985057 0.00017804206 0.05822735 -0.18652081 -0.07514693 0.26825708 -0.09504453 -0.04081782 -0.06631257 -0.22113977 0.25235012 -0.05926924 0.06920805 0.0150302965 0.108286954 -0.09589542 -0.08147268 -0.1618518 -0.04658879 -0.0070455247 0.11790652 -0.15202034 -0.25427017 -0.064434476 -0.009465081 0.0076953713 0.092503086 -0.0399412 -0.12209032 -0.011532244 -0.0024493898 -0.012123571 0.2061223 0.11229742 -0.027376095 0.26627502 0.105101824 0.20885538 -0.2663421 0.14439292 -0.063913286 0.256128 0.09602165 0.11593094 0.29624283 0.099095225 -0.12953618 0.05260778 -0.07312469 -0.02569742 -0.120583735 0.0050269337 -0.08442734 0.42606393 -0.07722058 -0.07764126 0.2553036 0.061224498 0.017233787 0.05250967 0.34027797 0.061432518 -0.04720567 0.03031392 0.10851946 0.042224403 -0.005728288 0.08218909 -0.1099395 0.07696401
kama -0.0110012265 0.09390841 0.0879746 0.06114532 0.098744005 -0.22911179 0.0049430463 0.35874125 -0.12976035 -0.227879 -0.060039844 -0.27583286 0.12504868 0.08111858 0.15058683 0.11274708 0.11532583 -0.23118904 0.14956325 -0.39053 0.20905085 0.18606307 0.21208316 -0.12902269 -0.06396408 0.13114904 -0.20312849 0.039659243 -0.031350777 0.13331771 0.12910102 -0.08295291 0.07488437 -0.19346453 -0.16323213 0.18630439 0.05207221 -0.055105984 -0.10811214 -0.089543365 0.1631966 0.052616514 -0.018017303 0.13153186 0.058966503 -0.031012045 -0.1565095 -0.11436322 -0.039382685 0.015147568 0.19390084 -0.13420229 -0.13088942 -0.08589207 0.061171185 -0.027115831 0.177009 -0.008044858 -0.13664228 0.010415001 -0.19771016 0.015467487 0.100551136 0.13119607 -0.016252981 0.33432886 0.0019437459 0.114602655 -0.16671045 0.008190974 -0.08038245 0.230697 0.13010783 -0.0080496 0.22566772 -0.02037379 0.026240516 0.054777127 0.008188436 -0.09794047 -0.23804809 -0.0042117606 -0.07171391 0.27238074 -0.09452055 0.021007415 0.2455514 0.08156016 0.11599438 0.008642518 0.26571256 0.17939104 -0.041341946 0.0525754 0.214926 0.10072388 -0.097193606 0.09781249 0.029031895 0.09453635
ma -0.013901285 0.058707517 0.14381658 -0.0077875103 -0.030268826 -0.16948465 0.050577454 0.30706912 -0.15144472 -0.16189429 -0.20206049 -0.28533474 0.020760851 0.05091963 0.010935747 -0.04517599 -0.017979752 -0.16049074 -0.0079198675 -0.35565534 0.03667173 0.26718265 -0.032428816 0.046065345 -0.088558175 0.24194205 -0.247699 0.095031716 -0.067332074 0.11514201 -0.047153488 -0.07874268 -0.0123142395 -0.07250196 -0.21316056 0.27217433 0.13530508 -0.21551464 -0.2186253 0.016725745 0.0952131 -0.08283466 -0.026600126 0.10728733 0.096066676 -0.18331987 -0.114794254 -0.20261662 -0.13808173 -0.066927485 0.21899466 -0.27357176 -0.0106468145 0.052082025 -0.20193003 0.073511004 0.16858608 -0.004924993 -0.004594497 0.09495771 0.052816235 -0.07835913 0.0924979 0.12955765 0.07616874 0.27981913 0.11904142 0.16610092 -0.12702498 0.1650928 -0.12259229 0.32574168 0.120887265 -0.16995873 0.22431137 0.3031104 -0.12651175 0.13985384 0.018656613 -0.087570675 -0.19245645 0.05687216 -0.13142155 0.32708225 -0.2407345 0.13660012 0.13349827 0.11602727 0.07378808 0.039844822 0.3804203 0.20227635 -0.11142414 -0.12655012 0.26877907 0.13098139 0.18933606 0.038343683 0.023881968 0.090765566
tenpo 0.031674918 0.014274853 -0.010375939 -0.05391241 0.2450708 -0.31177875 -0.008215172 0.42905423 -0.111419566 -0.19850588 0.048531655 -0.31126156 0.095334835 0.049003396 -0.05393077 0.19527653 0.07313913 -0.41470462 0.27275142 -0.5565508 0.30663246 0.27984732 0.23691943 -0.13968405 -0.06730271 0.15497653 -0.11636469 0.01840136 -0.119706824 0.0020831132 0.27891347 -0.07072526 0.14584741 -0.23803967 -0.029598013 0.31724387 0.045466848 -0.13239141 -0.18095835 -0.23287185 0.19489045 0.09495496 -0.18676887 0.093605794 0.15308645 0.06658931 -0.26147607 -0.09594395 -0.061296828 0.07953382 0.19566093 -0.21144433 -0.2645292 0.14919181 0.1989886 -0.01413534 0.17541328 -0.047145832 -0.31287238 0.08553293 -0.14514741 0.10027404 0.12554318 0.11658186 0.116093405 0.32338417 -0.03135274 0.07772423 -0.063362435 -0.05585216 -0.0406126 0.3566392 0.11542416 -0.0005019543 0.24679548 -0.23157126 0.10068881 -0.24432512 0.083649255 -0.19735372 -0.27496415 -0.002390517 -0.21069917 0.21961686 -0.25112614 0.022859856 0.15570028 0.094472505 0.056583054 0.06454754 0.32665247 0.20243947 0.030351648 0.2792386 0.107500724 0.15409184 -0.23494168 0.076306835 -0.050247706 0.09758559
sina 0.038644865 0.12399811 0.08705807 0.25416306 -0.018984446 -0.27348337 0.114945695 0.30873355 -0.096238986 -0.2292967 -0.016284382 -0.1800778 0.28625858 0.20626156 0.40115738 0.08575709 0.27523088 -0.15211757 0.0747814 -0.34317192 0.24032924 0.12867887 0.24827 -0.22223581 0.021296905 0.024861103 -0.19338109 0.054859605 -0.022450153 0.20042117 0.21364103 -0.11308344 0.034816835 -0.21282451 -0.11550134 0.20022094 -0.029408222 -0.013215714 0.082904294 -0.23698865 0.10328945 -0.101015694 0.047883384 0.008261156 0.06372234 0.020998904 -0.13679948 -0.082176775 0.05482335 0.026101628 0.09085271 -0.038292944 -0.17313276 -0.26562592 0.18924221 0.05501731 0.13488111 0.09154128 -0.041755285 0.09486437 -0.25605902 -0.030358281 0.029250573 0.08673799 -0.14496611 0.3216202 -0.13528626 0.22423464 -0.21411827 0.08296616 0.089862145 0.040773574 0.22274315 0.10958341 0.24208325 -0.117049076 0.021714069 0.20992234 -0.020453084 -0.07971681 -0.20757991 0.015805392 -0.025415212 0.35216245 0.06451105 -0.004528372 0.25255972 -0.0229417 0.23943257 -0.1058635 0.17510493 0.03248382 0.076106064 -0.019701272 0.09511039 0.11553058 -0.11826702 0.0019401892 0.07980563 0.013806944
o 0.045707807 0.09483808 0.11526461 0.2041487 -0.041954353 -0.2905164 0.08568323 0.30512023 -0.16248761 -0.23413672 -0.07983685 -0.26909906 0.25687438 0.25504836 0.39660838 0.038706705 0.27619284 -0.13225207 -0.0038775564 -0.34980986 0.17847763 0.12013858 0.20034033 -0.17710462 0.04580336 0.10282414 -0.20428787 0.09398444 0.01594242 0.17615163 0.19170725 -0.1719343 0.02076747 -0.1595755 -0.1569143 0.15090129 0.035478063 -0.059134644 0.07445641 -0.20331037 -0.028740192 -0.11306572 0.10347085 0.034205064 -0.018562306 0.0054789153 -0.13636136 -0.024512887 0.006589479 0.014512324 0.052799996 -0.049181566 -0.16170067 -0.20742808 0.10999353 0.051346604 0.13440916 0.07551688 0.059566807 0.06748726 -0.19756916 -0.056385655 0.052596692 0.110125996 -0.16906835 0.35457534 -0.081305236 0.19291049 -0.2511958 0.13744926 0.09878772 0.029231112 0.22908121 0.05554553 0.16653232 -0.011699373 -0.0115260435 0.2590968 -0.049140263 -0.05441901 -0.23273739 0.02341815 -0.047277667 0.28193247 0.054534256 0.055860326 0.15187794 -0.005582466 0.20654084 -0.15448281 0.105491355 0.04329338 0.06067105 -0.044372045 0.12631156 0.118048556 -0.031257067 -0.078185 0.13999666 0.017534046
sona -0.046350464 0.16802809 -0.0015613167 0.26032388 0.042678922 -0.2526834 0.07887949 0.26758307 -0.18847851 -0.21361536 0.1081489 -0.06818165 0.39757752 0.16623297 0.39851803 0.14438406 0.3145664 -0.22663397 0.08031755 -0.38323218 0.28176993 0.14053221 0.40523615 -0.33971122 -0.006551406 0.036355205 -0.20510688 0.06550624 -0.001245528 0.25242 0.35965186 -0.16414201 0.20521203 -0.23144725 -0.18556774 0.20798329 -0.13285689 0.08902573 -0.07278538 -0.25602382 0.16097994 0.118359104 0.1350846 0.1535336 0.029876616 0.021519331 -0.17076385 -0.16551277 -0.0035829567 0.028176598 0.027487542 -0.026357288 -0.27159822 -0.32738233 0.20128816 -0.0710907 0.11271519 0.06758313 -0.09149549 -0.06229562 -0.25375092 -0.064308025 0.15876432 0.119567975 -0.20389639 0.3514565 -0.11671858 0.2419733 -0.41031757 0.09969941 -0.07088789 0.19425598 0.23979132 0.15844287 0.24134333 -0.1617216 0.0017908657 0.14801739 -0.101491354 -0.097183205 -0.26640564 -0.07563007 -0.05772241 0.38081065 0.059699498 -0.05770431 0.27586055 -0.09308779 0.108976275 -0.026205145 0.1743872 0.054293215 -0.001074034 0.022469439 0.037115864 0.03339549 -0.21857998 0.20960906 0.13531822 0.08097104
suli 0.01887093 0.14544709 0.10716117 -0.016134372 -0.07576182 -0.20347784 0.052135143 0.32546744 0.0047071213 -0.18086256 -0.1643445 -0.27784395 0.05720409 0.016001612 0.017773181 -0.09131396 -0.09883012 -0.18493082 0.05144481 -0.32154667 0.028401345 0.20562938 -0.11634203 0.058577515 -0.02910571 0.13625693 -0.16696386 -0.029246153 -0.118264124 0.0026592026 -0.07052819 0.0038949007 -0.020190727 -0.04869778 -0.122436754 0.26412168 0.064100295 -0.22019689 -0.08973361 -0.06601851 0.095009916 -0.1326816 -0.14904849 -0.101983525 0.07675546 -0.2122872 -0.036885507 -0.17099003 -0.0659422 0.019342057 0.19077294 -0.28879 -0.04231546 0.07892302 -0.07334719 0.18006727 0.110765554 -0.07440735 -0.056125827 0.088738054 0.09675035 -0.0013067188 0.027277917 0.04329372 0.0649405 0.3459856 0.07610964 0.10043347 -0.106774345 0.17089744 0.021140946 0.24478558 0.09194805 -0.13712513 0.27621672 0.25931153 -0.14586654 0.029335016 0.042368826 -0.003276567 -0.13594879 0.0152352955 -0.22018239 0.34159148 -0.24953803 0.08787419 0.22250193 0.11138337 0.14496562 0.017377554 0.32722497 0.1224983 -0.0609269 -0.019184412 0.17173752 0.099181145 0.10332456 -0.017185902 -0.09521616 -0.00076980004
jo 0.025598552 0.21124274 0.057133935 0.03055462 -0.07299056 -0.20404807 0.06445003 0.3358085 -0.063527234 -0.1944163 0.013863079 -0.089477696 0.21460423 0.06952948 0.10698266 -0.025822502 0.094353355 -0.27436954 0.18496558 -0.22721155 0.10409875 0.08202134 0.11086562 -0.07316157 -0.051968858 0.049620498 -0.16611992 -0.051022034 -0.05275021 0.13051525 0.113298796 -0.06648963 0.040606473 -0.2533902 -0.098881185 0.19248848 -0.06406898 -0.17560497 -0.066289574 -0.18611078 0.15183778 -0.006109006 0.024489217 0.0074110413 0.09795654 -0.051252827 -0.062933676 -0.14856158 -0.036621965 -0.00959543 0.16484824 -0.09234551 -0.24654122 -0.040055428 0.054955654 0.0700355 0.070718445 -0.07461806 -0.14920013 -0.035511017 -0.056900907 0.030779049 0.0152576985 0.194952 0.0024943566 0.31943858 0.04487118 0.14544663 -0.21177995 0.13676096 -0.080197915 0.27007994 0.0739717 -0.0441523 0.29425943 0.07309306 -0.09059087 0.10901093 0.022283357 0.00984087 -0.16679639 -0.024713388 -0.1434269 0.40177235 -0.11529778 -0.0131167155 0.28143436 0.097594015 0.15975466 0.075215 0.3259572 0.02364507 -0.10912529 0.04630014 0.08896925 0.049951598 -0.1299717 0.09783517 -0.06930757 0.03478728
lili -0.002967859 0.16121787 0.057397787 0.09098337 -0.03705078 -0.24122058 0.079685465 0.3763434 -0.06374367 -0.22060874 -0.07927067 -0.24469006 0.0964903 0.06854647 0.10332701 0.007578601 0.044640243 -0.21673085 0.16477427 -0.2954938 0.13573983 0.16519658 0.10378704 -0.021749929 -0.06093601 0.08552888 -0.1837048 -0.0069464603 -0.09396406 0.076123394 0.07677265 -0.026080228 0.0360741 -0.16419718 -0.12271464 0.22780633 0.05501018 -0.12758349 -0.059323844 -0.07246122 0.16732535 -0.028202947 -0.09634741 -0.049490523 0.036941726 -0.0695094 -0.050178166 -0.08236557 -0.020435544 0.008511632 0.21600012 -0.16579679 -0.101162426 0.01128253 0.06806262 0.12165007 0.13942659 -0.024648027 -0.10691534 0.06517949 -0.093675666 0.042930383 0.038662132 0.116739154 0.077021606 0.28169107 0.0022234104 0.0805361 -0.16332024 0.02703321 -0.060688406 0.22007422 0.10936903 -0.09542692 0.26382163 0.09260875 -0.08846259 0.09381084 0.061753906 -0.0968301 -0.15194936 0.04446735 -0.05915859 0.32576355 -0.1618665 0.030644782 0.24447703 0.088123694 0.16404024 0.040003583 0.2979365 0.09554489 -0.09021433 0.015974358 0.19438194 0.06713966 -0.0717769 0.024741458 0.011103999 0.05525346
tomo -0.008965341 0.015908621 0.14491028 -0.04058448 -0.075858355 -0.16995275 0.07615964 0.21317719 -0.14507966 -0.18754348 -0.12823541 -0.15948087 0.21018606 0.040079895 0.15285522 -0.018745165 0.13924679 -0.18468952 0.043059573 -0.28630644 0.089898765 0.17439964 0.0091250595 -0.026117817 -0.044085275 0.20720673 -0.19706228 0.058565855 0.007868727 0.121923864 0.018991819 -0.023754457 -0.11801789 -0.12764564 -0.15216587 0.19907725 0.07675406 -0.20140524 -0.0998706 -0.13953179 0.09058971 -0.13030382 0.10179697 0.05668525 0.123018324 -0.15376443 -0.07092398 -0.18784729 -0.11868891 -0.08594283 0.15616588 -0.17901157 -0.14820379 -0.032835286 -0.1308447 0.044366706 0.124983504 0.016661648 -0.04168994 0.025005877 0.006455059 -0.08413814 0.13308762 0.2083252 0.0024239253 0.32653573 0.08118442 0.1409216 -0.1455448 0.2076965 -0.029310798 0.25935552 0.11085139 -0.057451673 0.23396504 0.21312882 -0.061561223 0.14107029 -0.037605673 0.012072208 -0.16249901 0.028890153 -0.12492596 0.34161562 -0.13758881 0.050456244 0.14322774 0.17444208 0.07306652 0.028403418 0.3536544 0.11551824 -0.037566915 -0.047949053 0.24950124 0.12066775 0.15075156 -0.01229996 -0.02728332 0.051761746
telo 0.13407417 0.1516926 0.16358301 -0.03395896 -0.21545106 -0.27948442 0.19478247 0.39118862 0.018646842 -0.18633436 -0.29231945 -0.31069794 0.07069467 0.08020447 0.05342414 -0.124744035 -0.01317799 -0.19538167 0.07316449 -0.29431906 0.097302444 0.22814487 -0.1810564 0.15055709 -0.08628573 0.15221018 -0.104688376 -0.066882 -0.12548564 0.03155858 -0.050091688 0.037931018 -0.09405014 -0.120828964 -0.035795957 0.22138627 0.18044856 -0.34019768 0.016579486 0.003898809 -0.0202252 -0.19906525 -0.1300748 -0.14650328 0.14313947 -0.12572663 0.085983366 -0.1046575 -0.059809238 -0.06522091 0.30968472 -0.2178777 -0.03326706 0.055065855 0.0023559318 0.3267339 0.12434005 0.082531095 -0.0415353 0.21732385 0.025793487 -0.008729291 -0.12296946 0.22069094 0.21275182 0.357674 -0.032855973 0.036020707 -0.022996508 0.105730936 0.019544333 0.18790556 0.1491131 -0.28246465 0.25945404 0.25103003 -0.114556044 0.16090819 0.14421108 -0.040819354 -0.11455692 0.061004102 -0.1656384 0.3479423 -0.16983506 0.1348871 0.26831254 0.20923279 0.2930116 0.019423183 0.35715613 0.032752838 -0.03316925 -0.074191086 0.19187947 0.03495809 0.1548933 -0.11065364 0.014486166 -0.08219233
ike 0.107415326 0.14501908 0.115665495 0.28231955 -0.09252899 -0.27637005 0.07930633 0.27168092 -0.077523455 -0.19137047 -0.093334205 -0.26233837 0.25584784 0.26124868 0.442281 0.029561201 0.2654484 -0.09316132 -0.021066438 -0.36543056 0.1889725 0.12267983 0.1747511 -0.21411437 0.051762044 0.05780714 -0.19447772 0.076107875 -0.049635764 0.18376413 0.14696112 -0.18382825 0.08210889 -0.1876724 -0.13080019 0.16702673 0.010681859 -0.083001785 0.07659911 -0.20267105 -0.043653782 -0.20074058 0.08704926 -0.040265333 0.01275221 -0.03719408 -0.12443713 -0.0742095 0.037389264 0.041960806 0.0070017716 -0.050412893 -0.1436847 -0.25553924 0.17219393 0.0651751 0.08460042 0.08668495 0.004245735 0.12077757 -0.1903607 -0.0770227 -0.07174416 0.068210654 -0.16768503 0.40685886 -0.14205925 0.19288115 -0.2774729 0.15179795 0.1058327 -0.0525025 0.25391865 0.0454117 0.2043651 -0.053121433 -0.031125668 0.28279868 0.005804721 -0.05028648 -0.20652907 0.03460275 -0.11364351 0.3094053 0.047314595 0.0702589 0.19821525 -0.055155575 0.30957958 -0.1866761 0.038969893 -0.047157545 0.07038786 -0.08417091 0.0018611136 0.09177229 -0.08283701 -0.042703014 0.11655294 -0.028149704
pali -0.13467917 0.19577122 0.047160335 0.1549183 -0.030440941 -0.20112772 0.094402924 0.29941833 -0.086675584 -0.22826482 0.01900444 -0.033270154 0.29648298 0.038017794 0.22514533 0.029244808 0.15065944 -0.21166125 0.10806227 -0.28078714 0.08710663 0.104586095 0.17603776 -0.20023894 0.016323296 -0.004535183 -0.23745531 -0.0069674263 -0.026212921 0.13996898 0.098992564 -0.052114252 0.0032587135 -0.1048206 -0.13946366 0.26716784 -0.12075241 -0.044283256 0.009136419 -0.29219374 0.18873137 -0.052845404 0.019128703 -0.057182048 0.08819047 -0.08109871 -0.09687202 -0.19903661 0.030255346 0.022315525 0.024478815 -0.080367014 -0.2389901 -0.15385912 0.047908038 0.040301498 0.092978604 -0.087391764 -0.07120267 -0.045028985 -0.070863485 -0.02584806 0.14137447 0.050703328 -0.18379189 0.3002881 0.01959978 0.22894205 -0.28594515 0.20802882 0.033458084 0.1939809 0.13500899 0.13915375 0.2872369 0.0110745495 -0.09103906 0.0700212 -0.10087496 0.041691568 -0.11750879 -0.032283913 -0.10432802 0.45842174 -0.07374447 -0.08544172 0.23753536 0.00752282 0.10487988 -0.0305146 0.24990503 0.04838214 0.011886189 0.03050076 0.10584579 0.0829284 -0.085979074 0.11823833 -0.067973964 0.055508535
tan 0.062452838 0.12814277 0.07277968 0.18323034 -0.03718497 -0.24240606 0.06771191 0.3386543 -0.06658233 -0.23956095 -0.07102606 -0.3545579 0.05077584 0.19115184 0.18936446 -0.024674568 0.15580764 -0.1578212 0.0078011598 -0.3627997 0.1268741 0.16734587 0.17975092 -0.074632935 0.0009846557 0.10726622 -0.23569255 0.06598157 -0.10953466 0.14235568 0.06877502 -0.13846374 0.057470895 -0.1847634 -0.16413355 0.14569806 0.055646528 -0.08275459 -0.020050699 -0.04443957 0.031584054 -0.12859675 -0.051129848 -0.047301084 0.0037420886 -0.06847045 -0.119785406 -0.032853138 0.004849572 0.08039502 0.14835167 -0.20749378 -0.04048029 -0.050998125 0.05088301 0.06087378 0.20117553 0.045215815 -0.032798644 0.15352084 -0.14583421 -0.035501186 0.011690486 0.052164428 -0.03634964 0.33044747 -0.034268588 0.15585162 -0.18584234 0.06459118 0.034279138 0.12490555 0.20179963 -0.082201496 0.1761152 0.0203531 -0.11120407 0.20729026 0.066345364 -0.16345972 -0.19868423 0.05477038 -0.046278052 0.27109775 -0.044009645 0.080212705 0.15916833 -0.052427247 0.20229563 -0.04042228 0.200934 0.06794718 -0.046354163 -0.13412037 0.13821444 0.15209663 0.015946848 -0.08381504 0.021166231 0.050324664
pilin 0.12186409 0.085441485 0.09004571 0.32865646 -0.08789184 -0.2585299 0.10621011 0.22692193 -0.06630178 -0.15732919 -0.10876924 -0.29912928 0.31340626 0.33546454 0.47899556 0.018898869 0.292975 -0.14650223 -0.02238942 -0.40505466 0.2817375 0.16189617 0.21547231 -0.18118782 0.112992786 0.051801402 -0.1931131 0.14414202 -0.06972199 0.15077747 0.2241059 -0.1770201 0.1689928 -0.18251252 -0.15613934 0.11670881 -0.010520844 -0.072786324 0.028013386 -0.1779242 -0.103082664 -0.14401944 0.08101587 -0.03981765 -0.0018578066 0.00374066 -0.15523818 -0.06514607 0.017596321 0.092106506 0.0069863917 -0.036813125 -0.18396129 -0.28002864 0.20765288 0.028952362 0.08736048 0.12135314 0.0046162675 0.14432675 -0.20902829 -0.13414015 -0.081430934 0.08346113 -0.22950855 0.40002835 -0.21602802 0.17804012 -0.28069016 0.22732446 0.11084602 -0.067840345 0.32386294 0.051691834 0.180617 -0.1512878 0.006951779 0.26783553 -0.037411757 -0.04121807 -0.28705382 -0.009055538 -0.18866456 0.30427808 0.023068475 0.067896545 0.21817438 -0.105146885 0.31335706 -0.22855149 0.050266452 -0.042342618 0.09705267 -0.08465624 -0.04810075 0.10002475 -0.051613968 -0.060083725 0.15486927 -0.032972727
sewi -0.045663856 -0.17549631 0.07568209 -0.067086525 0.046484552 -0.22961931 -0.07375214 0.10707077 -0.4308387 -0.22445123 -0.1971481 -0.48015147 0.3381679 0.35116804 0.38861448 -0.2567092 0.28484243 -0.25717184 -0.24773219 -0.53007984 0.13543597 0.14439031 0.068186365 -0.042424303 0.13481985 0.297981 -0.15276754 0.24761629 0.006789446 0.07401659 0.028900657 -0.1381483 -0.11396181 -0.06989122 -0.16431858 0.09473824 0.024620265 -0.29786015 -0.057381365 -0.03632136 -0.26313183 -0.2895746 0.30345583 0.148778 -0.09531883 -0.0970769 -0.22770256 0.052604888 -0.23076575 -0.04795174 0.16536123 -0.19665629 -0.18650325 -0.035253633 -0.16267633 -0.16506948 0.19912963 0.05511827 0.18493943 0.009905992 0.0600431 -0.24546611 0.155041 0.2785836 -0.16494131 0.4824582 0.081045106 0.19232388 -0.4308984 0.3831605 0.08745517 0.19813888 0.28486517 -0.032479744 -0.02813618 0.17346722 -0.04617515 0.34421632 -0.061502162 0.0062937536 -0.34730425 0.07700408 -0.34316444 0.16698962 -0.07021245 0.24030174 -0.06361904 0.05547755 0.14603487 -0.10961603 0.23599437 0.18499666 -0.030681668 -0.049425647 0.29067823 0.32941255 0.34724858 -0.36136276 0.063646905 -0.04915069
soweli 0.025657687 0.26402307 0.1142345 0.08550965 -0.2025935 -0.22871879 0.15387954 0.38847807 0.048854787 -0.16304253 -0.17033626 -0.23793179 0.1436302 0.06543396 0.12896691 -0.13648687 0.01247017 -0.20752311 0.11719159 -0.21466371 0.043627825 0.09775576 -0.07972229 0.029485688 -0.051120102 0.071361765 -0.12144967 -0.10378877 -0.10958025 0.016389092 -0.068802536 -0.03760292 -0.06233631 -0.15359403 -0.09291509 0.1385134 0.055021998 -0.2251522 0.044713143 -0.114365034 0.022003815 -0.1997793 -0.06851055 -0.14675882 0.08740004 -0.08250719 0.04757451 -0.09865088 0.025815994 -0.011693093 0.09758499 -0.09802251 -0.048786752 -0.02696734 0.02667758 0.25814417 0.09250186 -0.061898913 -0.043225497 0.1493754 0.03278526 -0.019157268 -0.10938703 0.118769884 0.024149807 0.33783633 -0.03561592 0.14733441 -0.11174078 0.15645322 0.0486846 0.09318266 0.14783248 -0.11646523 0.2783475 0.2497771 -0.14684035 0.17693958 0.08131952 -0.0012301431 -0.10955283 0.029155059 -0.18444121 0.35835364 -0.14826238 0.03854721 0.29358345 0.10218221 0.28996015 -0.061785482 0.2602367 -0.031020021 -0.044752575 -0.043844122 0.150341 0.11651917 -0.0033497976 -0.06724532 -0.063788414 -0.0701995
wile 0.018322418 0.12628011 0.095458224 0.25845084 -0.08935495 -0.24529818 0.092462175 0.2789053 -0.10832604 -0.23094082 -0.034791287 -0.16951655 0.26891738 0.20174086 0.31804344 0.05426407 0.24214098 -0.19480154 0.05562924 -0.29868332 0.19107954 0.13137835 0.2482859 -0.22218047 0.040283788 0.06825543 -0.19627869 0.057896998 -0.05156439 0.23819046 0.15628098 -0.116214074 0.091657124 -0.2482765 -0.18240558 0.1801703 -0.041129727 -0.049578123 -0.011723337 -0.16555144 0.032023042 -0.07857782 0.095186435 0.06785718 0.0990641 -0.029409356 -0.099569365 -0.12804776 0.023237545 -0.018321421 0.10486737 -0.015885774 -0.1350024 -0.25740463 0.08981349 0.02424078 0.09290053 0.046958085 -0.039813843 0.03848458 -0.18485524 -0.056758966 0.01891457 0.14457095 -0.12827866 0.35377926 -0.11810309 0.2180714 -0.2431905 0.120355904 -0.017907055 0.11840783 0.18515307 0.02855404 0.25525665 -0.011346468 -0.061474796 0.24168022 0.026114788 -0.065116234 -0.17358339 -0.038966782 -0.05152863 0.32004836 0.058707114 0.0037217748 0.24947864 -0.052945707 0.20251235 -0.022872152 0.1952687 0.031441078 -0.020148274 -0.10013006 0.10965498 0.069027 -0.1424652 0.061256494 0.090839535 0.007993985
ken 0.08468807 0.13482016 -0.053830806 0.20267673 -0.014751904 -0.25617215 0.065178074 0.3204853 -0.031807866 -0.23068523 0.05677086 -0.1848083 0.19336234 0.17093506 0.27615145 0.02031391 0.18662624 -0.20331529 0.11323138 -0.34789652 0.2588272 0.11250965 0.26858035 -0.18305558 0.023911312 0.0074536963 -0.15205567 0.05397958 -0.120647475 0.1568471 0.19093692 -0.092782095 0.1706569 -0.24972078 -0.063342035 0.19008215 -0.073714316 -0.059754968 -7.187011e-05 -0.108047135 0.088824384 -0.08853776 -0.020371469 -0.07102666 0.071705155 -0.026229033 -0.091923244 -0.06474974 0.014049634 0.09017336 0.14821075 -0.14371516 -0.1279453 -0.12065273 0.21295592 0.060759734 0.11089144 0.10301851 -0.13059384 0.12710187 -0.15849692 -0.0058480133 -0.00790938 0.08801312 -0.044653703 0.33412257 -0.07401726 0.18724406 -0.2820296 0.08705747 0.011564736 0.10814092 0.22466211 -0.010816875 0.25492346 -0.118154086 -0.085591994 0.14706202 0.05243353 -0.16976926 -0.2042201 0.0025866567 -0.14124818 0.3436652 0.010619648 0.03353131 0.28226563 -0.07793047 0.23518366 0.03147585 0.21262023 -0.027781779 -0.014815648 -0.03101472 -0.0067696595 0.08851663 -0.090983 0.02092033 0.039677944 -0.016129313
moku 0.11569815 0.2790353 0.12212853 0.15376607 -0.20251419 -0.26004335 0.2209078 0.47041655 0.11946078 -0.20166127 -0.20068264 -0.21011415 0.059511717 0.1101307 0.08870432 -0.06397986 0.02624909 -0.24780977 0.24411982 -0.17320397 0.10265795 0.16664825 -0.026222348 0.058327023 -0.04513937 0.04836475 -0.0988742 -0.119619384 -0.17091124 0.1164391 0.005786974 -0.039133545 -0.035821248 -0.22878721 -0.05837705 0.19882986 0.07000031 -0.17551711 0.09815219 -0.08519037 0.051575232 -0.1122368 -0.1631258 -0.14975291 0.17798877 -0.01219959 0.064206414 -0.06663956 0.04406012 -0.05376092 0.23314065 -0.08948492 -0.0908928 -0.054426696 0.10956309 0.32849196 0.09390326 0.014501719 -0.1337659 0.15629038 -0.14615999 0.060001798 -0.16931015 0.18382272 0.16026509 0.31750828 -0.098132335 0.07538926 0.0001297354 0.014694237 0.01620459 0.15199697 0.08242496 -0.21090761 0.3393474 0.09367728 -0.13273537 0.14767288 0.19467829 -0.09712716 -0.08402112 -0.004179931 -0.053831365 0.35820016 -0.08408525 0.07565026 0.38954866 0.0939949 0.3565997 0.047498703 0.30276206 -0.07095818 -0.045945805 -0.050084237 0.07603345 0.034057435 -0.099380754 0.005235186 -0.018846013 -0.024740987
kepeken -0.17520152 0.2864252 -0.023145907 0.14862095 -0.057066645 -0.2642644 0.035192925 0.36232573 -0.03876544 -0.3240537 0.13993263 -0.007854985 0.28553343 0.019726496 0.21639116 0.027652083 0.12338204 -0.1157994 0.13940656 -0.19781613 0.08668369 0.040456295 0.2290075 -0.18162867 0.00811628 -0.083642974 -0.20900118 -0.10808578 -0.02141632 0.11983638 0.10826802 -3.8231337e-05 0.002426146 -0.15669425 -0.13028173 0.28023636 -0.15925789 0.006977938 0.10395025 -0.30812433 0.31871465 -0.009909635 -0.033589393 -0.20161356 0.025786025 -0.062579975 -0.027249603 -0.19134496 0.07789585 0.087541394 0.011552449 -0.14259872 -0.20728274 -0.16428414 0.1507895 0.08544166 0.120108604 -0.0945621 -0.04620912 -0.08325574 -0.049477857 0.033531394 0.18687361 -0.031589597 -0.19024527 0.27163178 0.047766514 0.24608448 -0.31946552 0.15034291 0.09718007 0.17377965 0.1556645 0.23370247 0.32982147 0.070963554 -0.18218166 0.04248989 -0.1452505 0.047718246 -0.050233584 -0.036093153 -0.005139923 0.51205647 -0.029708458 -0.16564876 0.29173267 -0.025987325 0.061375838 0.0063006305 0.26145488 0.034791153 0.008161919 0.028889503 0.11961534 0.119098954 -0.16624914 0.09458818 -0.14922065 0.0716742
pana -0.007503474 0.17262839 0.17016953 0.14170076 -0.108203866 -0.23915368 0.0220689 0.3136274 -0.031132434 -0.18213134 -0.09580563 -0.19658016 0.2523582 0.20490874 0.3417786 0.060862232 0.09722467 -0.15356635 0.1253437 -0.2830605 0.15156715 0.15206872 0.14401233 -0.12972549 -0.020038117 0.05602435 -0.14958894 0.02785695 -0.009446856 0.1303911 0.15960819 -0.12567145 -0.017369695 -0.1827134 -0.116871834 0.10118583 0.0137768 -0.08950194 0.05713797 -0.27718526 0.05542273 -0.023771184 -0.040380616 -0.06713831 0.028458655 -0.0064300327 -0.14063679 -0.1351395 0.09514071 0.011718499 0.004469618 -0.0033655656 -0.19374648 -0.24438252 0.21103752 0.111562215 0.12723657 -0.013237592 -0.03521466 -0.009195126 -0.20656778 -0.008074939 -0.012235321 0.09756312 -0.1712316 0.33499226 -0.13594085 0.13414946 -0.18513781 0.18351528 0.06835705 0.05071625 0.12777345 0.05190614 0.22720794 -0.06207763 0.07485771 0.12246721 -0.07196961 0.043495744 -0.2042044 -0.072323576 -0.12353539 0.39564827 -0.09275831 -0.0601396 0.22730684 0.063000664 0.2579032 -0.12269197 0.117587276 0.040249586 0.08029757 0.06273739 0.108008236 0.09460357 -0.13830188 0.07595883 0.021457821 0.027877104
sama -0.018723387 0.23328364 0.040317647 0.06797175 -0.077362984 -0.2656153 0.05700475 0.35241568 -0.04745841 -0.22811478 -0.04734959 -0.2506318 0.13512507 0.101647116 0.17265537 -0.083275065 0.049846157 -0.1412996 0.053235188 -0.30536705 0.045138568 0.085957445 0.028950777 -0.057623237 0.015285124 0.057276182 -0.18198468 -0.01547469 -0.08722213 0.02708446 -0.00581396 -0.0631509 0.03700927 -0.11935325 -0.11330915 0.22708744 0.0052086883 -0.14950639 -0.014215419 -0.156775 0.056641065 -0.13770086 -0.024943698 -0.15607497 0.029044498 -0.109586656 -0.057765022 -0.0649688 -0.0166339 0.09457726 0.06917596 -0.15281251 -0.1146658 -0.012847609 0.021677926 0.10824145 0.09624575 -0.07886827 0.0085114585 0.066240974 0.06285444 -0.028157704 -0.0021443253 0.01788158 -0.054700196 0.31660047 0.063258156 0.19630313 -0.24094132 0.22388436 0.062054362 0.124462515 0.17112905 0.030391632 0.25743917 0.19143555 -0.1696889 0.1103958 0.0017005396 0.011556375 -0.13816182 0.04097622 -0.1957306 0.33917812 -0.12875696 0.01093666 0.20756853 0.024048336 0.17462859 -0.062695794 0.21782233 0.022826597 -0.03344846 -0.015959257 0.087268025 0.1625979 0.02944102 -0.045321353 -0.06653043 -0.023153963
lawa -0.0291566 0.07609369 0.14947511 0.06830826 -0.07981699 -0.22738361 0.09935428 0.2307715 -0.2418622 -0.2700306 -0.05090596 -0.15477063 0.2643164 0.13645415 0.2797657 -0.0023050865 0.22960067 -0.0836183 -0.14574626 -0.34567496 0.048976768 0.088583805 0.17206486 -0.15704 0.04011294 0.16927485 -0.24140386 0.06478872 0.019475076 0.23426357 0.051016405 -0.12503468 0.08461472 -0.1814375 -0.21304192 0.18827903 -0.043476064 -0.13274997 -0.14014556 -0.1777891 -0.011878707 -0.16802718 0.23541509 0.16790535 0.07195339 -0.18261473 -0.053955674 -0.21054225 -0.10127145 -0.00094930496 0.038380384 -0.096537896 -0.15655556 -0.18733019 -0.16251501 -0.11583967 0.056830674 -0.05758842 0.02108518 -0.0625968 0.024865191 -0.17657441 0.15905522 0.14683555 -0.23032814 0.39663902 0.06600144 0.24705954 -0.35857686 0.2829973 -0.059162024 0.16248038 0.20381449 0.08758377 0.20303728 0.23919381 -0.13799763 0.29055294 -0.12734324 0.1012178 -0.16863555 0.05262693 -0.12547398 0.2658853 0.007968519 0.014036933 0.15992485 0.02275531 0.029082505 -0.09795919 0.20861971 0.0852703 0.014750637 -0.14186603 0.19832915 0.10770887 0.103260145 -0.027056707 0.029725187 -0.0021556383
taso -0.033763103 0.19325976 -0.05374541 0.17718644 0.0036289732 -0.24529803 0.033123538 0.34889048 -0.055921227 -0.23994894 0.044639926 -0.1853359 0.159691 0.102427065 0.20606266 0.0019262668 0.12063521 -0.18186162 0.15565896 -0.3099281 0.18985812 0.09407325 0.2226776 -0.17241393 0.00077100215 -0.012512237 -0.18491611 -0.015762439 -0.09051876 0.12629606 0.15919663 -0.056203786 0.097818784 -0.1825806 -0.097519934 0.2339055 -0.07264164 -0.008602746 0.016482439 -0.136375 0.18712056 -0.013997467 -0.06569797 -0.09619004 0.0134383645 -0.016220191 -0.07842406 -0.0866373 0.030080954 0.07278146 0.15870534 -0.15082577 -0.11244004 -0.104043595 0.14310734 0.091854684 0.1250472 0.020087348 -0.11215245 0.06032395 -0.12712859 0.033770036 0.044346917 0.036453903 -0.04182166 0.2944255 -0.009969895 0.17405139 -0.2824818 0.081648424 -0.009111265 0.17187214 0.16668467 0.028782021 0.26353848 -0.029814923 -0.114138 0.10453976 0.030556366 -0.11166036 -0.17290865 -0.015630996 -0.08433883 0.38192457 -0.067715526 -0.028752439 0.2850041 -0.058730606 0.17868367 0.027715083 0.22616579 0.029464232 -0.06487458 0.013813184 0.049496025 0.09693126 -0.12687893 0.046652295 -0.0230845 0.0549905
wawa -0.023229491 0.184779 0.10763668 0.01411033 -0.123486586 -0.22802183 0.053637393 0.27748552 -0.10657384 -0.23012954 -0.11447888 -0.24272527 0.15380149 0.10358784 0.20925061 -0.1204106 0.06355019 -0.14508028 0.0059555634 -0.26820764 0.025951834 0.11611889 -0.011248651 -0.02192384 0.0120281745 0.10146958 -0.19824643 -0.008573395 -0.039831385 0.046799153 -0.066776685 -0.06371945 -0.051133476 -0.08465296 -0.13264707 0.19879615 0.008928848 -0.20915851 -0.010421592 -0.1701868 0.008884934 -0.19955136 0.024491321 -0.09245854 0.04005058 -0.13344595 -0.035151314 -0.1420251 -0.03383355 0.026257189 0.062341154 -0.13538797 -0.084736705 -0.026200548 -0.033124905 0.09412654 0.08519722 -0.08761564 0.021422263 0.050803136 0.07476744 -0.053826343 -0.0069510266 0.09549657 -0.08553448 0.35883304 0.062450398 0.17085065 -0.22508696 0.290346 0.044993535 0.11716631 0.15894167 -0.025980983 0.22158451 0.26508522 -0.13385119 0.19107355 -0.024288654 0.052406732 -0.12990808 0.03858555 -0.19416754 0.35712266 -0.1229508 0.038256794 0.1827923 0.07849886 0.17451812 -0.08457208 0.23756889 0.042387247 -0.049693335 -0.07065785 0.16871041 0.16285837 0.07909911 -0.081619374 -0.060243458 -0.025846776
lukin 0.056155782 0.20809498 -0.008080025 0.13064088 -0.060435735 -0.27221188 0.0899106 0.33544827 0.009718746 -0.17594396 -0.02047718 -0.19146031 0.18734246 0.15144517 0.24195848 -0.029927213 0.08185524 -0.21603279 0.17101564 -0.2924368 0.23582031 0.12562907 0.15170643 -0.1062715 -0.025156356 0.03082576 -0.11884089 -0.015677003 -0.11848882 0.085587025 0.19949818 -0.07343027 0.08360511 -0.20702611 -0.054996118 0.17136696 -0.026419831 -0.08463153 0.010816963 -0.11374495 0.10593246 -0.004787 -0.09012089 -0.107076466 0.022341184 0.00033444617 -0.04181354 -0.059156034 0.021423971 0.06547755 0.15297349 -0.1163771 -0.12564905 -0.11097549 0.20085165 0.19099423 0.062679425 0.05836839 -0.1116657 0.098762296 -0.1312177 -0.0066252034 -0.08663379 0.106007226 0.007606303 0.29934847 -0.111242875 0.13501167 -0.21277687 0.10901216 -0.008974921 0.14846264 0.2117092 -0.042562135 0.2524228 -0.03974891 -0.0948559 0.10249329 0.055264905 -0.08446614 -0.21791907 0.012457138 -0.1681543 0.3799043 -0.07654443 0.002057221 0.32509327 0.013436532 0.21788844 -0.02834384 0.24585511 -0.036093004 -0.009945052 -0.0073712766 -0.023445694 0.07806622 -0.10053274 0.040177174 0.0188408 -0.040225867
nimi -0.14534378 0.3009781 -0.07439036 0.11361286 0.0600383 -0.27181074 0.047006775 0.27113727 -0.19185589 -0.23312469 0.1795793 -0.027316717 0.42629677 0.13503522 0.36877182 0.010196611 0.23093636 -0.14384523 0.02480045 -0.34329897 0.12683406 0.02124388 0.29444766 -0.2822004 -0.010321101 -0.048352316 -0.16021395 -0.00385813 -0.009629894 0.14113183 0.29813424 -0.09255243 0.109933615 -0.20232809 -0.10753242 0.217585 -0.16804448 0.10263687 -0.0114807915 -0.3238208 0.23452802 0.026852619 0.12911128 -0.010355448 -0.03496187 -0.016761078 -0.117334545 -0.13485284 0.006444965 0.045671538 -0.030150853 -0.054348458 -0.23084314 -0.22361425 0.12946396 -0.03262358 0.08063457 -0.0328615 -0.063303754 -0.065805115 0.0004292141 -0.07401841 0.20098911 0.07622497 -0.20675845 0.22969523 0.05747949 0.2532309 -0.4960783 0.27000818 -0.040380243 0.17716208 0.19130346 0.24484633 0.26361883 -0.010517564 -0.10953852 0.12563269 -0.18054047 -0.02386851 -0.14871275 -0.0010443984 -0.15727882 0.4220058 -0.036475938 -0.117708065 0.21621506 -0.033413798 0.06386217 -0.013989669 0.240638 0.0084640775 0.002219578 0.06246296 0.030495336 0.08726888 -0.10942434 0.11986317 -0.0038729543 0.025513101
tu -0.08046834 0.32733497 -0.21123561 -0.08094521 0.15999681 -0.3495267 -0.010662061 0.39827323 -0.12584423 -0.22800888 0.24567072 -0.12537171 0.24904537 -0.04058079 0.08831284 -0.010851558 0.1057522 -0.3312733 0.29202577 -0.42356378 0.16082402 0.044294417 0.27631015 -0.24677841 -0.06770842 -0.09546827 -0.15050957 -0.06048387 -0.10302536 -0.045267 0.2889523 -0.041051738 0.24333496 -0.20615952 -0.0033487396 0.28021064 -0.1547683 -0.04675279 -0.11329096 -0.27549782 0.3140763 0.0911118 -0.06751135 -0.10579408 0.008593595 0.043553405 -0.18965538 -0.033511486 -0.047121122 0.15156136 0.06890856 -0.13086998 -0.2715598 0.13101766 0.18706058 0.04240089 0.05865108 -0.17159745 -0.2297923 -0.00642195 0.09325672 0.07147829 0.11248883 0.047437947 0.058736905 0.2922538 0.15032491 0.1023772 -0.41087183 0.13455829 -0.18957956 0.29178354 0.1021472 0.10776671 0.31462038 -0.02286068 -0.106908865 -0.15248662 -0.061890002 -0.08435434 -0.19862589 0.06014295 -0.34202176 0.4161352 -0.23242642 -0.14708272 0.27018303 0.024763128 0.09566629 0.07865896 0.25596178 0.023318503 -0.14691857 0.27887577 -0.036035486 0.07020734 -0.23084794 0.1311814 -0.12091886 0.016647369
pini -0.011214986 0.045760248 0.053567085 -0.030604953 0.16308291 -0.24147448 -0.056798335 0.38083532 -0.10059938 -0.21295671 -0.039713174 -0.3340595 0.114894405 0.06269962 0.032719288 0.16570137 0.058329448 -0.2936944 0.23305272 -0.44321924 0.19377778 0.19731344 0.18645892 -0.14952075 -0.0591603 0.094618544 -0.14262846 0.017492203 -0.066344924 0.029545695 0.17094578 -0.03618511 0.10923051 -0.1831856 -0.12839451 0.21425804 0.035772823 -0.1093066 -0.15559472 -0.1450316 0.16096146 0.1169759 -0.1385618 0.10524144 0.05471687 -0.01880513 -0.212074 -0.11394119 -0.07298407 0.04853068 0.20575882 -0.1634739 -0.19539665 0.019949982 0.1663432 -0.018109143 0.20642604 -0.06711902 -0.18373516 0.005340811 -0.20405689 0.07395055 0.1258763 0.11590715 0.012238967 0.31848022 -0.013094249 0.055044558 -0.08396108 -0.053001285 -0.030355679 0.25312945 0.10122293 0.00923264 0.24325451 -0.13664347 0.09478778 -0.11835943 0.0029724217 -0.1122191 -0.24599382 -0.015420418 -0.11703347 0.27162337 -0.1791715 0.03065638 0.21791816 0.11780241 0.12277926 0.040567905 0.2562673 0.2583392 -0.057045158 0.18860844 0.22913398 0.12657994 -0.23035045 0.0949604 0.013688405 0.10651909
ilo -0.31919092 0.32664284 0.25948232 0.08906661 -0.23224008 -0.12013598 0.046595465 0.36130062 0.064637646 -0.2676718 -0.13604578 0.13015424 0.30344686 -0.1301257 0.10615275 0.10631123 -0.09665485 -0.16303696 0.19674957 -0.06763009 -0.20372185 0.13028409 -0.16298176 -0.12223433 0.059778024 -0.09352344 -0.23987688 -0.20544352 0.07157833 0.0051853135 -0.22250465 0.11651031 -0.4061395 0.008592366 -0.2262038 0.37719265 -0.14439195 -0.17417762 0.25141653 -0.59854054 0.28862542 -0.11531273 -0.17846584 -0.3162017 0.20656684 -0.15150972 -0.04780892 -0.44091302 0.18743545 -0.030484729 -0.13935207 -0.022407962 -0.26605773 -0.26261213 0.04654716 0.26460811 0.08341652 -0.33084783 0.101028964 -0.11301125 0.027588591 0.10216156 0.18550965 -0.03193227 -0.35537237 0.2789281 -0.022466118 0.3667137 -0.022006981 0.34836656 0.32098404 0.17435046 -0.022522287 0.27447942 0.48004922 0.21524371 -0.123464115 -0.046859432 -0.19262905 0.30021602 0.13740684 -0.22427633 -0.0581327 0.76898694 -0.15605888 -0.26432645 0.3569162 0.16742818 0.09292308 -0.17602327 0.2870811 0.20693992 0.106983826 0.15573564 0.39497635 0.17630859 -0.23668894 0.16271213 -0.31757873 0.08232033
wan -0.07261251 0.29155004 -0.18197422 -0.1808666 0.22195545 -0.29783207 -0.05725645 0.41818723 -0.13952947 -0.19731663 0.17103845 -0.13508481 0.22336426 -0.020434618 0.046207562 0.0037371723 0.058615573 -0.3897598 0.3299416 -0.4187947 0.16855146 0.11421974 0.232425 -0.1513284 -0.09442339 -0.073992535 -0.15829408 -0.030579297 -0.09003058 -0.056645032 0.2606449 -0.056549806 0.16394535 -0.19684565 -0.031061199 0.2985653 -0.10200222 -0.07718912 -0.1592968 -0.24830894 0.29208443 0.16889252 -0.08565556 -0.051392063 0.013802103 0.09109912 -0.24324872 -0.034421958 -0.0786579 0.10977136 0.1146271 -0.16656885 -0.3167223 0.128732 0.17547695 0.028940624 0.11414316 -0.16160059 -0.23200524 -0.02794721 0.05248218 0.097596765 0.14560592 0.11579386 0.06881279 0.26367798 0.17112255 0.09464125 -0.3374654 0.1183617 -0.14354876 0.36678174 0.07966057 0.07373405 0.28715762 -0.059139065 -0.037487414 -0.19114661 -0.0648584 -0.07289806 -0.22165768 -0.0044589005 -0.334889 0.43061942 -0.2754886 -0.08165356 0.25694907 0.09577936 0.0732898 0.09815496 0.3308691 0.122739874 -0.16221456 0.31103483 0.017386181 0.095461965 -0.21755834 0.15314183 -0.13723108 0.055393543
meli 0.03718457 0.26695395 0.002017669 0.090599775 -0.032165546 -0.2375895 0.028227923 0.4096711 0.01660123 -0.1050421 -0.1141073 -0.3205631 0.11915388 0.14837237 0.20903514 -0.036551632 0.025282286 -0.2850121 0.27042633 -0.3098905 0.19790147 0.14244333 0.08566688 -0.03015484 -0.12022856 -0.009416152 -0.12560296 -0.073377036 -0.14770338 0.0024781206 0.12912601 -0.09912803 0.0049903383 -0.18942925 -0.04820408 0.10827957 0.056158055 -0.14125837 0.062224638 -0.09219763 0.103376836 0.018075472 -0.17632653 -0.1267854 9.757733e-05 0.10610227 -0.08600602 0.030602345 0.0714794 0.049026348 0.17064534 -0.113606334 -0.06516508 -0.017610364 0.24911593 0.26008338 0.13998339 0.028334728 -0.13856696 0.15387581 -0.17984912 0.1054307 -0.20591259 0.14658214 0.10624796 0.29829812 -0.11543899 0.0452007 -0.12919797 0.02008952 0.010316331 0.1082921 0.15827054 -0.14731535 0.22729996 -0.04204098 -0.018700488 0.069572054 0.13083139 -0.1373753 -0.22252457 -0.010438508 -0.18868318 0.35640848 -0.18251249 0.050074045 0.3097527 0.07548178 0.3355862 -0.030566763 0.20915024 0.0042763683 -0.11533916 0.08603724 0.030950243 0.09538363 -0.15160847 0.014007866 0.03802438 -0.0038879693
suno 0.026146075 0.00971714 0.027464533 -0.17948613 0.1628841 -0.2044593 -0.037958335 0.34913868 -0.107804865 -0.17358065 -0.1153323 -0.37531313 0.114540294 -0.063031055 -0.09954909 0.06564384 -0.03864733 -0.40017492 0.28383356 -0.45534793 0.16891353 0.23666734 -0.005049916 -0.05381032 -0.064816564 0.095343255 -0.14376475 -0.014291485 -0.12653346 -0.10701173 0.06015014 0.08810133 0.043396633 -0.10966109 -0.12943488 0.32047293 0.014351465 -0.26684865 -0.15632677 -0.13339286 0.18614778 0.039932158 -0.16842254 0.009832057 0.10625931 -0.060079403 -0.1536579 -0.1777744 -0.15303536 0.04759084 0.29774892 -0.24606933 -0.24300179 0.21374702 0.10442519 -0.0014166217 0.15882847 -0.058333922 -0.23254457 0.04442853 -0.009115685 0.10553168 0.0951721 0.14727585 0.17207567 0.34587285 0.07970614 -0.04511323 -0.058838334 -0.024970314 -0.07462364 0.3707292 0.053847186 -0.12984598 0.3112018 -0.030924387 0.04223547 -0.21387139 0.05941887 -0.061845724 -0.20040277 0.0053975736 -0.2775172 0.33242163 -0.32093948 0.03923001 0.21476562 0.2529123 0.14687167 0.07590274 0.33488232 0.2898375 -0.08643577 0.271437 0.29151207 0.1142411 -0.14638573 0.069294386 -0.030146288 0.061330736
ale -0.099690676 0.2838438 -0.08499525 -0.0031995173 0.14963956 -0.2813434 -0.0545293 0.34435478 -0.15498422 -0.199435 0.108026676 -0.16704713 0.25606897 0.06963963 0.20793921 0.0702024 0.10402049 -0.26995957 0.2210438 -0.45314333 0.20330147 0.10928709 0.3110372 -0.2087449 -0.10463003 -0.02818052 -0.1689162 0.008019549 -0.07147042 0.028367527 0.2967216 -0.081668526 0.16256773 -0.18853664 -0.06425621 0.19555898 -0.08927637 0.044506866 -0.097148366 -0.23445101 0.25023863 0.16755994 -0.063659064 -0.02760244 -0.023693662 0.05315774 -0.21355753 -0.06359295 -0.020207763 0.111361034 0.045709975 -0.09812391 -0.26370206 -0.038263675 0.24305928 -0.0034812803 0.12215273 -0.05798597 -0.16105388 -0.05533589 -0.07036719 0.06037719 0.11724823 0.099617206 -0.01449343 0.24456236 0.047243994 0.12440679 -0.322042 0.110574484 -0.13060398 0.24900171 0.11556279 0.120152265 0.23665422 -0.11595576 -0.015663782 -0.09945899 -0.08266249 -0.1078913 -0.19153146 -0.033462636 -0.21353792 0.397918 -0.17561139 -0.09876257 0.23063916 0.029195758 0.10055882 0.025213351 0.21905634 0.07737975 -0.09467533 0.22810155 0.040594775 0.08866203 -0.21797833 0.17056127 -0.0320171 0.068075635
waso -0.025658116 0.34102768 0.045988213 0.076756924 -0.19660023 -0.23697473 0.10661985 0.42556128 0.13808121 -0.19587076 -0.10914921 -0.1412934 0.10585514 0.004136064 0.094243556 -0.12282322 -0.08316412 -0.2457003 0.20444666 -0.13047943 0.0012736275 0.0857475 -0.067395456 -0.04694285 -0.027657611 -0.03701263 -0.13193655 -0.16731848 -0.12631546 -0.04785933 -0.11355272 0.034887813 -0.09502092 -0.12353297 -0.060665395 0.21238853 -0.05888104 -0.21635787 0.07666551 -0.21416025 0.09940933 -0.16124067 -0.1629001 -0.2845748 0.16403821 -0.055718683 0.027229069 -0.1287933 0.09762932 0.039877657 0.09777008 -0.0913741 -0.07641214 -0.012256301 0.12105987 0.29700434 0.06780498 -0.13976179 -0.060774628 0.12070897 0.0663704 0.055493876 -0.09164388 0.01599285 0.03260505 0.31745946 -0.012228995 0.18403453 -0.0765413 0.19376442 0.11392767 0.09779935 0.115461595 -0.03233401 0.31995508 0.23187636 -0.14779116 0.021799013 0.08299399 0.015271167 -0.044307053 0.00963815 -0.22591715 0.44161886 -0.14393692 -0.04091198 0.3836724 0.104965076 0.2933287 0.0041424944 0.30826506 -0.04957832 -0.090239145 0.011119731 0.10875109 0.16435254 -0.11616675 0.012028652 -0.18470484 -0.088413686
sitelen -0.12941079 0.3040601 -0.122914635 0.1856331 0.012363542 -0.32213718 0.08608205 0.3451214 -0.14713663 -0.22449102 0.2486589 0.03729566 0.43395606 0.11363446 0.35507348 0.03381414 0.23835742 -0.21308224 0.10659836 -0.30392087 0.19543083 0.023560293 0.33540756 -0.33900282 -0.0129014645 -0.1005382 -0.1709814 -0.038487975 -0.013864741 0.14960305 0.35082793 -0.06890319 0.16476864 -0.22420888 -0.08067065 0.26750714 -0.20080522 0.1175526 0.02628301 -0.37879735 0.3009122 0.044444237 0.063138016 -0.05257263 -0.006391842 0.03392019 -0.104655966 -0.11528183 0.03245409 0.06921684 -0.028610144 -0.051732168 -0.23248845 -0.24863563 0.21511829 0.049423866 0.047061924 -0.02752493 -0.08701957 -0.03904518 -0.04433405 -0.06142157 0.18032946 0.027829899 -0.18763813 0.2542043 0.024823166 0.28800115 -0.49369636 0.21844584 -0.056291323 0.18801273 0.2078261 0.25943413 0.32865763 -0.050819587 -0.13299777 0.06161446 -0.16049162 -0.026209163 -0.14727199 0.008530346 -0.16753773 0.47245118 -0.03717575 -0.18815514 0.3071281 -0.07973186 0.107184365 0.03644232 0.24620055 -0.023289228 0.0122030005 0.09793643 -0.012853399 0.06945736 -0.19475259 0.19698244 -0.0117163025 0.005776933
utala -0.024455812 0.09967569 0.16122621 0.13733454 -0.09145863 -0.1727802 0.027486496 0.24040231 -0.18120675 -0.2618779 -0.100039884 -0.16808133 0.19818574 0.14085478 0.24959883 0.021084294 0.12728825 -0.098970376 -0.101985924 -0.30456695 0.046328876 0.1031369 0.080955416 -0.13383472 0.09468153 0.08598759 -0.2396291 0.045306236 -0.004488369 0.15863055 -0.0675821 -0.07422573 -0.0063959137 -0.1374027 -0.22355878 0.2317781 -0.06110899 -0.14768814 -0.03327149 -0.1943648 -0.010300354 -0.19395642 0.108586535 0.017565012 0.0935427 -0.16708256 -0.077707656 -0.22163469 -0.03226733 0.046559688 0.03982657 -0.10368542 -0.14140132 -0.1658961 -0.07745775 -0.03933519 0.082605675 -0.07668981 0.066274226 -0.010309911 0.002747902 -0.06760174 0.06468772 0.08028934 -0.25553426 0.40111968 0.02211662 0.2707013 -0.2112666 0.2749177 0.056472864 0.1014441 0.14326023 0.05443835 0.24526054 0.16375226 -0.13029899 0.2452511 -0.034291413 0.076478645 -0.1069119 -0.021379817 -0.14001054 0.36373976 -0.0030118735 0.00817295 0.17187336 -0.01619192 0.11928684 -0.11703953 0.17798354 0.10339594 0.011335659 -0.13409568 0.23698348 0.16775571 0.014566946 -0.059473623 -0.019441487 0.0073237703
kon 0.076609634 0.03668873 0.08949971 0.04943001 -0.09460034 -0.2109628 0.08799018 0.24887739 -0.112506 -0.1840165 -0.19242437 -0.33139676 0.18186244 0.14239833 0.18277134 -0.13545577 0.11065067 -0.16553333 -0.026074352 -0.34708875 0.13487336 0.18484426 -0.020709155 0.03213581 0.032058712 0.15092345 -0.13889684 0.06558716 -0.093750075 0.04698948 -0.04388508 -0.041851725 -0.053802103 -0.10643076 -0.09809579 0.1988318 0.041272588 -0.2670106 0.005177907 -0.07106863 -0.060236048 -0.23699073 0.017009744 -0.07695454 0.04975913 -0.09671146 -0.0706352 -0.09907711 -0.093107365 -0.014547966 0.18864833 -0.22134666 -0.11314792 -0.02064024 -0.00600619 0.107625216 0.118536174 0.048390336 0.0069672903 0.13583148 0.01692188 -0.096860565 -0.027340606 0.14440645 -0.010364843 0.3658961 0.00592248 0.13056517 -0.1565494 0.19949895 0.06263156 0.12377245 0.19709118 -0.11276785 0.18562868 0.15654615 -0.07816598 0.17583081 0.02850503 -0.032204513 -0.17595282 0.08930691 -0.20855995 0.2911469 -0.1391901 0.115285024 0.13681293 0.06951172 0.22152607 -0.06697181 0.26994556 0.05347929 -0.016476005 -0.056970723 0.1865226 0.15565825 0.15874353 -0.15879557 -0.014910942 -0.050658114
musi -0.10129911 0.11277685 0.13032998 0.21653515 0.02933873 -0.33828285 0.015157274 0.31110248 -0.031255666 -0.18966882 -0.10135807 -0.30743495 0.19560352 0.1879634 0.44468498 0.027185688 0.07999979 -0.17484441 0.049626224 -0.3676142 0.10988262 0.18765679 0.0758597 -0.17622049 0.08857521 0.058965597 -0.2309337 0.1319179 -0.042336896 -0.011953794 0.16717921 -0.15761757 0.10112429 0.063185975 -0.20146461 0.19634575 0.06918706 -0.022723433 0.06291838 -0.29615253 0.08524378 -0.06322011 -0.04608512 -0.13188289 -0.045245234 -0.039271053 -0.18741508 0.009961518 0.028903628 0.11823585 -0.07222993 -0.027475564 -0.114084296 -0.15327545 0.12592234 0.091820784 0.14713053 -0.051286116 0.03992213 0.08683138 -0.08167756 -0.009609014 0.012391752 -0.113451414 -0.22307652 0.31120494 -0.061600287 0.1650985 -0.32283625 0.26818284 0.17708439 -0.004733558 0.27766743 0.15330899 0.18888885 -0.0066021127 0.06427345 0.068018414 -0.10081236 0.053251237 -0.20412429 -0.010612484 -0.20659518 0.32368666 -0.16991515 0.0957133 0.15614249 -0.013223351 0.2148346 -0.2680894 0.030911656 0.06939825 0.14712106 0.1372617 -0.02657745 0.18090576 -0.07397621 0.060870714 0.102346 -0.005196765
ijo -0.02292755 0.20072107 0.0022725232 0.19636372 -0.012678892 -0.2714839 0.12520418 0.32224247 -0.10232717 -0.20594005 0.030189505 -0.12582134 0.29245612 0.10863987 0.29763883 0.030351385 0.20069563 -0.18067849 0.105617814 -0.3119098 0.22071429 0.10138315 0.26147512 -0.18831131 -0.032636862 0.016587328 -0.16136166 0.0016916156 -0.067085005 0.1527252 0.23744093 -0.07545303 0.12993182 -0.19674209 -0.080937445 0.20247427 -0.06357084 0.017825477 -0.0052690436 -0.1611683 0.17892793 0.014666745 0.020128308 -0.0041862507 0.038662117 0.009032709 -0.04122167 -0.084034756 0.00064534484 0.013763025 0.12762746 -0.10994981 -0.17053689 -0.15303384 0.12625569 0.06758908 0.07056485 0.0624256 -0.10452956 0.04590684 -0.14592497 -0.011758093 0.055156946 0.105707176 -0.028425315 0.29174298 -0.04117667 0.17962301 -0.30334806 0.09939292 -0.054959808 0.19322364 0.21907525 0.054297313 0.27179906 -0.031071724 -0.08041584 0.10291392 -0.02366823 -0.11337405 -0.19859177 0.024950067 -0.08116563 0.35298684 -0.038320508 -0.03976348 0.26524252 -0.024924537 0.17070058 0.010329279 0.25011742 -0.02096647 -0.0056128143 0.0063822856 0.049076565 0.053126562 -0.090764955 0.08502671 0.039915353 0.018514132
mama 0.0123352455 0.18303114 0.1483159 0.15219821 -0.07187051 -0.25166297 0.038632806 0.36677736 -0.08181991 -0.14355898 -0.22261152 -0.41483054 0.11889787 0.17740194 0.23392273 -0.029281586 -0.002198143 -0.2178107 0.1448914 -0.3218407 0.19305655 0.19356115 0.11240054 0.0005030374 -0.09934722 0.18041568 -0.15361129 0.015671436 -0.10167314 0.077194735 0.026069183 -0.09758999 0.016167229 -0.108867265 -0.14978269 0.046814602 0.10476098 -0.13946189 -0.00021694078 -0.032404788 0.04413822 -0.010424364 -0.06104802 -0.0149118025 -0.045044277 -0.036775626 -0.040999074 -0.077075385 0.03612297 -0.038627222 0.14150335 -0.13591522 -0.018943988 -0.09692893 0.16799037 0.09980382 0.20233074 0.05937203 -0.07301685 0.12607615 -0.19245213 0.03224087 -0.11074395 0.16420297 0.047678 0.39531624 -0.1026466 0.028519325 -0.139417 0.027967023 -0.045868278 0.116225205 0.19509599 -0.17377314 0.18408969 0.08268875 0.0133329155 0.14589286 0.121585615 -0.1308647 -0.225817 0.019197261 -0.09718195 0.263628 -0.20176049 0.09262699 0.23128316 0.08076763 0.2811563 -0.06797296 0.17424339 0.067750216 -0.113959394 -0.0601036 0.20361093 0.10366898 -0.058240365 -0.034190424 0.10057501 0.02100812
nasin 0.017908404 0.11553246 0.031467587 0.08280721 -0.030933347 -0.2241287 0.13300574 0.25534776 -0.110603444 -0.23035812 -0.023454037 -0.1116936 0.23238257 0.0425455 0.18987387 0.011944605 0.14769956 -0.15267745 0.008761988 -0.3226629 0.12586258 0.1399239 0.092067435 -0.10701716 0.006659166 0.08891483 -0.21176168 0.030007757 -0.05850348 0.14142825 0.08382579 -0.03847916 0.03368748 -0.1373618 -0.11295936 0.28195176 -0.05042092 -0.12318265 -0.06445575 -0.18207097 0.08595215 -0.12377084 0.0424261 -0.03369727 0.111601904 -0.108580895 -0.08176015 -0.20897105 -0.06456486 -0.0025971413 0.10991724 -0.16519213 -0.16483025 -0.10293003 0.01740064 0.019170487 0.0726097 0.025637195 -0.06117578 0.06357645 -0.01029609 -0.088743776 0.11237865 0.086802 -0.06554842 0.29485577 0.07188342 0.16934079 -0.2565444 0.16115947 -0.028657138 0.21363586 0.16277969 0.027965695 0.26094836 0.10121211 -0.12210065 0.13447955 -0.06712801 -0.017099742 -0.1354361 0.06502176 -0.0928507 0.39071172 -0.09210417 0.015869776 0.17096643 0.024967272 0.08725752 -0.018155912 0.30487463 0.0691454 -0.0023331724 -0.056272835 0.1213976 0.06823795 0.014316953 0.009393884 -0.021120686 0.035454463
moli -0.025887413 0.2305226 0.008810767 0.09633286 0.013016449 -0.26917315 0.011304516 0.30305946 -0.12712942 -0.23077129 0.0061869463 -0.25600392 0.22444154 0.16083583 0.28115684 -0.032569494 0.112105556 -0.17871092 0.09015814 -0.34304318 0.14350949 0.062204942 0.17260578 -0.16849415 -0.0032513163 0.029114742 -0.13971776 0.025116816 -0.07618332 0.052951325 0.123363525 -0.100176595 0.115951635 -0.17206222 -0.083498724 0.15350522 -0.058454297 -0.08954409 -0.051838014 -0.15410623 0.057678264 -0.056775805 0.037472364 -0.016646057 0.0077158967 -0.02823555 -0.12501864 -0.074114114 -0.01279207 0.07694211 0.05603066 -0.090848446 -0.12228596 -0.11229521 0.12680821 0.032853823 0.05649435 -0.039389186 -0.0745352 0.016236374 -0.045492087 -0.025101773 -0.034888316 0.08847277 -0.096591026 0.3709614 0.015052087 0.18930195 -0.30359182 0.20362557 -0.053202886 0.13138019 0.1936432 0.029785313 0.2417913 0.06003275 -0.08326697 0.11023039 0.0036716573 -0.0428892 -0.20806552 0.0094759455 -0.23897326 0.31995618 -0.052218314 0.0063815117 0.23594461 -0.026947355 0.20501536 -0.0453619 0.1893586 -0.004454438 -0.086608924 0.005924256 0.03409682 0.13709193 -0.0756776 0.008521722 0.025744842 -0.023086824
ante -0.03473179 0.2675826 -0.08110213 0.13535094 0.0026344205 -0.24112275 0.09665771 0.3847465 -0.09481269 -0.2784072 0.079241544 -0.08996625 0.15914845 0.053492796 0.16254358 -0.033385877 0.14941071 -0.20441343 0.13025838 -0.2875367 0.11251973 0.052193157 0.24082889 -0.17577961 -0.029183744 -0.031994358 -0.21735942 -0.04056903 -0.11493324 0.15189238 0.11089449 -0.061785113 0.10058664 -0.23272361 -0.09642274 0.25333357 -0.10202789 -0.028950475 -0.068516985 -0.13006598 0.17600559 -0.029114082 0.021929404 -0.039120246 0.101936005 -0.04155972 -0.081809394 -0.08568471 -0.0026669763 0.053129613 0.15928198 -0.12345079 -0.14829811 -0.06681455 0.04526438 0.06036242 0.09530695 -0.036220066 -0.12074193 0.031263363 -0.017257007 0.009620421 0.0757529 0.0945602 -0.007430898 0.25754172 0.059509598 0.22352804 -0.2799049 0.09805137 -0.09250899 0.24097294 0.13832785 0.039732542 0.29303113 0.06893489 -0.18984859 0.102169015 0.01473609 -0.12986822 -0.10783216 0.026554314 -0.11069169 0.40003824 -0.05194716 -0.03147532 0.30580983 -0.021765763 0.13776076 0.11069257 0.32589984 0.012884859 -0.116499126 0.000101761994 0.066272 0.0810778 -0.11066289 0.09220128 -0.062039874 0.0115670385
weka 0.07554315 0.05865519 0.13334519 0.17042835 -0.070012115 -0.20042844 0.10655725 0.25808856 -0.09950952 -0.21147127 -0.17548129 -0.33132246 0.14272729 0.1816594 0.2492285 -0.036678713 0.1097242 -0.15346584 -0.011244946 -0.36860833 0.15810893 0.17200027 0.06602555 -0.011765616 0.024552621 0.12233979 -0.16680846 0.059319977 -0.13458121 0.11447306 0.04301356 -0.075445555 0.063308254 -0.17091602 -0.15023471 0.17630243 0.038031522 -0.1520954 -0.039335065 -0.05201911 -0.023275109 -0.17419842 0.021705205 0.0018893296 0.06763738 -0.10089228 -0.06527014 -0.10797128 -0.053561553 0.030091168 0.15104958 -0.15372677 -0.090058744 -0.097272664 0.038353097 0.02754519 0.085156046 0.06276435 -0.042735483 0.114658386 -0.09079148 -0.04308514 -0.037328396 0.116848 -0.06630619 0.35306194 -0.036576986 0.14314023 -0.16930945 0.15112549 0.0064099412 0.11636344 0.18003298 -0.12077953 0.23754025 0.072826765 -0.09018314 0.22877353 0.069106966 -0.09869523 -0.16565105 0.04530925 -0.14443988 0.28575158 -0.06810642 0.13726191 0.1750532 0.033739574 0.23688972 -0.08935065 0.21160606 0.022456579 -0.00045962256 -0.08270041 0.11866469 0.105974376 0.03735855 -0.087319486 0.07623394 -0.025817541
seme -0.053357083 0.217194 0.09369573 0.14086153 -0.0076126806 -0.16950242 -0.056076318 0.33326167 -0.042623438 -0.103705734 -0.09882583 -0.20062815 0.16474146 0.19896959 0.33865103 0.06903074 0.049916472 -0.18011317 0.1500155 -0.32721356 0.11987503 0.13903764 0.14012553 -0.094231494 -0.08431824 0.027102511 -0.15791897 0.027787847 -0.07874192 0.14169167 0.16744635 -0.1469005 -0.0018236104 -0.14710784 -0.14040975 0.122958064 0.00462822 -0.01629328 0.023926064 -0.16939369 0.112998344 0.033340376 -0.052431 -0.013565495 -0.012369178 0.04038429 -0.18634881 -0.048211705 0.068346076 0.022111375 0.059564926 -0.0064314175 -0.11764135 -0.19707526 0.17546895 0.12322796 0.14569789 -0.022858435 -0.024349276 0.02779775 -0.16745007 0.05130337 -0.04626215 0.11394527 -0.13004164 0.26651528 -0.0572678 0.17676966 -0.20731844 0.17171071 -0.018111633 0.088846765 0.07860333 -0.026289897 0.2484714 -0.046182986 0.015991539 0.16550359 -0.015086805 -0.09267486 -0.16909802 -0.10016215 -0.1599452 0.427869 -0.103518784 0.014536758 0.24110764 0.044936873 0.26085737 -0.11921836 0.15121506 0.049304526 -0.043444134 0.08398562 0.07733855 0.08648122 -0.1453164 0.13856605 0.035182197 0.088690825
kasi 0.042846233 0.160474 0.20811601 -0.059029642 -0.19162482 -0.18161735 0.10045478 0.31206906 0.0073281485 -0.12304663 -0.3232334 -0.27122355 -0.0032000737 0.05037677 0.059977286 -0.11621127 -0.12664334 -0.17343298 -0.013764875 -0.33311725 0.017510582 0.2909507 -0.19108433 0.12814932 -0.038764976 0.19427206 -0.19694325 -0.011567437 -0.051761806 0.043356933 -0.1250637 0.0058942605 -0.11738594 -0.032356076 -0.0872363 0.27097195 0.19153127 -0.24396062 -0.07404728 -0.081156015 -0.029441677 -0.17427778 -0.16437712 -0.13734166 0.09457527 -0.20366284 -0.07469033 -0.1403909 -0.029480273 -0.026048027 0.11553457 -0.23660953 0.007129882 0.018729486 -0.11073579 0.25672728 0.12135831 -0.06507224 0.059709053 0.1568384 0.082451366 -0.03003449 -0.022149695 0.11691753 0.0797638 0.31090996 0.03813903 0.14329484 -0.06842863 0.25970563 0.030781632 0.2179291 0.056256615 -0.20940767 0.23297742 0.2598103 -0.09896444 0.10270973 0.03636649 0.0374672 -0.10852493 -0.023359314 -0.21799205 0.38594353 -0.23452201 0.073209375 0.20424706 0.17208415 0.1790749 -0.036074888 0.3421428 0.12708414 0.0066398093 -0.10754568 0.20260139 0.10144982 0.20311338 -0.03023066 -0.041413814 0.0027116232
sin -0.03954468 0.13009846 0.01350612 0.051032178 0.09655909 -0.26324093 0.052305322 0.35633546 -0.11169347 -0.22975212 -0.0059682378 -0.22729759 0.16334933 0.04817743 0.10528571 0.06805463 0.07408794 -0.25228968 0.18584467 -0.36039662 0.18560433 0.16782255 0.20734593 -0.11286154 -0.0700387 0.07214744 -0.16111146 -0.0011102317 -0.07679257 0.080041125 0.18053989 -0.032365344 0.107013695 -0.14375697 -0.13902791 0.23251277 -0.0056817164 -0.030825492 -0.078016445 -0.14774321 0.2105633 0.069171354 -0.048652496 0.052229226 0.05869304 -0.022058256 -0.09116043 -0.124974765 -0.045730673 0.03567694 0.16858673 -0.14751408 -0.16111282 -0.048756335 0.08924088 -0.0059729163 0.12279133 -0.024936577 -0.17399484 -0.00084571727 -0.10980537 0.06709046 0.10242024 0.08105524 0.026322851 0.28003007 0.037682593 0.11714669 -0.22800706 0.005668192 -0.09683745 0.27739608 0.14100717 0.010385795 0.2782133 0.006574177 -0.0560042 -0.010320954 0.0003446599 -0.11580888 -0.16737701 0.014116342 -0.1127062 0.3195754 -0.1290232 -0.004274597 0.24884349 0.04516185 0.09185985 0.049949702 0.28156376 0.12239261 -0.05753492 0.09506836 0.16839415 0.08969193 -0.12214619 0.08989373 0.01779498 0.06591264
luka -0.08672812 0.52075464 -0.30839643 -0.26023173 0.1088672 -0.3407476 -0.02681474 0.42149028 -0.08935908 -0.28113064 0.2840974 -0.13109215 0.23862445 -0.06816999 0.025057957 -0.22187644 0.011281473 -0.38917372 0.349327 -0.3989879 0.023569355 -0.018163856 0.13676667 -0.13941392 -0.095725894 -0.17121793 -0.121936366 -0.14764032 -0.14878213 -0.15187392 0.13675806 -0.023232073 0.13580136 -0.22086178 0.036228318 0.25180048 -0.24317014 -0.14764988 -0.06756867 -0.31399426 0.28984913 -0.0028199563 -0.09864977 -0.30537367 0.026289456 0.06339014 -0.18636996 -0.0323769 -0.022527399 0.18815546 0.0054660873 -0.1374975 -0.31672004 0.2679166 0.19548213 0.12231003 0.03045939 -0.2866728 -0.15791269 0.013157843 0.3168626 0.07507288 0.024401767 0.053374197 0.09555937 0.24427575 0.3073912 0.112176344 -0.45570964 0.3073212 -0.18463619 0.28695607 0.05760629 0.09431542 0.29844865 0.124564275 -0.24130738 -0.15067294 -0.08786393 -0.0073158303 -0.11948484 0.09450227 -0.48105845 0.56022334 -0.29396152 -0.16202235 0.2758731 0.07718415 0.16431335 0.11803165 0.35487396 -0.055961713 -0.2683087 0.3165966 -0.08839028 0.16296262 -0.16460435 0.03738417 -0.30899483 -0.020653212
anpa 0.09649788 0.048706178 0.11267386 0.04751738 -0.09831988 -0.23053259 0.07308001 0.30560166 -0.08974037 -0.22686526 -0.17610303 -0.33511811 0.09969623 0.12765543 0.10975028 -0.08032726 0.044379644 -0.1560252 -0.0002379738 -0.31583652 0.0939681 0.15898284 -0.070412606 0.020837927 0.016033 0.1628274 -0.14466795 0.0041435594 -0.110752836 0.08496745 -0.06313803 -0.01674518 -0.040610943 -0.15227261 -0.12873732 0.21841298 0.048363958 -0.27637443 -0.064631425 -0.060876478 -0.036166858 -0.20436835 -0.039384868 -0.050452776 0.08641891 -0.13582234 -0.020100866 -0.14814161 -0.09265739 0.0155845 0.22317466 -0.2377482 -0.050896253 -0.0058017056 -0.057948615 0.10810349 0.09235871 0.004860589 -0.018568434 0.12717403 0.021645496 -0.052991983 -0.06637926 0.12214014 0.027785778 0.3980605 0.005736329 0.13476883 -0.09563676 0.1639783 0.010441303 0.15933533 0.12873498 -0.16304432 0.2460627 0.18156314 -0.1342019 0.1722811 0.085251115 -0.046041276 -0.17031088 0.056761473 -0.18144551 0.28888518 -0.12591799 0.098704875 0.1881824 0.07404349 0.21563247 -0.03290458 0.2971317 0.06522703 -0.03487752 -0.07018747 0.17909347 0.14543407 0.11136538 -0.1422322 -0.016632525 -0.036685415
en -0.10950669 0.1787669 0.039091818 -0.037546463 -0.015081628 -0.2672171 0.017970884 0.36898735 -0.09808671 -0.28281018 0.00049992994 -0.2130221 0.14628243 0.006895729 0.038527604 -0.036180288 0.034243066 -0.26124367 0.12252687 -0.31948227 -0.0035740028 0.07260843 0.023662819 -0.062364325 0.026330836 0.053687017 -0.20394382 -0.03088561 -0.06723536 -0.023722544 -0.01382208 0.016530138 -0.036163125 -0.080016755 -0.14534971 0.2795543 -0.0060582976 -0.20618388 -0.036432307 -0.24703698 0.1273605 -0.09729079 -0.03353529 -0.10631967 0.061057366 -0.108706385 -0.08645866 -0.11384605 -0.033252407 0.100053474 0.0855952 -0.13688068 -0.18391374 0.060834583 -0.034680407 0.037121724 0.11041699 -0.19998263 -0.083160035 0.0017237744 0.11629324 0.02394026 0.12537545 0.040324096 -0.07537538 0.2894853 0.15524697 0.15499622 -0.20167601 0.20664266 0.031357095 0.20264505 0.08872577 0.071972646 0.28867474 0.21666637 -0.17779654 -0.0018310553 -0.051866915 0.079564385 -0.06910953 0.059263576 -0.17322974 0.33974275 -0.16157925 -0.054813243 0.20020302 0.10553156 0.07491757 -0.026316147 0.30512106 0.15422422 -0.04496372 0.088858224 0.2036618 0.18057291 -0.04743167 -0.032569423 -0.13866583 0.029540312
nanpa -0.15455393 0.32504123 -0.21497202 -0.15600096 0.22999968 -0.30461767 -0.045980837 0.38983655 -0.16958459 -0.25890425 0.27737617 -0.04876523 0.3072932 -0.13287105 0.037425574 0.07125878 0.09647391 -0.40283749 0.36424884 -0.45339748 0.12828399 0.08339092 0.2552403 -0.2660852 -0.10327697 -0.09063289 -0.18818529 -0.076553315 -0.05007957 -0.056251694 0.2955413 0.010211376 0.121470936 -0.2242633 -0.026118942 0.34748915 -0.20145923 -0.03799457 -0.105796866 -0.38948953 0.41232818 0.1763626 -0.09315023 -0.092482775 0.09776185 0.06427225 -0.21373403 -0.1340262 -0.053242538 0.11121528 0.043503698 -0.1359835 -0.37536916 0.14542955 0.20937344 -0.0058840956 0.059457928 -0.18646379 -0.26964992 -0.048487496 0.084173374 0.11870755 0.23514065 0.06293281 0.030962948 0.24823867 0.19772665 0.12755291 -0.35616943 0.13314441 -0.1618278 0.411914 0.04088075 0.16891229 0.32132167 -0.05122153 -0.077960856 -0.261179 -0.08373494 -0.07332932 -0.16312519 -0.0068232683 -0.32323897 0.52186954 -0.26009306 -0.2012641 0.26321042 0.11273202 0.020638878 0.12883025 0.31132993 0.09319608 -0.08913198 0.38763905 0.050147954 0.08045091 -0.27507064 0.20025592 -0.17141472 0.08978422
kin 0.01758534 0.169244 0.01800932 0.10032536 0.005973988 -0.24053554 0.06352081 0.3205582 -0.091530986 -0.19004257 -0.006877212 -0.2032363 0.18680014 0.11706128 0.21646601 0.034812383 0.117469765 -0.21543238 0.1135565 -0.33793285 0.15934218 0.13992725 0.16748947 -0.1445719 -0.029294306 0.053959664 -0.14891884 -0.0024643939 -0.06510176 0.108029224 0.16497026 -0.087173335 0.07745274 -0.1968669 -0.08241591 0.21083672 -0.021467367 -0.06887036 -0.035008274 -0.18098466 0.123055525 -0.04006388 -0.035566296 -0.0014083318 0.054700356 -0.010322456 -0.1265785 -0.08219398 0.0062999744 0.026340954 0.111337915 -0.12162054 -0.14086956 -0.09806532 0.11688766 0.07615203 0.13389742 0.0037503121 -0.10239094 0.035644468 -0.12203537 0.009652266 0.025030054 0.10894136 -0.046182107 0.33405778 -0.035488043 0.1639971 -0.21766725 0.11318736 -0.019066278 0.15799128 0.15277389 0.026192615 0.2471121 -0.038479354 -0.04285288 0.10111361 0.020784857 -0.071677536 -0.19132133 -0.027687686 -0.13946018 0.33235314 -0.085790545 0.0052145817 0.26227233 0.025674006 0.18680032 -0.0024925584 0.21610259 0.06814154 -0.039457794 0.032896254 0.07762657 0.09702416 -0.10834081 0.03068617 0.01811409 0.027035525
pimeja 0.02087486 0.06209959 0.107509844 -0.11861702 0.0023139727 -0.22770834 0.04961566 0.3325752 -0.029573202 -0.15942499 -0.15633224 -0.30720618 0.09879628 -0.022769881 -0.0067943353 -0.04168829 -0.04850544 -0.28263903 0.16586271 -0.3380192 0.080230646 0.21033122 -0.12513977 0.0357803 -0.057985026 0.11862248 -0.11788309 -0.021373274 -0.1089714 -0.056382746 -0.011067447 0.03857022 -0.051719416 -0.07315639 -0.119817026 0.27663857 0.07029122 -0.2693916 -0.04400695 -0.14891623 0.1217357 -0.1018598 -0.15013675 -0.08760499 0.117721036 -0.09812738 -0.049668252 -0.13527194 -0.09712398 0.011372466 0.22543247 -0.23960853 -0.13507822 0.12149199 0.016221454 0.15415186 0.11916262 -0.07270645 -0.12532043 0.07981784 0.028649848 0.05093678 0.041488618 0.0964275 0.12865242 0.333832 0.08150676 0.04343283 -0.08041464 0.09768871 0.035759434 0.27123207 0.10303373 -0.1199678 0.29106563 0.16238824 -0.04673301 -0.055901136 0.045855094 -0.0010848019 -0.14162138 0.021095995 -0.23875095 0.35535005 -0.2963531 0.08073129 0.18808351 0.19688074 0.18057255 0.029520886 0.335388 0.17621487 -0.015141696 0.12682118 0.22923972 0.11469124 -0.0058169686 -0.030224806 -0.06324266 0.0112926345
kulupu -0.05681853 0.12744041 0.078503124 0.011632683 -0.023938807 -0.19567294 0.02485164 0.29155734 -0.14859526 -0.19689848 -0.08508958 -0.16749126 0.15053856 0.019766863 0.12339509 0.02746604 0.04983421 -0.19452739 0.038591616 -0.333594 0.07341929 0.15564205 0.08450059 -0.07560914 -0.04541486 0.11535528 -0.22390851 0.020178804 -0.031872176 0.10674812 0.0057705618 -0.03443925 -0.018566148 -0.10681856 -0.17158806 0.20413336 -0.0060603693 -0.1408009 -0.09686927 -0.13844961 0.10264379 -0.052268676 0.023332775 0.044939887 0.080032736 -0.096249774 -0.09756851 -0.16843969 -0.05845039 0.012211816 0.11071125 -0.15036961 -0.11813021 -0.0707301 -0.04290547 0.022624819 0.113581315 -0.055710815 -0.050669298 0.0039694835 -0.026342649 -0.038815748 0.09106093 0.1103909 -0.05076343 0.32634705 0.07802741 0.18112701 -0.19927606 0.14461993 -0.031625003 0.24837694 0.13044813 0.03149338 0.22513369 0.18302976 -0.1032334 0.084696226 -0.022705251 -0.008855253 -0.13709027 0.021277446 -0.111310855 0.3675157 -0.12770261 -0.007491139 0.21028823 0.084223025 0.06362269 -0.005835072 0.29233173 0.15910408 -0.07777449 -0.026777133 0.20821422 0.123528734 0.01273075 0.023230577 -0.028278137 0.05913578
ali 0.03618735 0.057142776 0.0913024 0.07018422 0.032841288 -0.24509087 0.032269154 0.30689678 -0.11932538 -0.20173292 -0.08399059 -0.24535309 0.13111664 0.09624303 0.15672392 0.037287656 0.11180456 -0.22121115 0.07801119 -0.37061316 0.12473897 0.17627938 0.070180446 -0.11727744 0.03597696 0.10562245 -0.19168562 0.033437133 -0.05616947 0.076129094 0.0695303 -0.076729774 0.07722323 -0.14455014 -0.14041904 0.22607009 0.015136153 -0.17904052 -0.06491604 -0.16254197 0.05972238 -0.08917014 0.0058062007 0.034714602 0.08956792 -0.06517122 -0.14542422 -0.10123465 -0.07124086 0.039575156 0.14300177 -0.1056289 -0.17535293 -0.024478082 0.05050228 0.007792429 0.11945983 -0.015685463 -0.06256398 0.051237475 -0.079131 -0.012638903 0.046917956 0.062088393 -0.054953143 0.33813784 0.0014041417 0.12978685 -0.15578039 0.104732975 0.028419802 0.15971667 0.15968044 0.015420675 0.21966471 0.029391255 -0.018933346 0.07093811 -0.0048137642 -0.029496817 -0.2023498 0.0558111 -0.15008105 0.25403166 -0.09257659 0.05851338 0.1785189 0.086080246 0.1551207 -0.05952478 0.21498933 0.13399439 -0.018926576 0.048451345 0.14867488 0.1314299 -0.05377846 -0.017294852 0.016552374 0.014707108
lape 9.735115e-05 0.12285523 0.10914687 0.018397894 -0.0037280163 -0.21261145 0.039900083 0.38207942 -0.03157193 -0.18638329 -0.1383098 -0.27644798 0.090468876 0.03370609 0.053570677 0.05261012 -0.011766637 -0.2676141 0.19976397 -0.32529402 0.11189795 0.21596085 0.029331136 -0.032036297 -0.03992889 0.10929732 -0.13015637 -0.01827883 -0.0940885 0.032503 0.052749023 -0.015935114 -0.023259705 -0.1263611 -0.13836347 0.24525467 0.049633794 -0.19871579 -0.011684143 -0.17319632 0.11659065 -0.0060783257 -0.15267667 -0.040896904 0.122858614 -0.031209135 -0.06772549 -0.17001095 -0.0063491766 -0.0018491056 0.17491269 -0.13868389 -0.1656403 0.024669848 0.07675454 0.09532483 0.14157069 -0.049350046 -0.094419226 0.06348928 -0.076649174 0.070766814 0.016686046 0.11966393 0.027685111 0.3254509 -0.029412964 0.085106805 -0.045741137 0.0630943 0.0054905456 0.2216316 0.06388938 -0.058200616 0.2624813 0.046497844 -0.03079966 -0.035221647 0.050195325 -0.036077805 -0.14158757 -0.030806782 -0.120233744 0.35005832 -0.17436337 0.019932982 0.24862537 0.1409926 0.15665078 -0.016590608 0.279553 0.13252114 -0.0043252157 0.08308404 0.2289885 0.12050305 -0.09540531 0.03234459 -0.029168202 0.035180397
pipi 0.05548123 0.33310765 -0.086004995 0.14657123 -0.06675618 -0.26692313 0.18483782 0.43834937 0.064358234 -0.21963765 -0.005594394 -0.18441801 0.1172017 0.11405542 0.13219872 -0.16144493 0.076483525 -0.29502448 0.17508653 -0.28298175 0.13263655 0.06691458 0.061699897 -0.066402175 0.009435461 -0.058432367 -0.105791785 -0.080719694 -0.24193454 -0.00057055196 0.023053294 -0.03743695 0.119895026 -0.21547505 -0.011782919 0.22163568 -0.03287536 -0.15325902 -0.009238891 -0.08092063 0.042146165 -0.14199762 -0.06355455 -0.20684968 0.14603055 0.0013263973 -0.02043292 0.048601124 0.028715879 0.088839106 0.14795734 -0.091293134 -0.08633432 0.048592187 0.12061189 0.20029989 0.054862667 -0.040048733 -0.14378825 0.16762745 0.056697845 0.039263457 -0.1425801 0.075559944 0.088945575 0.29962543 0.021301607 0.16517502 -0.24074678 0.1325302 -0.040742323 0.14121836 0.15801051 -0.1279547 0.32224688 0.08738709 -0.21987773 0.10374474 0.13696702 -0.15801068 -0.11127279 0.085087195 -0.28728408 0.33776322 -0.06399049 0.08432769 0.3575826 -0.041132666 0.34280083 0.08699085 0.31327876 -0.12013917 -0.11578998 0.009898928 -0.058516692 0.12129037 -0.08614655 -0.029505914 -0.04264443 -0.11154343
awen -0.021424744 0.18372896 -0.020176955 0.0927574 0.020121923 -0.25562817 0.052959796 0.3009777 -0.14436395 -0.2162278 0.0368404 -0.1494184 0.21340086 0.09301096 0.23356752 -0.010977081 0.15925965 -0.1878951 0.10661303 -0.30696738 0.17247611 0.09564575 0.211846 -0.12847699 -0.03856552 0.040695153 -0.17479281 -0.00916338 -0.040647548 0.13803412 0.18324679 -0.08215625 0.07023849 -0.18478782 -0.117879815 0.21554065 -0.027783845 -0.038167004 -0.04950179 -0.14679652 0.165879 0.0022955437 0.02775558 -0.006650489 0.012964625 -0.014507096 -0.1134568 -0.06722102 -0.026525233 0.010747308 0.14229333 -0.13783537 -0.17000455 -0.10291885 0.049841594 0.03592847 0.08801731 -0.016829904 -0.07803207 0.009540994 -0.07762423 -0.0022111677 0.066408314 0.09650458 -0.027471358 0.30787113 0.05441505 0.16693981 -0.30951157 0.109801106 -0.08377445 0.21334805 0.13722211 0.032347195 0.22017716 0.0614111 -0.116928525 0.15077564 -0.026492255 -0.087253384 -0.17967564 0.00029176148 -0.12836573 0.3642238 -0.06339184 -0.0017644383 0.2455343 -0.010481662 0.13896525 0.03198535 0.27042732 0.054210387 -0.085556276 0.0024627666 0.0914896 0.065594174 -0.041006807 0.047808748 0.0047089458 0.036858466
sike -0.02254798 0.12767306 0.050505955 -0.12858067 0.059721228 -0.24605773 -0.014185691 0.4299241 -0.054448895 -0.20489003 -0.07631759 -0.276654 0.04634384 -0.040153235 -0.083818704 0.0077001834 -0.084948614 -0.35962614 0.25248906 -0.3345122 0.097117975 0.20010884 -0.0047121127 0.03747711 -0.07790503 0.120446414 -0.16069295 -0.06040781 -0.07889229 -0.033693083 -0.012749223 0.014285686 -0.019795908 -0.15524304 -0.13742071 0.26327473 0.062446892 -0.24786651 -0.104708776 -0.13760059 0.1946946 0.031102773 -0.15817972 -0.051497493 0.11250897 -0.08125402 -0.11100548 -0.1282087 -0.029733237 0.036861975 0.17948122 -0.1908197 -0.18951632 0.18367684 0.08126331 0.097548194 0.1693869 -0.15041767 -0.14594248 0.026482992 -0.017073268 0.09520539 0.062587894 0.09332263 0.10200496 0.31419396 0.089946285 0.017693048 -0.05913011 0.026900318 -0.07072611 0.32661855 0.020552184 -0.08502273 0.26714033 0.14946552 -0.02790129 -0.10599997 0.027823294 -0.05043808 -0.12340042 0.01070332 -0.18975078 0.35609737 -0.31111678 0.014849642 0.21344778 0.22610348 0.11509674 0.0861255 0.32410917 0.20205711 -0.12128867 0.18446174 0.25882587 0.13684224 -0.12987895 0.038155682 -0.11162458 0.055428766
kalama -0.08381287 0.19722079 0.19687164 0.108843125 -0.063766554 -0.35414574 0.022561423 0.34947494 0.08211624 -0.14923862 -0.18958324 -0.3228844 0.24826083 0.18553545 0.39420804 -0.086901136 0.0013073804 -0.16080703 0.050534807 -0.3614175 0.061220564 0.16792282 -0.10601808 -0.07517417 0.13809495 0.1363352 -0.1773736 0.10465576 -0.01246303 -0.09992868 0.002276285 -0.17994328 -0.04730114 0.10734344 -0.13481517 0.14722963 0.09220753 -0.18421936 0.15057276 -0.35506633 -0.024902994 -0.1969379 -0.07505117 -0.25808764 -0.050130446 -0.11149835 -0.117844135 -0.08228373 0.02254837 0.10430414 -0.1746609 -0.032799248 -0.14664102 -0.12696241 0.15579739 0.1795196 0.16642536 -0.04828395 0.06753599 0.13938338 0.012606877 -0.084342055 -0.0428953 -0.13656475 -0.25625166 0.42857584 -0.086865805 0.1510447 -0.22907881 0.38106617 0.31882435 -0.08860776 0.31080323 0.14545393 0.15169926 0.08185359 0.026665015 0.04373097 -0.11944502 0.20746388 -0.24468437 -0.05804496 -0.297014 0.27909228 -0.20842922 0.12902647 0.16323127 0.030137043 0.30318484 -0.39439905 -0.010242579 -0.009491997 0.20921487 0.099467084 -0.033289596 0.19295451 0.042720478 -0.03216273 -0.026129846 -0.017983146
a -0.32858378 0.71246785 0.42103577 0.07186137 -0.23319075 -0.2018167 -0.2155452 0.6866094 0.09588176 -0.102259144 -0.44854382 -0.3166135 0.17175275 0.3806457 0.651207 0.04092395 -0.22567989 -0.04716898 0.18093562 -0.3845541 -0.14101283 0.2249697 -0.019748004 0.035313703 -0.2599817 -0.031459413 -0.28074995 -0.14006245 0.11267211 0.13451584 0.05811636 -0.40796873 -0.39797178 -0.09433866 -0.25770193 -0.021800965 0.21312454 0.06012607 0.3161082 -0.5338805 0.15913045 0.23001783 -0.35993874 -0.37518466 -0.27803376 0.10552638 -0.459046 -0.1414523 0.42375532 0.055030443 -0.35751858 0.1488615 -0.06951195 -0.5226654 0.38100234 0.4981808 0.34999198 -0.263633 0.2404369 -0.09435715 -0.36160526 0.12820035 -0.17348243 0.04986435 -0.4437436 0.26296544 -0.17638583 0.27679902 -0.28009927 0.5583828 0.20893645 -0.045011986 -0.10298223 0.0006716965 0.30842203 -0.102435224 0.25605342 0.30037946 -0.31533003 0.20253055 -0.2360986 -0.3846591 -0.19202988 0.90075743 -0.37746263 -0.19105974 0.29920748 0.20175439 0.49547845 -0.4798735 -0.02830105 0.14743097 0.14109367 0.23274419 0.31433934 0.12946138 -0.24745506 0.23238726 0.019696834 0.28115812
lipu -0.09246428 0.20668837 -0.050300706 0.010689633 0.037277162 -0.27941373 0.11253649 0.29858372 -0.17531383 -0.2631279 0.207951 0.009296878 0.39110947 -0.006820833 0.23897372 0.052959736 0.2375422 -0.2044424 0.121704824 -0.306708 0.12495757 0.04017168 0.23022534 -0.22524977 -0.027544357 0.021888496 -0.21106994 -0.03304394 0.056957517 0.14730278 0.25165382 -0.013239269 0.03369111 -0.19195306 -0.10247421 0.2653498 -0.10501236 -0.014838116 -0.046160486 -0.3296454 0.31095377 -0.020016931 0.12662344 0.045617625 0.058647014 -0.0559706 -0.076847866 -0.17972197 -0.071049586 0.018303359 0.054381073 -0.12663727 -0.29833847 -0.07714651 0.033307597 -0.019903924 0.07463439 -0.054209363 -0.14802633 -0.07002967 0.014900984 -0.06445765 0.27370414 0.12064071 -0.07929904 0.26819402 0.1438457 0.18830153 -0.3723862 0.19914235 -0.06998222 0.28003678 0.13674815 0.18058278 0.28978714 0.08425306 -0.13184845 0.026467428 -0.17256996 0.045458175 -0.13946469 0.044355497 -0.10227304 0.4112105 -0.07376462 -0.14495619 0.20310685 0.07986603 0.014704015 0.077388324 0.35550278 0.054356027 -0.019575892 0.083195694 0.1401753 0.083760634 -0.058764923 0.09596396 -0.10135209 0.061990373
kiwen 0.06979397 0.18508892 0.1713133 -0.10786466 -0.0651065 -0.251148 0.1463584 0.4256743 0.033075016 -0.22517304 -0.23727496 -0.3295228 0.0250955 0.04207723 -0.117235884 -0.07877135 -0.15608555 -0.20232545 0.10540374 -0.3189632 0.0051455516 0.26850298 -0.21785024 0.17148189 -0.11750369 0.19734985 -0.09224998 -0.10488817 -0.16542456 0.015206321 -0.09284751 0.019935736 -0.11830713 -0.12166518 -0.07032756 0.3381594 0.12218135 -0.31578097 0.006086493 -0.07708167 0.12037733 -0.12711671 -0.24542671 -0.17326643 0.16212021 -0.13565694 0.053831257 -0.16135764 -0.048070345 -0.074175335 0.30479044 -0.33718163 -0.04519228 0.1823844 -0.05682967 0.32354608 0.0840714 -0.016337853 -0.04601083 0.14201605 0.10146107 0.015931638 -0.02795052 0.16117486 0.2252877 0.30079642 0.10178463 0.040970527 0.0058618947 0.1044328 0.008253707 0.335669 0.09008679 -0.26255837 0.33003035 0.31567594 -0.18508302 0.016191052 0.11874165 -0.08752105 -0.10077128 0.06158139 -0.21056889 0.38450497 -0.31133243 0.11173517 0.2539199 0.22327743 0.20226488 0.064478 0.42948562 0.14606617 -0.048171602 0.024998134 0.28445277 0.09846551 0.10282225 -0.08148684 -0.0785063 -0.000999113
mije 0.03191826 0.27417344 0.036400672 0.10829247 -0.07080787 -0.24057919 0.07468529 0.3894586 0.04843671 -0.13735276 -0.120883 -0.2826532 0.12978153 0.11219168 0.17292395 -0.035961162 -0.0042624683 -0.25787112 0.25074038 -0.27520883 0.14958699 0.13081843 0.06660298 -0.03145266 -0.09159043 0.02167992 -0.088306025 -0.07032232 -0.14457183 0.015817435 0.07059327 -0.05336528 0.022942042 -0.1530092 -0.081413135 0.1521121 0.01866868 -0.18194616 0.057496075 -0.06884581 0.109692484 -0.07018705 -0.12336421 -0.1470646 0.042411864 0.017733986 -0.019043991 -0.005659841 0.03869547 0.012156842 0.18790571 -0.10861746 -0.057921875 -0.02798551 0.15961634 0.25191182 0.11104994 -0.015198236 -0.1402191 0.13489185 -0.086313054 0.095640495 -0.17057912 0.13808484 0.100140065 0.30793464 -0.06498895 0.09192844 -0.15180467 0.047194414 -0.00070164376 0.119460575 0.11809749 -0.14083523 0.29536334 0.09479903 -0.094312236 0.09472651 0.15700035 -0.10492362 -0.16854215 -0.011526158 -0.18872105 0.38391247 -0.14208683 0.0336325 0.3384759 0.06031572 0.31304163 -0.023224436 0.2468548 -0.020435201 -0.08976242 0.03236265 0.058077082 0.08290327 -0.11707113 -0.0045644203 0.01611288 -0.02587545
poka 0.02712267 0.14719272 0.051219758 -0.009340868 -0.012541721 -0.21817221 0.039589316 0.36723012 -0.06909877 -0.19871451 -0.12907217 -0.2880672 0.06252642 0.08969903 0.061177462 -0.088444084 -0.030529192 -0.18708448 0.11305965 -0.3037334 0.09298518 0.14145821 -0.0026274435 0.021119496 -0.044031233 0.11952478 -0.13673973 -0.013635276 -0.12584029 0.031930707 0.012015729 -0.020107538 -0.0027453408 -0.10531069 -0.0903427 0.2257633 0.06815827 -0.2236354 -0.08547491 -0.020733183 0.0774013 -0.061568245 -0.112811245 -0.08838184 0.037376065 -0.10007438 -0.041184556 -0.07527384 -0.05931766 0.032483693 0.2223942 -0.24911541 -0.05191379 0.066864856 -0.014152347 0.15004794 0.10143527 -0.023578005 -0.042843316 0.08497271 0.043943662 0.0026055193 -0.011389992 0.093804404 0.071536735 0.28284186 0.0673807 0.11025432 -0.15798518 0.15386073 -0.0487613 0.23222248 0.10978225 -0.15120196 0.24492942 0.18702929 -0.15618077 0.10151752 0.06952066 -0.07395358 -0.14974244 0.041013394 -0.21522564 0.3465183 -0.20409337 0.055167653 0.23643766 0.074979946 0.16620545 0.029959328 0.33448884 0.09705102 -0.09117152 0.0010900241 0.15860961 0.12426384 0.06713766 -0.044422597 -0.03346606 0.0064455243
insa 0.010688041 0.18587099 0.090922646 -0.078596614 -0.14156258 -0.26177654 0.11566885 0.39414507 -0.0032244648 -0.20268859 -0.17341003 -0.28921914 0.07540264 0.048709065 0.027836371 -0.1569517 -0.04741912 -0.17887041 0.10919474 -0.31578076 0.054513756 0.19042641 -0.13787457 0.15096526 -0.08368215 0.16335243 -0.17232299 -0.06402235 -0.095390655 0.017868083 -0.08824891 0.014456438 -0.11957404 -0.08545782 -0.06162479 0.24963294 0.12638941 -0.29071212 -0.019890081 -0.061421584 0.049630847 -0.17775136 -0.1437635 -0.15946485 0.05767161 -0.12660791 0.010449877 -0.12595843 -0.06258146 0.019539129 0.20915146 -0.27190605 -0.06229946 0.10863946 -0.06285081 0.24363151 0.12636057 -0.032298815 -0.029267428 0.13843963 0.108134195 -0.017339736 -0.040562328 0.111859195 0.10992668 0.31662047 0.08832357 0.103371516 -0.1232154 0.18371831 -0.012908712 0.25512323 0.121842176 -0.17521307 0.2657906 0.2823254 -0.21224509 0.11817735 0.030726235 0.002317431 -0.098913565 0.078480564 -0.17830932 0.38478857 -0.23734662 0.06632955 0.17717186 0.14680792 0.176281 0.004060617 0.38027388 0.06003883 -0.067057565 -0.034701433 0.19160809 0.13152388 0.16936243 -0.090795495 -0.103986725 -0.016166596
mani -0.053247273 0.19110717 0.014838168 0.02825192 0.013311651 -0.24156475 0.13653515 0.28501263 -0.14434043 -0.26100394 0.09725197 0.0034487692 0.3450486 0.0025549866 0.22880717 0.036875416 0.2065891 -0.18792579 0.13593894 -0.27780136 0.13636072 0.06290215 0.18047188 -0.15234523 -0.009803093 -0.0068015726 -0.20311594 -0.024414496 0.029922497 0.14855887 0.14606023 -0.008145509 -0.0037837531 -0.19415876 -0.08492614 0.2872829 -0.072971545 -0.053023573 -0.017772024 -0.3266072 0.24758491 -0.08014933 0.11303367 0.029892866 0.13693032 -0.060651403 -0.08959668 -0.16633666 -0.018008593 -0.019968111 0.06839386 -0.09445812 -0.28542438 -0.098356575 0.0059535387 -0.00896886 0.07895434 -0.08005528 -0.13302602 -0.020466726 -0.014673492 -0.017085103 0.20861544 0.11257665 -0.11297179 0.28451136 0.091797374 0.21702118 -0.30002207 0.19129781 -0.041648693 0.24040784 0.11688805 0.14650944 0.30749342 0.082191445 -0.081253774 0.050575625 -0.13000433 0.030344605 -0.09460122 0.01792963 -0.11595517 0.4174187 -0.04302851 -0.119845524 0.26454565 0.09915317 0.08001214 0.037413802 0.30645174 0.057556838 -0.036998354 0.08975067 0.12494957 0.068038695 -0.06220318 0.07824903 -0.10169881 0.036948096
seli 0.09838635 0.10652882 0.13805404 0.019981619 -0.076227315 -0.227859 0.10165258 0.33543822 0.0008028208 -0.1635366 -0.2134268 -0.34831077 0.051613536 0.124710396 0.059056234 -0.10126321 -0.0059210253 -0.17997895 0.06301423 -0.3301474 0.11484134 0.22447953 -0.091514714 0.07075349 -0.031653166 0.15504621 -0.13543849 -0.0059118653 -0.1419383 0.041252155 -0.01658514 -0.017125072 -0.030198213 -0.1334783 -0.09307843 0.24187116 0.097812064 -0.2567835 -0.022719689 -0.0539859 0.011382095 -0.14022332 -0.09875956 -0.10280219 0.0819189 -0.13756199 -0.045341153 -0.105889864 -0.04837401 -0.017151343 0.2426391 -0.25492582 -0.060396954 0.066602014 0.004080055 0.19604646 0.10569634 0.043561276 -0.058300897 0.14132637 -0.006720761 -0.007834114 -0.044818755 0.10609853 0.10641759 0.3207834 0.0048922924 0.08040169 -0.059655935 0.117596924 0.02752662 0.19540383 0.11325082 -0.1936399 0.2646134 0.17164591 -0.09936616 0.13224702 0.09343693 -0.09515006 -0.1786487 0.05784964 -0.18941718 0.3013458 -0.21094571 0.13066345 0.22042567 0.11499814 0.24679358 -0.0109293405 0.32096353 0.0739062 -0.048274737 -0.053553335 0.15450959 0.101738855 0.09912973 -0.05913395 -0.0020754852 0.008921546
pakala 0.053913966 0.10650091 0.15374206 0.14610259 -0.14011216 -0.25389794 0.094235875 0.27199095 -0.087817624 -0.20545268 -0.16583197 -0.25144777 0.19835609 0.19245291 0.2829664 -0.059639405 0.15971018 -0.11437658 -0.04906926 -0.30205035 0.08812564 0.12220212 0.031873543 -0.04009682 0.04250571 0.12863328 -0.1643426 0.050292045 -0.060636528 0.15747984 0.019238276 -0.08623545 -0.020700239 -0.14725955 -0.14541948 0.17293479 0.053955805 -0.18801863 0.0098051485 -0.120466635 -0.05555631 -0.21569432 0.045568246 -0.03742092 0.06726849 -0.12738803 -0.043060023 -0.13948679 -0.026652414 -0.007224234 0.108700685 -0.12039968 -0.10593419 -0.14916539 -0.009061506 0.080692366 0.09844805 0.019765269 0.03345719 0.08618594 -0.057590026 -0.10456283 -0.010488714 0.12297099 -0.113549516 0.39393467 -0.027434435 0.1774208 -0.2117232 0.21495774 0.08224452 0.07991588 0.19887474 -0.038457055 0.20059843 0.15210141 -0.103126176 0.26498777 0.007315279 0.017131656 -0.16528428 0.0064939074 -0.08651656 0.283376 -0.01597594 0.08728149 0.17340097 0.02599857 0.22474626 -0.11507485 0.2006562 0.028038401 0.04242595 -0.12094273 0.12177644 0.093377545 0.06421111 -0.074219 0.033511855 -0.024140717
