276 100
li -0.051081203 0.16318907 0.039343726 0.13399333 -0.07482196 -0.23507696 0.055524193 0.32437405 -0.12973757 -0.21737818 0.04324895 -0.21141331 0.07592243 0.115628876 0.12766716 -0.014328313 0.19797991 -0.16926683 0.015629524 -0.35132787 0.16558152 0.14404482 0.21706562 -0.098450676 -0.0004585117 0.06947749 -0.27123004 0.07860778 -0.08255358 0.10110086 0.050122242 -0.119185306 0.02216558 -0.19904715 -0.13814656 0.22354789 0.061422575 -0.08732026 -0.023049446 -0.110610925 0.042508543 -0.09844798 -0.024233136 -0.050982695 0.007044995 -0.013084665 -0.11074693 -0.006559153 0.02862606 0.0928287 0.07607236 -0.118944176 -0.07290079 -0.06482269 0.034357954 0.06345528 0.17434636 -0.0078748455 -0.023637634 0.14326057 -0.07202509 0.01553191 0.0468024 0.054412898 -0.0757724 0.29521182 0.0013385566 0.2108555 -0.22783192 0.1239662 0.039215483 0.14652914 0.11497327 -0.038316168 0.2228817 0.0988827 -0.13625714 0.21439037 0.0026289807 -0.09370508 -0.17434146 0.07550701 -0.035412584 0.3489305 -0.08187716 0.035319123 0.18726316 -0.028502416 0.12024263 -0.021267073 0.2348315 0.066369236 -0.039416328 -0.06688746 0.21050546 0.18672219 -0.04605237 -0.08700125 -0.01969549 0.033207886
e -0.055656523 0.22181426 0.07285716 0.19779003 -0.023977326 -0.28702116 0.04827767 0.37303323 -0.10145989 -0.27621746 0.045148622 -0.19509336 0.13328698 0.13999003 0.23556027 0.095038846 0.28062528 -0.06665394 0.078736946 -0.22627197 0.10324966 -0.00567213 0.23702607 -0.203186 0.01464257 0.05274179 -0.24206418 -0.042989742 -0.009331109 0.27434364 0.1683643 -0.13099584 -0.0074928226 -0.26115975 -0.1787027 0.2472499 0.054149948 0.027692663 0.08690155 -0.16846877 0.21759985 -0.07883801 0.025165843 -0.078547336 -0.056593835 0.023811191 -0.049003057 -0.027192144 0.013210017 0.042497635 0.1789803 -0.15329982 -0.1449372 -0.19092014 0.051807042 0.11427842 0.2226837 0.0128191635 -0.029818121 0.09848286 -0.23596771 0.015656723 0.034156363 0.06925088 -0.08502116 0.36440876 0.011544438 0.14202625 -0.22016059 0.08558221 0.0061909845 0.08661777 0.13761951 0.069779366 0.31476712 0.0203296 -0.20666718 0.23895696 -0.007712912 -0.024375763 -0.17149118 0.057141747 0.05537353 0.33353785 0.014920964 -0.04962163 0.25601685 -0.031378414 0.18177727 -0.07446484 0.19114633 0.06790785 -0.047831014 -0.05562251 0.14180917 0.0663224 -0.09828344 -0.041866764 -0.0076844096 0.093879186
jan -0.119569175 0.123977445 0.16074757 0.118065804 -0.049179975 -0.13488038 -0.020142702 0.24105239 -0.2522917 -0.17209198 -0.12392487 -0.16515441 0.27418897 0.12884787 0.3730652 0.01668265 0.24984999 -0.082229204 -0.11816682 -0.32854283 0.059303723 0.08546071 0.1382605 -0.21522358 0.07471752 0.1294376 -0.22965711 0.1290232 0.014607118 0.14300475 0.0716193 -0.18350719 -0.08137763 -0.086143754 -0.23363519 0.16761215 0.054246314 -0.090436995 -0.09385323 -0.2048565 -0.068009555 -0.08466851 0.15411274 0.07828874 0.005513666 -0.055897888 -0.20850788 -0.17062722 -0.070318826 0.016467312 -0.024981262 -0.019060852 -0.22511889 -0.2631468 -0.07962168 -0.054940224 0.14260776 -0.10120943 0.039500028 -0.08077648 -0.045357708 -0.050475914 0.11327119 0.09199875 -0.28144106 0.40007412 0.0736095 0.29990295 -0.2929282 0.29199663 0.068285145 0.15663715 0.16782601 0.106028594 0.18744119 0.13783705 -0.006009128 0.27424714 -0.15588595 0.081129506 -0.2013893 -0.050198838 -0.14171879 0.39669022 -0.03222737 0.005598683 0.13972948 -0.010655266 0.098250136 -0.21113257 0.117211305 0.16617456 0.04749041 -0.092598505 0.24814314 0.2070031 0.0014282654 0.019172221 0.03184158 0.01089386
mi 0.008233307 0.16451956 -0.016531505 0.09843494 0.08261941 -0.31019303 0.049526982 0.37072837 -0.15744448 -0.17840284 0.041539315 -0.20910074 0.21610996 0.058737136 0.28359985 0.065927565 0.25720164 -0.21845244 0.092500485 -0.41769707 0.2652053 0.13907345 0.32817098 -0.18436751 -0.076618016 0.077089034 -0.1912421 0.065412916 -0.047187775 0.13160081 0.25265938 -0.10614275 0.14377007 -0.22491947 -0.06075172 0.2133416 0.027332136 -0.034026217 -0.100982346 -0.07993931 0.16920477 0.0012643279 0.056852683 0.12740548 0.029680446 0.015278484 -0.14313468 -0.042347927 -0.05207331 0.0034358865 0.18510383 -0.10777001 -0.19246703 -0.1450057 0.1444962 -0.013936152 0.15613173 0.09598249 -0.094217315 0.04105121 -0.18391114 0.024277847 0.12124434 0.12531367 0.02439652 0.30737147 0.00081093947 0.1875575 -0.2788142 -0.03050468 -0.041025 0.16852602 0.17844276 0.05219167 0.20681714 -0.060160384 0.013436436 0.117749006 -0.008492079 -0.13241233 -0.30032614 0.056106936 -0.05524984 0.28875297 -0.06426003 0.034825858 0.22743097 0.033038292 0.16590317 -0.018357355 0.21566077 0.10351045 -0.03499135 0.027595967 0.15364933 0.05476005 -0.0778527 0.06986898 0.085673645 -0.016923746
ni -0.04500096 0.1837671 -0.027655575 0.19890071 0.033442948 -0.22672355 -0.0069313287 0.32765812 -0.13751507 -0.15502107 -0.06709134 -0.20181821 0.1452338 0.15840247 0.3567663 0.026295256 0.14945452 -0.14194457 0.112161905 -0.37602794 0.22593641 0.06245562 0.28419545 -0.1420326 -0.02564813 0.019773519 -0.1639873 0.09566265 -0.129937 0.14499238 0.23757581 -0.10755803 0.17402582 -0.26164338 -0.08805238 0.15137172 -0.006389421 0.031297617 -0.07925441 -0.107513584 0.112799905 -0.05015476 -0.004428554 0.08365119 0.048983872 0.001491307 -0.1621369 -0.043861724 0.015327984 0.047666565 0.12639785 -0.017195018 -0.10172033 -0.23203473 0.12849185 -0.024452936 0.096491545 -0.004131155 -0.11015894 0.04873325 -0.12787619 0.020261679 -0.019339383 0.09676099 -0.09084085 0.31404164 -0.021395136 0.25163254 -0.29834005 0.16637605 -0.067897014 0.09970514 0.14993477 0.057945684 0.28553897 -0.067346096 -0.02926362 0.20877758 0.069406964 -0.13832724 -0.25714472 -0.018454827 -0.15538451 0.30254608 -0.06888645 0.019659469 0.27262345 -0.022312703 0.19376437 -0.10118222 0.22528659 -0.0063001825 0.00460125 -0.0004926027 0.010600298 0.06450277 -0.09914102 0.08061504 0.053955607 0.012248938
pi -0.14571622 0.14846 0.07837815 -0.010274326 -0.085735 -0.28901574 0.04225912 0.3780925 -0.110834844 -0.3273107 0.02460532 -0.22141449 0.1023559 0.009935332 0.051061187 -0.02948528 0.10023743 -0.1873452 0.05612709 -0.2961075 0.018948076 0.13114928 0.099747814 -0.011312051 0.0153522445 0.10380846 -0.2569262 -0.014881331 -0.0030790917 0.07073587 -0.019406576 -0.07374551 -0.056512687 -0.08291948 -0.19353174 0.31596583 0.0592948 -0.14496899 -0.049240828 -0.1922465 0.16581434 -0.09762513 -0.027780356 -0.1179798 -0.021956969 -0.14950992 -0.06850979 -0.12094847 -0.038448248 0.06412057 0.07682837 -0.20770137 -0.16111565 0.03399627 -0.09125523 0.052585647 0.19220188 -0.16330998 0.0010838641 -0.0025018775 0.028186848 -0.017063743 0.21657264 -0.009680137 -0.106622994 0.3043839 0.095281996 0.15324472 -0.22683248 0.12584563 0.10080189 0.23462813 0.12799674 0.07192412 0.22578636 0.25145015 -0.17521437 0.08714691 -0.09703935 0.111748956 -0.095610715 0.042666573 -0.021605901 0.3266391 -0.16591926 -0.0059286538 0.1302903 0.0904088 0.0147912735 -0.038472526 0.24602802 0.1979295 -0.033973936 0.018787282 0.23460738 0.18532182 -0.005786262 -0.059356418 -0.105429076 0.07039625
tawa -0.003335577 0.0020202522 0.12902667 0.11800441 -0.034838293 -0.15468696 0.07659838 0.16848134 -0.13281979 -0.24379675 -0.04994686 -0.23168199 0.1819789 0.12184729 0.16895866 0.020529026 0.2239727 -0.11505022 0.00010340757 -0.29890373 0.1336017 0.13010158 0.13186961 -0.06378836 0.06332797 0.1532585 -0.2297312 0.057027824 -0.033964273 0.16462907 0.06923173 -0.07246308 0.021192094 -0.12310173 -0.20316844 0.2525607 -0.0064901565 -0.13779366 -0.07100359 -0.1427419 0.05151027 -0.14080478 0.10891536 -0.019667912 0.039089225 -0.082107924 -0.12286913 -0.1809182 -0.080458514 0.033544727 0.11302654 -0.22059572 -0.22999711 -0.05001489 -0.06339265 -0.04162704 0.14184573 -0.010851696 -0.030139087 0.0324399 -0.105778 -0.07219947 0.11693616 0.11195269 -0.13548097 0.39348394 -0.018530153 0.1271706 -0.20100076 0.16426978 0.043245703 0.19908328 0.18386605 0.022746315 0.28603044 0.045649305 -0.1355378 0.17506641 -0.026594926 0.00041237898 -0.18402909 0.016741307 -0.08952957 0.32556745 -0.078244306 0.02522285 0.17580535 0.010687271 0.064021945 -0.09884889 0.2332729 0.115759775 -0.010120058 -0.07556516 0.13985604 0.14362523 0.056430615 -0.0902449 -0.027466387 0.09128912
ona 0.025927687 0.20774852 0.069269985 0.17782946 -0.11267026 -0.19853684 0.07506381 0.28386363 -0.09241762 -0.18017483 -0.06850587 -0.2004645 0.19024695 0.10962161 0.28731352 -0.07965323 0.11695473 -0.10730887 -0.010534162 -0.28369573 0.123941064 0.071538925 0.10955593 -0.12597768 -0.06827193 0.046982113 -0.14868674 0.024607275 -0.11418198 0.13961264 0.05606976 -0.08744325 0.053039093 -0.21550778 -0.10445561 0.12661162 -0.015222136 -0.093902506 0.00046407437 -0.111968204 0.06840302 -0.13465637 -0.042120885 -0.017266486 0.055809192 -0.06616333 -0.06328505 -0.1072977 0.022820408 0.052232604 0.08585912 -0.13893226 -0.0014398566 -0.1986337 0.07774494 0.15814671 0.078151345 0.021996845 -0.034546155 0.13048168 -0.030549506 -0.024346326 -0.10591798 0.10175534 -0.062481936 0.3737656 -0.037070066 0.27380085 -0.26622504 0.16705212 -0.012639762 0.08923744 0.20494273 -0.03625357 0.26691264 0.1291033 -0.10338857 0.2310688 0.044169787 -0.099224195 -0.19191192 0.03235575 -0.18671168 0.38275856 -0.036539257 -0.010829483 0.30697206 -0.017867422 0.28145823 -0.070441574 0.23564541 -0.043028776 -0.03516895 -0.06850789 0.100399524 0.11704214 -0.011854746 -0.020364108 0.04157613 -0.07267336
toki -0.1157082 0.31113917 -0.006144628 0.24168113 0.015022472 -0.22006278 0.058766786 0.25674528 -0.19741324 -0.1247161 0.07056527 -0.059182134 0.4234546 0.16553412 0.47914615 0.03493245 0.2093701 -0.17053257 0.009875954 -0.34285754 0.21977328 0.122703545 0.34182334 -0.31013015 -0.0063573886 0.023527024 -0.2351084 -0.0038544484 -0.016347645 0.14574277 0.34953764 -0.19040228 0.14260511 -0.17131124 -0.14697482 0.13972433 -0.13186027 0.14568268 -0.03748431 -0.31053606 0.13266733 0.10210611 0.10767866 -0.008635636 -0.106205404 0.043431938 -0.21316756 -0.092732124 -0.011940294 0.05475578 -0.04837374 -0.018283984 -0.2569077 -0.3554413 0.19665302 -0.052833956 0.101740025 0.0031268413 -0.005033811 -0.10340054 -0.14347827 -0.07711025 0.115064025 0.054910824 -0.26091298 0.32931805 -0.02514954 0.301498 -0.52147037 0.30212438 -0.10656436 0.1916959 0.23674719 0.18615833 0.21544428 -0.13516964 -0.045278355 0.11395736 -0.17985138 -0.047018774 -0.26123098 -0.07609021 -0.18874264 0.45572728 -0.034065053 -0.15775876 0.2065024 -0.11797823 0.09040388 -0.09912492 0.16343342 -0.0079471115 0.040875357 0.031389114 0.028109435 0.11792066 -0.10293299 0.21832761 0.094758056 -0.0067110495
la -0.03235643 0.13164306 -0.078446925 0.14264084 0.07599111 -0.29301894 -0.07919039 0.45523432 -0.08955597 -0.19822963 -0.052932832 -0.34445328 0.065141715 0.10633862 0.1968671 0.1791374 0.0842382 -0.34704348 0.29429945 -0.49762067 0.24385606 0.23899409 0.21600083 -0.13004707 -0.06915585 0.010406874 -0.26430932 0.10910978 -0.09231701 0.08111439 0.2593135 -0.09259415 0.19285451 -0.14311925 -0.24889874 0.22802131 0.050472938 -0.008238418 -0.06676108 -0.038084783 0.23043959 0.1420112 -0.10435608 0.03629801 0.008628373 0.0683227 -0.20715463 -0.021540988 0.022342466 0.12528211 0.22052908 -0.007675631 -0.13690533 -0.03684782 0.24959041 0.003316612 0.18322685 0.042025495 -0.05138952 0.08606021 -0.22770222 0.1204566 0.06380354 0.09714565 -0.00391943 0.24734262 -0.07100071 0.023862138 -0.19696258 -0.04639759 -0.07442854 0.14252347 0.051987465 -0.08872231 0.24286208 -0.18184966 0.10359564 0.03841405 0.053682998 -0.181356 -0.2518062 -0.02430009 -0.092109315 0.35444686 -0.14338693 0.005982576 0.15412505 0.084812015 0.27914372 0.0025094158 0.1255368 0.18252748 -0.032375157 0.17515886 0.19710246 -0.02203139 -0.24303155 0.15180118 0.19459409 0.12643847
pona 0.006280053 0.097593784 0.06456235 0.13606651 -0.015548305 -0.22661796 0.040675063 0.25974032 -0.14200859 -0.17753631 -0.050770845 -0.20990825 0.21492533 0.16072758 0.3801065 0.042793274 0.25809872 -0.075677484 -0.002893851 -0.34077573 0.20752218 0.06696963 0.25849643 -0.16556986 -0.026937706 0.10246486 -0.19681236 0.052836217 -0.007952024 0.20645323 0.23277171 -0.14355327 0.08821556 -0.18078236 -0.0906913 0.16000229 0.05813963 0.009540865 -0.03402572 -0.15201591 0.04549899 -0.052451663 0.083591215 0.045803614 -0.066729076 -0.01612627 -0.15444113 -0.033232164 -0.032420013 0.052394178 0.08646483 -0.1303822 -0.19121377 -0.23303166 0.104036465 -1.8314982e-05 0.15569222 0.06384957 -0.027770072 0.041917417 -0.21895292 -0.029102022 0.04461709 0.08398472 -0.12369939 0.38036844 -0.04245587 0.19361235 -0.34297606 0.1428598 0.047752853 0.13199021 0.23553406 0.07378934 0.24747847 -0.055645403 -0.03795663 0.21580477 -0.06530486 -0.046995636 -0.27635103 0.039243784 -0.07797433 0.3412961 -0.040552855 0.0144760385 0.20832494 0.008779342 0.17919861 -0.13210586 0.19050202 0.061085615 0.04780084 -0.03182398 0.068447724 0.08765606 0.0044640894 -0.011647904 0.11104992 0.01488971
ala 0.017855665 0.17901716 0.01058616 0.3132524 -0.04513913 -0.25417304 0.11332363 0.30090532 -0.0929856 -0.18412524 0.023142556 -0.15760596 0.19519317 0.14272937 0.30808577 0.017556842 0.22213222 -0.1833518 0.09638704 -0.27904597 0.22652477 0.06721665 0.25898367 -0.19766743 -0.024069097 -0.010902822 -0.20112614 0.03457016 -0.10773496 0.19417292 0.20737338 -0.08296675 0.12658723 -0.2591937 -0.13805486 0.18749002 -0.020959944 0.010321003 0.0175878 -0.12431718 0.1325507 -0.08730986 0.016834956 0.012657904 0.046298403 0.0090197325 -0.04446806 -0.022471195 0.01451998 0.052719645 0.1895801 -0.10869548 -0.06599746 -0.22552016 0.1258103 0.07202315 0.11997026 0.098912604 -0.08849918 0.116454974 -0.18831554 0.0023675272 -0.03922417 0.080614746 -0.051909257 0.3376385 -0.08837122 0.23711488 -0.28098178 0.075257264 -0.038376898 0.12353675 0.20881988 0.021450708 0.31050673 -0.020342048 -0.1530876 0.23991905 0.0814258 -0.17127894 -0.17895482 0.051731385 -0.06584342 0.3374776 0.028915089 -0.0053855157 0.29600847 -0.09926833 0.25912118 -0.0007790194 0.28345805 -0.039146405 -0.05554936 -0.060115 0.08884489 0.060020246 -0.13038911 0.028343953 0.074589506 -0.037473045
lon 0.036712274 0.10596192 0.07598289 -0.023201106 -0.032191698 -0.19548142 0.049593434 0.35774294 -0.012045693 -0.21982652 -0.10656217 -0.3071693 0.040690035 0.059293598 0.050355095 -0.06818727 0.029875329 -0.2301539 0.0980436 -0.3480494 0.108579114 0.17745298 0.05829668 0.040158734 -0.059041295 0.1405176 -0.18700665 0.008673576 -0.08548675 0.10975928 -0.012172686 -0.04695924 0.02183369 -0.1447408 -0.10896505 0.20958953 0.034882255 -0.20325017 -0.08591624 -0.033725966 0.091699846 -0.059121843 -0.08334428 -0.02966983 0.046247147 -0.12807022 -0.031353697 -0.09725935 -0.09026481 0.031129813 0.24200559 -0.25729316 -0.07774498 0.03854085 0.022672676 0.12885682 0.14327224 0.020797664 -0.091101885 0.12588923 -0.06864636 -0.016060011 0.03916277 0.16234444 0.07628728 0.30066037 0.07846328 0.11097047 -0.14905362 0.065600224 -0.0016037537 0.22840722 0.14661841 -0.13209678 0.20975807 0.14293057 -0.10962323 0.07533269 0.032786228 -0.08683272 -0.20775285 0.05822754 -0.094714686 0.33362222 -0.15237342 0.11456591 0.2472932 0.08567939 0.1773472 0.057547394 0.34245685 0.11105442 -0.06291937 -0.048295222 0.17998286 0.11198839 0.05005681 -0.0064928457 -0.021713411 0.044375505
mute -0.051928613 0.21643025 -0.004423275 0.044549827 0.0062459875 -0.26378807 0.077055804 0.31050602 -0.1485207 -0.25704893 0.09630725 -0.08177832 0.25291175 -0.023518734 0.19903351 0.052586213 0.19769125 -0.17837724 0.12318638 -0.3671831 0.16816641 0.14859864 0.23970522 -0.17217223 -0.0026753969 0.030380314 -0.249357 -0.0069250963 -0.030234521 0.102545686 0.17769523 -0.027943987 0.10799472 -0.17148049 -0.114683114 0.27195358 -0.09445732 -0.027805407 -0.10270617 -0.20117064 0.22925052 -0.030390326 0.063901626 0.011871333 0.08748128 -0.094229735 -0.12501997 -0.17823347 -0.054140452 0.024259482 0.07856786 -0.12457136 -0.25339317 -0.06836813 0.024075093 -0.05588342 0.077249534 -0.078329965 -0.09939518 -0.048994392 -0.017295761 -0.0083574345 0.21316238 0.07098032 -0.07133507 0.24690445 0.11004778 0.19995174 -0.27538857 0.1279459 -0.0828855 0.24906665 0.08615471 0.09761734 0.27235055 0.066222414 -0.079407945 0.025739476 -0.0892844 -0.010604733 -0.1257045 -0.0034563239 -0.10990929 0.4123679 -0.064669065 -0.0967533 0.18934852 0.0057636555 0.019688593 0.058330778 0.28063318 0.08304447 -0.01874537 0.042854592 0.10124051 0.05799792 -0.04070571 0.1343622 -0.08007569 0.0594455
kama -0.0023179266 0.08043734 0.11011886 0.08359676 0.07931268 -0.2562013 0.036491454 0.3206516 -0.14473061 -0.2308485 -0.043460496 -0.2512749 0.13948257 0.100547284 0.17397204 0.14308001 0.16978067 -0.23032711 0.13372736 -0.39138958 0.23575686 0.20219825 0.23161492 -0.12271387 -0.023959832 0.14145268 -0.20281753 0.055249393 -0.015692791 0.1438048 0.14381766 -0.084464766 0.06765405 -0.21650814 -0.15087827 0.20848227 0.05588969 -0.06699625 -0.102542706 -0.101281494 0.14497809 0.0011720272 0.05739503 0.14167571 0.08151273 -0.0031756118 -0.1726796 -0.12710941 -0.04454984 -0.014202678 0.19748794 -0.087038346 -0.18030009 -0.11156215 0.057794794 -0.055070367 0.1663926 0.019452015 -0.11268549 0.008419006 -0.21048132 -0.0147314975 0.109454 0.17550243 -0.023710506 0.3144479 -0.008743788 0.12839249 -0.12660067 0.043902587 -0.082215056 0.19876117 0.10310022 0.007309072 0.24039407 -0.058508143 0.013050792 0.09650206 0.014653428 -0.08722262 -0.24182194 0.018329823 -0.046900872 0.26625884 -0.066957004 0.046094745 0.18385977 0.075488575 0.11311807 -0.016894825 0.29892835 0.17782916 -0.04356873 0.033593696 0.19852228 0.09182116 -0.1124072 0.069318034 0.0076874974 0.09811668
ma -0.021460155 0.035169486 0.2111238 0.025735952 -0.110491544 -0.118294954 0.03631534 0.24571905 -0.19407468 -0.17053592 -0.2283891 -0.350786 0.01126961 0.07684042 0.05278574 -0.070738204 -0.021326419 -0.10486765 -0.06121182 -0.3815557 0.05292016 0.2824803 -0.053528834 0.08995246 -0.09989247 0.30527815 -0.22934571 0.15276895 -0.07338025 0.063233584 -0.14703454 -0.09090519 -0.026013978 0.018314863 -0.22002669 0.27219135 0.1860453 -0.28733632 -0.288225 0.092143536 -4.0903804e-05 -0.11899067 -0.029920846 0.111952476 0.08892445 -0.19574471 -0.15607677 -0.24995784 -0.11791343 -0.0680953 0.15854031 -0.2906103 0.0051213303 0.0769762 -0.2066269 0.08848788 0.1552273 -0.02744906 -0.0112655535 0.10646916 0.05724025 -0.068647966 0.037297875 0.1624536 0.03695066 0.30805454 0.10687786 0.18097425 -0.10988378 0.19741239 -0.09606898 0.31358185 0.1041252 -0.23506784 0.21988994 0.36737135 -0.08024807 0.22393408 0.0350234 -0.10741676 -0.19816269 0.07348116 -0.14633639 0.3605461 -0.27234596 0.21459045 0.09829434 0.08788667 0.119842656 0.02474835 0.36421475 0.22629982 -0.1539162 -0.15626054 0.2718383 0.18715523 0.23221579 -0.02990511 0.002882897 0.10251716
tenpo -0.0010114032 0.10788997 -0.030295197 -0.078940004 0.2520507 -0.3405473 -0.12063951 0.5276978 0.014484447 -0.15973929 -0.0069008367 -0.3377174 0.070492476 0.10885289 0.04496472 0.24418086 -0.0057101455 -0.46070564 0.28449032 -0.5360592 0.2523344 0.3225333 0.2663653 -0.1298969 -0.104573034 0.15667078 -0.13538739 -0.04620347 -0.0668228 0.031165188 0.26835608 -0.14649265 0.10408868 -0.20817848 -0.047123164 0.27158138 0.043340407 -0.1281193 -0.18893474 -0.21824376 0.20432001 0.12512863 -0.13935412 0.06971384 0.12181841 0.10677472 -0.2953332 -0.091754526 0.0153837465 0.042517614 0.18106802 -0.12108094 -0.22894353 0.05317936 0.23986116 0.011056538 0.19886327 -0.04516655 -0.203593 0.0037003853 -0.17059988 0.08523498 0.13433442 0.18066813 0.082275674 0.25230065 -0.067211464 0.10882148 -0.07275436 0.01383231 -0.031742755 0.23120825 0.05015932 0.04141457 0.15549326 -0.2849179 0.16261716 -0.23528878 0.016228003 -0.16935076 -0.31168193 -0.08915016 -0.20392919 0.24722064 -0.22342594 0.038571477 0.106770284 0.096029684 0.09302476 0.031608667 0.30466503 0.24295174 0.012562513 0.28950307 0.11183373 0.13705575 -0.26315364 0.17730449 -0.06324852 0.10435863
sina 0.018156692 0.16961446 0.04408568 0.18733305 0.03022437 -0.2698968 0.10298861 0.32760194 -0.09424095 -0.17164955 -0.03396378 -0.15374333 0.28624833 0.14904034 0.37223735 0.039364614 0.26928234 -0.18822521 0.12555495 -0.33345318 0.22634621 0.09614273 0.23648913 -0.20875074 0.013974615 -0.024531202 -0.18895867 0.045880254 -0.03968084 0.15238415 0.26151234 -0.091867544 0.0496162 -0.24481404 -0.08865248 0.1745292 -0.023097025 0.0028470287 0.08122444 -0.23506534 0.129553 -0.083425485 0.078841425 0.03039771 0.052376974 0.049709 -0.155191 -0.038995396 0.018561224 0.010106533 0.12831518 -0.0008345848 -0.20133504 -0.2714418 0.17786048 0.028596232 0.13781124 0.07207504 -0.07680378 0.061107926 -0.21529953 0.0029656726 0.031051522 0.094266355 -0.0892787 0.32028574 -0.05479553 0.2130466 -0.24651821 0.0761954 0.034203965 0.06657465 0.19068135 0.11363165 0.2630403 -0.11603494 0.0054795486 0.19416124 -0.026975602 -0.043719254 -0.23156019 0.0192905 -0.08892526 0.35847762 0.02455541 -0.0025754939 0.2899939 0.020079302 0.24887016 -0.111296594 0.20472583 0.029449804 0.0509216 0.003128855 0.107705 0.08192414 -0.1422142 0.055506505 0.09868838 -0.031917386
o 0.0022163568 0.041840013 0.1275027 0.16130045 -0.026519556 -0.22566298 0.06464562 0.24412006 -0.17136158 -0.16946106 -0.12852912 -0.21340357 0.24298425 0.21290492 0.37221622 -0.0005321769 0.30249083 -0.11804067 -0.009263779 -0.2945749 0.19067866 0.06936711 0.16539538 -0.14004542 0.056723002 0.11826177 -0.23259658 0.13455282 0.045113698 0.15070397 0.19363937 -0.13718238 -0.050315537 -0.1451197 -0.09688549 0.14014006 0.09603908 -0.065714754 0.056509763 -0.19446824 -0.04265619 -0.14742525 0.15467674 0.037203375 -0.057324924 0.02558271 -0.17180584 -0.00013814613 -0.0016848898 -0.0039673573 0.06978701 -0.054084327 -0.2132958 -0.21150604 0.057800263 0.03514004 0.17033377 0.070549116 0.03927829 0.071067095 -0.18958227 -0.019397551 0.056984015 0.10400116 -0.16369423 0.40605968 -0.03063753 0.18944363 -0.27473363 0.20058292 0.13322744 0.07416801 0.22516023 0.0685649 0.2128712 -0.027026897 -0.02276481 0.29374415 -0.07559801 0.020648751 -0.29539895 0.037275244 -0.09002871 0.3151206 -0.027002791 0.06917163 0.18427828 0.07801244 0.18389884 -0.23848593 0.14546019 0.07045332 0.05838571 -0.042764593 0.13514625 0.13635893 0.011021018 -0.0983742 0.103815444 0.014441089
sona -0.0075974357 0.19491039 0.0041801133 0.2694731 0.034935735 -0.2194402 0.05279588 0.277306 -0.15905704 -0.16332427 0.049912907 -0.14542735 0.29530728 0.1865707 0.41944215 0.13551857 0.32066154 -0.17298459 0.060054872 -0.37467384 0.24717435 0.118978776 0.36322048 -0.29433492 -0.03207166 0.024719553 -0.2576645 0.046770286 -0.014624255 0.2745833 0.35810483 -0.21559283 0.21886134 -0.26851285 -0.21817334 0.16979134 -0.04613587 0.10719851 -0.053423144 -0.2010273 0.1575237 0.08460114 0.12593964 0.12294452 -0.05181647 0.07299051 -0.25421923 -0.078921594 -0.010418176 0.0643067 0.074592985 -0.03883798 -0.24616028 -0.34854108 0.18519323 -0.051458944 0.17601237 0.08485788 -0.05607207 -0.024710547 -0.30739808 -0.027033482 0.06916881 0.08821777 -0.18175125 0.36989704 -0.08623815 0.23587574 -0.40421233 0.09156219 -0.08588804 0.14991418 0.21451409 0.10495741 0.24196142 -0.23343317 0.004025557 0.2186823 -0.07923272 -0.10777204 -0.31202433 -0.037625987 -0.06756849 0.37200668 0.04423441 -0.0466121 0.22796087 -0.094083324 0.17694513 -0.10558371 0.14744347 0.06750679 -0.009271311 0.0074111684 0.03260371 0.025329178 -0.18064448 0.1820817 0.17796907 0.074263245
suli -0.011649878 0.11692136 0.13878807 0.007758456 -0.11108517 -0.18358208 0.024072895 0.30078688 -0.0015251847 -0.19529177 -0.17081976 -0.3377517 0.06709838 0.06696147 0.08444688 -0.083004214 -0.060952116 -0.17814706 0.030255828 -0.35248637 0.026730953 0.21372499 -0.10053855 0.064729944 -0.024082856 0.15163541 -0.17252946 0.013893553 -0.09069151 -0.00152858 -0.0796603 -0.05550018 -0.04286086 -0.03435073 -0.17706946 0.23774399 0.08463589 -0.22712202 -0.07027988 -0.09780972 0.049267724 -0.14059551 -0.1458485 -0.11122967 0.044022072 -0.20991062 -0.08372438 -0.17555979 -0.039957803 0.03559794 0.10549857 -0.261149 -0.0399128 0.051219083 -0.04929334 0.19560325 0.13906528 -0.090775445 -0.024571797 0.09971564 0.04240183 -0.010734677 0.0143100815 0.051138032 -0.026322199 0.35641277 0.014555623 0.11705747 -0.102365606 0.18111952 0.07897749 0.18755825 0.1119854 -0.11488512 0.23888186 0.24190614 -0.10706685 0.096016966 0.0204913 0.0013246118 -0.16009277 -0.003040154 -0.17817877 0.3542241 -0.24114056 0.115037665 0.19411823 0.083673954 0.16014694 -0.0481901 0.24686858 0.13508362 -0.029936405 -0.035150547 0.18043046 0.15195477 0.08656237 -0.055862967 -0.08972164 0.04448513
jo 0.056928277 0.24927512 0.07017808 0.09262422 -0.050750896 -0.25381443 0.10295672 0.39363083 -0.08012259 -0.20583217 0.021864332 -0.1490869 0.28732508 0.060367197 0.13816969 -0.023973072 0.1174207 -0.3096003 0.20302975 -0.2516359 0.14762068 0.12671736 0.12574604 -0.0701165 -0.03438889 0.039031215 -0.18184464 -0.054726433 -0.037400365 0.12741709 0.08666134 -0.02806906 0.048325017 -0.23305985 -0.11352815 0.2213 -0.067966245 -0.18599768 -0.027022934 -0.18215634 0.17453086 -0.024459269 0.022928901 0.05848351 0.13192202 -0.045291916 -0.04152348 -0.15467373 -0.06906775 -0.038488086 0.21347511 -0.08873941 -0.23911221 -0.07717208 0.07179866 0.037155047 0.068839826 -0.030571079 -0.15669456 -0.012242526 -0.09376667 0.031039821 0.035463467 0.18019778 0.03381984 0.3022787 0.052667864 0.17757568 -0.16370866 0.0434566 -0.07508505 0.2558749 0.07275377 -0.039196 0.24727301 0.068637654 -0.06652798 0.08007118 0.0563698 -0.025862223 -0.1419785 -0.018890783 -0.06681061 0.33161023 -0.026490964 0.002348913 0.2792293 0.046182383 0.1787709 0.10567854 0.31760225 0.012772188 -0.08859473 0.014330211 0.119252175 0.04165199 -0.12278639 0.13246709 -0.036378145 -0.0022927388
lili -0.0055979798 0.22881344 0.03532192 0.055732764 -0.05403109 -0.2838772 0.09635258 0.36956328 -0.052928016 -0.20573488 -0.052799627 -0.21508974 0.19136341 0.053297177 0.15495601 -0.05487405 0.03848453 -0.2120226 0.15230937 -0.290755 0.11308858 0.1267103 0.061750118 -0.015718646 -0.027263707 0.0768949 -0.1642406 -0.033062644 -0.07176999 0.03665942 0.06495837 -0.010777404 0.037738774 -0.13391642 -0.074390404 0.22651407 0.0066078785 -0.13757837 -0.020045504 -0.1194857 0.16413982 -0.069906384 -0.06943184 -0.103698425 0.018769035 -0.10079567 0.0021077148 -0.07157267 -0.059780587 0.0030468514 0.16442543 -0.16616467 -0.1431493 0.01210597 0.084871575 0.1373796 0.09435254 -0.0177226 -0.08916521 0.07915972 -0.028706886 -0.008604273 0.038822424 0.11059018 0.05715508 0.29583058 0.04180946 0.0932251 -0.2176765 0.1168225 -0.035002448 0.19810662 0.14971286 -0.042076305 0.23408459 0.15214728 -0.12372232 0.05965526 0.024289975 -0.01985322 -0.15517944 0.05749355 -0.11067066 0.31707394 -0.16286156 0.029088976 0.2499023 0.09162075 0.17886211 0.018058755 0.2704892 0.024119882 -0.048776872 0.02409933 0.11562591 0.058577552 -0.0062982 0.012948048 -0.023493307 0.0039041822
tomo -0.020646164 0.07202719 0.16856639 0.008165769 -0.06341761 -0.20224127 0.08744794 0.2526197 -0.1615787 -0.24163695 -0.077355996 -0.20230946 0.17935388 0.031894848 0.1223252 -0.0017520963 0.12747204 -0.18703552 0.07849609 -0.32299662 0.13837323 0.19557025 0.07629848 -0.052006748 -0.050261192 0.19432479 -0.20322748 0.049294826 -0.012735307 0.09011033 0.0036680866 -0.018091608 -0.07022977 -0.09181845 -0.14503653 0.21850204 0.07091382 -0.18562038 -0.11812282 -0.07336866 0.103582814 -0.08403475 0.07979743 0.028087394 0.09590883 -0.13598698 -0.058748398 -0.17930675 -0.08692605 -0.0496845 0.15320383 -0.19238181 -0.14643107 0.013485868 -0.093069166 0.020189354 0.10167581 -0.0120701175 -0.076359645 0.0070108334 -0.026288124 -0.044961963 0.122040376 0.1771169 0.007135582 0.30153063 0.09368002 0.118145466 -0.12455351 0.1486268 -0.06378175 0.28888822 0.095811985 -0.07922352 0.23324843 0.22130057 -0.08359046 0.11359668 -0.0041569644 -0.016868023 -0.11753616 0.046234597 -0.09235347 0.35549968 -0.12288159 0.04051718 0.13208498 0.10561958 0.05196746 0.06903132 0.3537925 0.1333089 -0.091742106 -0.058668107 0.23127496 0.12755762 0.0968094 -0.0019673624 -0.0527488 0.065187566
telo 0.14045562 0.16479027 0.14207125 -0.00026636198 -0.20807037 -0.273846 0.2152883 0.3437963 -0.051553167 -0.19784789 -0.2883974 -0.36887917 0.09555589 0.11758232 0.09316168 -0.1560075 -0.002529572 -0.15810904 0.0344616 -0.30696115 0.09571156 0.18595986 -0.12840185 0.1385978 -0.0550973 0.15732327 -0.08369599 -0.036810074 -0.13209344 0.013015038 -0.008306887 0.045822684 -0.023436772 -0.11062514 -0.028441027 0.19332092 0.15459627 -0.3265715 0.041868933 -0.020682175 -0.058178432 -0.2095559 -0.1312121 -0.11199536 0.1329879 -0.136865 0.117510006 -0.092104375 -0.061735045 -0.045314286 0.27541578 -0.23315388 -0.03937284 0.06480298 0.042571075 0.32726252 0.114129834 0.076202646 -0.06741211 0.24508157 0.049244743 -0.024013128 -0.15157013 0.24906643 0.18201631 0.41466403 -0.033326957 0.053186405 -0.06277595 0.17443383 -0.007247827 0.17536117 0.20686045 -0.25892237 0.26494542 0.29120773 -0.12935396 0.19450954 0.16649698 -0.06049088 -0.11900992 0.061199844 -0.17364454 0.33636332 -0.16347884 0.12880349 0.30444428 0.18152426 0.3401663 -0.004613603 0.34074125 -0.028039023 -0.025988758 -0.10236235 0.17404571 0.036138356 0.16274682 -0.1555285 0.050759703 -0.074474655
ike 0.08853836 0.11939982 0.0976981 0.19759475 -0.037413903 -0.21920818 0.038642924 0.24361165 -0.04724068 -0.13786642 -0.12072162 -0.23803684 0.15363526 0.19246992 0.35790756 0.033985164 0.2615406 -0.055726945 -0.010478282 -0.31871468 0.1624635 0.06307991 0.12887901 -0.17050214 0.0023975195 0.055607036 -0.19266565 0.0808601 -0.049514126 0.19234553 0.19062978 -0.18182047 0.059139397 -0.22567533 -0.12128795 0.15921059 0.086438395 -0.0730423 0.065077595 -0.19672514 -0.022118863 -0.187799 0.06629681 -0.0459361 -0.009537678 -0.007099799 -0.17040226 -0.037405197 0.013076657 0.0569295 0.07814127 -0.10291514 -0.1382129 -0.2267808 0.119024925 0.109649725 0.14119439 0.09343389 -0.041627843 0.15471394 -0.1813931 -0.018076273 -0.09828819 0.06454232 -0.10277334 0.42825434 -0.08201753 0.17576078 -0.27002725 0.14322871 0.07842201 -0.022714151 0.23747355 0.037322562 0.25935113 -0.067362584 -0.067309745 0.29845595 0.013925952 -0.055928145 -0.2633652 0.057776775 -0.14209208 0.34829563 -0.041099273 0.09099326 0.25139847 0.007987769 0.2999469 -0.24021587 0.09726782 -0.016291957 0.07562997 -0.0741706 0.0067245276 0.080714 -0.06235718 -0.044776294 0.10917729 0.004558178
pali -0.10567328 0.16317129 0.06788755 0.18114631 -0.057300385 -0.20568062 0.16796276 0.28334758 -0.11937575 -0.26009426 0.03858458 -0.027345449 0.37706688 0.020347286 0.20926963 0.0017516498 0.20059492 -0.24141687 0.11054032 -0.27530935 0.10845549 0.11401461 0.13251083 -0.21889377 0.067385174 -0.029358758 -0.24077995 -0.00064767955 -0.047059134 0.09643673 0.081764214 0.0037072336 -0.009417446 -0.115145825 -0.1800402 0.28111586 -0.14368176 -0.07388502 0.018811459 -0.32082793 0.17086703 -0.10163356 0.07719732 -0.059177894 0.14217387 -0.104610346 -0.07459973 -0.21501017 -0.003884008 0.01574909 0.01494092 -0.048911154 -0.26385334 -0.16733524 -0.00050162757 -0.036899317 0.031191777 -0.12159418 -0.052827805 -0.08074648 -0.01860997 -0.049370617 0.18493897 0.008573121 -0.21158479 0.28859127 0.011128247 0.24210465 -0.26170045 0.1700294 0.05184374 0.22078957 0.14614516 0.15673971 0.29783025 0.042433396 -0.109462544 0.07335838 -0.08064043 0.075685866 -0.04633393 -0.027999245 -0.12803571 0.43552485 -0.013051952 -0.116221786 0.23319142 -0.013230484 0.05989589 -0.029719882 0.25533324 0.058250986 0.03406464 0.025930291 0.14569499 0.103537515 -0.10992325 0.10493247 -0.064934075 -0.004759535
tan 0.032435816 0.108277164 0.05559657 0.118990354 0.00049799745 -0.1554086 0.049444355 0.22161603 -0.055029087 -0.14726837 -0.036164187 -0.30420744 0.03841485 0.15614793 0.17751114 -0.015321713 0.19144915 -0.15055263 -0.04765258 -0.36014792 0.121562675 0.17606777 0.18536225 -0.09957703 -0.052989762 0.11768348 -0.23488523 0.052259445 -0.10322024 0.16292779 0.12326245 -0.19831166 0.058197264 -0.20998752 -0.16096932 0.16370006 0.05996248 -0.050683413 -0.053646687 -0.08268886 0.029982945 -0.10110708 -0.02914724 -0.0317656 -0.029907474 -0.019439874 -0.18917201 -0.022223944 -0.009747551 0.08918507 0.11609647 -0.25342202 -0.04322069 -0.09325604 0.05212421 0.11327531 0.2299576 0.07609807 -0.048985302 0.1615829 -0.16022573 -0.037695274 0.0045571765 0.08398407 -0.05858411 0.36268774 -0.036513574 0.19258319 -0.24525401 0.10946165 0.030177897 0.15293096 0.22804996 -0.0629315 0.19458602 -0.007389251 -0.12551692 0.22100005 0.0204784 -0.16617307 -0.26939604 0.06020449 -0.09546666 0.34702724 -0.09209618 0.09833036 0.19234113 -0.045093417 0.21372515 -0.07049146 0.2551952 0.10088867 -0.05631126 -0.10701218 0.12106316 0.18657605 0.029879473 -0.05352105 0.025338132 0.043042704
pilin 0.12086897 0.079212 0.01773548 0.2554457 -0.011432059 -0.2296855 0.0684893 0.20468843 -0.032087196 -0.104672134 -0.09184798 -0.24441297 0.24882899 0.26652983 0.44052938 0.05447599 0.2987595 -0.12700538 0.045488346 -0.33423537 0.3078345 0.05805284 0.2437144 -0.17111182 0.04877028 0.00067560567 -0.19321063 0.108419314 -0.051989973 0.17624566 0.35278586 -0.17419463 0.20251943 -0.26439467 -0.12994538 0.109836504 0.024486134 0.0023169683 0.041043825 -0.20683202 -0.032809217 -0.11474731 0.080117345 -0.037311412 -0.03642013 0.07406632 -0.18522637 0.015669208 -0.0026842179 0.13243079 0.10150078 -0.05147786 -0.21483237 -0.26505652 0.20525229 0.054595225 0.14363907 0.14281559 -0.07803326 0.1560473 -0.24135083 -0.05222202 -0.09764256 0.066329174 -0.16582063 0.43074608 -0.14674015 0.15702435 -0.31114897 0.21155584 0.063085616 -0.05749252 0.32334587 0.09310007 0.26673073 -0.21595904 -0.034969017 0.24846464 -0.044807255 -0.048439942 -0.3501395 0.026401987 -0.1957481 0.32012618 -0.019349221 0.018725678 0.2750747 -0.035747956 0.2932304 -0.27285525 0.12051568 -0.04385906 0.08928737 -0.06279233 -0.07773752 0.0785633 -0.080784105 -0.052676387 0.16134882 -0.012787168
sewi -0.12931652 -0.22457446 0.06723848 -0.018837359 0.046284836 -0.12635274 -0.12361307 0.06262708 -0.3821819 -0.08942026 -0.26094386 -0.3026543 0.28875196 0.35334358 0.36425132 -0.2298841 0.30195925 -0.26938865 -0.21836452 -0.44019622 0.20247059 0.0880699 0.08581387 -0.05400596 0.14871752 0.32189354 -0.14892194 0.30422723 0.013294886 0.068179876 0.06443151 -0.08137407 -0.16894558 -0.09316846 -0.01272843 0.0354364 0.09028587 -0.19878525 -0.090866864 9.096268e-05 -0.27221304 -0.17037834 0.26705527 0.118002675 -0.17463523 -0.037329867 -0.28360316 0.11497522 -0.16445842 -0.031107608 0.14008054 -0.13769908 -0.25983152 -0.06402875 -0.05441837 -0.11000181 0.25100636 0.056493957 0.1089899 0.0028483658 -0.045264594 -0.1567288 0.11271939 0.2675246 -0.14477523 0.52106005 0.04928797 0.19167964 -0.45359576 0.37752068 0.18556309 0.28901052 0.28416896 -0.06354982 0.10964872 0.00291911 0.012110025 0.38674518 -0.06514548 0.0061088093 -0.4640402 0.048763588 -0.291303 0.2586465 -0.15403876 0.2526052 0.061932076 0.17999575 0.11774249 -0.19407238 0.2873103 0.2459049 -0.009783592 -0.014268913 0.22991955 0.3248889 0.21507359 -0.29110652 0.026614549 0.021404728
soweli 0.024386032 0.22873667 0.10221728 0.07651882 -0.16021045 -0.22271048 0.15158175 0.36455858 0.03193703 -0.19283393 -0.13401549 -0.2774084 0.11274956 0.05926777 0.08862842 -0.11947832 0.00609897 -0.21257852 0.11632608 -0.23764703 0.043084588 0.09521557 -0.045845352 0.01505413 -0.053599842 0.05876781 -0.12994155 -0.09808622 -0.123665586 0.036329243 -0.033116464 -0.035919316 -0.043013953 -0.15075442 -0.11129798 0.17991023 0.041713428 -0.20075542 0.05162128 -0.13072298 0.04482475 -0.18961856 -0.13181056 -0.12778582 0.09495641 -0.096813045 0.059964243 -0.09471251 0.009936279 0.021965621 0.14189187 -0.16381758 -0.0273629 -0.002897975 0.015431138 0.26918554 0.112529784 -0.060995378 -0.08930292 0.16894928 0.012861362 0.011946492 -0.10116689 0.113345616 0.030001828 0.3252411 -0.026292868 0.15039526 -0.08745123 0.120284036 0.035476226 0.11077113 0.14885707 -0.09894693 0.2836556 0.23534638 -0.17948937 0.15322742 0.095427096 -0.041162558 -0.08828086 0.023213774 -0.14615394 0.35019225 -0.124585085 0.028390579 0.3105499 0.064038806 0.28122452 -0.035169553 0.2747156 -0.0099847 -0.042262934 -0.04241512 0.1718943 0.12594889 -0.0064123543 -0.074937135 -0.064687096 -0.054356925
wile -0.0027058525 0.08259698 0.12491082 0.22789098 -0.028742597 -0.20794421 0.055644915 0.23833686 -0.13956927 -0.20127603 -0.023174617 -0.22081788 0.18689391 0.16963764 0.24504831 0.09141969 0.26573882 -0.17824909 0.034847975 -0.2910422 0.19450992 0.13493797 0.260184 -0.18779013 0.035675827 0.114068165 -0.23242036 0.05745529 -0.049948115 0.24453542 0.15151802 -0.11243346 0.068537906 -0.2703054 -0.18234889 0.20796268 0.027737703 -0.050505277 -0.04234039 -0.1356042 0.053556085 -0.096620925 0.093913555 0.1049721 0.0763239 0.0077343304 -0.13779971 -0.096026175 -0.0192582 -0.012969099 0.16731557 -0.08389859 -0.13575397 -0.22247428 0.022199286 -0.0042991843 0.14826943 0.045941137 -0.081571124 0.056262754 -0.21484838 -0.006178051 0.024555951 0.15752377 -0.08126384 0.36960864 -0.054202676 0.22058211 -0.15435761 0.09652312 -0.018929403 0.15276961 0.14271864 0.018905519 0.26862022 -0.023164239 -0.094138145 0.22647843 0.060575124 -0.085393876 -0.19227473 -0.023063518 -0.011250784 0.27467555 0.02373096 0.03613634 0.21407953 -0.06329034 0.1533486 -0.031527698 0.2621896 0.08963673 -0.05629823 -0.11741645 0.15792449 0.0991413 -0.11018812 0.02145391 0.034281693 0.03432595
ken 0.06418928 0.12977907 -0.03384158 0.19276911 0.009170174 -0.25763476 0.06412902 0.32336348 -0.008309173 -0.18320696 0.03803425 -0.18916373 0.15563612 0.1488104 0.2677236 0.018641256 0.20804003 -0.1656355 0.104950234 -0.33857334 0.22983676 0.09361196 0.24378349 -0.16486852 0.0047988473 0.01574403 -0.19111094 0.039741613 -0.11196019 0.20222378 0.21270885 -0.10407587 0.16227485 -0.28814027 -0.076650545 0.19968328 -0.01655867 -0.027123308 0.02175079 -0.13065305 0.14020911 -0.1143323 -0.011490798 -0.039028034 0.044474017 -0.02644239 -0.086868145 -0.028454106 -0.006807027 0.07260264 0.17983961 -0.17664133 -0.10462468 -0.15093806 0.1654618 0.0757201 0.1538594 0.12599851 -0.13172425 0.16236877 -0.19031535 -4.538044e-06 -0.0067177853 0.08132296 -0.016012348 0.33250594 -0.036352277 0.19843379 -0.27614856 0.078139074 0.002682323 0.09742383 0.22106715 0.007883982 0.2824363 -0.09701217 -0.123104334 0.16486913 0.034033727 -0.15574653 -0.23141386 0.042675544 -0.08707961 0.3281959 -0.017191416 0.044023648 0.28053316 -0.061026443 0.23350723 0.012794284 0.26086622 -0.021795923 0.0012104659 -0.054533508 0.014118457 0.074827425 -0.05464202 0.024105715 0.051961306 -0.0025630316
moku 0.14573823 0.2137107 0.08197007 0.12185763 -0.17144991 -0.25435007 0.2305573 0.37597153 0.012116366 -0.23908107 -0.16143173 -0.27136344 0.0663243 0.12418449 0.072556615 -0.10428468 0.06367129 -0.20239137 0.15390038 -0.18802194 0.084351934 0.104803726 -0.0025754233 0.0874707 -0.005683496 0.05386289 -0.08373086 -0.08426374 -0.16645128 0.1298342 0.0056079687 -0.004815078 0.015616486 -0.2523799 -0.07896509 0.22487742 0.03123353 -0.22310917 0.08113111 -0.08432718 0.0040593967 -0.19385624 -0.11246218 -0.08562422 0.21085624 -0.060585335 0.11046658 -0.0632085 -0.06228587 -0.036679152 0.28871986 -0.15765384 -0.08331145 -0.028106313 0.040857032 0.25217426 0.065578654 0.029312998 -0.16144677 0.1918824 -0.07638961 0.0013035686 -0.16822723 0.22473425 0.1597439 0.34352627 -0.034776293 0.116703965 -0.01997878 0.069143735 -0.015225718 0.14331642 0.121288314 -0.17894478 0.3341096 0.19881673 -0.23328058 0.19961706 0.22646889 -0.10697325 -0.05990629 0.042168297 -0.046457026 0.28239605 -0.0321535 0.105468854 0.3864399 0.058790155 0.33602518 0.047618493 0.34930193 -0.10200108 -0.055384614 -0.12168733 0.099277355 0.046295784 0.00090899336 -0.09784294 -0.0025925736 -0.053354725
kepeken -0.12744957 0.25556752 0.047556024 0.14225355 -0.08355065 -0.26713502 0.118654415 0.36287975 -0.03312317 -0.28595203 0.08999235 -0.018534942 0.36001062 0.04948409 0.20137869 -0.026881386 0.15361135 -0.14994937 0.10718254 -0.20402008 0.05705309 0.097231284 0.11397718 -0.17947932 0.06514295 -0.056257244 -0.18912558 -0.13766508 -0.05891912 0.0982064 0.07747487 -0.008060837 -0.056268983 -0.18082152 -0.16129811 0.28411007 -0.1563268 -0.055062152 0.13829245 -0.3691052 0.27052727 -0.07138167 0.01938636 -0.21816142 0.070802756 -0.083377756 -0.023911307 -0.18884657 0.029213628 0.03246601 -0.021267012 -0.12872383 -0.22887465 -0.19935773 0.083012596 0.06432435 0.08155667 -0.104533285 -0.005965486 -0.082382604 -0.00042141913 -0.03664714 0.18650734 -0.021722902 -0.19559443 0.2926428 -0.013837261 0.26402345 -0.2820956 0.16838779 0.1139398 0.2189029 0.16945824 0.19668978 0.33565488 0.09385917 -0.19396934 0.036830336 -0.12513393 0.09444383 0.0017125234 -0.055578206 -0.09707462 0.48486015 -0.013786194 -0.16984579 0.28094533 -0.024198422 0.05547383 -0.0039140503 0.25815663 0.033423178 0.06565003 0.051445726 0.14480714 0.15125863 -0.13164598 0.082610704 -0.11558436 -0.012195417
pana 0.029900165 0.15086783 0.116357565 0.13446744 -0.062326666 -0.2654945 0.08053917 0.31995583 -0.041748278 -0.16672355 -0.11666054 -0.21446535 0.22705342 0.17293282 0.30215454 0.031331673 0.11041495 -0.17051646 0.15810704 -0.26235616 0.17630155 0.14308363 0.121302165 -0.081595674 -0.013654969 0.026197188 -0.13459058 0.028106488 -0.04163806 0.099905424 0.20669799 -0.083940685 -0.011108595 -0.20318088 -0.08011185 0.11839331 0.030665122 -0.09570563 0.07673857 -0.24880026 0.03614964 -0.05813441 -0.028303409 -0.034116372 0.060069773 0.034471177 -0.11038501 -0.072873525 0.04195385 -0.018849807 0.112238005 0.0017796796 -0.17933941 -0.22917591 0.17784066 0.10795261 0.124216 0.025222318 -0.078492545 0.0382689 -0.18921714 0.021656057 -0.021928204 0.110663325 -0.085301936 0.329266 -0.098832 0.13520682 -0.14806768 0.14108635 0.039332718 0.07432795 0.14465533 0.021969266 0.2481764 -0.060590476 0.021280218 0.13435838 -0.016853577 -0.0005916752 -0.2031401 -0.04558048 -0.108828865 0.3515852 -0.0766113 -0.011426498 0.24303237 0.07026336 0.26014078 -0.11978201 0.19109398 0.019210795 0.066971146 0.03357645 0.10474704 0.064641304 -0.12737428 0.041446093 0.04587731 -0.008477783
sama -0.018852856 0.20274511 0.03198741 0.05064596 -0.06254544 -0.24057993 0.06925125 0.3234956 -0.020919496 -0.2069127 -0.043184653 -0.22144862 0.18318594 0.08963228 0.17237519 -0.069255695 0.07593858 -0.15669845 0.07358441 -0.27520898 0.06788553 0.06652147 0.019801922 -0.076738246 0.0066376394 0.057707272 -0.16323026 -0.041514885 -0.07533837 0.03205786 0.03724953 -0.06316769 0.028466 -0.13599119 -0.10436773 0.23051478 -0.010045907 -0.11242846 0.017691048 -0.20070279 0.084889196 -0.11689631 -0.021117995 -0.16559228 0.0144886235 -0.10448005 -0.042784248 -0.06716039 -0.019260395 0.08357072 0.06640018 -0.15957564 -0.16353804 -0.037756734 0.058123585 0.12057458 0.10957116 -0.053914785 -0.020119026 0.061762773 0.009550327 -0.025697257 0.013476448 0.025499586 -0.061982013 0.32271588 0.030361777 0.17149116 -0.25670263 0.20601282 0.08635718 0.12647448 0.19695988 0.056956686 0.28582296 0.12335784 -0.14883055 0.08482658 -0.016754314 0.032106966 -0.15731296 0.029313207 -0.1895558 0.34234828 -0.13492216 -0.0055473186 0.23777094 0.058943525 0.16751471 -0.07988755 0.20496613 0.028915811 0.02075998 0.028273972 0.07078949 0.14912774 0.0120858755 -0.02147283 -0.052598238 -0.012814727
lawa -0.018514337 0.0863372 0.2017514 0.12978345 -0.12980212 -0.15783374 0.10936047 0.2102473 -0.23971805 -0.25826904 -0.07398179 -0.15115392 0.20432228 0.113868326 0.26125035 0.010038723 0.24493003 -0.05135073 -0.12871808 -0.29278314 0.09155998 0.099523194 0.16671981 -0.13713731 0.03479277 0.16785052 -0.28108564 0.06308138 -0.004317699 0.22355753 0.0049755718 -0.11800677 0.04880568 -0.1876746 -0.21085809 0.22439696 0.028377123 -0.13592868 -0.13573167 -0.16796465 -0.049940936 -0.15544312 0.16154404 0.11423525 0.06032044 -0.1437106 -0.09618522 -0.21739395 -0.05157626 0.021265134 0.023414465 -0.112252526 -0.17816988 -0.19776636 -0.14117834 -0.0609542 0.085063785 -0.08297011 0.001836196 -0.015744055 -0.04033918 -0.083989024 0.073800184 0.11644402 -0.22824231 0.41469076 0.038487308 0.25096425 -0.28740165 0.2636067 -0.026815668 0.1833954 0.16908418 0.03400915 0.24694425 0.17755648 -0.14083983 0.32611272 -0.07778681 0.08531359 -0.15809606 0.055425145 -0.102879345 0.3312713 -0.02993885 0.015005719 0.18593897 0.007858996 0.03321212 -0.15057488 0.21412545 0.09065496 0.012822805 -0.1568503 0.16967008 0.12908465 0.053604614 -0.033280008 -0.023796909 0.025382824
taso -0.026913684 0.22669524 -0.078770444 0.16706069 0.025929667 -0.26522714 0.06557407 0.3697212 -0.04149205 -0.20491941 0.085645646 -0.16168536 0.17560123 0.09041955 0.19758874 0.010415988 0.13030942 -0.22447108 0.17619719 -0.31624803 0.2006939 0.103899136 0.2455116 -0.17689815 -0.012938034 -0.02635324 -0.19396934 -0.03664979 -0.099582724 0.15455271 0.19961797 -0.07290289 0.14046878 -0.25366792 -0.12372502 0.22871053 -0.073431686 0.029276237 0.011422656 -0.16488202 0.24153684 0.0048503852 -0.042223882 -0.059176706 0.03852565 0.0065388186 -0.09212156 -0.054602254 0.018626621 0.06461017 0.16782685 -0.12115725 -0.116915874 -0.13844793 0.15708981 0.070887804 0.13659412 0.030243263 -0.12954974 0.076684795 -0.1410823 0.011145917 0.053267173 0.05938906 -0.026967192 0.2668633 -0.009048562 0.18913817 -0.2882315 0.06562916 -0.06782457 0.17297263 0.15680104 0.04249497 0.27197614 -0.055155516 -0.108776055 0.085950345 0.015598819 -0.13067755 -0.17614304 0.004388924 -0.07567405 0.35904047 -0.048440248 -0.050729368 0.28607997 -0.058760233 0.1933311 0.07406329 0.26794824 0.016449805 -0.05873379 0.042933557 0.06271808 0.081122704 -0.15355802 0.09236252 -0.00783103 0.02659678
wawa -0.012847832 0.16322874 0.12029098 0.06992221 -0.1477257 -0.18136823 0.06318304 0.20461024 -0.11947848 -0.22193083 -0.08738831 -0.22886686 0.15254575 0.08361336 0.20855267 -0.100172356 0.14370035 -0.10944055 -0.028517101 -0.2495507 0.07782866 0.10841147 0.037398588 -0.063643984 0.0019758795 0.098120905 -0.20186158 0.01618078 -0.04927144 0.06159352 -0.03488 -0.086193755 -0.04310962 -0.1010974 -0.13024059 0.1909692 0.010853704 -0.15802954 -0.004537546 -0.1698332 -0.02119559 -0.20082997 0.016739318 -0.08601675 0.04278485 -0.10889329 -0.040712837 -0.14943233 -0.021197516 0.049830616 0.028997157 -0.15251207 -0.0809518 -0.06010923 -0.026967663 0.10922286 0.084937386 -0.06593621 0.012597882 0.070662305 0.026673615 -0.030331759 -0.03473709 0.080638126 -0.10709265 0.38267288 -0.0022479305 0.20167874 -0.20857342 0.2554496 0.07184817 0.10960825 0.18411988 -0.005274937 0.23727642 0.22429663 -0.14570859 0.22738451 0.0007994254 0.011069958 -0.1411166 0.020528361 -0.16817424 0.38958874 -0.0877622 0.023210147 0.2190744 0.024715714 0.15906937 -0.11607665 0.1940746 0.012603499 -0.013623138 -0.09966651 0.14421454 0.17464781 0.056301568 -0.08849391 -0.054667413 -0.025483541
lukin 0.06560444 0.13955674 -0.039795857 0.14508423 -0.045611233 -0.25895283 0.081314564 0.29725266 -0.02004368 -0.1649986 -0.038473673 -0.22384685 0.15892765 0.15241928 0.26051283 -0.04094799 0.120432936 -0.18805982 0.12384208 -0.3096479 0.25599226 0.09436187 0.18617024 -0.10624545 -0.008844016 0.033470992 -0.14504974 0.0149825895 -0.11209523 0.12889579 0.23712547 -0.06049447 0.15701303 -0.24722563 -0.07875886 0.14908892 -0.012562901 -0.029858977 0.016141588 -0.09054565 0.09794368 -0.03470584 -0.056929283 -0.049017802 -0.0076394905 -0.021039363 -0.040949676 -0.0209907 -0.020933734 0.089781284 0.2052957 -0.14692412 -0.10356946 -0.13036573 0.1868057 0.12820652 0.11063856 0.10899728 -0.11790393 0.14207996 -0.15237385 -0.015275902 -0.06742121 0.11125672 0.012464725 0.33055684 -0.09995599 0.14992948 -0.25362897 0.10835832 -0.033403274 0.13021608 0.23949903 -0.03950813 0.26806712 -0.07908415 -0.11173437 0.14962287 0.05701231 -0.121203944 -0.24477854 0.050477415 -0.1316354 0.32938686 -0.046122078 0.006560901 0.2955976 0.008706546 0.22450243 -0.03181284 0.27991027 -0.047457576 0.031360075 -0.04402615 0.013290038 0.06249551 -0.057783112 0.004543829 0.07459033 -0.038675565
nimi -0.14160389 0.27492857 -0.07040051 0.075153396 0.047220543 -0.27061588 0.037652634 0.326549 -0.1410409 -0.19486511 0.12871617 -0.048761528 0.3819928 0.13236682 0.29424885 -0.044569004 0.19110228 -0.20211032 0.043861162 -0.35202914 0.09650983 0.057599023 0.17982334 -0.24784693 0.0368057 -0.017062878 -0.19303477 -0.035809785 -0.0313567 0.074132726 0.22913326 -0.05741801 0.041554824 -0.19481441 -0.09855325 0.23014793 -0.11207158 0.076083384 -0.0014097649 -0.32474086 0.23291282 -0.010907586 0.09074019 -0.09218973 -0.08255456 -0.04834572 -0.1412811 -0.06812273 -0.012297217 0.066332884 -0.015963364 -0.07970892 -0.24408616 -0.16860007 0.09090535 -0.036242932 0.12861957 -0.10111721 -0.03780854 -0.0666167 0.03295087 -0.06522244 0.20536923 0.022725338 -0.19279198 0.24369596 0.06950321 0.23262025 -0.48492244 0.27702904 -0.0008749502 0.21559851 0.17329201 0.20380595 0.2555961 -0.035388067 -0.12522231 0.07752362 -0.17006268 0.027889615 -0.1393053 0.0011642999 -0.20862678 0.39148596 -0.07256207 -0.11398594 0.16799171 0.006243137 0.03183826 -0.0022216567 0.2658934 0.055462446 0.039490372 0.10881253 0.036537617 0.11972563 -0.08115624 0.10650311 -0.05342484 -0.0019434751
tu -0.01615829 0.3753069 -0.24604455 -0.099934705 0.16216464 -0.43904972 -0.014677425 0.52738 -0.0058790604 -0.21501474 0.24022272 -0.12992193 0.28142568 -0.039091915 0.10198924 -0.0014444051 0.07787324 -0.42851153 0.3760317 -0.42592585 0.15354587 0.103514306 0.19592154 -0.25400442 -0.08459165 -0.10463961 -0.16525568 -0.13102001 -0.07523635 -0.04388759 0.27685967 -0.05588768 0.18481183 -0.19990993 -0.025968939 0.2681559 -0.20213665 -0.061840553 -0.035333566 -0.2802206 0.3698963 0.087977216 -0.0766289 -0.14625683 0.020140365 0.051025685 -0.14711401 -0.02529442 -0.04156577 0.121469855 0.11855176 -0.09799714 -0.26437494 0.106823586 0.23541653 0.09272942 0.078141265 -0.102970496 -0.15486585 -0.004577817 0.044446107 0.056250874 0.14063191 0.050367028 0.06616572 0.22177333 0.10196089 0.09390883 -0.39771223 0.057609733 -0.1629125 0.24651016 0.09616497 0.09754736 0.26515564 -0.071480535 -0.06982771 -0.19674668 -0.08478628 -0.06802375 -0.19475135 0.030134268 -0.30136266 0.43485418 -0.18311085 -0.14594917 0.22223802 0.03070649 0.14177671 0.11342264 0.22127348 0.029310495 -0.08229417 0.32114735 -0.04253455 0.029345294 -0.23205519 0.21906938 -0.11807193 0.010505606
pini -0.022488585 0.140566 0.002581721 -0.028480843 0.12501082 -0.3044834 -0.098064415 0.4557394 -0.01283643 -0.20253734 -0.078669995 -0.3554604 0.10005712 0.086814374 0.14362255 0.18823402 0.018761236 -0.3105884 0.2525667 -0.4650358 0.15743826 0.19696468 0.16769433 -0.15860689 -0.07203238 0.03954219 -0.15612288 -0.022971883 -0.037998706 0.030932005 0.17768417 -0.10753183 0.10649964 -0.17481062 -0.15267949 0.16914468 0.037230916 -0.07864442 -0.118944615 -0.14716703 0.18160167 0.1182578 -0.1331788 0.06282209 0.032680072 0.016146071 -0.23023298 -0.09419497 -0.021341588 0.058597058 0.18675062 -0.05432819 -0.16415691 -0.06577444 0.22396882 0.047059532 0.23233645 -0.050275467 -0.10098995 0.0049086227 -0.2415983 0.07557668 0.08758014 0.12227121 -0.0106206825 0.2693647 -0.040140137 0.08823122 -0.084701166 -0.033487123 -0.0030098096 0.113766216 0.08988401 0.046354827 0.21420932 -0.18154126 0.1478799 -0.06744617 -0.03896194 -0.09560703 -0.2871994 -0.0545854 -0.09882799 0.3038267 -0.13615014 0.033071768 0.20295632 0.11322691 0.21534717 -0.019960674 0.17911528 0.27289143 -0.048576634 0.19949247 0.22246273 0.0968525 -0.26181555 0.1472691 0.035854768 0.09325946
ilo -0.2671766 0.31994408 0.35058868 0.14441788 -0.24321419 -0.1841213 0.1393247 0.41198444 0.023754569 -0.35674113 -0.118100055 -0.017072923 0.40948537 -0.0733108 0.12679668 0.06193974 -0.012590598 -0.26458266 0.23737001 -0.17784607 -0.18114819 0.21538787 -0.1461196 -0.1567446 0.11324407 -0.069623426 -0.2744512 -0.17157687 0.0004719671 -0.028333249 -0.20770054 0.07781002 -0.43126643 0.0116576 -0.3016991 0.30712494 -0.15984811 -0.21893993 0.26202595 -0.602824 0.23345825 -0.15493491 -0.12777136 -0.27882078 0.24901529 -0.16377392 -0.017305247 -0.44493517 0.16342662 -0.052243672 -0.192259 0.042791247 -0.23890546 -0.2695948 -0.039586276 0.12997898 0.0220402 -0.38098156 0.12751065 -0.1433759 0.034740493 0.045444366 0.19491027 -0.051050834 -0.38162705 0.25114292 -0.11364044 0.3051907 0.055808138 0.26878744 0.29700175 0.1869825 -0.014472188 0.27503896 0.36908168 0.20709021 -0.12132384 -0.05627632 -0.12888415 0.30121917 0.21013457 -0.2677684 -0.09506637 0.65605056 -0.07694713 -0.28094226 0.3249083 0.056386933 0.029981788 -0.17130756 0.16826288 0.18243508 0.11191629 0.13641757 0.4422783 0.22039564 -0.26247704 0.12772867 -0.29339975 0.00096900587
wan -0.019780673 0.33732948 -0.184602 -0.14107618 0.19055615 -0.3990706 -0.048699908 0.53112465 -0.058503397 -0.21559994 0.15602706 -0.13021047 0.29233536 0.015324809 0.11295583 0.0054609547 0.035782203 -0.44610485 0.38544866 -0.41937396 0.18358602 0.13385221 0.18914187 -0.15834036 -0.07952567 -0.077605255 -0.16753992 -0.076206505 -0.049720448 -0.041310124 0.23061335 -0.056483425 0.12126269 -0.17631964 -0.025358617 0.28461885 -0.15668651 -0.08372806 -0.103376605 -0.24591322 0.3273041 0.11646976 -0.048828673 -0.06547193 0.029880136 0.06322598 -0.16355579 -0.039449 -0.06599096 0.06526313 0.15109357 -0.09553037 -0.31958136 0.088346966 0.19319254 0.0242767 0.07287765 -0.115102865 -0.16233388 -0.058602486 0.03252857 0.04302236 0.16974719 0.10324727 0.042253282 0.19616693 0.14367078 0.09057415 -0.33184603 0.102847554 -0.123096764 0.26864743 0.06846241 0.096051775 0.22418086 -0.06777736 -0.01581308 -0.20150551 -0.08869984 -0.014424745 -0.21111648 -0.008012091 -0.29824534 0.38677573 -0.19421157 -0.09034836 0.19995746 0.10383585 0.099881455 0.10295944 0.2729112 0.100839965 -0.098397024 0.32060537 -0.014378315 0.057408366 -0.19988863 0.2197009 -0.14287814 0.026520927
meli 0.050363384 0.25623396 -0.055294547 0.055766396 0.0048591145 -0.26996458 0.02862556 0.37245953 0.012352159 -0.08600233 -0.087465905 -0.32273486 0.11042344 0.14486212 0.21025391 -0.07542109 0.029579027 -0.2829663 0.22471729 -0.33495584 0.17405859 0.108631596 0.09701253 -0.023642082 -0.14037824 0.000113550996 -0.11598343 -0.0571705 -0.14316769 0.03831215 0.18603823 -0.10722982 0.061056845 -0.20287462 -0.04475493 0.10172681 0.03131243 -0.11578593 0.056357156 -0.08746487 0.1266437 -0.011032627 -0.1700273 -0.094907515 -0.0007881981 0.0783546 -0.05878274 0.059011836 0.026552156 0.059981126 0.2148622 -0.16103692 -0.036155313 -0.008714641 0.22495243 0.2575204 0.14795138 0.09072158 -0.14503121 0.19928706 -0.13935056 0.06309788 -0.1879302 0.16197617 0.14167091 0.3063017 -0.075817704 0.06398999 -0.20310149 0.054966003 -0.03721499 0.10528438 0.20285492 -0.12692748 0.22557092 -0.011038989 -0.06304836 0.09176948 0.1222414 -0.16955814 -0.25858933 0.027407669 -0.20251298 0.33481428 -0.1772959 0.05721298 0.30729184 0.0701452 0.3530796 -0.018723128 0.24297811 -0.014750024 -0.10310598 0.06382927 0.01966188 0.07252857 -0.05409883 -0.0074207233 0.07709653 -0.022948623
suno 0.008508882 0.1001866 -0.024351247 -0.18018113 0.14940704 -0.3250882 -0.04499006 0.48235196 -0.05540084 -0.21352333 -0.11377704 -0.3777089 0.11718074 -0.032496303 -0.007127649 0.08339784 -0.07142848 -0.42724591 0.3362198 -0.49546486 0.15890549 0.25855288 0.04193703 -0.06284762 -0.06870191 0.09073467 -0.14905976 -0.015520117 -0.080786236 -0.09108374 0.075192705 0.037124973 0.04913234 -0.055499524 -0.11076994 0.2708001 0.006891175 -0.24146447 -0.13981839 -0.089067556 0.21962652 0.07742001 -0.15287915 0.019634733 0.09080181 -0.044831697 -0.13053334 -0.14095977 -0.10596183 0.029728042 0.28417632 -0.1339282 -0.20892291 0.18657514 0.15311706 0.052246053 0.1658703 -0.025840191 -0.14914753 0.029117074 -0.038830515 0.07043847 0.14177968 0.16283889 0.1604152 0.24943167 0.07275033 -0.042799663 -0.058829367 -0.06229665 -0.065418206 0.27205384 0.047742918 -0.08857989 0.21736884 -0.023419283 0.12209779 -0.19186871 0.00809533 -0.06926915 -0.22705054 -0.00088701386 -0.18652967 0.3180393 -0.2708661 0.060950466 0.18121406 0.25593367 0.17892154 0.08393893 0.2712338 0.30092287 -0.08025505 0.26589602 0.2708173 0.069721155 -0.14727326 0.11469601 -0.011469081 0.07982962
ale -0.068488084 0.33855477 -0.12941843 -0.0013021225 0.1391276 -0.3282051 -0.075851485 0.42582703 -0.08673275 -0.14791837 0.067974105 -0.18494308 0.25290605 0.116597526 0.2928996 0.057870235 0.06769274 -0.28729668 0.2540847 -0.46392128 0.2143251 0.11985145 0.30056226 -0.19029577 -0.13453606 -0.022659644 -0.17911641 -0.028745905 -0.05036016 0.060690925 0.348262 -0.1393901 0.16381474 -0.20452389 -0.06046078 0.12909827 -0.08132942 0.081551164 -0.08002283 -0.19389528 0.28240576 0.19131279 -0.06309859 -0.035102963 -0.08421549 0.08768308 -0.22690625 -0.015587475 -0.017745625 0.09516843 0.08772617 -0.06335858 -0.23510514 -0.10123361 0.2853497 0.0360941 0.14318125 -0.0070867124 -0.12957615 -0.050132435 -0.12480612 0.037501942 0.082547896 0.10953561 -0.003976836 0.21309516 0.044250198 0.13733073 -0.37324858 0.13225989 -0.16413182 0.20761742 0.13353671 0.084549546 0.208084 -0.18009496 0.029959507 -0.07127391 -0.10769768 -0.11060124 -0.27416247 -0.04366319 -0.22499017 0.40852916 -0.16995671 -0.103164956 0.1908935 0.022765335 0.15403403 0.014255325 0.21394208 0.062064257 -0.06439568 0.23031254 -0.0050138594 0.049441896 -0.17748423 0.2312204 0.015333865 0.06771744
waso -0.014576657 0.31514043 0.056582045 0.09306796 -0.18558607 -0.24264108 0.1330671 0.43568745 0.10916098 -0.21916637 -0.12518992 -0.20014551 0.14339171 0.015225038 0.10987961 -0.1309866 -0.08304418 -0.30724448 0.19132127 -0.19737498 0.0029407104 0.11389522 -0.04512646 -0.05133571 -0.008052124 -0.021607868 -0.14040284 -0.14818126 -0.14769652 -0.02688923 -0.08546246 0.02484085 -0.075957 -0.12626375 -0.105717115 0.20541227 -0.09178332 -0.21204424 0.07505804 -0.24296235 0.0886912 -0.17478895 -0.18622679 -0.22785017 0.21331446 -0.10001567 0.07680058 -0.14450032 0.04380628 0.046022747 0.10265429 -0.09896369 -0.046587113 -0.043905787 0.0845385 0.2559853 0.044077873 -0.13465461 -0.082234256 0.12591536 0.073350556 0.029534224 -0.07532782 0.033449564 0.00590425 0.29619524 -0.03414226 0.21429664 -0.07113669 0.18553956 0.090549976 0.090783656 0.13679613 -0.0056132837 0.27053908 0.23408172 -0.17256442 0.012114897 0.106276795 -0.0039959564 -0.0025992237 -0.037755344 -0.2104447 0.38511625 -0.086885214 -0.047048263 0.3946949 0.035247386 0.25959647 0.00966562 0.28642413 -0.07322566 -0.040275812 -0.0037300715 0.14443241 0.161024 -0.09240239 0.023415085 -0.16812252 -0.11013386
sitelen -0.07687716 0.29380524 -0.103424236 0.20287411 0.014342209 -0.34154922 0.13424204 0.40892342 -0.106150955 -0.2077964 0.22320922 0.03839405 0.4280844 0.09625459 0.3115102 0.02474756 0.24206483 -0.25479206 0.12450371 -0.3076234 0.17364678 0.07724714 0.25899395 -0.3340509 0.031409085 -0.103409946 -0.20940903 -0.07386616 -0.050984763 0.14546186 0.31652853 -0.034152914 0.15017563 -0.2623025 -0.11183394 0.27496222 -0.17591551 0.106731184 0.0618549 -0.39439294 0.33543184 0.0151253585 0.06792103 -0.07218763 0.019984325 -0.0070669823 -0.095053285 -0.08399252 0.0067729875 0.052354407 0.008066115 -0.053718932 -0.23867787 -0.27281365 0.18086165 -0.016718322 0.0581889 -0.029766833 -0.05763422 -0.045962654 -0.03352578 -0.06845518 0.21281672 -0.025691064 -0.1809189 0.23569006 0.023732316 0.29287037 -0.4786597 0.17054597 -0.04898147 0.21828467 0.19994996 0.23629044 0.30756098 -0.08626743 -0.13998872 0.026283683 -0.15512449 -0.0036579375 -0.08731253 0.00013587934 -0.16658852 0.4355443 -0.0058584437 -0.19285125 0.26939514 -0.08726051 0.08861331 0.06377144 0.2783571 -0.00069673936 0.062064115 0.12131919 0.030237824 0.05076523 -0.20177357 0.23633158 0.0038542359 -0.04688955
utala -0.0407118 0.11146527 0.227147 0.17977098 -0.14329763 -0.10711933 0.03275452 0.19718324 -0.18977502 -0.25405067 -0.107216775 -0.16558252 0.17909124 0.11134152 0.2283716 0.022224909 0.15186511 -0.07817714 -0.109026305 -0.2718779 0.07205063 0.120391026 0.09001328 -0.12508097 0.056477603 0.09917542 -0.27022535 0.055586167 -0.029544543 0.18101458 -0.09369378 -0.10972533 -0.013306841 -0.14613613 -0.2519319 0.23977047 -0.022607975 -0.13361293 -0.05603245 -0.19075592 -0.029286675 -0.18247837 0.079131216 0.02894532 0.09556139 -0.15659595 -0.10025661 -0.27082208 -0.009096002 0.05302985 -0.009975863 -0.10691154 -0.12668496 -0.1870839 -0.10632684 -0.011098565 0.080252014 -0.107077956 0.057798956 0.0016061132 -0.023146942 -0.028424677 0.008780558 0.07950723 -0.26676044 0.42626238 -0.022188688 0.28971007 -0.15910442 0.25265953 0.046441495 0.1313256 0.12195578 0.03131813 0.26396492 0.15166903 -0.14430791 0.27965254 0.008742687 0.050814424 -0.10731164 -0.036085453 -0.13145386 0.39714307 -0.033324245 0.006851859 0.19640781 -0.053803362 0.09543829 -0.15267433 0.1557067 0.08185158 0.010331151 -0.156629 0.21631156 0.18036811 -0.021958144 -0.031105185 -0.05906653 0.023582391
kon 0.0481269 0.018304132 0.09224507 0.066986896 -0.09250551 -0.1659281 0.08893204 0.19836266 -0.12895545 -0.15627947 -0.20086907 -0.29590043 0.14679986 0.13469501 0.16958284 -0.13562287 0.10839952 -0.13013707 -0.048885297 -0.32778046 0.15461159 0.1503738 0.02369959 0.019704746 0.014867758 0.16759984 -0.12389626 0.09483276 -0.10273992 0.05815213 -0.004224539 -0.046609692 -0.012503181 -0.12838738 -0.06068141 0.17372663 0.05762716 -0.20995912 -0.039713945 -0.054989297 -0.07664946 -0.19951123 0.013729526 -0.038857058 0.04274361 -0.1019629 -0.07980995 -0.08531063 -0.08714174 -0.00011251679 0.17303923 -0.22877543 -0.10483194 -0.016154207 0.0016172724 0.11552073 0.12372641 0.038915362 -0.04549191 0.13295554 -0.00065285526 -0.09253081 -0.0343422 0.1507888 -0.0076260017 0.3884103 0.010765503 0.14512733 -0.1786854 0.21297973 0.03460826 0.15375422 0.2234608 -0.11051025 0.23651889 0.15741645 -0.087936185 0.20056163 0.037421778 -0.062471367 -0.21401057 0.09290705 -0.2011176 0.3029544 -0.16323918 0.10461531 0.19509682 0.07791419 0.2072723 -0.07319929 0.2992329 0.047592662 -0.020272631 -0.076742604 0.167968 0.15497175 0.1398166 -0.13908246 -0.013257304 -0.027836913
musi -0.07133507 0.09479233 0.07465703 0.16460517 0.022643724 -0.30954444 0.03082151 0.29269496 -0.018506687 -0.15011546 -0.10605366 -0.23589137 0.20189084 0.14958458 0.4100228 -0.0011207043 0.12185949 -0.17768487 0.051546156 -0.33685493 0.16976738 0.1406123 0.07869404 -0.18287909 0.04546337 0.081351295 -0.22242193 0.13209043 -0.015569346 -0.0069593117 0.21979156 -0.12908985 0.08084949 -0.010265775 -0.12124729 0.16724953 0.09584642 -0.013321234 0.025189893 -0.2525069 0.064565666 -0.08268013 0.014265756 -0.14483845 -0.082286365 -0.05145758 -0.19802499 0.03927432 0.0152657805 0.0904262 -0.017530788 -0.06433972 -0.14473091 -0.14523515 0.11943486 0.10403676 0.17389949 0.017595602 0.035782754 0.092931286 -0.07462363 -0.019028261 0.037735272 -0.08158434 -0.16796288 0.3526201 -0.036314156 0.17311624 -0.40711564 0.26910186 0.14635955 0.051847722 0.32316512 0.14077474 0.21073242 -0.037085924 0.028297925 0.10457594 -0.11257307 0.05408695 -0.29258907 0.03274167 -0.2505395 0.35672948 -0.19952653 0.07958453 0.18158716 0.058479972 0.19414772 -0.26768568 0.095304415 0.07753161 0.13567562 0.09564891 -0.03956812 0.16926274 -0.016920557 0.04751794 0.1092475 0.0013682422
ijo -0.00031622665 0.20001008 0.015049739 0.11786765 -0.018754998 -0.26740956 0.12278617 0.3322508 -0.060707133 -0.16698481 -0.023672603 -0.16004018 0.25122702 0.075836055 0.22971176 -0.031605124 0.13174462 -0.19937935 0.13149787 -0.2989994 0.1802149 0.10526012 0.15885235 -0.11459682 -0.032307196 0.025748732 -0.14883994 -0.022870453 -0.074310265 0.08856682 0.17519666 -0.035167377 0.07728973 -0.16858861 -0.053180795 0.18844342 -0.030535301 -0.043143474 0.028546073 -0.1550301 0.17311795 -0.033787638 -0.020933684 -0.06317573 0.03815875 -0.014824753 -0.020027863 -0.048939373 -0.018437296 0.0068761003 0.15497057 -0.1418102 -0.1610415 -0.08865261 0.114209905 0.10035916 0.076260135 0.049352817 -0.097484246 0.086666204 -0.098875344 -0.0006542588 0.025361387 0.097785905 0.02955331 0.2876939 -4.5570192e-05 0.14688553 -0.26056096 0.11917023 -0.031124335 0.20036022 0.2092289 0.010503907 0.2597022 0.017508604 -0.09316769 0.055161905 -0.0041548302 -0.079022616 -0.18231429 0.03670812 -0.12806608 0.34187984 -0.095629744 -0.028759956 0.24400215 0.025833834 0.19502182 0.007003028 0.27787146 -0.014986933 0.004242034 0.025440648 0.07563059 0.05399904 -0.032527737 0.048592705 0.017912444 -0.012131429
mama -0.0059850644 0.1733524 0.07283765 0.1828721 -0.018088862 -0.28434306 0.056220368 0.29361197 -0.14057761 -0.116074145 -0.14155646 -0.3726785 0.14428286 0.15686214 0.28335866 -0.053365104 0.06772284 -0.21394597 0.117223546 -0.2987142 0.25997207 0.11685141 0.20819935 -0.043962438 -0.10482967 0.19950077 -0.15664904 0.051029414 -0.09506675 0.104580946 0.09554966 -0.058289282 0.08841879 -0.13013332 -0.08460716 0.07154282 0.090343244 -0.07152026 -0.028394416 0.024820982 0.11197552 -0.015162601 0.006055682 0.040515326 -0.09446371 -0.027980013 -0.020802515 0.019354615 0.0031633466 -0.033647522 0.21998939 -0.1744863 -0.018893179 -0.11836687 0.18704511 0.109730214 0.22916292 0.17565626 -0.10801182 0.19005981 -0.20740062 0.026648626 -0.10394579 0.19735545 0.11820685 0.44129077 -0.07519176 0.0709065 -0.2315112 0.01340338 -0.081662096 0.13821812 0.28491488 -0.12486447 0.20871313 0.096237354 -0.040577266 0.17345692 0.16762994 -0.18492799 -0.31140518 0.08598728 -0.07176511 0.20870125 -0.1873702 0.118336804 0.2872073 0.07460698 0.29729915 -0.046831373 0.23067006 0.041853704 -0.17873314 -0.08528778 0.13656667 0.08275529 0.0007120353 -0.06396464 0.14022599 -0.012241488
nasin -0.008659475 0.11614137 0.030023178 0.07244601 0.00014066973 -0.21616961 0.11808627 0.25781694 -0.15383114 -0.22131942 -0.0046531167 -0.10560398 0.27223077 0.052662157 0.25842276 0.0002730515 0.18647647 -0.12798674 0.011111947 -0.33294103 0.15719375 0.11390103 0.1616844 -0.16611035 0.010052955 0.10618514 -0.21202326 0.03406257 -0.049569458 0.12367145 0.14062971 -0.06764673 0.04356317 -0.14414206 -0.087455176 0.23626642 -0.04681411 -0.06984507 -0.08509253 -0.17977442 0.07836517 -0.08203906 0.090699084 -0.010475816 0.061994348 -0.08129457 -0.12389991 -0.15063912 -0.0646069 0.0074449196 0.060109522 -0.14016433 -0.20508836 -0.12654097 0.030437976 -0.032102227 0.074783966 -0.014256811 -0.060142953 -0.012218794 -0.024830867 -0.08195218 0.14341564 0.07214548 -0.10797835 0.31389064 0.08995468 0.19262764 -0.33572376 0.17889136 -0.038123995 0.24291064 0.1901512 0.06401211 0.25067613 0.076473325 -0.096430905 0.12684971 -0.10340964 -0.0092693465 -0.16639568 0.053238917 -0.13783187 0.38319248 -0.08271849 -0.0276374 0.16196717 0.0052205864 0.044779282 -0.033916462 0.28400195 0.07461348 0.014871862 -0.023117213 0.10915739 0.100080326 0.011386808 0.019479174 -0.02190254 0.016359793
moli -0.010788058 0.243654 -0.0007780884 0.11805318 -0.0066955644 -0.25784034 0.043682937 0.2898845 -0.10249562 -0.19551459 0.025459247 -0.21066675 0.209395 0.123095006 0.27820006 -0.04028287 0.15493 -0.17857213 0.07598705 -0.3052997 0.15933138 0.041993797 0.1854957 -0.16332522 -0.03444409 0.048078485 -0.16442035 0.01864606 -0.068883345 0.09785152 0.1436233 -0.12190297 0.108045034 -0.20635751 -0.069717094 0.14968169 -0.0280353 -0.06122079 -0.04139028 -0.16038947 0.09351671 -0.08891473 0.038626745 -0.020523207 -0.0032554045 -0.023705691 -0.1255905 -0.050970707 -0.012601069 0.075722694 0.083660334 -0.12666914 -0.12114903 -0.12525561 0.10608423 0.07156727 0.10100337 -0.002372996 -0.10309585 0.056956545 -0.06526019 -0.012934581 -0.04242086 0.088629484 -0.058116246 0.3754127 0.026432341 0.21784154 -0.32071704 0.17608933 -0.0624808 0.1355409 0.21613857 0.028611198 0.25721815 0.04882707 -0.1033969 0.13878538 0.013911825 -0.07252766 -0.2280556 0.037805784 -0.19580188 0.32806742 -0.050596204 -0.0034480512 0.24517281 -0.038233887 0.18902093 -0.046113905 0.22638926 -0.02844851 -0.07568793 -0.01615452 0.0099790115 0.12227171 -0.044848986 0.021629255 0.0026967383 -0.016317401
ante -0.033797212 0.25885525 -0.028861621 0.14650932 -0.030271346 -0.2202467 0.11283388 0.394863 -0.09867851 -0.26422235 0.0455265 -0.10200416 0.14037879 0.054710105 0.16523512 -0.03873125 0.13130058 -0.17143564 0.090848185 -0.28627035 0.097146004 0.0908115 0.20094444 -0.14058979 -0.0070960247 -0.008666296 -0.23258041 -0.042624343 -0.10943556 0.15635505 0.06265511 -0.06759145 0.07968993 -0.21648741 -0.12250959 0.27210975 -0.060402796 -0.040427286 -0.07484906 -0.13904648 0.15521966 -0.045402315 0.024587093 -0.022474786 0.11653737 -0.07122606 -0.06606897 -0.10513205 -0.022933843 0.03436879 0.1242127 -0.12429976 -0.116055466 -0.1178867 0.011626542 0.028863609 0.08509702 -0.049827475 -0.104732536 0.03620254 -0.00530022 -0.0018484392 0.08595212 0.07741109 -0.047855385 0.22862539 0.06276713 0.26423398 -0.26687434 0.115896836 -0.078931175 0.23179924 0.12488434 0.025795327 0.27355397 0.102972284 -0.18765159 0.12179206 0.0019707032 -0.09980465 -0.070189215 0.021655316 -0.092231065 0.37139407 -0.038049582 -0.013888452 0.2730149 -0.045318153 0.11653423 0.09793951 0.32431468 0.0137372 -0.04939475 -0.01880612 0.09361407 0.08462927 -0.074723184 0.11875764 -0.05294733 -0.00877049
weka 0.050740015 0.085183196 0.13111857 0.15552649 -0.058237452 -0.1599247 0.09636145 0.20827454 -0.11288227 -0.1819239 -0.13044621 -0.28107506 0.12933944 0.12139768 0.22454841 -0.02483596 0.120305315 -0.10333959 0.017202426 -0.32556373 0.16720955 0.14065807 0.10191745 -0.01419571 -0.020338727 0.10444463 -0.1697567 0.06110189 -0.11459135 0.12037231 0.08200659 -0.08147624 0.06623165 -0.18636648 -0.13293557 0.1914471 0.042961705 -0.11982436 -0.041331 -0.067885034 0.020111427 -0.15815374 0.012013895 0.015980992 0.06357218 -0.06448417 -0.08688799 -0.11817025 -0.045338552 0.02654788 0.14167063 -0.1735388 -0.09464221 -0.10004578 0.02777611 0.06608037 0.08487215 0.056830343 -0.07757153 0.123569176 -0.09758112 -0.0076875156 -0.037001133 0.119379364 -0.050111286 0.35284 -0.011536783 0.1694813 -0.16183744 0.15284556 -0.015964683 0.143554 0.16661772 -0.09144268 0.29120457 0.08695135 -0.11350815 0.22661258 0.07593548 -0.115733854 -0.18306495 0.04644885 -0.13414666 0.33801904 -0.09653057 0.09311888 0.2139798 0.022526782 0.21688382 -0.093926854 0.24863964 0.0068757664 -0.015992364 -0.090797655 0.104017004 0.096559 0.030926783 -0.06711341 0.040183075 0.00072875567
seme -0.03145521 0.18074666 0.073579505 0.15323961 0.022261629 -0.19139603 -0.05050268 0.31541917 -0.061162222 -0.08740854 -0.08355056 -0.21778257 0.17687249 0.19590454 0.32440317 0.08042985 0.0798807 -0.17482579 0.15531443 -0.35342014 0.15929778 0.13564917 0.1412593 -0.083276294 -0.08511858 0.03744876 -0.1518992 0.055766374 -0.07649462 0.14589536 0.2157116 -0.1347588 0.017387317 -0.15912358 -0.1439844 0.14093 0.01531462 -0.014467379 0.015138511 -0.15603633 0.14409582 -0.015784353 -0.0072370907 0.015673092 -0.0061594294 0.056185797 -0.19581662 -0.04052262 0.02150786 0.0069686114 0.1149772 -0.031063978 -0.11806319 -0.19651744 0.1516475 0.08921995 0.14375943 0.02741873 -0.03681578 0.042321384 -0.15127014 0.04297218 -0.034103464 0.116538495 -0.106398515 0.26034665 -0.018607404 0.18568803 -0.21224219 0.16849579 -0.04339191 0.08206208 0.09052542 -0.013658459 0.26330772 -0.06171007 -0.013930534 0.16387974 -0.011780859 -0.10745531 -0.19929549 -0.065316565 -0.17074691 0.41001314 -0.09687663 0.029572321 0.2077123 0.036076277 0.2557999 -0.119156644 0.18329835 0.05005927 -0.044201724 0.07349494 0.073469296 0.083355226 -0.113159366 0.12114496 0.041321963 0.08079668
kasi -0.0039804876 0.16136067 0.2471257 -0.025018187 -0.22746433 -0.15101649 0.0581479 0.30262867 -0.017128458 -0.16409028 -0.3389365 -0.35973462 -0.009903819 0.053588573 0.07041612 -0.118858024 -0.16556899 -0.1693117 -0.015553607 -0.3710381 -0.0042501483 0.29598674 -0.18876486 0.122864716 -0.0397006 0.21019803 -0.20270021 0.017922115 -0.06814071 -0.030698134 -0.1723882 0.0003314039 -0.11990698 0.02486209 -0.13263401 0.22953375 0.1922134 -0.26751575 -0.08236065 -0.07743691 -0.044494748 -0.16075647 -0.21530016 -0.12651984 0.07886887 -0.23921953 -0.061190203 -0.19547269 0.02009225 0.008147006 0.03096621 -0.22862379 0.053093664 0.0502591 -0.085056506 0.25309306 0.11436188 -0.1364598 0.04945787 0.13977875 0.10538092 0.0029234565 -0.03396277 0.112757556 0.012471458 0.33766103 0.003049479 0.14615703 -0.05568263 0.27294964 0.071312726 0.20688693 0.08176763 -0.19565207 0.19631349 0.3002425 -0.059448715 0.10724129 0.059699643 0.030503454 -0.10087089 -0.061820377 -0.22224149 0.3921213 -0.27141 0.08092884 0.20047064 0.14314248 0.18733197 -0.06394097 0.2748199 0.14773615 0.0057044527 -0.09178388 0.25149998 0.152483 0.14530836 -0.04267126 -0.058308687 0.026613146
sin -0.04580899 0.15130825 0.053376604 0.08083724 0.03775149 -0.26001522 0.06611237 0.3564649 -0.103514194 -0.23520657 -0.036407508 -0.22045453 0.16067192 0.07349347 0.1731571 0.0626394 0.10868481 -0.20297809 0.13892096 -0.31984246 0.15206255 0.14907166 0.19969499 -0.11429872 -0.041003697 0.081020474 -0.18452147 -0.018361121 -0.048467174 0.13176358 0.13844316 -0.05473737 0.058644958 -0.15823431 -0.15913174 0.20633678 0.015978845 -0.035378955 -0.05173394 -0.13080826 0.1826532 0.013633808 0.0002868332 0.054714307 0.052755646 -0.034249034 -0.080077425 -0.11676775 -0.037599534 0.012071498 0.16652662 -0.11674053 -0.14901528 -0.13646321 0.057384312 0.014243346 0.15268926 -0.014459368 -0.106623545 0.0040270146 -0.14804222 0.031362582 0.080253944 0.111835785 -0.017307077 0.28814244 0.020781247 0.16599473 -0.20075326 0.027235407 -0.057494055 0.22468306 0.13971734 0.029610498 0.26854292 0.034695536 -0.06436572 0.086359635 -0.0038306068 -0.0832777 -0.16638014 0.010253385 -0.05409531 0.32635096 -0.060343374 -0.0008319 0.24464612 0.035549097 0.1198402 0.009937472 0.27359396 0.1322759 -0.04806711 0.030822089 0.18592301 0.09288793 -0.08151951 0.068527274 0.018974954 0.04508852
luka -0.044079944 0.5275273 -0.2728526 -0.22073169 0.08724535 -0.4036704 0.023325155 0.53659606 -0.024561213 -0.3021967 0.2623319 -0.13840169 0.301935 -0.094472505 0.031838145 -0.19002154 -0.038239542 -0.47937196 0.39332426 -0.4375428 0.023729024 0.0741732 0.07772607 -0.16172823 -0.10612378 -0.13956101 -0.17276135 -0.19409609 -0.13278514 -0.12380942 0.103871495 -0.016780186 0.10220527 -0.18135116 -0.022022907 0.28322473 -0.30953607 -0.119296774 -0.04769717 -0.33015186 0.36334935 -0.012011647 -0.15045866 -0.24619965 0.09127431 -0.007528741 -0.07100097 -0.10429741 -0.027969468 0.15264022 0.03892803 -0.121424526 -0.26783827 0.22633761 0.1436726 0.11881238 -0.01752737 -0.29122224 -0.13762549 -0.023416514 0.27357706 0.038894694 0.10601844 0.027908685 0.04695657 0.17430228 0.27319735 0.11274385 -0.42801762 0.23134598 -0.1953197 0.27174073 0.04770537 0.08874642 0.24771982 0.14983101 -0.2044936 -0.21219274 -0.103099614 0.035544913 -0.06667149 0.049115974 -0.39280823 0.51290077 -0.22377871 -0.19694696 0.24437001 0.05608725 0.12665819 0.18269038 0.31365532 -0.04714121 -0.13953708 0.3253082 -0.060388207 0.11354102 -0.13806352 0.16510707 -0.32278016 -0.011539803
anpa 0.090093315 0.052968483 0.113801576 0.056914214 -0.099412866 -0.20363645 0.04636995 0.2530746 -0.10709083 -0.20986639 -0.1672887 -0.3602363 0.06567931 0.13745148 0.12941487 -0.07422483 0.053500034 -0.12979591 -0.007951114 -0.2965079 0.12390799 0.13616528 -0.017170524 0.037797317 -0.025959013 0.1708838 -0.13996527 0.02552416 -0.112678096 0.11290852 -0.03393433 -0.046866164 0.01692325 -0.18034075 -0.14141655 0.19783302 0.059256274 -0.24508853 -0.07845542 -0.035105314 -0.037956327 -0.17447235 -0.05631388 -0.009918733 0.06550659 -0.10357626 -0.025322333 -0.14697064 -0.069647044 0.030832877 0.21642792 -0.24118885 -0.02119124 -0.019210394 -0.046443153 0.14516449 0.11108176 0.0099962475 -0.04774497 0.15932558 -0.018066043 -0.030457562 -0.12201635 0.16894016 0.034201514 0.41984162 -0.024827257 0.12911336 -0.08556643 0.15401508 -0.034471113 0.13389836 0.1180362 -0.17940362 0.27322906 0.16968457 -0.14404994 0.23223932 0.11571125 -0.08778525 -0.19454467 0.058565326 -0.14294006 0.292713 -0.13107878 0.114898354 0.22891171 0.059152763 0.2261704 -0.05269829 0.29945663 0.036421966 -0.056788824 -0.101054505 0.1379214 0.13348173 0.088374265 -0.14765063 -0.02141124 0.0035386092
en -0.0766152 0.15432459 0.08571083 -0.026888972 -0.0642131 -0.25562373 0.053761255 0.3903685 -0.03623881 -0.30144173 -0.029494438 -0.235654 0.13677637 0.017723827 0.02576734 -0.037777416 0.011291656 -0.27951446 0.120577164 -0.31305903 0.003875351 0.113502204 -0.02112267 -0.046925083 0.030891368 0.09295127 -0.20401064 -0.023216352 -0.07937731 -0.008963685 -0.08051289 0.0027135808 -0.06541576 -0.06492939 -0.16260365 0.30090973 0.010278819 -0.23326944 -0.055501867 -0.21878695 0.090019226 -0.13025782 -0.0464576 -0.124756165 0.11108567 -0.1538117 -0.036175992 -0.15702724 -0.017340139 0.08691278 0.07527881 -0.13533038 -0.15615875 0.062157463 -0.071712956 0.06828443 0.095178396 -0.21175255 -0.07450074 0.028167821 0.117595546 -0.008995995 0.11401438 0.06009832 -0.08200609 0.27492383 0.11948478 0.14482003 -0.14475952 0.20140597 0.057654824 0.18836239 0.08769708 0.030814372 0.28129712 0.25691968 -0.1727089 0.012661883 -0.034398943 0.096200556 -0.040816393 0.060566004 -0.15885822 0.33953565 -0.1514329 -0.025530277 0.21040966 0.103885256 0.08148148 -0.0072306283 0.31051695 0.1484402 -0.0045020767 0.051481094 0.20392424 0.19077589 -0.037657354 -0.02258293 -0.17677316 0.0272242
nanpa -0.11810975 0.4002181 -0.20425963 -0.13239464 0.18989961 -0.4025153 -0.04312299 0.54229194 -0.117645845 -0.29072413 0.27030352 -0.075873725 0.3727079 -0.10364399 0.09308063 0.06365574 0.07571884 -0.4933406 0.39599383 -0.49496844 0.11209902 0.1877252 0.22578165 -0.2820137 -0.08439659 -0.05990294 -0.25529608 -0.11948114 -0.005732445 -0.047664817 0.251428 -0.026558558 0.07906833 -0.17025302 -0.07587118 0.33564398 -0.23792803 -0.040769693 -0.108304515 -0.36543888 0.4407867 0.1741154 -0.04727881 -0.10245797 0.09265349 0.037761055 -0.19742565 -0.1598184 -0.03792887 0.07873672 0.015200389 -0.05915662 -0.36886188 0.115718305 0.18676406 -0.064593 0.013996171 -0.21185076 -0.13701336 -0.13119885 0.086781695 0.055810366 0.3208903 0.03882921 -0.03493054 0.15942769 0.16506867 0.11350598 -0.37026456 0.11982351 -0.16908605 0.37692553 0.007991275 0.16947912 0.18862383 -0.05648419 -0.02014248 -0.2964629 -0.13710684 -0.01077064 -0.12011134 -0.053584106 -0.2893038 0.47455224 -0.19153406 -0.23789123 0.12508349 0.07139741 -0.019444566 0.17351125 0.23382048 0.1100839 -0.035966933 0.382931 0.060517225 0.040374152 -0.2433614 0.3028761 -0.18680033 0.07061962
kin 0.0002586955 0.17295992 -0.047243796 0.055493627 0.07689954 -0.2701704 0.025935188 0.3380626 -0.06167242 -0.15734679 0.00949138 -0.24675268 0.16606332 0.106984854 0.20134321 0.05201197 0.10170131 -0.27996793 0.15122782 -0.39653355 0.16285734 0.17434831 0.16481166 -0.15651649 -0.038119864 0.05106351 -0.17107877 -0.0037265571 -0.07259446 0.06454219 0.2175545 -0.09674652 0.10038787 -0.19332233 -0.08987516 0.21345316 -0.0065916204 -0.049676176 -0.05421494 -0.19376995 0.16524352 -0.012079555 -0.058974586 -0.023528762 0.023590552 0.0241704 -0.17473124 -0.03668335 -0.006953306 0.047615852 0.13359137 -0.12961838 -0.14442623 -0.05865692 0.14566442 0.072648376 0.17041045 0.010607302 -0.1046116 0.051483147 -0.11211912 0.025278384 0.04509889 0.09612713 -0.01103191 0.3089779 -0.020153966 0.14149937 -0.24615124 0.10827412 -0.03994754 0.15866864 0.15901363 0.040786907 0.22347292 -0.10638822 -0.025839405 0.039673846 0.0022487477 -0.09839547 -0.24047437 -0.022429245 -0.17261931 0.3293716 -0.13449922 0.011677997 0.22193576 0.03139149 0.18973683 -0.001577984 0.23430653 0.11038371 -0.036009338 0.101550594 0.071340725 0.10074732 -0.122470744 0.06388538 0.014238568 0.035810854
pimeja 0.0047921073 0.10770847 0.08677142 -0.13929635 0.0029065253 -0.29678527 0.035248976 0.41537145 -0.010435428 -0.21333745 -0.18476109 -0.387021 0.08285776 -0.0055372347 0.01927647 -0.035559993 -0.11107994 -0.31430712 0.21703433 -0.40838403 0.06865659 0.24436517 -0.12759186 0.03558151 -0.06726747 0.13007317 -0.119288966 -0.014885201 -0.10836101 -0.089448325 -0.022226408 0.033259135 -0.04409944 -0.027981779 -0.13041842 0.25886086 0.079608604 -0.27537045 -0.040216953 -0.10792438 0.12885821 -0.07496398 -0.19220214 -0.102194466 0.11776506 -0.12609194 -0.013852336 -0.13289326 -0.062491644 0.019760491 0.21853133 -0.19884956 -0.09411742 0.1601585 0.057927214 0.19252232 0.12743206 -0.07270728 -0.083411075 0.08326381 0.024820685 0.050636105 0.050401356 0.10670473 0.13605303 0.28914982 0.060972698 -0.00073509937 -0.055607833 0.06844213 0.028451765 0.23116177 0.10476565 -0.12466506 0.24670905 0.1850946 -0.012611156 -0.060144775 0.043925084 -0.015947724 -0.13221622 0.007875282 -0.19366859 0.3453295 -0.2905306 0.10000467 0.17372309 0.22137414 0.21200301 0.043599192 0.28850457 0.21021292 -0.015746858 0.13212495 0.24579212 0.09927201 -0.009876293 -0.024419248 -0.049367625 0.03458143
kulupu -0.07985767 0.15493198 0.112136684 0.048498847 -0.06609577 -0.18625982 0.03832576 0.30045354 -0.15815635 -0.23282613 -0.066535674 -0.1531542 0.16977185 0.03453794 0.16054879 0.03385256 0.06782338 -0.17500784 0.020450747 -0.31966394 0.07059079 0.15840116 0.110521615 -0.097879626 -0.02520481 0.12395103 -0.23704007 0.01047262 -0.03682139 0.11756772 -0.021533215 -0.06532445 -0.0175411 -0.098398626 -0.1936182 0.21226218 -0.013664077 -0.12316933 -0.11498457 -0.14657249 0.09764774 -0.039623026 0.038363814 0.032128155 0.07114026 -0.10303726 -0.11363532 -0.19482407 -0.042740062 0.020941617 0.053116817 -0.12630226 -0.13325414 -0.118151926 -0.041180685 0.008456374 0.10692334 -0.093906656 -0.034703363 -0.027946815 -0.035422135 -0.03734595 0.089946054 0.10214627 -0.10728827 0.30855075 0.07499045 0.22536471 -0.20574076 0.16114534 -0.022560446 0.24854891 0.1247477 0.048486453 0.23249856 0.17088142 -0.10453903 0.1110129 -0.03683524 -0.0006017085 -0.11673676 0.008310175 -0.09808148 0.39184928 -0.09937033 -0.025272971 0.19676723 0.039026152 0.03999857 -0.0251617 0.26925534 0.1654731 -0.06755059 -0.030056331 0.19170636 0.14978646 -0.014097679 0.045848325 -0.054395307 0.06011843
ali 0.028609363 0.09178549 0.06292006 0.052541975 0.03115144 -0.25434485 0.02346655 0.33702576 -0.09802016 -0.22414497 -0.068072826 -0.22568883 0.13496889 0.07705957 0.18541217 0.038677625 0.1476234 -0.1909232 0.092966825 -0.342933 0.1244422 0.12986475 0.07966072 -0.12737508 0.023218773 0.0927545 -0.2085662 0.016430017 -0.037673954 0.10495939 0.07447273 -0.0884082 0.064523086 -0.16060616 -0.13388196 0.24892543 0.023272524 -0.16187553 -0.061884675 -0.15468568 0.086248174 -0.09709304 0.037983485 0.0014032421 0.06897289 -0.06056901 -0.1350922 -0.0978943 -0.064832084 0.047148384 0.14562799 -0.11603216 -0.2018952 -0.029636553 0.039881475 0.032230854 0.13072434 -0.015243115 -0.05001409 0.037446126 -0.08147501 -0.0034122544 0.069202125 0.0633927 -0.058401857 0.33348176 0.040993627 0.13205996 -0.1949677 0.11262254 0.03700906 0.14454365 0.15381029 0.032202642 0.24577673 0.04024961 -0.047477163 0.10340407 -0.033606056 -0.012786081 -0.20740609 0.069241375 -0.13146935 0.29006544 -0.09697638 0.045401573 0.18835084 0.097577736 0.15185547 -0.076265305 0.2070036 0.12951581 -0.01374045 0.03758729 0.12070199 0.11652804 -0.04137245 -0.0063022715 -0.015503219 0.02986305
lape 0.017862964 0.13425797 0.096950084 0.027554896 -0.015614279 -0.23146215 0.033012096 0.38724563 -0.052470483 -0.19314754 -0.1514968 -0.32092908 0.09692268 0.08052062 0.10871042 0.064247034 -0.00985502 -0.2846032 0.17411037 -0.3619105 0.13488953 0.22740807 0.07718622 -0.023913126 -0.043241493 0.1306834 -0.11771947 -0.00039082847 -0.095208734 0.0522389 0.08407628 -0.03936558 0.022146158 -0.13532332 -0.1491504 0.2107296 0.050288044 -0.1905135 -0.036773708 -0.13761565 0.0817392 -0.012759585 -0.12553984 0.0155858435 0.1431706 -0.010259512 -0.06119179 -0.17073788 0.0019308608 -0.003217257 0.1639961 -0.081661336 -0.136555 -0.020684252 0.074730225 0.07930166 0.10693331 -0.03881007 -0.07122557 0.06567652 -0.07107139 0.041538976 -0.010604826 0.18437545 0.018029721 0.30696282 -0.06769419 0.109578 -0.030361531 0.096622795 -0.026433097 0.1730844 0.052263588 -0.050573304 0.22086766 0.034257464 -0.009343448 0.008696783 0.08073225 -0.057125583 -0.14201358 -0.054391716 -0.11516957 0.30606815 -0.125833 0.029816572 0.23176321 0.11906019 0.164535 -0.03152039 0.26817927 0.10653357 0.0059412555 0.053438272 0.20331044 0.10052113 -0.08756316 0.025309375 0.00027046126 0.016580854
pipi 0.041658122 0.34129784 -0.12056515 0.09914467 -0.012884906 -0.24582273 0.15686022 0.4133279 0.07805507 -0.18661736 0.035758123 -0.18119629 0.12042794 0.089703895 0.13446914 -0.15744862 0.05942453 -0.30031177 0.16669054 -0.31123126 0.11910583 0.05675577 0.097308315 -0.085356705 -0.038093504 -0.053447753 -0.12331809 -0.082275964 -0.21554941 0.02729112 0.08122617 -0.065446936 0.11743119 -0.24637024 -0.023961823 0.21231711 -0.06644537 -0.10402109 0.01605293 -0.1513273 0.10316585 -0.12764435 -0.0998811 -0.17910556 0.13054368 -0.017479088 -0.0126136225 0.06892763 0.016076291 0.11218536 0.14036813 -0.14022277 -0.06942704 0.018532118 0.1347739 0.19803686 0.08890253 -0.02720967 -0.16988687 0.15578373 0.055570424 0.028669236 -0.094491936 0.058380086 0.06803544 0.28657156 0.06732479 0.21459901 -0.31907028 0.13987797 -0.04478351 0.13246045 0.19671279 -0.052199464 0.29418918 0.10162009 -0.22525965 0.075815864 0.084873304 -0.160585 -0.13719675 0.080249116 -0.2605959 0.34877163 -0.056307606 0.04457678 0.37877497 -0.055169057 0.3270448 0.082776725 0.34047487 -0.121085845 -0.06875698 0.035298824 -0.03218628 0.13812326 -0.05755324 0.003142735 -0.046854883 -0.09194909
awen -0.00908838 0.19066879 0.0033029849 0.06580102 0.004457636 -0.26285055 0.04796932 0.30912423 -0.11621592 -0.18623216 0.0059264773 -0.17729592 0.206772 0.093016304 0.21304525 -0.029435147 0.12932913 -0.18945691 0.116183 -0.31516692 0.15336865 0.107852496 0.14714581 -0.07969403 -0.03471089 0.05380597 -0.15985015 -0.012287498 -0.04743171 0.107432626 0.1514229 -0.07126224 0.039637007 -0.17463937 -0.103471234 0.21631183 -0.0036848667 -0.07448945 -0.033523347 -0.14708014 0.1592391 -0.04320098 0.00039012893 -0.04054442 0.0064549525 -0.019317556 -0.117539376 -0.06980488 -0.038192287 0.009712582 0.14413978 -0.14837691 -0.16629274 -0.076363586 0.049127564 0.05453064 0.09022395 -0.017128486 -0.07531595 0.03566319 -0.048758805 -0.008399657 0.032445725 0.10096736 -0.01134269 0.2965168 0.059742484 0.15316407 -0.26844794 0.1312624 -0.06243732 0.19624165 0.118410215 0.007775892 0.22300874 0.067377344 -0.11369918 0.14049569 -0.0066874907 -0.061308704 -0.16980319 0.007983345 -0.14667964 0.35547528 -0.10203393 0.016294856 0.20876974 0.014922283 0.1550669 0.005138462 0.27840263 0.05915257 -0.061309926 0.015499655 0.08754122 0.07685657 -0.012304967 0.031501547 -0.011408408 0.02003739
sike -0.0013152952 0.12440485 0.06114259 -0.058604643 0.07708183 -0.30748156 -0.018023016 0.46317846 -0.03332875 -0.23941466 -0.08784864 -0.34189537 0.07232614 0.027252132 0.008012773 0.06763603 -0.060497165 -0.36654282 0.2187777 -0.37212205 0.13320938 0.2228213 0.060493946 -0.02001747 -0.062483393 0.15470375 -0.16530505 -0.053718574 -0.062783405 0.02614464 -0.016611984 -0.028833024 0.0054645627 -0.14461812 -0.1594734 0.25572637 0.04724188 -0.21589488 -0.11643002 -0.076432124 0.18312286 0.010965068 -0.11085198 0.012208786 0.11580899 -0.07393212 -0.07637011 -0.1364143 -0.01663641 0.015727207 0.21458015 -0.15598166 -0.13641837 0.107380964 0.09062251 0.09545637 0.17441018 -0.07904184 -0.12060519 0.03912179 -0.09025894 0.04570908 0.064757764 0.14430432 0.08318579 0.2988616 0.03423594 0.034719538 -0.03675914 -0.004433002 -0.060709894 0.23271069 0.058191653 -0.06176894 0.21404468 0.11211885 0.0029188325 -0.062114704 0.04227566 -0.07872882 -0.15595113 0.012542075 -0.106685475 0.26073667 -0.21620135 0.058026165 0.1798834 0.1675035 0.14521648 0.081350334 0.28622252 0.21506016 -0.110353105 0.13262941 0.24415755 0.121850304 -0.12685789 0.04145217 -0.085912496 0.054504022
kalama -0.08806193 0.15720366 0.17254768 0.07191875 -0.054915957 -0.3120474 -0.0041650604 0.31643954 0.10656472 -0.13286567 -0.23604746 -0.26471007 0.24197002 0.15140934 0.41285843 -0.08110702 0.027991239 -0.1506743 0.06315172 -0.32115358 0.10388567 0.08800181 -0.08960165 -0.10375787 0.077205114 0.14394277 -0.17688335 0.122958995 0.016597167 -0.0906096 0.07426149 -0.16246916 -0.08550322 0.07094052 -0.077526435 0.11216231 0.12647714 -0.1551778 0.12266412 -0.32916853 -0.033693407 -0.2018119 -0.053407177 -0.28900763 -0.0964286 -0.13419053 -0.13551894 -0.048112154 0.039586477 0.08581795 -0.11481783 -0.050176322 -0.15591282 -0.12586653 0.13797508 0.2233782 0.19316894 0.010997922 0.05595023 0.13556352 -0.012011565 -0.05104496 -0.050532036 -0.1223441 -0.21005878 0.4652123 -0.078623906 0.13496476 -0.29453033 0.39806807 0.30597827 -0.068436794 0.3615682 0.1631786 0.17625797 0.039375287 0.021283867 0.07405532 -0.12062879 0.21835315 -0.33477488 -0.037718058 -0.32966897 0.32064044 -0.25530168 0.11273149 0.21266909 0.11888574 0.2786378 -0.4499069 0.0003409495 0.0034896566 0.20194928 0.062185846 -0.054232746 0.20415369 0.0716949 -0.05464421 -0.0070827235 0.014639097
a -0.35198486 0.70112574 0.3982442 0.09168502 -0.23532757 -0.20642696 -0.20998067 0.68949974 0.12968415 -0.10721499 -0.43369865 -0.27700832 0.20109661 0.36299598 0.623123 0.062092632 -0.21646926 -0.06668377 0.21448699 -0.36436662 -0.16487344 0.20820765 -0.058674533 0.03971071 -0.266198 -0.08364443 -0.26232937 -0.15963703 0.115293615 0.10492901 0.10267196 -0.4475459 -0.48396316 -0.09565252 -0.28544357 -0.0437048 0.18959232 0.058148943 0.3496292 -0.6129193 0.19683371 0.21665214 -0.3644568 -0.39538357 -0.24119109 0.13055556 -0.47973672 -0.15648958 0.393491 0.04256337 -0.36255667 0.21468994 -0.0871674 -0.5862582 0.35910282 0.47057566 0.3627794 -0.30240762 0.23191638 -0.12548403 -0.33411512 0.14443107 -0.19138063 -0.020721857 -0.4460266 0.24017772 -0.20022924 0.31351587 -0.22440213 0.5369285 0.23476844 -0.07802683 -0.08808181 0.098503016 0.28718585 -0.18194494 0.25293934 0.26664978 -0.34001914 0.24443856 -0.2547847 -0.3923012 -0.2363093 0.88797134 -0.3452498 -0.23999193 0.29022768 0.17996171 0.4458118 -0.53741217 -0.10332398 0.14109391 0.1747678 0.27180582 0.3369458 0.18867896 -0.29958242 0.24626955 0.021803154 0.24828066
lipu -0.048568346 0.26351038 0.0057987757 0.060032856 0.0013883943 -0.31612644 0.16868275 0.3836094 -0.14386922 -0.2734075 0.17978781 -0.01945043 0.41089734 0.014044685 0.23244287 0.031634573 0.23088664 -0.23925233 0.15277523 -0.30970824 0.112703145 0.081377275 0.18139985 -0.22857009 0.011618316 -0.0020702733 -0.22994852 -0.0776475 0.028121714 0.11667481 0.20253314 -0.0057842927 0.010526198 -0.1944234 -0.12715591 0.27686718 -0.10761288 -0.037630964 0.010916455 -0.3469518 0.28719783 -0.05498373 0.1131199 -0.01888579 0.07849321 -0.049969714 -0.07080464 -0.16465214 -0.040050317 0.016189463 0.03655847 -0.06701252 -0.31666064 -0.09930684 0.037343524 -0.04501883 0.04109475 -0.119624354 -0.098961756 -0.09490246 0.0012708587 -0.05441823 0.24567126 0.058606114 -0.11705337 0.24684869 0.117772296 0.18192211 -0.33877146 0.17102654 -0.05479377 0.2605991 0.096984535 0.14834829 0.27789205 0.075815074 -0.13546853 0.03940715 -0.15064597 0.09033849 -0.06251702 0.03267061 -0.107688904 0.40374398 -0.016884599 -0.17149125 0.18220793 0.046746615 0.025497679 0.062320136 0.31629375 0.045708925 0.010820564 0.08688605 0.15112291 0.07603085 -0.10723987 0.1091988 -0.10845734 0.013390246
kiwen 0.058248486 0.19237365 0.17376234 -0.12725411 -0.073502034 -0.27596402 0.13744034 0.42558268 0.011821425 -0.2818656 -0.20910057 -0.3847374 0.07646725 0.058691688 -0.09797776 -0.08457099 -0.16019297 -0.22394533 0.11519812 -0.35268795 -0.02520804 0.26756185 -0.19691868 0.15650041 -0.09319963 0.18672206 -0.085140266 -0.110867105 -0.16338328 -0.019812578 -0.13842487 0.035843752 -0.12918228 -0.0809958 -0.09937751 0.32774988 0.062842585 -0.3458294 0.033000574 -0.109030284 0.11410912 -0.13684288 -0.24347621 -0.18782853 0.1821039 -0.16259845 0.10587692 -0.18280202 -0.036988284 -0.053797625 0.24485351 -0.33044985 -0.052820385 0.20103276 -0.03093013 0.31673592 0.05311074 -0.06652331 -0.039242595 0.1339717 0.12534072 -0.020779403 -0.0141782435 0.19427083 0.16649108 0.3122757 0.07857344 0.027413476 0.00727039 0.13861357 0.03732041 0.30201837 0.10129105 -0.22749493 0.29568458 0.3644744 -0.1821679 -0.009107165 0.10787908 -0.063030794 -0.0423123 0.03367415 -0.21165228 0.38188884 -0.29217508 0.09519435 0.25417128 0.21524823 0.22250332 0.076605484 0.38792717 0.13576199 -0.047460552 0.05103184 0.3097746 0.11789209 0.081415504 -0.11269869 -0.09960427 0.0012217492
mije 0.047630593 0.24891974 -0.011237866 0.10664362 -0.036768813 -0.2504625 0.0767791 0.33993024 0.029665222 -0.12740408 -0.08968874 -0.27630982 0.14059675 0.11996038 0.20603187 -0.041730653 0.045232274 -0.24549565 0.20341685 -0.2891081 0.1579328 0.09398527 0.12348089 -0.056061596 -0.09023803 0.019542234 -0.08865053 -0.046593186 -0.12719895 0.06864283 0.14335492 -0.070904754 0.07154945 -0.19490594 -0.08138452 0.13749284 -0.01712173 -0.13179934 0.057142124 -0.08629723 0.11387919 -0.09921412 -0.086599864 -0.08960677 0.046651203 0.009944954 -0.015038552 0.0064548776 -0.0045732884 0.026709177 0.2172176 -0.12514435 -0.052098524 -0.07121788 0.15686598 0.21769284 0.1330713 0.045758918 -0.16485319 0.16202453 -0.09354622 0.05423524 -0.15937877 0.1553242 0.10014609 0.32047558 -0.04813894 0.12660034 -0.18829305 0.06310276 -0.026532073 0.08450168 0.16367774 -0.07975593 0.2898128 0.0733076 -0.12026988 0.12689936 0.14751104 -0.1264657 -0.20388241 0.010821564 -0.16507243 0.33145726 -0.0873295 0.03376496 0.34286365 0.02617803 0.3155216 -0.031525638 0.2668143 -0.05269164 -0.06361074 -0.0116681205 0.037434 0.071594745 -0.06672923 -0.01810982 0.04171667 -0.03466442
poka 0.033441532 0.11980014 0.06039518 -0.019021258 -0.027928803 -0.21624833 0.038558558 0.32463947 -0.0936874 -0.21771087 -0.11302047 -0.30138308 0.07999418 0.087828875 0.060152218 -0.0835381 -0.008380281 -0.19217026 0.09584908 -0.31928393 0.101774715 0.13323075 0.009872571 0.012809976 -0.04085931 0.14866301 -0.13275947 -0.0019511601 -0.11563403 0.042094775 -0.020591898 -0.01673938 0.008028305 -0.1012199 -0.0964361 0.22274548 0.040198483 -0.23182654 -0.09083576 -0.032248173 0.04960972 -0.095280275 -0.086108185 -0.059374817 0.06033863 -0.10893614 -0.0186482 -0.10494594 -0.061395384 0.031739186 0.19556142 -0.24164073 -0.058256637 0.07349987 -0.013703632 0.13417272 0.09273086 -0.031787593 -0.060720384 0.10076059 0.048387554 -0.011957065 -0.0153747145 0.14001074 0.04658113 0.31173712 0.052027397 0.11684302 -0.15267143 0.16793667 -0.03904803 0.22175133 0.11513357 -0.14359775 0.24662593 0.20616232 -0.15365681 0.124765195 0.08249021 -0.078355655 -0.135487 0.055727456 -0.1957628 0.3392332 -0.1856489 0.07435607 0.21589397 0.08264468 0.16647227 0.025522292 0.3412876 0.087192684 -0.08223803 -0.0016824694 0.15159014 0.13528806 0.056637753 -0.080776356 -0.06447137 0.015674662
insa 0.019220248 0.1488073 0.089759804 -0.10207621 -0.12920983 -0.26140636 0.11457111 0.35073072 -0.019250052 -0.2041389 -0.17438887 -0.34697768 0.07629817 0.066882774 0.026317582 -0.17554906 -0.08691812 -0.16989036 0.11213996 -0.34424123 0.061526794 0.189891 -0.15176265 0.15470327 -0.09014866 0.20122145 -0.13491611 -0.042714134 -0.10725709 -0.025265656 -0.1001075 0.02620598 -0.09508629 -0.034489546 -0.054561276 0.24137853 0.11891422 -0.3086661 -0.025444167 -0.053537335 0.030918993 -0.18293907 -0.17180532 -0.15154968 0.051433288 -0.14988218 0.038835883 -0.12670064 -0.05161437 0.025741164 0.1919411 -0.3040417 -0.027086213 0.16636518 -0.044958778 0.27547288 0.12296983 -0.035700846 -0.06020537 0.1790903 0.13456419 -0.03176164 -0.06761502 0.14207453 0.10980089 0.33980802 0.065377876 0.0828216 -0.13333078 0.2134698 -0.022987105 0.26284614 0.15362468 -0.20843102 0.27403095 0.33445072 -0.19852477 0.11983636 0.04816934 -0.025918659 -0.10375216 0.096293636 -0.21670122 0.39569476 -0.27505025 0.10192452 0.18187127 0.16803615 0.20714171 0.013689654 0.39814407 0.058589526 -0.07031258 -0.010706464 0.17753032 0.15081477 0.18516836 -0.1336211 -0.09327744 -0.0010871791
mani -0.0059032785 0.20100628 0.09073327 0.13016944 -0.004150603 -0.27495217 0.21154973 0.32649496 -0.18290965 -0.28625625 0.110498555 -0.0042566517 0.44041246 0.03267366 0.25271186 0.046567623 0.27231187 -0.21157363 0.16771875 -0.27129543 0.18350069 0.08143205 0.19601622 -0.22006224 0.05099897 -0.032636218 -0.23710404 -0.025290737 0.033051223 0.14431508 0.15007514 0.014456765 -0.011849285 -0.22038983 -0.11415997 0.29021007 -0.08255374 -0.047959544 0.023849899 -0.36180192 0.22482964 -0.1110202 0.18171147 0.079446815 0.17204519 -0.033692945 -0.08506993 -0.18878345 3.829154e-05 -0.042668752 0.055959594 -0.010414688 -0.32588562 -0.17061879 -0.00891728 -0.10691996 0.025175069 -0.10697702 -0.11360149 -0.0675526 -0.05953917 -0.030612249 0.22508112 0.07749048 -0.17423537 0.2679832 0.068352506 0.22926669 -0.26800388 0.16377372 -0.056852397 0.23597941 0.11059104 0.16840181 0.30644432 0.04379962 -0.07867495 0.0681817 -0.114359476 0.0839227 -0.04741079 0.015554111 -0.093473025 0.38378903 0.060889073 -0.17103708 0.245052 0.03793687 0.06293754 0.036946848 0.2882893 0.04900146 -0.011655143 0.064826004 0.14578024 0.06672766 -0.13191348 0.11658626 -0.094994776 -0.004287801
seli 0.088747114 0.13578603 0.109023824 -0.00783155 -0.088161804 -0.24365452 0.0937428 0.34252533 0.0005740298 -0.19148125 -0.20894113 -0.38620564 0.025669115 0.10684036 0.037734997 -0.114013314 -0.030760324 -0.18059286 0.07955485 -0.3423662 0.10390184 0.2015579 -0.09257903 0.09676741 -0.044950567 0.14576598 -0.123563334 -0.01595569 -0.14176169 0.022819163 -0.031357627 -0.011174346 0.0035473492 -0.11857254 -0.10047219 0.24665108 0.089301206 -0.26897243 -0.019323407 -0.04399441 0.010440112 -0.14697696 -0.11809415 -0.11294452 0.09745343 -0.1501369 -0.00726608 -0.09608649 -0.058964983 0.0039018947 0.24431086 -0.26344365 -0.03940995 0.1144797 0.008100409 0.24309544 0.09468472 0.019599887 -0.097198166 0.16488299 0.021814372 0.0016210164 -0.0712346 0.13692121 0.12730439 0.33358628 0.022966813 0.07302017 -0.052428108 0.12490272 0.015320225 0.17654553 0.119280376 -0.19942586 0.26794252 0.24560903 -0.12747693 0.13155274 0.11626555 -0.09959654 -0.1623962 0.06592736 -0.18099621 0.30258352 -0.21917617 0.14597508 0.25118205 0.13084035 0.27017632 0.00019610306 0.3185953 0.050172564 -0.06188474 -0.06293502 0.13478635 0.097415626 0.101223856 -0.07604266 -0.010060948 0.022035828
pakala 0.047542486 0.07773187 0.13256587 0.14208458 -0.10532021 -0.19205083 0.07313756 0.21540743 -0.12004184 -0.17766331 -0.14773121 -0.25758713 0.15530483 0.17155825 0.23692687 -0.039558113 0.17843571 -0.10913107 -0.04068591 -0.30271995 0.11512318 0.100047 0.07358984 -0.03628601 0.017793214 0.124136046 -0.17517985 0.06655038 -0.0688645 0.16413961 0.059476726 -0.08686588 0.031422142 -0.1817509 -0.14471036 0.17758173 0.075932555 -0.15499008 -0.034012157 -0.10370126 -0.051758524 -0.1773111 0.033572588 -0.0022016107 0.045351584 -0.09552293 -0.09506218 -0.12403548 -0.03706703 0.021783415 0.11419733 -0.14811221 -0.11585297 -0.11930336 -0.009523307 0.06344072 0.111763224 0.004592483 -0.018882222 0.10300574 -0.08275999 -0.062946945 -0.030218158 0.1345162 -0.092113644 0.4091381 -0.018220898 0.17660655 -0.21402098 0.1964686 0.03930437 0.12938973 0.18955134 -0.058936443 0.245108 0.10202488 -0.12088001 0.2690418 0.03647206 -0.03403717 -0.19205385 0.015179529 -0.10097824 0.30037653 -0.051110707 0.08440372 0.19972263 0.020916818 0.20816535 -0.1207124 0.23119922 0.043760926 0.013464766 -0.1142869 0.11118907 0.088464536 0.029419938 -0.06425666 0.03700641 0.010037156
