302 100
li 0.005245297 0.110593736 -0.15521565 0.2705372 0.018983904 -0.31848645 0.3328285 0.55848014 -0.3011594 -0.053558912 0.008225162 -0.30274722 0.10228857 0.13640846 0.058883257 -0.098487355 0.098924324 -0.2791382 -0.30557096 -0.65057474 0.25547305 0.1416082 0.1866097 -0.21441346 -0.017015425 -0.07535631 -0.15388596 -0.0121725425 -0.27535185 0.023353444 0.19614768 0.014466856 0.38330427 -0.41778377 -0.02501463 0.4017907 0.16886678 0.02985798 -0.032498043 -0.3428935 0.0690473 -0.221196 -0.26533592 0.027136248 0.20934512 -0.04444739 -0.17213805 0.008735774 0.20280746 0.14094943 -0.0011958906 -0.18141441 -0.052409593 -0.124375336 0.1678204 0.11745 0.10259944 0.029589152 -0.25114807 0.27697164 0.11662709 -0.13477682 0.14902273 -0.14358737 -0.23342162 0.43474138 0.12215044 0.4307022 -0.2327455 0.3313326 -0.09800117 0.1394757 0.18091944 0.08767219 0.27190068 -0.09283471 0.14791425 -0.05211565 -0.024680354 -0.11159578 -0.1313715 0.034235697 -0.3461521 0.23754779 -0.15244149 -0.31858513 0.36854085 0.14149383 0.24644887 0.19139504 0.31793553 0.24720858 0.22351612 0.102059714 0.48160523 0.053106364 0.11543476 0.02407196 -0.012634377 -0.1078865
. -0.0030389796 0.12085488 -0.13132322 0.26593566 0.05201564 -0.28890356 0.28123215 0.53731203 -0.26439926 -0.043785855 -0.034684803 -0.31860036 0.09383748 0.13805814 0.09274133 -0.090649344 0.10678687 -0.28148475 -0.27806836 -0.66218674 0.29497066 0.12989637 0.18516895 -0.23958473 -0.020970669 -0.052874576 -0.19596533 0.01958591 -0.27052706 0.07235519 0.24563532 0.0015371289 0.39219332 -0.44240403 -0.021251086 0.40650934 0.16646942 0.054091968 -0.052091487 -0.26690516 0.053458802 -0.21900482 -0.29159954 0.057192456 0.1620417 -0.079234846 -0.13544682 -0.016100911 0.17488667 0.1385142 0.04546398 -0.22168155 -0.03083968 -0.113786876 0.1397184 0.11905509 0.104694024 0.04696868 -0.2612569 0.2830211 0.11595336 -0.14009614 0.14858723 -0.11816852 -0.22487447 0.45626923 0.1394025 0.40763402 -0.23383974 0.35663253 -0.120835364 0.14281708 0.18976715 0.06805469 0.2577543 -0.12350912 0.10861818 -0.044909943 0.0011332716 -0.094552994 -0.18893738 0.030386247 -0.32729316 0.23237626 -0.16363277 -0.3026155 0.3734624 0.12204428 0.2512971 0.16113587 0.37238666 0.22482696 0.21963768 0.07564793 0.43141106 0.05197532 0.092623554 0.04710882 -0.052768633 -0.08218709
e -0.12709728 0.004481258 -0.25160715 0.173859 -0.026110131 -0.17570838 0.11274029 0.65422875 -0.23770338 -0.090956606 -0.035115447 -0.2911259 0.07866576 0.14525683 0.12281745 -0.22571851 0.1574105 -0.35839766 -0.12337236 -0.59280646 0.38180956 0.09776114 0.05671308 -0.32234496 0.03120195 -0.12406642 -0.16204442 0.21314755 -0.28545225 0.07433434 0.32025975 -0.085651256 0.25245073 -0.5016495 0.0024170163 0.34423527 0.17485194 0.048578076 -0.123036705 -0.18746617 0.013404623 -0.12078898 -0.34290728 0.106368594 0.1496745 -0.1605286 -0.06572884 0.034503844 0.04230547 0.0841032 0.064877026 -0.25946337 0.013853032 0.033313207 0.10075433 0.11136541 -0.011275925 0.08492266 -0.17826119 0.17527753 0.10122925 -0.044425983 0.34386244 -0.1293984 -0.2868121 0.46380153 0.16207308 0.4527304 -0.29622075 0.30019698 0.014641454 0.35881993 0.14612247 -0.118927576 0.24041983 -0.06324542 0.101237096 -0.045166746 -0.05192853 -0.09305702 -0.25051522 -0.034077767 -0.39245614 0.22549298 -0.20677516 -0.3118654 0.29058528 0.03234326 0.18893254 0.28284067 0.24439096 0.18748808 0.25060824 0.07892841 0.4536866 0.08156471 0.1972245 0.15300255 0.041469127 -0.03725897
jan -0.123771764 0.12035345 -0.22403188 0.21658465 -0.02683916 -0.25776443 0.24493918 0.6857683 -0.20317163 -0.11658676 0.0117464885 -0.25455466 0.07703148 0.18428172 0.14986968 -0.24559128 0.19457905 -0.43570206 -0.271702 -0.5492004 0.31224918 0.12159593 0.035625912 -0.24432015 0.0114835 -0.1286813 -0.2222375 0.03798782 -0.23843965 -0.0015840246 0.23846446 0.0062107765 0.1276891 -0.5167234 -0.0077411565 0.36751577 0.12724374 -0.03639642 -0.0609049 -0.29139104 0.061388418 -0.19036727 -0.18433632 0.018253537 0.27098224 -0.057856623 -0.19959757 0.042926513 0.121277414 0.15346038 0.14789963 -0.24343027 -0.060209893 -0.09235887 0.06892085 0.1571251 0.034137763 0.08406412 -0.24251185 0.1833188 0.02465444 -0.015334839 0.30476257 -0.14551069 -0.22562939 0.394368 0.046605874 0.53688174 -0.2690447 0.2548088 0.041125614 0.21890692 0.12298168 -0.0060911537 0.2651845 -0.10332074 0.10588641 0.051104024 -0.030297985 -0.0616676 -0.24210986 0.02823796 -0.37428677 0.23525499 -0.054674078 -0.3140269 0.4122834 0.15423802 0.2367727 0.25261346 0.32687843 0.17120893 0.19361757 0.030107189 0.4546566 0.13044442 0.19204286 0.09209219 -0.004356548 -0.075856306
mi -0.14462064 -0.03753601 -0.22611248 0.14815514 -0.05687859 -0.11108625 0.03898282 0.66026866 -0.18272686 -0.083338894 -0.0943907 -0.2742318 0.013798367 0.10632195 0.15203473 -0.25128627 0.16554725 -0.4062961 -0.043081902 -0.6131557 0.49000722 0.108445436 0.023614895 -0.3041534 -0.028444637 -0.11766404 -0.22889665 0.2822204 -0.28514093 0.08880403 0.330011 -0.1241903 0.21569881 -0.53744733 0.017819885 0.28710818 0.14725845 0.07773686 -0.19066463 -0.0733917 -0.03478942 -0.049950156 -0.39057818 0.19533227 0.10790421 -0.24535264 -0.043895513 0.05370003 0.0058235694 0.10993761 0.06976127 -0.26297987 0.10331133 0.10100695 0.09387978 0.104929015 -0.035572175 0.056250297 -0.1510304 0.141838 0.07456519 -0.010023441 0.34233707 -0.13918534 -0.29446155 0.43604425 0.13774821 0.47232854 -0.26830146 0.27825212 0.008290903 0.44866088 0.11061839 -0.22490136 0.22677454 -0.051724497 0.05608417 -0.020056995 -0.063388385 -0.121895656 -0.32813886 -0.052381035 -0.3302525 0.22393009 -0.24623406 -0.2296278 0.25056374 -0.01124442 0.096222 0.27209395 0.27208778 0.10422946 0.23459467 0.090785004 0.3663941 0.059362087 0.13557827 0.21301368 0.026703078 0.03740177
ni -0.17705567 -0.05393433 -0.29024872 0.088932656 -0.03779566 -0.16309443 0.10695098 0.6639333 -0.24074608 -0.14067933 -0.037682198 -0.29455712 0.0602232 0.062209126 0.09622234 -0.23199306 0.13237116 -0.37033528 0.002321473 -0.5850303 0.3766677 0.08009287 0.10271785 -0.27329332 0.006502745 -0.13559711 -0.12508918 0.25838038 -0.286436 0.034732055 0.344108 -0.13048805 0.24424496 -0.42517012 0.049301624 0.3319564 0.17893448 0.059483215 -0.09897461 -0.11047057 0.07112483 -0.0885661 -0.39945713 0.09537593 0.09784806 -0.16969807 -0.014916402 0.055236805 0.04100487 0.030430753 0.010879453 -0.26785737 0.051647343 0.14515074 0.09720003 0.08363749 -0.00045124174 0.124545604 -0.0896856 0.12815455 0.13181332 -0.012772327 0.368262 -0.144873 -0.28841186 0.43383208 0.17328897 0.38030133 -0.29817447 0.21393615 0.013382711 0.43217334 0.1839725 -0.13797402 0.25977424 -0.07129175 0.050392304 -0.089667 -0.06740749 -0.092689745 -0.21011809 -0.05503751 -0.37194663 0.22137935 -0.25291935 -0.30971363 0.20023668 0.0026217515 0.12946653 0.26995042 0.19047275 0.22262739 0.23212461 0.11570501 0.49346057 0.063257314 0.2389532 0.13991535 0.095322885 -0.03470983
pi 0.043637704 0.17889981 -0.12964615 0.28205794 0.013473539 -0.28846243 0.30957758 0.57656276 -0.28504324 0.028323421 -0.018240586 -0.30781123 0.06477392 0.1311556 0.1359835 -0.12635429 0.16957693 -0.39779937 -0.35136545 -0.72566664 0.3487057 0.13661262 0.13898961 -0.26217982 -0.11209598 -0.080988064 -0.28518593 -0.1534072 -0.21520118 0.061665587 0.26223853 0.071365654 0.35832727 -0.4910106 -0.056521654 0.43935993 0.12954277 0.012423669 -0.07698226 -0.42374265 0.04149211 -0.24700141 -0.18797769 0.059060037 0.23050317 -0.043433763 -0.19620503 -0.02896749 0.1787436 0.18021563 0.0900999 -0.16584033 -0.039681237 -0.10282531 0.105705254 0.097524464 0.12636635 -0.04326651 -0.3256036 0.27922633 0.09712957 -0.0893035 0.13391931 -0.18766625 -0.20226638 0.4538777 0.0791805 0.47095004 -0.25474524 0.28635782 -0.116257116 0.10664259 0.10005149 0.09883989 0.25052568 -0.13510771 0.13691515 0.038793635 -0.012574624 -0.079823256 -0.16988535 0.042211827 -0.3258882 0.24471311 -0.116123855 -0.2966281 0.42680696 0.21873361 0.2642086 0.19897644 0.42094654 0.1517407 0.17703256 0.06375797 0.4212691 0.043833643 0.05757414 0.0480578 -0.08256673 -0.105678305
tawa -0.00933869 0.11306786 -0.10488639 0.25804016 -0.0016624294 -0.24648741 0.22846241 0.48123294 -0.20208928 -0.035426494 -0.034568913 -0.23944156 0.083110765 0.15364426 0.096905254 -0.1253668 0.11340618 -0.3048357 -0.312649 -0.5841844 0.24996743 0.14720567 0.06618759 -0.20787537 -0.021311315 -0.04714061 -0.1954822 -0.0130265495 -0.23423643 0.09370142 0.1673785 0.034361657 0.27115425 -0.45266044 -0.071427666 0.34445697 0.10243671 0.004829056 -0.058160283 -0.2965752 0.01366053 -0.19011946 -0.1929451 0.052594654 0.20892695 -0.09667013 -0.17176671 0.0041758795 0.14601894 0.16073473 0.06330939 -0.20594305 -0.020327127 -0.15520056 0.097632036 0.143102 0.03467002 0.007950996 -0.26763046 0.2483834 0.08531759 -0.11454837 0.15761141 -0.10443922 -0.20577495 0.39386466 0.07144148 0.46002427 -0.21879646 0.31519926 -0.04312575 0.1333592 0.12793718 0.047322016 0.20220606 -0.05363555 0.110121995 0.023343777 -0.0039285026 -0.10145353 -0.1801019 0.03511166 -0.3123951 0.20292272 -0.080089495 -0.24748598 0.37944213 0.14751677 0.24571504 0.18232138 0.37038052 0.16997547 0.18478693 0.072793014 0.34414607 0.06687307 0.068816535 0.05814706 -0.030902453 -0.08242843
ona -0.080173306 0.073847614 -0.17425221 0.21046129 0.042628285 -0.24533975 0.24675496 0.5165907 -0.23304313 -0.06462224 -0.01877244 -0.25910717 0.11886885 0.12560005 0.08629815 -0.12565355 0.048781455 -0.28560054 -0.2294215 -0.56077 0.22844008 0.13766143 0.13906553 -0.20630331 0.03166036 -0.06234279 -0.11484097 0.045906227 -0.24849515 0.017174397 0.1993252 -0.002054735 0.3099954 -0.3428606 -0.016093478 0.3691379 0.13502485 0.018804315 -0.048737254 -0.26569232 0.040985685 -0.15048221 -0.26686656 0.022197524 0.15880798 -0.09095796 -0.120660685 0.0019858205 0.12085002 0.090362035 0.019465666 -0.23040472 -0.044248935 -0.0765197 0.14807025 0.092168055 0.04182289 0.058386125 -0.19692649 0.19677326 0.10987193 -0.12442007 0.23346853 -0.12240119 -0.25092348 0.38337007 0.124259956 0.3754694 -0.25036934 0.31693637 -0.08012354 0.19268605 0.16581586 0.05163668 0.21444541 -0.07120524 0.087267295 -0.058116518 -0.038486402 -0.100475885 -0.11641363 0.018379185 -0.3410556 0.20109628 -0.15224712 -0.27708554 0.31176817 0.08787436 0.18234326 0.18882129 0.26607937 0.25146237 0.2074756 0.0920286 0.45732388 0.07535733 0.14506277 0.07195268 0.027210873 -0.09068989
toki -0.2699551 -0.1770269 -0.41113216 0.013733309 -0.09419644 -0.07440829 -0.045222677 0.8385574 -0.2378566 -0.20182247 -0.04056298 -0.3333026 -0.0083565 0.025727907 0.20168218 -0.3309111 0.28243333 -0.5493651 0.22178577 -0.5670764 0.59290457 0.073957264 0.011353955 -0.4242595 0.023882426 -0.25363985 -0.23821908 0.469152 -0.29128206 -0.05716615 0.48450756 -0.2314906 0.09127014 -0.4641089 0.083206415 0.291183 0.17097697 0.063538946 -0.20493163 0.049874928 0.064342014 0.013093139 -0.4496769 0.17026375 0.09232625 -0.1843177 0.0013722894 0.10496539 -0.06824196 0.043160204 0.057210524 -0.23852684 0.11220342 0.38499036 0.057212196 0.053157717 -0.027625712 0.19437923 0.022441672 0.05090681 0.048510585 0.19784123 0.46838185 -0.15360366 -0.3340221 0.43160865 0.098124586 0.3979892 -0.27410778 0.10285319 0.112634644 0.6465795 0.13085502 -0.38966697 0.33207273 -0.17451401 0.07490619 -0.11138513 -0.09721585 -0.094230756 -0.3526187 -0.14352387 -0.41631365 0.29891855 -0.27376845 -0.26539746 0.069507174 -0.076066725 0.04394585 0.33023673 0.091342434 0.11242406 0.23961958 0.10607375 0.48779473 0.08591767 0.2773949 0.25685042 0.15518753 0.06750031
la -0.043140158 0.059989393 -0.12855281 0.20712376 -0.02778927 -0.22058012 0.12105007 0.5987083 -0.23228554 -0.035457313 -0.04107015 -0.29701072 0.063363686 0.11476385 0.14003552 -0.16476849 0.102264255 -0.3709203 -0.19106978 -0.6588408 0.39021096 0.12050269 0.1050441 -0.30368513 -0.06875174 -0.06778225 -0.21468519 0.053969722 -0.2251147 0.11566952 0.27920252 -0.04267707 0.39672434 -0.4834515 -0.017512023 0.38288423 0.15535988 0.056144264 -0.1351897 -0.25313318 -0.003190556 -0.12506758 -0.33538342 0.12778102 0.09500361 -0.19350137 -0.0762101 -0.0018782279 0.06098489 0.124835975 0.04380858 -0.24151275 0.00042202792 0.019453868 0.1345059 0.09520764 0.020271221 -0.002978341 -0.20448674 0.21533681 0.12255849 -0.078706756 0.23092455 -0.16176574 -0.25491363 0.4620159 0.15902032 0.4220448 -0.27781337 0.31614974 -0.07153901 0.2869801 0.10892612 -0.045723297 0.21116622 -0.035430517 0.08219524 -0.044622 -0.045990117 -0.09338565 -0.19590136 0.026920514 -0.32786363 0.24442187 -0.25454274 -0.24273194 0.3205548 0.075876564 0.18175869 0.26647842 0.3650771 0.1511564 0.21473545 0.1170508 0.3969326 0.051639367 0.081762806 0.13611646 -0.026046805 -0.064538755
pona -0.12330738 0.005692822 -0.20190479 0.16102631 -0.039618548 -0.15496218 0.077300005 0.5723389 -0.17541322 -0.10016456 -0.03907178 -0.2353429 0.034564625 0.118934 0.13694476 -0.2361999 0.1376119 -0.37000167 -0.106221735 -0.5418146 0.3621416 0.0860826 0.015862351 -0.26191166 0.0063248966 -0.11171844 -0.19799238 0.22027108 -0.24313444 0.059371978 0.25812683 -0.08905321 0.17070459 -0.4335457 0.006099391 0.27004138 0.1308496 0.034400415 -0.13807686 -0.11132072 -0.016137764 -0.10559576 -0.2893232 0.11467946 0.121153176 -0.16509284 -0.043918587 0.044444133 0.01994625 0.12958111 0.06898984 -0.24221605 0.05177295 0.05564552 0.06953323 0.1208107 -0.013644803 0.07352117 -0.15031286 0.14972539 0.058285087 -0.027703213 0.30536854 -0.12100179 -0.2524427 0.38172776 0.117250755 0.43730313 -0.24667297 0.26912412 0.02574211 0.3383226 0.12390077 -0.12992454 0.2079492 -0.054199018 0.055615056 -0.002078364 -0.033690944 -0.10158255 -0.25687954 -0.011819606 -0.32419303 0.19387242 -0.15183234 -0.2288882 0.23333514 0.0069657555 0.1615372 0.24324872 0.24844146 0.11846239 0.20135994 0.07975774 0.3470848 0.065322205 0.13919412 0.14117979 0.0064964243 -0.0020651422
ala -0.112991996 0.006031036 -0.2058037 0.14891401 -0.0038811862 -0.16471134 0.110664174 0.58559513 -0.19519964 -0.07957052 -0.05975648 -0.27095923 0.07403984 0.1012161 0.07615688 -0.21142565 0.09275237 -0.32748684 -0.09649318 -0.55571306 0.33143944 0.10045109 0.06136801 -0.24704564 0.0072750812 -0.07436071 -0.16089581 0.16255768 -0.25232956 0.07529309 0.2445886 -0.050576035 0.2776362 -0.428888 0.008318154 0.3236207 0.13168728 0.027884938 -0.09735714 -0.1771542 0.007592766 -0.07862292 -0.33386073 0.0766868 0.10383707 -0.17982537 -0.01792016 0.0038621507 0.034376957 0.06897526 0.054364614 -0.25777465 0.015023614 0.023675429 0.1249183 0.077621855 -0.027511504 0.07045022 -0.15510279 0.18806876 0.10433027 -0.073125914 0.29630932 -0.13571848 -0.25005266 0.39515388 0.19279526 0.374748 -0.276908 0.27429292 -0.022085607 0.32488516 0.13051486 -0.10239093 0.19435278 -0.032932095 0.059605412 -0.065714136 -0.048685033 -0.090966105 -0.20107497 0.012558471 -0.34549007 0.21183556 -0.22087264 -0.27248356 0.28519115 0.0358263 0.14402902 0.2584154 0.22504112 0.18256406 0.23047698 0.081176706 0.43007514 0.045238357 0.17804912 0.15318763 0.040776003 -0.032301646
lon 0.04371009 0.19832885 -0.066857375 0.2998278 0.023500016 -0.29857555 0.26172188 0.43839 -0.23307209 0.061696216 -0.056982253 -0.2694874 0.08545476 0.14283241 0.08636295 -0.07463366 0.083650716 -0.29587892 -0.39196804 -0.6740481 0.2622653 0.15984832 0.10962477 -0.17990136 -0.077989474 -0.0074181496 -0.24330397 -0.16487549 -0.21277387 0.1269871 0.19740736 0.09300953 0.42822623 -0.46448615 -0.073533095 0.40998396 0.10437888 0.04353775 -0.032345302 -0.41555473 -0.006509935 -0.23538077 -0.18845864 0.061904814 0.17576365 -0.11766409 -0.16402625 -0.02948949 0.18633723 0.16510172 0.05723549 -0.18045866 -0.0389746 -0.18679501 0.14966044 0.12793668 0.09717977 -0.07220429 -0.33113557 0.32184523 0.12270003 -0.16406381 0.097702354 -0.14652504 -0.17822511 0.40820628 0.14175014 0.44604924 -0.21219294 0.35921553 -0.1351066 0.036569722 0.09041097 0.13585305 0.20517322 -0.027914142 0.08621984 0.03982091 0.011186786 -0.096392445 -0.13235028 0.073000155 -0.2686235 0.2081213 -0.11449672 -0.23825051 0.44166097 0.20216192 0.27459523 0.16527842 0.4550371 0.1943928 0.21367222 0.071933106 0.34378707 0.0077900025 0.0076672025 0.05139825 -0.0943999 -0.08824061
mute 0.037665 0.16732337 -0.07889706 0.20875771 0.014040816 -0.25008127 0.21569969 0.5042554 -0.19284904 -0.016961148 -0.024507022 -0.31030592 0.032040443 0.056135174 0.112394005 -0.10545708 0.13585413 -0.3350595 -0.24329874 -0.61972696 0.346697 0.1138561 0.14479545 -0.2516911 -0.12867379 -0.040768374 -0.24597937 -0.087666504 -0.16757858 0.051933326 0.1876584 0.0039034185 0.34672073 -0.45259762 -0.044263937 0.3205334 0.13480657 0.06300517 -0.09090752 -0.26261306 0.022368995 -0.17193176 -0.1975854 0.083666116 0.15229447 -0.0954547 -0.12722613 -0.019443214 0.14188235 0.16960928 0.06755526 -0.13953233 0.017498225 -0.063342504 0.07611479 0.06275401 0.117802896 -0.04777675 -0.23108838 0.2248501 0.09565505 -0.10025872 0.104928754 -0.12873642 -0.15190254 0.4120836 0.0845209 0.37837645 -0.2106787 0.24315597 -0.11447374 0.12508388 0.12676993 0.03292942 0.19068027 -0.0802432 0.11092587 0.0005410859 -0.009012302 -0.07335248 -0.20047536 0.014787098 -0.25980484 0.19897039 -0.13002157 -0.2268224 0.35659084 0.16224216 0.18948883 0.17896244 0.37999326 0.1195133 0.15117049 0.060615942 0.3519691 0.025562834 0.0053856405 0.08703933 -0.09598471 -0.06591229
: -0.2142621 -0.081044115 -0.2887515 0.08612954 -0.0649184 -0.13046157 0.009285542 0.66880715 -0.20814356 -0.14476708 -0.04104005 -0.27786762 0.0322071 0.11097364 0.127816 -0.28524607 0.17841679 -0.39143378 0.057472523 -0.47960067 0.40808538 0.100753166 -0.032283485 -0.31093004 0.041485272 -0.1695442 -0.17849727 0.338186 -0.2662544 -0.02061366 0.33415222 -0.153085 0.1078495 -0.43583238 0.03763987 0.28945765 0.14886318 0.0232508 -0.113913134 -0.05866498 0.056000955 -0.045648944 -0.3503168 0.13301855 0.11425827 -0.13217309 -0.057423998 0.07023298 -0.017593686 0.023286335 0.059884686 -0.2559474 0.05934932 0.1820549 0.0686212 0.12595497 -0.040900316 0.15546535 -0.038833413 0.11211135 0.03915808 0.08755154 0.36709112 -0.12581657 -0.2614424 0.36560154 0.11493381 0.42288536 -0.24135934 0.18321435 0.078588456 0.46667188 0.12483106 -0.24373312 0.28182104 -0.059843544 0.04747078 -0.04888637 -0.06273821 -0.09913779 -0.28671575 -0.056054905 -0.36404097 0.2346009 -0.20062004 -0.22527777 0.1681402 -0.051594004 0.13166253 0.3014953 0.14496815 0.14696926 0.22278889 0.07944767 0.39510444 0.09963908 0.2634113 0.21255228 0.11525735 0.026396707
kama -0.022696417 0.10128976 -0.12207504 0.22477598 0.010769337 -0.22735189 0.19821037 0.54468167 -0.19961768 -0.0060876785 -0.05272717 -0.2704235 0.05195552 0.1384287 0.10435338 -0.12869982 0.08765702 -0.3556198 -0.26086396 -0.6185707 0.32450047 0.13416082 0.07752329 -0.23136285 -0.06667519 -0.053829316 -0.19634454 -0.045420274 -0.21296991 0.080752656 0.23835893 0.00889217 0.30749568 -0.45155945 -0.030215688 0.3679921 0.13117014 0.036838513 -0.081465356 -0.31123427 0.015025325 -0.17646699 -0.23770636 0.073210105 0.16666135 -0.11558917 -0.14747186 0.0040673953 0.12670255 0.14989837 0.061838284 -0.20909926 -0.0036377923 -0.06943873 0.12844749 0.12890817 0.048871055 -0.024548076 -0.25570065 0.23011562 0.093030356 -0.08739262 0.18262897 -0.1467737 -0.20630765 0.39626446 0.09170601 0.43106893 -0.22389624 0.293801 -0.05782312 0.16880423 0.09994076 0.009112156 0.20325857 -0.090152234 0.095164396 -0.002290393 -0.007857923 -0.08757312 -0.16928017 0.025571564 -0.31109208 0.1973393 -0.14306968 -0.24391952 0.33943632 0.12790036 0.20826559 0.19231379 0.36499444 0.15713671 0.21591164 0.08536268 0.35045543 0.056716353 0.05128278 0.091550425 -0.054223716 -0.05732199
ma 0.114247926 0.30133298 -0.03776504 0.34800026 0.09124927 -0.4074496 0.47798368 0.47455654 -0.287431 0.06581565 -0.00013736944 -0.34101138 0.15472957 0.13658722 0.09363302 -0.053669665 0.13246869 -0.34946567 -0.52141297 -0.78820884 0.15324318 0.14881217 0.122137666 -0.15783149 -0.16348018 -0.03855745 -0.25943598 -0.33494225 -0.19448009 0.0551099 0.18428645 0.1594295 0.38021 -0.44587806 -0.09334165 0.45534286 0.11504064 0.030931512 0.10461723 -0.5705637 0.10116425 -0.39758846 -0.062963165 -0.017202634 0.30634478 0.014137047 -0.32856786 0.017055757 0.3161277 0.22939064 0.04596869 -0.092438534 -0.054437354 -0.32697296 0.17508936 0.19634502 0.21783213 -0.06811897 -0.3841699 0.42470223 0.064326696 -0.214235 -0.0075773266 -0.17273521 -0.14589284 0.38726506 0.02607497 0.49920136 -0.13649678 0.3213719 -0.16041324 -0.14445636 0.13042408 0.28309503 0.2893659 -0.1330059 0.15371312 0.07706175 0.039056726 -0.08400579 -0.105486 0.10019802 -0.28112367 0.24809426 0.02596149 -0.27942994 0.48605376 0.31334 0.4305268 0.09615089 0.49852574 0.21648991 0.25923765 0.0798995 0.37739354 0.005837398 -0.0014990896 -0.053598043 -0.10013148 -0.16396916
" -0.20979539 -0.07383783 -0.37139726 0.10032916 -0.045876287 -0.16570272 0.09150426 0.80017465 -0.26673493 -0.16484101 -0.053104166 -0.29508522 0.058978792 0.1710674 0.1795275 -0.30880752 0.24429552 -0.469865 0.012442381 -0.53989947 0.42068857 0.11770315 -0.071408086 -0.33910146 0.080728404 -0.23841593 -0.21213749 0.28328508 -0.27429605 -0.041388333 0.4160131 -0.10898815 0.031889968 -0.50320804 0.02030085 0.35153106 0.1498816 0.016312998 -0.035151508 -0.21790852 0.0883672 -0.100323655 -0.30377725 0.10810874 0.19696626 -0.079622336 -0.14385246 0.11719305 0.041198734 0.039609138 0.108430974 -0.2796209 0.0017410471 0.1329817 0.050766088 0.18299946 -0.06308131 0.18625353 -0.09471077 0.1386747 0.005165698 0.16309711 0.42261955 -0.12955362 -0.3133977 0.42407063 0.08458012 0.52380264 -0.28133723 0.18422088 0.13261555 0.4745238 0.108908124 -0.19468923 0.35407814 -0.12069828 0.0538428 0.0034058553 -0.07944956 -0.08573552 -0.28244197 -0.054128278 -0.42984238 0.27541447 -0.122433916 -0.27778357 0.25936255 0.025428489 0.18924367 0.307089 0.19875035 0.17111716 0.26543152 0.10007841 0.4841146 0.12746477 0.334677 0.18194497 0.1546582 -0.017118353
tenpo 0.043981995 0.16209988 -0.054886546 0.2723068 -0.0065018074 -0.25149903 0.23292853 0.547529 -0.22386363 0.044603158 -0.05422106 -0.28759208 0.06176742 0.10407081 0.14291617 -0.10463447 0.09596284 -0.3866672 -0.32798347 -0.71240747 0.36659184 0.15502688 0.11319923 -0.2720278 -0.15602618 -0.039075565 -0.254398 -0.15451473 -0.1865686 0.13903004 0.2365528 0.015356742 0.45749882 -0.4978357 -0.081790544 0.43060088 0.11535964 0.04065639 -0.10600146 -0.3928405 -0.0069766343 -0.14817101 -0.24216855 0.12233666 0.13146329 -0.15193701 -0.13621035 -0.040799703 0.13459848 0.17039716 0.048039332 -0.18563047 -0.023351982 -0.06946793 0.15317678 0.09367059 0.11030059 -0.079169735 -0.2672318 0.24812798 0.14059582 -0.11817768 0.114814304 -0.20727031 -0.20258997 0.46487552 0.12830988 0.42476806 -0.26989037 0.29463047 -0.15103424 0.15234014 0.079461016 0.03514195 0.20249353 -0.06500507 0.1061761 0.01964103 -0.041746557 -0.10555884 -0.16557361 0.045498572 -0.28138715 0.2281566 -0.18959081 -0.22759296 0.38089448 0.14268784 0.2008839 0.19985951 0.45307308 0.1331173 0.17294188 0.11818242 0.3700065 0.01673973 -0.045499165 0.11470621 -0.080684155 -0.06207902
sina -0.16856785 -0.016226163 -0.26332018 0.18212786 -0.065857515 -0.12663998 0.038308002 0.6577704 -0.1764422 -0.06799466 -0.07120403 -0.21609367 0.06733423 0.1843934 0.13310005 -0.2925898 0.1289009 -0.43397576 -0.13716502 -0.5300788 0.40259597 0.12700374 -0.07659739 -0.27101982 0.047694772 -0.10779471 -0.19052358 0.20170362 -0.2497036 0.108996965 0.30115226 -0.05295106 0.18370663 -0.54827696 0.0077639166 0.34649637 0.124334015 0.027766237 -0.12887217 -0.2112785 -0.029524224 -0.06285125 -0.3509462 0.12005626 0.1408595 -0.22977307 -0.0637252 0.042390727 -0.028053595 0.08515474 0.12626232 -0.32417518 0.021490397 0.017633904 0.11563943 0.13924497 -0.097984344 0.08670511 -0.22549036 0.18066381 0.070505925 -0.0073549356 0.3874533 -0.16553007 -0.29966837 0.41857156 0.19378033 0.51123 -0.2994894 0.32197583 0.031711448 0.39944547 0.057804476 -0.17700943 0.18096845 -0.0009667004 0.009995642 0.01636071 -0.048534885 -0.0741118 -0.26210484 0.025440987 -0.37638882 0.20331684 -0.20208247 -0.23308325 0.34661302 0.02414863 0.13780777 0.34932038 0.25731283 0.14680019 0.28128594 0.09093783 0.40739134 0.065063186 0.19438346 0.21812926 0.03344735 -0.019378867
, -0.1064727 0.15297996 -0.121292666 0.2423264 -0.18685342 -0.16116889 0.01866038 0.6311626 -0.090993136 0.020896764 -0.056367483 -0.13958524 0.019069731 0.2361813 0.17502667 -0.35940707 0.17150907 -0.50921273 -0.30571303 -0.3868172 0.4559026 0.14861867 -0.07566844 -0.30632547 -0.010447943 -0.07547697 -0.38770565 -0.09558081 -0.118879706 0.11647191 0.20218705 0.05535289 0.17596875 -0.7009588 -0.014325544 0.32794574 -0.030975454 -0.097509526 -0.20243946 -0.33719638 -0.122829564 -0.06898674 -0.13995132 0.08595153 0.15846005 -0.21759498 -0.11276851 -0.014899488 -0.039916296 0.16925593 0.34829432 -0.28120407 -0.052638013 -0.024487766 0.0455103 0.058350746 -0.03808112 -0.08272505 -0.3467814 0.11464823 0.027826812 0.055150244 0.26576546 -0.16160212 -0.15435798 0.42589557 0.13947505 0.5983653 -0.3107738 0.3136 0.0554095 0.25929302 -0.014916674 -0.13620667 0.13993095 0.03084707 0.04201487 0.15160276 0.0066236043 -0.0023591204 -0.34129435 0.08163312 -0.31633836 0.15549909 -0.071971096 -0.21227413 0.5430947 0.16647436 0.1340377 0.44237 0.5483947 -0.002503526 0.079207204 -0.08978135 0.3098233 0.14264616 -0.020492915 0.28168753 -0.124780774 0.002041819
o -0.1685022 0.006328811 -0.23302758 0.19654572 -0.07616206 -0.15880054 0.07804482 0.6116814 -0.15369904 -0.11873535 -0.054610476 -0.19044392 0.062409185 0.23953018 0.13804716 -0.2656343 0.13739456 -0.37085047 -0.15474132 -0.44840166 0.33268887 0.124798805 -0.10041716 -0.21529949 0.109349616 -0.09527423 -0.1898114 0.20562439 -0.23051772 0.06311946 0.22869366 -0.02615236 0.04702816 -0.5177692 -2.5439458e-06 0.28783146 0.11407629 -0.009163314 -0.10158911 -0.16716008 0.004170631 -0.1055016 -0.25708818 0.06163697 0.18613951 -0.1466947 -0.11719243 0.074261405 0.015578124 0.11091714 0.14906614 -0.29717818 -0.02419393 -0.031088391 0.084267385 0.19577043 -0.09606614 0.094216555 -0.20519598 0.14997795 -0.015642492 -0.006319017 0.3609655 -0.09748163 -0.24827647 0.36038578 0.09984013 0.5230288 -0.2538773 0.3212762 0.086874716 0.32335222 0.07855763 -0.14339486 0.18535481 -0.014346778 0.026377566 0.05381725 -0.016531209 -0.05816819 -0.2733276 0.026896644 -0.33277357 0.16587444 -0.08528387 -0.22601573 0.34521455 0.04018108 0.19600765 0.2910382 0.26990348 0.12765883 0.21940027 0.05531584 0.34166485 0.11234709 0.20577802 0.16855991 0.034194607 0.0081514185
sona -0.17388184 -0.07023672 -0.26600403 0.07060567 -0.07991542 -0.110950865 0.019465417 0.6459643 -0.18408103 -0.12233131 -0.039702676 -0.27067965 0.011854272 0.07401233 0.14629012 -0.2536601 0.20820838 -0.43538466 0.04316835 -0.51237166 0.46108964 0.07108714 0.010640294 -0.32427952 -0.022319581 -0.14529738 -0.20016135 0.27348235 -0.22756909 0.013590911 0.35624722 -0.13262044 0.12128257 -0.45743284 0.047783908 0.24275215 0.14889868 0.066094704 -0.14774401 -0.049559675 0.034558427 -0.03679894 -0.31666034 0.118751556 0.10212658 -0.18200596 -0.031851538 0.07831264 -0.009312483 0.07478865 0.05905036 -0.20584048 0.094098546 0.18171081 0.07067969 0.10330819 -0.009718823 0.121963225 -0.06376842 0.10783725 0.047775358 0.055754416 0.33851188 -0.12856144 -0.25392157 0.37203383 0.10512064 0.38160643 -0.2182054 0.17096847 0.054000795 0.4261286 0.0949097 -0.24299939 0.24422395 -0.09924565 0.059168756 -0.044857148 -0.062420655 -0.07808626 -0.28374588 -0.067009464 -0.32699105 0.21910548 -0.20029168 -0.22799309 0.1595253 -0.007120215 0.088305876 0.28130904 0.16491531 0.08686967 0.20968156 0.06544461 0.3557077 0.060400072 0.19604532 0.19240591 0.063368894 0.03450848
suli 0.08343816 0.22704503 -0.046777055 0.30522308 0.035791125 -0.3492715 0.38863957 0.44616562 -0.252081 0.06796516 -0.023695251 -0.2585384 0.106516406 0.13898005 0.075835526 -0.032444935 0.075432785 -0.29685187 -0.46963018 -0.679528 0.18874559 0.15005025 0.13429354 -0.15792687 -0.1163686 -0.028047403 -0.20834026 -0.2651577 -0.17046039 0.06632633 0.18266279 0.14861603 0.42045325 -0.4029407 -0.070121266 0.42616242 0.1258579 -0.0073968414 0.00906698 -0.47178352 0.022623478 -0.28099534 -0.1015045 0.006880725 0.23049605 -0.029542826 -0.22319433 -0.030678732 0.24613304 0.1735576 0.06953472 -0.11645605 -0.057431 -0.2431624 0.14962456 0.123105615 0.16412237 -0.05240756 -0.34512413 0.33688873 0.11731487 -0.18797772 0.030526355 -0.15539941 -0.157233 0.3856495 0.07450626 0.404875 -0.1876053 0.34913686 -0.17615075 -0.07470166 0.10999362 0.23357569 0.207221 -0.092198305 0.13012972 0.06235095 0.0269499 -0.078769006 -0.07694768 0.097582124 -0.2742974 0.20930853 -0.064104564 -0.25452185 0.44781816 0.258242 0.31401962 0.13609606 0.46002787 0.1807594 0.16875707 0.05248434 0.36657128 0.012656899 -0.007194063 -0.021835169 -0.07771599 -0.1517869
jo 0.02387081 0.14261132 -0.12861435 0.23029256 0.026077695 -0.22670147 0.20287254 0.5137844 -0.23532508 0.036527254 -0.07256126 -0.25200242 0.075926885 0.120544866 0.07439636 -0.12545566 0.074633166 -0.32737535 -0.28594926 -0.6029359 0.31162554 0.13734318 0.079867624 -0.25008115 -0.07076763 -0.05587878 -0.20512882 -0.08762182 -0.2002068 0.113357335 0.24145651 0.03884418 0.3670151 -0.46374273 -0.02642394 0.4329061 0.13945352 0.043899782 -0.071344316 -0.37475708 0.00785733 -0.16831514 -0.239674 0.06588257 0.14349166 -0.1343974 -0.12247141 -0.032127924 0.11782192 0.100697674 0.088467106 -0.2126379 -0.029795464 -0.098163694 0.13268232 0.08646637 0.030437699 -0.023873841 -0.28964898 0.26236045 0.1368937 -0.10370007 0.16401576 -0.15225627 -0.19507165 0.42086503 0.17357886 0.38830617 -0.27246246 0.29787976 -0.13447879 0.13571581 0.073806725 0.036748722 0.18102242 -0.06965691 0.050265063 -0.004835647 -0.014046626 -0.05520783 -0.13263293 0.07608007 -0.30704868 0.19991 -0.16663828 -0.26016745 0.40455234 0.17701177 0.20768103 0.22597781 0.34793177 0.18143031 0.21949959 0.058118638 0.40536538 0.003587328 0.04941253 0.1041432 -0.059564523 -0.09238023
lili 0.02252295 0.115835726 -0.12020207 0.27627832 0.034536418 -0.2477265 0.26032904 0.45168468 -0.2490574 0.051090356 -0.048636187 -0.24205874 0.09845639 0.117896385 0.057558913 -0.072725415 0.0637333 -0.2907766 -0.3026123 -0.6254415 0.2617008 0.12517086 0.13486949 -0.19275032 -0.0730373 -0.04340324 -0.1691415 -0.0660011 -0.21568465 0.11199305 0.20081523 0.059872318 0.39821804 -0.36394194 -0.06286046 0.39827088 0.119643375 0.038898617 -0.06674406 -0.32942274 0.022307808 -0.18573052 -0.2247101 0.0505682 0.15727068 -0.093341514 -0.10798255 -0.037572704 0.15269087 0.12857774 0.029659992 -0.16801904 -0.029177682 -0.12931485 0.15077206 0.09179915 0.077334434 -0.028606672 -0.27279782 0.24995857 0.12464842 -0.16141188 0.10716256 -0.1444165 -0.20597582 0.38101417 0.1420682 0.37011465 -0.22795007 0.33247694 -0.13038129 0.07271601 0.115809396 0.09332293 0.17240416 -0.077788144 0.10218565 -0.00933361 -0.010665138 -0.083505444 -0.100484565 0.062024385 -0.28351787 0.19593243 -0.14948916 -0.25503552 0.33925048 0.16843835 0.21504782 0.1636761 0.3574276 0.17998572 0.18635736 0.08268462 0.3655939 0.007820859 0.04309218 0.056323342 -0.03827514 -0.0897039
tomo 0.07076667 0.21872358 -0.061119188 0.28570893 0.04358537 -0.26769906 0.29306078 0.42842066 -0.18192245 0.05038789 -0.032222804 -0.26818308 0.07521937 0.12737289 0.09314992 -0.103664584 0.09986184 -0.32005215 -0.39912605 -0.5924171 0.24473947 0.15952408 0.092649244 -0.17751306 -0.114936076 -0.045105383 -0.25301516 -0.19540007 -0.19460252 0.09043303 0.16125433 0.07010534 0.32091403 -0.45032552 -0.08177092 0.35747275 0.08989026 0.03918106 -0.021015989 -0.38159755 0.003642252 -0.22396354 -0.14795308 0.032763682 0.19894081 -0.069849454 -0.1961594 -0.017162578 0.19353227 0.2047372 0.08791645 -0.17062871 -0.023849787 -0.21078862 0.1265105 0.13008064 0.1201897 -0.076521724 -0.31541622 0.29608694 0.074009374 -0.14338145 0.07063798 -0.144237 -0.15566392 0.36438403 0.045473993 0.42976543 -0.19570616 0.28927076 -0.10713123 0.015545433 0.10647721 0.10444618 0.17746288 -0.084235944 0.08902213 0.034456257 0.004240475 -0.084421165 -0.15372969 0.06992324 -0.24828252 0.1990826 -0.04601774 -0.25258785 0.41296065 0.22071894 0.2779168 0.15469018 0.43298563 0.14549212 0.18228127 0.029022232 0.3233407 0.034963764 -0.00509937 0.047561705 -0.12334331 -0.10628461
telo 0.093988605 0.22413468 -0.054050002 0.36343327 0.038626697 -0.29964542 0.3466469 0.3821778 -0.19609752 0.102796674 -0.07072977 -0.22722757 0.13292214 0.22562793 0.02398017 -0.03804076 0.016330408 -0.24901144 -0.5021073 -0.6463851 0.21469904 0.16209391 0.120036006 -0.12046759 -0.03549881 0.02306223 -0.17525977 -0.20648342 -0.21241783 0.17017387 0.13881572 0.15993074 0.46755818 -0.46011245 -0.11747071 0.4315851 0.124629445 0.021358091 -0.050522946 -0.4458779 -0.041606 -0.21731372 -0.15748928 -0.005350019 0.2019206 -0.10879075 -0.17277673 -0.07536889 0.21861044 0.20208973 0.05665785 -0.20543359 -0.07645859 -0.31866163 0.19100495 0.12957512 0.05981057 -0.077908285 -0.4111121 0.3457715 0.13611259 -0.28376177 0.06276069 -0.13116252 -0.18364064 0.37620997 0.13829394 0.42408133 -0.21076767 0.4693647 -0.16817167 -0.06709758 0.114290446 0.22472197 0.11609908 -0.035712723 0.087247714 0.055545736 0.019750169 -0.072018646 -0.092343 0.11593067 -0.27498722 0.15512818 -0.11479329 -0.2750498 0.51194763 0.22416317 0.2867346 0.14053723 0.47669533 0.22359258 0.1876853 0.045280922 0.33167377 0.01452029 -0.039230637 0.015525716 -0.09984898 -0.10521204
ike -0.1596023 -0.028707175 -0.22263049 0.15138869 -0.031187743 -0.14842936 0.0787209 0.5593392 -0.16798714 -0.10879062 -0.03426587 -0.20208013 0.08214812 0.17062315 0.108083606 -0.2450042 0.12632889 -0.35275707 -0.13667665 -0.48468515 0.27656868 0.11834547 -0.037296366 -0.21532263 0.08715367 -0.07226445 -0.15481344 0.20137672 -0.22880574 0.047234353 0.19633661 -0.035768755 0.12623057 -0.4382975 0.009374015 0.28696585 0.10262092 -0.03062178 -0.07816482 -0.15801108 -0.009307309 -0.092574924 -0.26558933 0.07783937 0.14865278 -0.1315699 -0.09637291 0.05728519 0.0040081358 0.085934035 0.08651682 -0.27640602 -0.018560896 -0.004274746 0.08115297 0.11480137 -0.059211034 0.11698848 -0.1675822 0.15457541 0.045190502 -0.039215025 0.3285318 -0.09630859 -0.2581185 0.3578775 0.12599926 0.4539589 -0.28091955 0.29384473 0.043293186 0.35092223 0.104937285 -0.12151416 0.18697403 -0.034148417 0.04348743 0.01662096 -0.040783606 -0.07697689 -0.22552975 0.021768095 -0.35859984 0.20891988 -0.13581167 -0.21319425 0.28807783 0.032692052 0.15324263 0.2689584 0.22599931 0.17540132 0.23281153 0.10175549 0.37867895 0.11461415 0.21019466 0.13923448 0.045008432 -0.03628738
pali -0.037578106 0.09993666 -0.14762482 0.19516702 -0.029916031 -0.1865173 0.16389328 0.54959995 -0.16912876 -0.029125426 -0.031961158 -0.26582265 0.026995044 0.07581573 0.12883575 -0.20553511 0.13761574 -0.40096554 -0.191158 -0.54332745 0.3863975 0.09623208 0.075628385 -0.25466958 -0.077840626 -0.07186796 -0.2559613 -0.009724834 -0.18691422 0.05356909 0.22347823 -0.01427288 0.26969278 -0.48189667 0.00844692 0.3106029 0.12050404 0.02514194 -0.14514264 -0.21833979 -0.014038354 -0.14271863 -0.23199724 0.087602876 0.1362556 -0.14020778 -0.07900004 -0.010445912 0.078503385 0.1490809 0.10612607 -0.19167143 0.017625032 0.013153142 0.07182154 0.060124684 0.06188548 -0.023404716 -0.23031925 0.2024778 0.094278045 -0.050418217 0.2088282 -0.14944601 -0.18797709 0.3904163 0.10016316 0.41195792 -0.25495896 0.222484 -0.05071518 0.21017668 0.107741475 -0.05867762 0.18085162 -0.08109253 0.08392396 0.009623918 -0.020656364 -0.07156853 -0.22932008 0.027960869 -0.296775 0.20463455 -0.14695126 -0.26085082 0.3314839 0.14054899 0.16187133 0.2361552 0.32564175 0.10207495 0.16277194 0.033759642 0.37808004 0.064707294 0.054045495 0.114351764 -0.0701179 -0.06529722
tan -0.064719655 0.06525777 -0.1805788 0.2585657 -0.008314319 -0.26817828 0.20898156 0.5620111 -0.2497284 -0.02311341 -0.028792264 -0.27680182 0.12392862 0.1573706 0.075429544 -0.16854306 0.10283031 -0.35951814 -0.26727745 -0.63605005 0.29408407 0.14191021 0.07132225 -0.23594306 -0.0057756323 -0.05261161 -0.18496925 0.043650966 -0.26411372 0.10830012 0.24312386 0.027376395 0.35801616 -0.47490564 -0.036088992 0.41298696 0.1498243 0.026789812 -0.047214136 -0.33233857 0.017338768 -0.17676371 -0.2748968 0.06891824 0.1824276 -0.12074698 -0.114294685 0.021471296 0.11270529 0.09311714 0.048060015 -0.22981271 -0.0065964134 -0.11586793 0.16466151 0.12479559 0.008093907 0.058249272 -0.24353005 0.28333518 0.13441445 -0.13527071 0.23172697 -0.16274786 -0.24504545 0.413175 0.17968768 0.46538883 -0.2648918 0.36540368 -0.07510553 0.20567131 0.12560567 0.022946611 0.22082964 -0.030264592 0.06130501 -0.015230933 -0.008615372 -0.09358745 -0.14046164 0.053021368 -0.3593363 0.20537615 -0.18047412 -0.28669393 0.36371717 0.10198091 0.24569924 0.26579365 0.33866778 0.22971103 0.257331 0.10627079 0.44477847 0.017486943 0.12851004 0.11911235 0.005590071 -0.108943604
pilin -0.14104071 -0.043319594 -0.2284418 0.1582791 -0.053390607 -0.15323226 0.06548994 0.6031586 -0.14489059 -0.10851951 -0.03671015 -0.20413293 0.04343652 0.14760831 0.12585174 -0.22834553 0.116134025 -0.3857489 -0.10629734 -0.52632576 0.34834585 0.122862525 -0.012961037 -0.25350186 0.06345881 -0.08864506 -0.17469622 0.22532123 -0.24780726 0.07986181 0.23716521 -0.076786436 0.19051446 -0.47772253 0.014937122 0.28968644 0.104716234 0.0002915158 -0.106635585 -0.14364107 -0.010630731 -0.08534691 -0.32269925 0.09429415 0.14412731 -0.1834523 -0.0696381 0.05212896 0.007591539 0.1188664 0.075447716 -0.28714398 0.018842395 0.025538508 0.12701266 0.12164913 -0.056372542 0.10746044 -0.1812343 0.17673272 0.041729115 -0.021808844 0.33229098 -0.11770032 -0.28036797 0.3860706 0.15410808 0.4788401 -0.27389345 0.30431473 0.039894003 0.36035645 0.12515913 -0.16132995 0.19815178 -0.054946654 0.03548235 -0.00623477 -0.04681085 -0.106209636 -0.22808883 0.00735716 -0.35020202 0.2204796 -0.15347214 -0.21417 0.2789387 0.0092043495 0.14084068 0.28474054 0.24721982 0.14585823 0.24809478 0.08450539 0.37688538 0.09758816 0.19425946 0.18327653 0.05252741 -0.031835638
! -0.21193525 0.01714408 -0.24949808 0.17050475 -0.09565692 -0.16983043 0.078572504 0.64609665 -0.13799554 -0.06849712 -0.102011904 -0.1927667 0.038863387 0.29862332 0.11011669 -0.324436 0.1323761 -0.43153065 -0.17942545 -0.4589966 0.36968505 0.16459839 -0.17949137 -0.27795842 0.13871065 -0.1360964 -0.1814836 0.13169704 -0.26113126 0.06861623 0.29268524 -0.010127575 0.012835243 -0.58931667 -0.042270917 0.33202466 0.035218637 -0.010674273 -0.017846156 -0.27971599 -0.06801456 -0.069383144 -0.22185399 0.08513125 0.1879346 -0.17952642 -0.14032757 0.09091397 0.00735229 0.08986006 0.22384179 -0.3032458 -0.022926733 -0.032486822 0.07579915 0.24625114 -0.16629513 0.07737816 -0.2632824 0.1462981 -0.037384957 0.03071328 0.38118538 -0.15200132 -0.2606419 0.35039592 0.10360516 0.5570367 -0.23039214 0.29811224 0.16108462 0.3454921 -0.009012495 -0.14890695 0.22880466 0.019992122 0.0029543964 0.114958234 -0.0005644392 -0.077032 -0.26527098 0.03760918 -0.3580676 0.114935994 -0.06618503 -0.2143783 0.41403607 0.015181632 0.24204467 0.34104326 0.33043534 0.12844467 0.221984 -0.01805041 0.3045651 0.14739561 0.22865373 0.22347231 0.096882805 0.017805807
sewi -0.08601166 0.13600059 -0.12365642 0.2413985 -0.09949102 -0.21946539 0.08318476 0.5642399 -0.09825601 -0.018852003 -0.049869806 -0.15053336 0.07963228 0.25981236 0.15632926 -0.27518642 0.11080159 -0.37552443 -0.34186983 -0.422064 0.31641904 0.1853373 -0.08839091 -0.18924503 0.019844089 -0.088398494 -0.2863427 -0.07901613 -0.17634583 0.102398865 0.14586197 0.06408923 0.16812308 -0.58563215 -0.07570061 0.36143857 0.0014088309 -0.0990956 -0.11080677 -0.34458312 -0.028505538 -0.13986959 -0.11847024 0.017344553 0.21904881 -0.13688421 -0.1718187 0.0018471378 0.040139187 0.16126686 0.2384077 -0.3075644 -0.066658184 -0.13081378 0.08299363 0.13557369 -0.0125538055 -0.045642763 -0.30165482 0.14819029 0.021196805 0.0022336945 0.24211672 -0.12387422 -0.18784639 0.41222772 0.087658055 0.57528216 -0.29216817 0.34850135 0.043752592 0.1844266 0.053519066 -0.032641076 0.18995383 0.03976029 0.04565526 0.13531768 -0.0228292 -0.02293765 -0.2641262 0.07360471 -0.3203332 0.20711747 0.0017813625 -0.19389091 0.50292253 0.1697469 0.21204825 0.33809483 0.4902263 0.08848875 0.1498133 -0.020624196 0.3065408 0.14245453 0.023745928 0.17490809 -0.081953466 -0.008252
wile -0.09934906 0.0047286614 -0.20735286 0.16570368 -0.05040189 -0.17139478 0.11146987 0.5617341 -0.19038166 -0.09410349 -0.021457603 -0.21889831 0.06117338 0.12828887 0.09773721 -0.19869325 0.120666154 -0.33727404 -0.11191675 -0.5008586 0.3381224 0.10459757 0.039970864 -0.25610453 0.0098207295 -0.093575045 -0.15507421 0.17969373 -0.23991537 0.054208525 0.25614932 -0.053781938 0.20703952 -0.451362 0.03117781 0.2873398 0.13570826 0.025449125 -0.11027173 -0.17031763 0.0070847315 -0.10039576 -0.2882286 0.07773142 0.15782434 -0.13792194 -0.08707367 0.039754864 0.067231424 0.09062729 0.063435666 -0.21831366 0.0015111851 -0.011823429 0.12879057 0.12005097 -0.017893031 0.08829313 -0.1669501 0.16471906 0.06240837 -0.037350908 0.28578895 -0.12581103 -0.24587187 0.38557583 0.12220228 0.4093849 -0.23745105 0.26301652 -0.0010223972 0.28744936 0.12488868 -0.100329414 0.1961977 -0.047137488 0.07522998 -0.03837172 -0.039374616 -0.07541614 -0.22524181 0.0012348241 -0.33925673 0.20695555 -0.15909186 -0.2657831 0.2694342 0.044509456 0.1660686 0.2609942 0.22639373 0.16236734 0.22047128 0.0768347 0.37131068 0.059102725 0.16576111 0.14821403 0.0151860975 -0.045147683
soweli 0.06197455 0.2005137 -0.11146445 0.33934635 0.037896637 -0.2703071 0.31768605 0.40131733 -0.21742062 0.11582744 -0.065589346 -0.22023685 0.13072598 0.17602894 0.02144523 -0.058276687 -0.02261652 -0.23230508 -0.43247327 -0.6024279 0.21382378 0.14319874 0.09871886 -0.14563936 -0.038046714 0.02067884 -0.13402331 -0.18404983 -0.24061869 0.14429292 0.127576 0.13076074 0.45077944 -0.40727517 -0.08748962 0.44384897 0.11568623 0.043898597 -0.053953383 -0.4050554 -0.040868413 -0.16419844 -0.1878515 0.016412277 0.17579442 -0.11016202 -0.101287335 -0.05857822 0.18481292 0.14569283 0.06924143 -0.2025937 -0.086452514 -0.2740085 0.20249139 0.084482834 0.022444632 -0.046905115 -0.34482488 0.28696442 0.14754994 -0.24471848 0.08575458 -0.14833538 -0.17039798 0.35294712 0.18200095 0.40200996 -0.24780963 0.39660433 -0.14663783 -0.0059429603 0.09716471 0.17056786 0.1124013 -0.0022468185 0.065914005 0.015175933 0.031998154 -0.0745004 -0.051135745 0.12320443 -0.2814133 0.11052097 -0.13631676 -0.292346 0.45152175 0.20129418 0.2556165 0.1814722 0.3966359 0.2357675 0.18223119 0.0667946 0.3982104 0.0125354035 0.03987933 0.07581701 -0.08321887 -0.14201787
ken -0.0916673 0.0078343 -0.18910146 0.15174673 -0.0034203958 -0.18631053 0.12354692 0.57262015 -0.20183487 -0.06966849 -0.0619502 -0.27819136 0.063576505 0.0894845 0.10091631 -0.18699522 0.08951864 -0.33101222 -0.12327864 -0.56296164 0.34831885 0.13528338 0.094291024 -0.27755272 0.00016039892 -0.054389417 -0.18069701 0.113170035 -0.2598939 0.07649099 0.23827739 -0.05260735 0.31940418 -0.4553285 -0.0085664615 0.3541093 0.11324233 0.023816355 -0.12811479 -0.19450173 -0.007858568 -0.069482125 -0.34504828 0.11510602 0.10856338 -0.1830776 -0.034660257 -0.018469116 0.0472004 0.07372489 0.05728625 -0.268422 0.021577565 0.033199962 0.10405076 0.055873476 -0.02305685 0.052681938 -0.18846865 0.17804313 0.13347718 -0.061467614 0.26120114 -0.13560817 -0.24827637 0.42460924 0.1679539 0.38256428 -0.29219508 0.27917236 -0.061042003 0.34127226 0.13365029 -0.10317052 0.19828036 -0.029949322 0.050048273 -0.058157925 -0.06663736 -0.082409665 -0.1984611 0.019329268 -0.3628228 0.21074924 -0.2390933 -0.25153583 0.31102988 0.053521354 0.11456969 0.25329632 0.2686516 0.18982154 0.21377571 0.08809047 0.44428554 0.062819846 0.15325473 0.15749529 0.003683694 -0.061720695
moku 0.0062553356 0.13545765 -0.12302908 0.31677043 0.016273795 -0.23404618 0.21675533 0.40851423 -0.18687676 0.06032048 -0.0624471 -0.21607156 0.10783276 0.19987069 -0.013463411 -0.09787713 -0.030156912 -0.21580237 -0.35129496 -0.5738885 0.2640782 0.104148194 0.09953355 -0.16802178 0.0013226445 0.03619444 -0.09746414 -0.0575292 -0.2204219 0.20333707 0.16222791 0.089733474 0.47434905 -0.46285975 -0.042423565 0.40346283 0.15804161 0.06329729 -0.081690244 -0.341291 -0.042673305 -0.1513473 -0.251711 0.017054887 0.12116997 -0.18299855 -0.031729255 -0.0713979 0.14196067 0.11088755 0.06065245 -0.24201529 -0.035671264 -0.22134031 0.1965859 0.09953926 -0.04008845 -0.011652629 -0.33081445 0.2824851 0.16770706 -0.265297 0.17088562 -0.12266226 -0.19333991 0.37520334 0.26673344 0.38135606 -0.28777862 0.4540996 -0.12992072 0.06349329 0.116793565 0.104163826 0.060936637 0.030960428 0.042488158 0.0076519307 0.031293627 -0.07269127 -0.10583891 0.11356572 -0.27613038 0.10359502 -0.20038338 -0.30597764 0.44518998 0.1345306 0.22653873 0.23078567 0.35636565 0.21377936 0.21157569 0.073088475 0.37175167 0.0033751186 0.05444937 0.08095474 -0.078389786 -0.09878737
kepeken -0.090572335 0.04098769 -0.23581514 0.15531042 -0.06490391 -0.17719878 0.10043012 0.6214639 -0.22255558 -0.050292373 -0.041863184 -0.30144322 0.01676872 0.097909644 0.13614108 -0.24270383 0.17006804 -0.44542208 -0.119730726 -0.56147724 0.47084558 0.11494964 0.108618334 -0.32131174 -0.04118209 -0.09285254 -0.2628777 0.09879545 -0.2235955 0.04625799 0.27403876 -0.051411163 0.28385624 -0.49557492 0.02169549 0.3456499 0.12012341 0.030771358 -0.18805732 -0.17913228 -0.040300056 -0.08249301 -0.30672878 0.12462658 0.11544036 -0.17109393 -0.026180353 -0.019750718 0.033032067 0.11691656 0.08966004 -0.21734394 0.055932507 0.085327655 0.111869104 0.029961789 0.016739761 0.021232782 -0.20887129 0.16485614 0.11566531 -0.027280992 0.25703558 -0.14843483 -0.23027444 0.43359578 0.14047182 0.41115248 -0.28355715 0.26795372 -0.02211579 0.31953585 0.116555564 -0.12945387 0.19012402 -0.06298303 0.07688341 -0.032487255 -0.044169147 -0.08404637 -0.26358858 0.003145972 -0.34711358 0.20235687 -0.20604613 -0.26622525 0.3091426 0.09657208 0.118173674 0.2929168 0.29862222 0.11461122 0.1685102 0.027016036 0.41299763 0.06542068 0.09819272 0.18262255 -0.02181809 -0.04075319
pana -0.099652946 0.050101895 -0.202274 0.18368413 -0.037880402 -0.19082153 0.12164187 0.59871805 -0.16650485 -0.038494814 -0.08426656 -0.23343554 0.03239111 0.17048584 0.13504915 -0.23425736 0.10925348 -0.4048317 -0.18462375 -0.5541304 0.41780087 0.1383651 0.018025653 -0.2831472 0.02348384 -0.08455769 -0.20554045 0.10600646 -0.25136343 0.098069794 0.27472052 -0.023442695 0.21733285 -0.5309529 -0.015695363 0.3498767 0.11041342 0.034765154 -0.13068944 -0.22179542 -0.03496018 -0.08701702 -0.2887839 0.09270664 0.14554425 -0.18835546 -0.095474444 0.010384008 0.054574884 0.13085978 0.13110544 -0.26032612 0.01463811 -0.014578928 0.11447758 0.13511954 -0.031105204 0.041342635 -0.2584175 0.18844157 0.060888205 -0.043674007 0.27050024 -0.15467115 -0.24058607 0.416271 0.12869161 0.47762963 -0.26354778 0.3193862 -0.013123273 0.30037817 0.087830886 -0.09724812 0.1855028 -0.061709244 0.0545546 0.023831537 -0.022199579 -0.07292776 -0.2610611 0.042710584 -0.34429446 0.19129586 -0.15802796 -0.25500146 0.36992952 0.08608905 0.16622531 0.2690948 0.3464998 0.124236494 0.20997418 0.029073458 0.3657345 0.09298072 0.12214985 0.16238773 -0.024211539 -0.029444268
sama -0.03668483 0.10606234 -0.15629932 0.20345075 0.025570603 -0.22773042 0.2072674 0.5090847 -0.2124445 -0.016557468 -0.03970708 -0.2505542 0.08905098 0.11837831 0.09997281 -0.14975812 0.08553516 -0.3242231 -0.254093 -0.57158947 0.27952144 0.1315076 0.08689567 -0.22547822 -0.015728684 -0.06900983 -0.17599458 -0.03187975 -0.2169839 0.05592592 0.19713783 0.033779725 0.30486593 -0.40779737 -0.042291246 0.38350186 0.10665373 0.013162249 -0.07462882 -0.2999232 0.011789932 -0.14174117 -0.22843932 0.04489255 0.14431547 -0.10168472 -0.09873776 -0.0257265 0.10589962 0.12473312 0.07012496 -0.2100675 -0.033613756 -0.071408436 0.116072886 0.06349505 0.051860716 0.014594038 -0.24774663 0.22512814 0.12268914 -0.085174024 0.1839225 -0.1474404 -0.20955019 0.3675452 0.11544048 0.37771204 -0.26145583 0.29389298 -0.064579755 0.17547755 0.1184697 0.036197715 0.18689664 -0.071294315 0.079192676 -0.010570216 -0.03234136 -0.090189405 -0.12487691 0.056163117 -0.33023566 0.19319087 -0.14694346 -0.25053516 0.33497515 0.14498816 0.17930122 0.21042241 0.3322008 0.18326423 0.18877171 0.07320134 0.3978683 0.05490593 0.092627816 0.07873777 -0.013866024 -0.10733077
lawa -0.042740494 0.11103772 -0.17617755 0.1781425 0.00796633 -0.23004234 0.23206079 0.5538815 -0.18494014 -0.062985264 0.0026404336 -0.23287769 0.038337037 0.11304372 0.12870957 -0.17532243 0.1633257 -0.36229253 -0.22841069 -0.52889633 0.28120404 0.099636964 0.07269414 -0.25402415 -0.017265253 -0.11631842 -0.20122363 0.0057142507 -0.19807735 -0.000101101534 0.22479214 -0.0054330886 0.16335921 -0.41772535 0.0006831745 0.3038177 0.102308184 0.0019795776 -0.047734983 -0.26088324 0.056175098 -0.17942274 -0.16147754 0.023784183 0.21594499 -0.058665317 -0.18276013 0.038368803 0.11871144 0.16711026 0.0927798 -0.1639946 -0.017873751 -0.04632829 0.0561986 0.14311093 0.076453224 0.04028854 -0.21847957 0.20080657 0.040208984 -0.03136763 0.20160124 -0.120653436 -0.18105194 0.36491624 0.021555105 0.43156835 -0.2143309 0.21997862 -0.021846063 0.17258397 0.1049634 -0.0040368396 0.24221441 -0.1256851 0.11276659 0.010590485 -0.026747737 -0.06801969 -0.20911817 0.020335728 -0.32024756 0.2111378 -0.060795896 -0.25707477 0.33247706 0.13085626 0.20717746 0.18138166 0.29018885 0.120706216 0.16908735 0.040021706 0.36243773 0.07544531 0.113535054 0.065665774 -0.044123128 -0.069253385
taso -0.091728024 0.014191496 -0.20600434 0.15707874 -0.013838162 -0.2055288 0.12028751 0.5758573 -0.20144308 -0.052372426 -0.04208911 -0.28302917 0.06980086 0.10503602 0.09130388 -0.1769282 0.08881497 -0.34062743 -0.1211835 -0.58470875 0.35694313 0.10591901 0.094768785 -0.28370762 -0.007452125 -0.08300139 -0.16741297 0.10746147 -0.2376847 0.05559946 0.25069675 -0.03372145 0.34183452 -0.43677336 0.0041292864 0.34734166 0.13490266 0.025078226 -0.1256045 -0.2020138 -0.00497386 -0.090089895 -0.34319186 0.09702358 0.099044785 -0.17520383 -0.031840824 -0.0015958206 0.040614553 0.080284186 0.051579382 -0.24008118 0.02135284 0.04585915 0.13685733 0.066338465 0.016872833 0.033595674 -0.17988193 0.19141129 0.12829056 -0.07735329 0.2627098 -0.1392181 -0.25235948 0.416611 0.17771158 0.3800545 -0.26861745 0.2758189 -0.035841838 0.289174 0.13792469 -0.060622375 0.19775842 -0.052992668 0.069187805 -0.07178158 -0.056758594 -0.088141076 -0.1876009 0.022464912 -0.33966503 0.20220225 -0.22071958 -0.24888705 0.30454448 0.0612175 0.15033893 0.27202228 0.28821033 0.1925113 0.19667271 0.09148234 0.44165325 0.06526093 0.12190427 0.14346053 0.0071656466 -0.05257957
wawa -0.04729846 0.11987365 -0.14289197 0.2515968 0.012852397 -0.23803952 0.2458995 0.48091796 -0.19460891 -0.033425804 -0.044708766 -0.21007909 0.10840735 0.156136 0.07793644 -0.14343895 0.05810856 -0.29873562 -0.29818326 -0.52265 0.22298682 0.16046046 0.04808951 -0.1865706 0.037242033 -0.053248696 -0.15668914 -0.032742772 -0.2289446 0.05739646 0.14742889 0.059528016 0.2543503 -0.40040198 -0.058502376 0.37494522 0.0901781 -0.011073071 -0.0390929 -0.32127815 0.0061718887 -0.14883897 -0.21096608 0.016236657 0.19275056 -0.09157665 -0.1299338 -0.031434488 0.1209898 0.12485394 0.07666658 -0.23914598 -0.07830016 -0.15985526 0.119653985 0.11496252 -0.003237162 0.0131229935 -0.2661562 0.21870224 0.100305036 -0.11144903 0.1954407 -0.13008028 -0.2193743 0.35944152 0.10286184 0.42574418 -0.23116632 0.32882443 -0.050099067 0.15176706 0.11927567 0.070959345 0.18231617 -0.02736598 0.061636634 0.006898829 -0.013902823 -0.07556235 -0.11472919 0.056611508 -0.33038783 0.18217345 -0.10256842 -0.26467645 0.3928769 0.12544265 0.206787 0.19367334 0.33843327 0.21773556 0.18803377 0.07071446 0.40536308 0.08235655 0.10681647 0.09019465 -0.02939457 -0.10452005
lukin -0.047154 0.058047213 -0.17108798 0.18536887 -0.0007662237 -0.20208055 0.15162891 0.5242323 -0.1870527 -0.0042473637 -0.07841429 -0.22266373 0.076820605 0.13609424 0.10586008 -0.16854462 0.0724092 -0.32588667 -0.19106905 -0.55712044 0.34902075 0.13918109 0.07794771 -0.22723147 -0.0022100133 -0.0782275 -0.180804 0.075512424 -0.2498501 0.095035866 0.24981676 -0.017980754 0.3347298 -0.437358 -0.0152500225 0.37299868 0.12160936 0.03855125 -0.11495555 -0.22184317 -0.033220507 -0.09644266 -0.28657082 0.094891004 0.105122484 -0.150248 -0.07089856 0.00080614927 0.07298029 0.103592634 0.06136799 -0.24622524 0.0017155922 -0.046516545 0.14652966 0.09781894 0.007881388 0.033443753 -0.23124784 0.20496805 0.11447574 -0.09791015 0.22383676 -0.12749861 -0.2329479 0.40069923 0.16860025 0.3915428 -0.25394663 0.3216928 -0.05438031 0.23516595 0.10938348 -0.03818172 0.18902329 -0.04777153 0.068086974 -0.02644183 -0.03184818 -0.08341361 -0.18389535 0.036637917 -0.32121047 0.1856892 -0.19105716 -0.2366973 0.3248899 0.07860426 0.1748909 0.21943685 0.33111352 0.17123407 0.19437318 0.057208292 0.3621627 0.04098987 0.09483936 0.13658749 -0.011521988 -0.063073546
nimi -0.16531819 -0.026487157 -0.32178566 0.07916454 -0.017246433 -0.12457521 0.04575791 0.7012416 -0.25597677 -0.06829146 -0.082224816 -0.31901085 0.035572324 0.06958572 0.16940247 -0.2594951 0.2135719 -0.47405368 0.031823874 -0.5445441 0.44676387 0.11008876 0.0037089807 -0.33982238 -0.019022066 -0.20458595 -0.23524465 0.16916381 -0.25526884 -0.01124004 0.40719628 -0.09489109 0.12816726 -0.46686366 0.011791653 0.3656775 0.12960152 0.028114581 -0.09565685 -0.20388657 0.031412844 -0.025837777 -0.33725533 0.12857282 0.12854792 -0.11113238 -0.058221664 0.04825011 0.019046312 0.030537076 0.099646196 -0.23465952 0.05816981 0.19565915 0.060096025 0.07157215 -0.018604275 0.11076619 -0.12048794 0.1423025 0.057076454 0.13772474 0.30978668 -0.1682968 -0.25210708 0.39623585 0.09226578 0.39199618 -0.2638298 0.12631488 0.04866675 0.4433027 0.08033977 -0.19589683 0.25899565 -0.10857048 0.048194654 -0.051072307 -0.07377353 -0.0727523 -0.26169822 -0.047741808 -0.36908376 0.23222673 -0.21682811 -0.24101104 0.23103099 0.058931194 0.12956229 0.30081287 0.20394763 0.13718529 0.20009387 0.079969704 0.44629398 0.07128236 0.22945707 0.19648394 0.103199355 -0.0212202
tu -0.0066565443 0.07560987 -0.15179813 0.13940129 0.027947249 -0.17357197 0.1286847 0.55456126 -0.25006512 0.04537782 -0.10074341 -0.2898581 0.046200026 0.023384664 0.13689902 -0.14909716 0.071929336 -0.3880913 -0.14675766 -0.5963638 0.42159665 0.14507642 0.12975773 -0.32411107 -0.07173835 -0.09620186 -0.20930439 -0.050028056 -0.19140099 0.07857963 0.27025047 -0.0025611257 0.40477055 -0.4376308 -0.03541542 0.45359167 0.10154136 0.029375732 -0.14625755 -0.3266752 -0.015577105 -0.0590089 -0.31578988 0.13920183 0.071347326 -0.15602536 -0.051965766 -0.08181943 0.025731327 0.057334833 0.09335549 -0.20321892 -0.0069326703 0.08399254 0.08649595 -0.019903375 0.049244955 -0.009927043 -0.22436553 0.18937042 0.18235151 -0.004337104 0.15773019 -0.20065296 -0.20704807 0.45136976 0.17763077 0.33898595 -0.306525 0.21501496 -0.16202515 0.30801365 0.056248378 -0.031798977 0.1791212 -0.0711524 0.06210202 -0.04955754 -0.0772238 -0.05698581 -0.15436791 0.021233398 -0.32719988 0.22112253 -0.26639596 -0.21059194 0.34531444 0.12459831 0.10796742 0.25769353 0.3194734 0.15452328 0.14701658 0.089090325 0.46669742 0.04128026 0.059838314 0.15488075 -0.0070079 -0.102262944
pini -0.023797458 0.10439777 -0.08932562 0.21078512 -0.00683272 -0.20526166 0.13096817 0.49105206 -0.17739339 0.0054100333 -0.063471526 -0.2289352 0.056922875 0.13570935 0.119319186 -0.12234482 0.062847346 -0.31262136 -0.23359619 -0.5684127 0.33362266 0.10320093 0.07650165 -0.24551842 -0.07027286 -0.04530687 -0.20400308 -0.002072919 -0.19579919 0.09425441 0.21947354 0.012612479 0.33881125 -0.43772155 -0.04542855 0.3278074 0.12284602 0.06160915 -0.11867474 -0.25929117 -0.017199097 -0.099816024 -0.24750069 0.07761976 0.1150472 -0.15423703 -0.08149465 0.0011721455 0.0654711 0.14561984 0.06252004 -0.19972743 -0.011193531 -0.05223163 0.14238097 0.102047324 0.017045548 -0.02375782 -0.23952158 0.18265834 0.109617524 -0.08785101 0.17510073 -0.13313185 -0.18079561 0.36230534 0.14342655 0.3859121 -0.22233266 0.31135973 -0.0847317 0.1739316 0.07857672 -0.0068034884 0.16033457 -0.01780521 0.06580466 -0.008201069 -0.02677343 -0.0945193 -0.1514454 0.02458918 -0.27970135 0.18781841 -0.1921879 -0.2064881 0.33064348 0.08704982 0.15896894 0.20430566 0.35225782 0.1160836 0.16872239 0.08856864 0.31478956 0.05336214 0.011988696 0.12922037 -0.056283437 -0.0557834
ilo -0.034890547 0.2613067 -0.12535346 0.29352665 -0.13795593 -0.24345225 0.19233783 0.5599668 -0.13237104 0.072926715 -0.04221338 -0.14685053 0.009221384 0.21471317 0.13701063 -0.2732068 0.106630936 -0.50302744 -0.43805388 -0.40191236 0.3990861 0.121746704 0.03964198 -0.29700497 -0.056859378 -0.020173598 -0.3546951 -0.31989855 -0.07501991 0.0684427 0.10945873 0.18463494 0.20949644 -0.6097589 -0.0074134544 0.34832004 -0.0313919 -0.07331894 -0.1724925 -0.4320958 -0.13740645 -0.098293796 -0.06440178 0.026423343 0.22206397 -0.12297061 -0.13376978 -0.073055975 0.091422856 0.20480488 0.335166 -0.18951276 -0.09515196 -0.14230809 0.08855475 0.027795913 -0.014837394 -0.13983692 -0.42058894 0.1846096 0.0734706 -0.076019086 0.18008506 -0.21863884 -0.071860544 0.35864988 0.12690252 0.4977405 -0.24531998 0.30148396 -0.02375362 0.028372293 -0.037372846 0.031338174 0.0325788 0.040116258 0.08991404 0.13135481 0.0803078 -0.028506057 -0.21446866 0.17115872 -0.31537917 0.05672068 -0.04102944 -0.30075786 0.60071164 0.29363003 0.16795589 0.38197574 0.5279467 0.03214501 -0.0041592713 -0.14412662 0.35538474 0.12092479 -0.029854342 0.1894238 -0.16987547 -0.11187459
? -0.16272132 -0.08500191 -0.3436323 0.19950491 -0.109130755 -0.1698814 0.1107049 0.6701737 -0.26655585 0.029303627 -0.015071918 -0.19558491 0.0858651 0.21629754 0.052315693 -0.30152118 0.13322222 -0.4816429 -0.21533608 -0.5351457 0.40216377 0.107088655 -0.12137027 -0.240821 0.029637862 -0.15773875 -0.12659946 0.11972003 -0.23692682 0.119083755 0.38408118 0.017490836 0.28061882 -0.52618986 0.008407697 0.38000354 0.14814816 0.07245033 -0.020207938 -0.33934388 0.035323575 -0.09148962 -0.31962007 0.12987168 0.10010934 -0.17832488 -0.036141865 0.09583842 0.0029172916 0.024714814 0.046571873 -0.31625447 0.037566025 -0.05881437 0.22184157 0.14649379 -0.09908674 0.15491505 -0.15265167 0.26263446 0.1377756 -0.063090056 0.39432752 -0.24679856 -0.3378515 0.34255505 0.22702514 0.5343135 -0.32176074 0.29982743 0.008684797 0.33393916 0.059616268 -0.10237764 0.20769744 -0.035322398 -0.046409283 0.0054822783 -0.06667703 -0.062107172 -0.10731456 0.083751455 -0.40467194 0.1819728 -0.24530023 -0.2735341 0.32420787 -0.006712756 0.19064039 0.3778361 0.25515875 0.21057712 0.37974763 0.15901934 0.43111256 -0.012379319 0.22736129 0.243083 0.117271066 -0.08757736
wan 0.029111667 0.14814547 -0.11229923 0.20974234 0.019572034 -0.22329645 0.1634191 0.55274963 -0.25403708 0.049906276 -0.07803794 -0.25453737 0.054596424 0.09744583 0.13299209 -0.1388407 0.068633065 -0.37681967 -0.2794538 -0.62684005 0.38135353 0.14413302 0.10079275 -0.28946558 -0.09625491 -0.08811971 -0.2450193 -0.14064857 -0.16450696 0.11014137 0.24848849 0.035268825 0.40721095 -0.49398467 -0.035569306 0.4699501 0.08925213 0.037443124 -0.08439073 -0.41251722 0.0026327053 -0.13164493 -0.24455468 0.1003585 0.13552208 -0.14831513 -0.11130601 -0.056534477 0.08770036 0.10229238 0.12223977 -0.1963492 -0.037658896 -0.024258366 0.10623402 0.057913154 0.06012555 -0.04846409 -0.26519936 0.23117696 0.1515594 -0.031923063 0.13595447 -0.19378155 -0.20850514 0.4552094 0.16929036 0.41561234 -0.27720988 0.2754055 -0.15502685 0.1825258 0.037867926 0.039008364 0.1754986 -0.068450496 0.05287146 0.014108814 -0.022253329 -0.050285522 -0.14826077 0.05804278 -0.32067522 0.23012134 -0.1932948 -0.21636522 0.41036502 0.15740992 0.18710871 0.2595359 0.3865824 0.13916005 0.18392852 0.05673158 0.43028405 0.02822251 0.024801753 0.12998591 -0.06783716 -0.099869706
meli 0.0026880926 0.102831624 -0.14606637 0.28666222 0.014083189 -0.22082132 0.243528 0.47732827 -0.25948194 0.06145391 -0.091989115 -0.24066822 0.12918961 0.11705362 0.04025873 -0.12517983 0.022972802 -0.28871363 -0.30647483 -0.61790806 0.29311162 0.17621326 0.093679614 -0.19370846 -0.022355651 -0.046202317 -0.14913908 -0.03529235 -0.23844199 0.11582904 0.20805874 0.03049596 0.43098786 -0.40962917 -0.04129342 0.42642468 0.12124208 0.029060015 -0.040477958 -0.3571031 -0.018784603 -0.1506378 -0.24944423 0.08763795 0.12810045 -0.11712769 -0.10390006 -0.030772705 0.1055435 0.08296955 0.06653753 -0.23519999 -0.046600845 -0.15660594 0.19842148 0.09957601 0.012637729 -0.00454142 -0.2596573 0.2571008 0.13619111 -0.16141918 0.15491721 -0.15480626 -0.23146187 0.3871518 0.19649024 0.4076959 -0.2525883 0.34844983 -0.13632098 0.13284412 0.11809683 0.06579101 0.16293105 -0.03206006 0.06120286 -0.036011595 -0.027849235 -0.093259625 -0.08886275 0.10211214 -0.3095847 0.16767661 -0.19122739 -0.26449725 0.3595769 0.11114101 0.20510863 0.19745721 0.3348391 0.22690558 0.2267639 0.10767802 0.43845353 0.0027741138 0.08115991 0.12213198 -0.021322038 -0.12660562
suno 0.059956994 0.19947872 -0.02027727 0.3316396 0.040245995 -0.3093246 0.27106816 0.48655087 -0.21655688 0.060252596 -0.060600974 -0.28105095 0.062278338 0.15394889 0.12487243 -0.07210489 0.035141245 -0.3335517 -0.4299814 -0.66483027 0.2725485 0.17242342 0.10775591 -0.23335245 -0.11256412 -0.008612765 -0.26282263 -0.20819077 -0.18560272 0.13293844 0.19017892 0.096511826 0.46651453 -0.4731218 -0.10777137 0.44631755 0.11875921 0.03612405 -0.069528535 -0.45106792 -0.0062156674 -0.20622467 -0.1997831 0.053223453 0.17488635 -0.113579325 -0.17822257 -0.034150813 0.16434717 0.18832551 0.09142521 -0.1949466 -0.039011676 -0.1683534 0.14027332 0.12329308 0.090377696 -0.11007796 -0.33647752 0.30062094 0.13002919 -0.15246274 0.07467429 -0.18340376 -0.17532878 0.4193544 0.14422256 0.4497368 -0.25776234 0.38011053 -0.16356228 0.040904112 0.08495226 0.13904476 0.17723179 -0.038446676 0.10544235 0.036869533 0.006048063 -0.10537626 -0.12242464 0.09465163 -0.28079847 0.21918881 -0.159765 -0.22355992 0.46484223 0.2051112 0.2512372 0.18343706 0.49574235 0.16887116 0.19027837 0.09671963 0.3556148 0.048621047 -0.051803265 0.07916701 -0.09853651 -0.116205245
ale -0.08472768 0.041080654 -0.20202872 0.14861105 -0.035817474 -0.16291524 0.09418305 0.61826926 -0.21760102 0.00212423 -0.08983537 -0.26003817 0.05444114 0.08052992 0.14315912 -0.20486982 0.14083071 -0.41898197 -0.13046628 -0.58158714 0.41713852 0.13283028 0.015834074 -0.30680022 -0.06720424 -0.13467701 -0.223451 0.014787289 -0.20106064 0.06565612 0.31239098 -0.022825386 0.28602216 -0.48684293 -0.017090501 0.39615813 0.10562536 0.031967662 -0.098252386 -0.2933671 0.017587377 -0.06878875 -0.28560862 0.11400313 0.13150355 -0.14577195 -0.08007559 0.0076963315 0.043907207 0.05222889 0.11870587 -0.22805612 0.010417773 0.07158936 0.06953299 0.077639066 -0.013272822 0.006489237 -0.18700637 0.18158337 0.10139108 0.0414586 0.22763394 -0.1777817 -0.21786566 0.42084444 0.13274778 0.42647222 -0.27989337 0.22060354 -0.047820825 0.3275442 0.060186204 -0.08970851 0.2189962 -0.064468786 0.043291293 -0.0025680615 -0.06432296 -0.068559535 -0.20670998 -0.0012411404 -0.3349328 0.22754614 -0.20468804 -0.22011213 0.31200123 0.08869996 0.15292461 0.28124508 0.32083547 0.12860045 0.2069653 0.08352205 0.42102087 0.042837165 0.11581784 0.18610024 0.009954913 -0.039074183
waso 0.015404548 0.19376343 -0.12742232 0.28464004 0.031799324 -0.2893838 0.2542639 0.4898947 -0.23926182 0.065511174 -0.073191024 -0.23633099 0.11930557 0.16388832 0.070415564 -0.124133736 -0.018732725 -0.28363097 -0.3459082 -0.59795445 0.28379694 0.12151976 0.14573653 -0.21111175 -0.05506857 0.014497889 -0.15138058 -0.16882433 -0.21884106 0.15185371 0.1706532 0.1043864 0.4561816 -0.44385576 -0.040275276 0.44391453 0.12033898 0.042070236 -0.07669153 -0.40998352 -0.015629673 -0.14301302 -0.24085622 0.028984502 0.13020118 -0.13304015 -0.057230476 -0.092302136 0.16809054 0.098096654 0.07608564 -0.24481614 -0.0658803 -0.18165053 0.19259624 0.05406501 0.017463133 -0.0423327 -0.32063454 0.28033274 0.19002445 -0.19925918 0.15027417 -0.1582774 -0.17875142 0.43114245 0.23182414 0.3701095 -0.31014994 0.38964686 -0.15224281 0.06970528 0.11653476 0.10894033 0.11038728 0.013688695 0.05622178 -0.005978131 0.0193682 -0.08133222 -0.0699462 0.1334121 -0.3303227 0.13240632 -0.20112927 -0.32557032 0.4656506 0.20639317 0.24780159 0.24356055 0.40762296 0.22623982 0.16086651 0.032830305 0.46047604 0.010379485 0.061562635 0.09240495 -0.071040854 -0.16040504
sitelen -0.10662055 -0.036751997 -0.29643703 0.07228691 -0.03773116 -0.10791487 0.039175484 0.72556955 -0.22125201 -0.06633764 -0.090553015 -0.33766663 -0.012104621 0.0019737105 0.20606321 -0.2622017 0.19747765 -0.5110663 0.052268643 -0.59961784 0.5957013 0.09905865 0.08410047 -0.39466107 -0.084755294 -0.16079754 -0.294132 0.2061367 -0.25052163 0.03354148 0.40089235 -0.1446013 0.24669993 -0.49661666 0.05444212 0.35981146 0.14361775 0.0568452 -0.24438508 -0.088276945 -0.033246472 -0.008318878 -0.40948325 0.18400852 0.082511134 -0.20671459 -0.010468472 -0.017372368 -0.017779572 0.06299909 0.086423665 -0.2217636 0.11622854 0.24919865 0.0842763 -0.017477946 0.039871074 0.064071335 -0.12104999 0.1459428 0.11232105 0.08025979 0.30920935 -0.19679418 -0.26849943 0.44038078 0.13554797 0.35754105 -0.30628964 0.13515976 -0.040138252 0.48429185 0.08306318 -0.2668288 0.23243716 -0.13486736 0.07916567 -0.08870182 -0.110205345 -0.06535794 -0.3194041 -0.045219216 -0.34716102 0.2637564 -0.3094961 -0.2416209 0.18995634 0.045628347 0.042134717 0.28895268 0.22728209 0.088671915 0.17195594 0.04721547 0.4567682 0.050609816 0.12947859 0.21507378 0.021047 0.0043126787
utala -0.045906425 0.16353355 -0.13244094 0.24364845 -0.014801093 -0.28845397 0.29236537 0.558001 -0.20426174 -0.08582166 0.019754553 -0.24447344 0.06702573 0.18475781 0.118013196 -0.16362418 0.1333731 -0.36213958 -0.33838204 -0.5364599 0.21868275 0.113373116 0.07357509 -0.20161967 0.005334851 -0.07577951 -0.19899392 -0.06094553 -0.17827776 0.009869273 0.14677984 0.060373075 0.19014342 -0.44047377 -0.021547977 0.31589934 0.106860526 -0.03609764 -0.0118051935 -0.34320414 0.040796813 -0.23292473 -0.13634928 0.00037504532 0.2537846 -0.04281966 -0.2287926 0.025245013 0.16477606 0.19632892 0.103713185 -0.20500639 -0.070138864 -0.17654668 0.10194493 0.15818779 0.055999517 0.02274918 -0.2975421 0.22832619 0.030023485 -0.09803317 0.1761707 -0.1251564 -0.19063377 0.3784451 0.049734294 0.48380107 -0.20676555 0.29961956 -0.031576578 0.10112441 0.13045442 0.06837617 0.22430965 -0.07863628 0.13293852 0.025720922 0.0039292118 -0.06315891 -0.16439737 0.053166598 -0.34412482 0.21368998 -0.019731645 -0.28057653 0.40826693 0.17208241 0.23985972 0.20686673 0.3638807 0.16059448 0.16973257 0.03275885 0.3942864 0.11863333 0.11354298 0.041703492 -0.04308642 -0.10025571
kon 0.038877416 0.18504433 -0.07580362 0.30884194 0.040184654 -0.24895239 0.25972858 0.41137725 -0.17904997 0.021470355 -0.053013965 -0.20892468 0.09471413 0.1756126 0.06773532 -0.111427166 0.06235663 -0.24430189 -0.41897196 -0.5512941 0.18525958 0.1426856 0.08587843 -0.15074651 -0.031672742 -0.011458296 -0.20879291 -0.14009313 -0.20000626 0.12598126 0.096112095 0.08810181 0.32516974 -0.4472967 -0.10422185 0.35521784 0.08745502 0.0014785567 -0.038843036 -0.3470978 -0.025609395 -0.18554771 -0.14019153 0.023139285 0.20236148 -0.09606099 -0.18287589 -0.02210102 0.16531783 0.17322831 0.10792025 -0.22984752 -0.047052555 -0.27408543 0.11600893 0.115735225 0.044175763 -0.031883948 -0.34853324 0.288821 0.091319814 -0.18115121 0.103661545 -0.096636176 -0.16862486 0.34949768 0.08706456 0.4616119 -0.21671714 0.37304926 -0.11334856 0.03767636 0.13033304 0.121990584 0.12848477 -0.03460048 0.063263215 0.04750072 0.0046201856 -0.08591559 -0.1444856 0.07770671 -0.28168404 0.18114647 -0.06653873 -0.21732087 0.46400186 0.18781458 0.23820648 0.17946583 0.43245113 0.19693659 0.20405383 0.06348075 0.3319391 0.041097015 0.0029255385 0.068304166 -0.08769012 -0.109573804
musi -0.10906529 0.0027582452 -0.19397144 0.18785952 -0.027734598 -0.14547509 0.13017093 0.6047722 -0.17893183 -0.0390848 -0.062172066 -0.25198305 0.04856267 0.1114782 0.17540966 -0.25705183 0.12210358 -0.43781474 -0.17374438 -0.6089598 0.40610135 0.15672447 -0.028747592 -0.24106355 -0.023205932 -0.10589798 -0.24849746 0.079752 -0.2392253 0.056981646 0.24098536 -0.03771111 0.2281115 -0.51114964 -0.014318668 0.35312623 0.094436765 0.0046671624 -0.12715404 -0.20438808 -0.014990361 -0.108674966 -0.28149575 0.14288874 0.1327711 -0.13294362 -0.099933036 0.022304224 0.020678822 0.14907627 0.09147516 -0.2615202 0.0161046 0.0119902035 0.12541659 0.0949936 -0.026271155 0.07219639 -0.21896532 0.20763299 0.05616844 -0.0045347777 0.27819407 -0.18451631 -0.27673122 0.38441142 0.13443595 0.49232274 -0.28486994 0.27898192 -0.0074745896 0.3391265 0.09219572 -0.14345926 0.22148952 -0.088116534 0.046836443 0.039739624 -0.05275783 -0.117145866 -0.23002945 0.057213884 -0.3509943 0.24775608 -0.17385948 -0.19279997 0.29258603 0.07397722 0.17437999 0.24944273 0.31788987 0.10401679 0.23000358 0.10966351 0.37391225 0.09151283 0.13856478 0.15588589 0.009783944 -0.06985439
mama -0.01885238 0.071925245 -0.13624743 0.27651432 0.004613516 -0.22716045 0.20905398 0.47324464 -0.21645324 0.053440075 -0.054618225 -0.22282241 0.12627712 0.16109271 0.061942477 -0.098992996 0.022544947 -0.2894496 -0.26942405 -0.6112809 0.2717029 0.15104714 0.056504186 -0.16799298 -0.038003303 -0.033524998 -0.122884884 -0.003137266 -0.25884375 0.12702787 0.21904163 0.04489879 0.36925727 -0.35501903 -0.044723384 0.3908668 0.11456556 0.030866958 -0.05355661 -0.30472338 0.0011558319 -0.17648853 -0.23063087 0.07144969 0.15323094 -0.10938345 -0.09709192 0.0018242176 0.10544032 0.101631686 0.05688259 -0.19883516 -0.03911023 -0.15138957 0.18846154 0.12282615 0.033792347 -0.009734221 -0.24894197 0.24150498 0.122556485 -0.15087296 0.15798107 -0.13604823 -0.2248008 0.38502136 0.14664446 0.40308535 -0.23234183 0.34942147 -0.101921044 0.10390784 0.10872314 0.0357032 0.19568418 -0.038638987 0.057177544 0.009017721 -0.0029951357 -0.105917774 -0.08216526 0.058839317 -0.31744742 0.1821345 -0.13472408 -0.24137871 0.3362305 0.11673406 0.2225231 0.17009455 0.34827417 0.19820179 0.19820839 0.107627556 0.36602253 0.023865521 0.06361512 0.098433845 -0.032397885 -0.062782094
ijo -0.06376308 0.04026461 -0.19040552 0.1694286 -0.033393793 -0.16153093 0.1317761 0.53389376 -0.1718604 -0.007401792 -0.078184 -0.23575546 0.05027614 0.11499335 0.10453099 -0.20450144 0.099677235 -0.35918933 -0.16722624 -0.5420159 0.37928715 0.13246179 0.021249173 -0.25256115 -0.0010136368 -0.08574184 -0.19435899 0.07830596 -0.22812353 0.091408014 0.25785437 -0.010236437 0.2612973 -0.4483391 0.008420921 0.34307536 0.12800026 0.050791226 -0.113044314 -0.19742419 -0.022265708 -0.115006864 -0.28309485 0.1057405 0.1220875 -0.16603713 -0.053305067 0.023678878 0.061207913 0.101775296 0.0838639 -0.24113221 0.026615173 -0.008900422 0.09639109 0.10625224 -0.015957665 0.0254336 -0.1975416 0.20894167 0.09063876 -0.04906409 0.25705978 -0.13655923 -0.21062212 0.37511235 0.14152987 0.40855905 -0.2571469 0.277958 -0.021670042 0.26453412 0.08866428 -0.08554314 0.17830531 -0.053817935 0.04701569 -0.013964515 -0.030857895 -0.0649351 -0.19823849 0.018088747 -0.31824344 0.17375453 -0.16043101 -0.24614467 0.30851534 0.07353432 0.16519873 0.25291756 0.29834628 0.14428288 0.21366723 0.042331666 0.34884214 0.04066388 0.13440704 0.14852926 0.0071589723 -0.04576628
moli -0.059819117 0.045782797 -0.15467861 0.17319596 -0.0056879935 -0.19226958 0.15674733 0.4723041 -0.17998733 -0.04101982 -0.04114101 -0.20262502 0.07658871 0.14627768 0.07887056 -0.1494594 0.07240489 -0.2833373 -0.19067161 -0.46680582 0.23550476 0.13361458 0.01734281 -0.17891516 0.008643478 -0.07229379 -0.1327863 0.047970988 -0.18897536 0.052591596 0.19450887 0.0092480695 0.20585151 -0.35932073 -0.03546953 0.29811403 0.101055056 0.010642829 -0.03628333 -0.24694817 0.030106964 -0.11263692 -0.20700683 0.060255937 0.15161878 -0.08075168 -0.11247615 0.013669457 0.06649317 0.0838726 0.0606054 -0.19920169 -0.024156166 -0.080430664 0.09478565 0.10279973 -0.0068628504 0.04244805 -0.18864246 0.16896091 0.06707543 -0.039951365 0.19245939 -0.11576064 -0.19684467 0.3150528 0.1072876 0.38041845 -0.22210437 0.24423489 -0.03237713 0.19338365 0.095775425 -0.011301802 0.18355462 -0.03479737 0.05539477 0.007317123 -0.035346143 -0.0719869 -0.13113171 0.025706528 -0.2911438 0.17530234 -0.0957478 -0.20694146 0.30190244 0.073183894 0.1592867 0.19199802 0.25598717 0.16393708 0.19077942 0.07658606 0.3464062 0.06734936 0.13067316 0.09713559 0.017676534 -0.049857326
ante -0.03261512 0.104245014 -0.17621984 0.15321861 -0.0017121459 -0.20593996 0.16159903 0.5363537 -0.21250808 -0.031622272 -0.035250627 -0.28520712 0.051317345 0.07328503 0.11224594 -0.17556776 0.11744246 -0.34570396 -0.14542817 -0.58087623 0.3539316 0.09231175 0.11691627 -0.27247378 -0.07642312 -0.09218837 -0.19628815 -0.006478681 -0.20692761 0.051671594 0.2553953 -0.029769987 0.30712777 -0.42891672 -0.0025893152 0.327646 0.11763353 0.059010558 -0.096328504 -0.22554189 0.026396016 -0.12876958 -0.25731182 0.070267156 0.12282566 -0.120726004 -0.069206975 -0.025926065 0.103402 0.11309742 0.051709417 -0.17414178 0.0078365775 0.023493404 0.09838332 0.0672553 0.053757362 -0.005953067 -0.18703605 0.19910368 0.1249322 -0.053022433 0.17068201 -0.14564903 -0.1782794 0.38657284 0.13146909 0.34559533 -0.23828353 0.22855398 -0.07105087 0.20451283 0.10673104 -0.02293492 0.18827567 -0.083576724 0.07614224 -0.028229786 -0.035833865 -0.06067679 -0.18910229 0.010724528 -0.31263268 0.20567459 -0.17662093 -0.26299617 0.2925745 0.114664204 0.17664331 0.21669948 0.28645116 0.124386944 0.15287338 0.054407347 0.37227917 0.038867578 0.09035619 0.107461244 -0.049652502 -0.050084148
nasin -0.05043736 0.069316216 -0.1384813 0.20579861 -0.027014758 -0.22162443 0.15802453 0.527411 -0.18147159 -0.05657553 -0.032908656 -0.26375422 0.03597795 0.11955082 0.13374959 -0.17508335 0.12965308 -0.35353914 -0.22040108 -0.5245915 0.3237264 0.1149003 0.046787445 -0.23174813 -0.027859952 -0.06446979 -0.24062288 0.02161609 -0.20653233 0.06263908 0.1982287 -0.002991023 0.22748308 -0.45936695 -0.027443647 0.31187123 0.086944126 -0.004775592 -0.10744737 -0.23192726 -0.008673745 -0.14949155 -0.2075314 0.07613619 0.14669679 -0.114750154 -0.10549744 0.0053575486 0.08120179 0.14997318 0.113234565 -0.20535246 0.02565975 -0.03335061 0.06389493 0.08951158 0.050847158 0.0041860407 -0.21283083 0.20164497 0.06667698 -0.05773169 0.18928482 -0.14296955 -0.19277528 0.38628942 0.08240768 0.42830974 -0.2177658 0.25141212 -0.038643133 0.19022442 0.09958882 -0.041251086 0.19902252 -0.07412912 0.07955948 0.023891687 -0.017462237 -0.08448933 -0.23061897 0.028008075 -0.28106824 0.18567781 -0.11252593 -0.21596117 0.32620376 0.10299064 0.18822522 0.2118286 0.34076738 0.09989436 0.15936702 0.054348383 0.33488142 0.07711874 0.07442332 0.093537904 -0.039216302 -0.04828377
weka -0.04136974 0.08730638 -0.11765399 0.24945669 -0.008793231 -0.23381127 0.19136178 0.45692796 -0.17571141 -0.028212016 -0.031919166 -0.22741729 0.0814075 0.16700444 0.058065392 -0.11930272 0.059075706 -0.29215914 -0.28150567 -0.5277241 0.21714894 0.12583192 0.03832019 -0.16023606 -0.0044818283 -0.010586163 -0.16008468 0.016125795 -0.2242103 0.09148791 0.16168052 0.036251538 0.28284687 -0.40584585 -0.042162765 0.33609164 0.11675944 0.0047978363 -0.049278148 -0.28265554 -0.00511858 -0.15865344 -0.2138935 0.04150398 0.16013247 -0.119261295 -0.12285747 0.016380524 0.121684395 0.13681592 0.058046035 -0.22155982 -0.02131941 -0.14415857 0.12424013 0.12312349 0.011708484 0.009301818 -0.26140708 0.22957988 0.08948962 -0.1323022 0.18095255 -0.10078659 -0.2047632 0.34955555 0.14253363 0.4273524 -0.22026299 0.3475739 -0.04609402 0.13053533 0.11640771 0.032253817 0.17889307 -0.017610766 0.044309273 0.012100155 0.0102606695 -0.08369994 -0.14448115 0.06865358 -0.28008127 0.16185012 -0.11103891 -0.2422533 0.3644014 0.118698835 0.20779733 0.2053863 0.34452233 0.18779041 0.21330768 0.07891028 0.33916387 0.058503814 0.088081576 0.07481206 -0.036176924 -0.06588956
seme -0.24132231 -0.009901279 -0.29682064 0.14569278 -0.037039757 -0.1161737 -0.0051784785 0.59783787 -0.23524088 -0.08465193 -0.04761898 -0.18866247 0.1317235 0.09979276 0.104968995 -0.27384403 0.14999333 -0.45969436 -0.0705273 -0.5420228 0.27102062 0.12063634 -0.13616742 -0.26059455 0.015407334 -0.07732523 -0.20583062 0.17326413 -0.20969668 0.09102166 0.2996878 0.004769934 0.13011594 -0.49220112 0.024004016 0.39085528 0.07844445 -0.03623155 -0.047875676 -0.30978084 -0.013715827 -0.028248865 -0.3305334 0.057607748 0.19230162 -0.17189649 -0.07135118 0.057297546 -0.08613726 0.00752683 0.090027325 -0.2719412 -0.0055098156 0.05079313 0.1682896 0.12302435 -0.15481283 0.11995574 -0.2268545 0.24634925 0.07569425 0.00885872 0.38526633 -0.1962895 -0.29215467 0.36932275 0.25398067 0.4979386 -0.25262654 0.31463403 0.010987796 0.41121942 0.011421533 -0.16709004 0.14316493 0.040313464 -0.032641657 0.022129629 0.004725479 -0.14171904 -0.18529369 0.03960354 -0.3918936 0.25994992 -0.15887924 -0.23953676 0.31003547 0.061887454 0.16122866 0.3514334 0.160681 0.17438872 0.35245666 0.14216557 0.4149132 0.008553208 0.26512092 0.21774268 0.12018864 -0.042835
kasi 0.12604795 0.21818648 -0.029481852 0.32637975 0.06507289 -0.3456761 0.40381867 0.32464233 -0.22602075 0.108290635 -0.013688692 -0.21702303 0.11589471 0.16404937 0.047191516 0.038909864 0.025194876 -0.2302915 -0.5125742 -0.5941246 0.086315446 0.17337613 0.10309451 -0.10883178 -0.082120545 0.032215513 -0.15223265 -0.2716827 -0.14822301 0.07076407 0.13887475 0.16651121 0.40956897 -0.3723015 -0.07049742 0.42998686 0.10774837 -0.013071187 0.021045722 -0.49528703 0.034966774 -0.2949004 -0.075767756 -0.013177689 0.2111212 0.017144237 -0.28868267 -0.005472482 0.25600353 0.15224189 0.07916366 -0.12767984 -0.07957168 -0.29238752 0.12814721 0.14162311 0.14959292 -0.042173322 -0.38418844 0.31174937 0.06980226 -0.21024746 -0.014777496 -0.103050366 -0.13671392 0.3525904 0.08787181 0.3906379 -0.14913501 0.3794978 -0.19671766 -0.15910907 0.089048296 0.28436193 0.177439 -0.09783384 0.123328805 0.095941454 0.06840835 -0.063306354 -0.06359565 0.11519606 -0.2338634 0.15892775 -0.04793879 -0.23130417 0.4583039 0.26824966 0.31949615 0.10944013 0.45073348 0.22140324 0.146551 0.037942395 0.31125182 0.029052148 -0.03463922 -0.06538031 -0.062413286 -0.13772593
sin -0.035968006 0.09295537 -0.12570377 0.2116805 -0.0074378857 -0.19838835 0.17341979 0.49793938 -0.20993905 0.013097403 -0.048764933 -0.2547652 0.0628674 0.10485861 0.099510364 -0.14980695 0.08116203 -0.3432777 -0.23191321 -0.5829643 0.34078223 0.11400977 0.055500116 -0.23047018 -0.07420234 -0.0650171 -0.18755184 -0.002637482 -0.21452464 0.09483468 0.23565802 0.002789316 0.31234932 -0.41862097 -0.037121367 0.3443832 0.12443674 0.046797764 -0.08697483 -0.26541635 -0.010043957 -0.14352344 -0.2401519 0.08362196 0.13617122 -0.14034018 -0.0686288 -0.00031145394 0.081077576 0.13617608 0.072190374 -0.19737674 0.014483433 -0.050775226 0.13518038 0.100638606 0.024814913 -0.029853282 -0.23057273 0.20029218 0.09718524 -0.08531984 0.18222907 -0.16941288 -0.19100684 0.3778407 0.14244285 0.38972777 -0.23054567 0.2773243 -0.06784286 0.1728945 0.09140727 -0.02457797 0.17552757 -0.03816229 0.0600147 -0.0006456477 -0.010804559 -0.09038664 -0.15484007 0.021035608 -0.28964275 0.18052828 -0.16093944 -0.22461651 0.29717675 0.09498305 0.18056211 0.21201938 0.3212539 0.14533821 0.19141522 0.06450665 0.35233536 0.013221773 0.048162676 0.0997955 -0.03138162 -0.051288594
anpa 0.020598697 0.15734963 -0.086444244 0.27061135 0.019373175 -0.28991002 0.2699774 0.44495267 -0.19979376 0.0103551075 -0.048187666 -0.20412965 0.09917656 0.17994162 0.08035908 -0.08206898 0.05017965 -0.27509373 -0.39401218 -0.5775423 0.19569984 0.16200389 0.080322035 -0.16404352 -0.01025737 -0.016329858 -0.17812942 -0.09109714 -0.20926297 0.10817055 0.13725314 0.09112762 0.3213668 -0.42561162 -0.07800171 0.3752498 0.10008628 -0.003662775 -0.027303675 -0.36899963 0.0028138377 -0.21090406 -0.1654199 0.020040924 0.21037239 -0.076683156 -0.18093464 -0.014888006 0.15602954 0.15996358 0.07294656 -0.21326259 -0.058193814 -0.2148439 0.12775628 0.13326064 0.053360313 -0.009860285 -0.32574433 0.27181897 0.08994757 -0.16976553 0.11793397 -0.11421551 -0.17504838 0.38961568 0.1284613 0.44039544 -0.22759515 0.3764868 -0.089469165 0.059193492 0.117458425 0.14129923 0.1745621 -0.030638054 0.08026228 0.048615243 0.018526508 -0.090681635 -0.12505227 0.08614658 -0.29291096 0.19609353 -0.07645479 -0.24793532 0.4433432 0.17803542 0.2540143 0.17722239 0.42250985 0.20242536 0.1813521 0.053379774 0.34828272 0.06673123 0.052417435 0.03374706 -0.055114195 -0.09054106
en 0.012857512 0.17800993 -0.13047022 0.2922699 0.019933607 -0.2709366 0.2546814 0.5833604 -0.25872776 0.04704223 -0.057705864 -0.2609015 0.06963015 0.14006793 0.14357106 -0.16285934 0.09889297 -0.39968112 -0.34940147 -0.67163384 0.3283053 0.17352986 0.076576054 -0.2620053 -0.07421633 -0.07385699 -0.26289254 -0.14974278 -0.21590602 0.11228172 0.22261553 0.05803839 0.38845983 -0.5223261 -0.05243036 0.46247295 0.10874356 0.0017919417 -0.0681592 -0.43381768 0.010793721 -0.18986751 -0.2231789 0.078269884 0.20096822 -0.09562525 -0.16459472 -0.023379052 0.1368482 0.15354191 0.12606892 -0.20849423 -0.054114442 -0.12253415 0.13252082 0.096851334 0.062833264 -0.02600526 -0.3202808 0.273763 0.11678749 -0.08599991 0.1629916 -0.2029721 -0.21082164 0.4395598 0.1465587 0.48862326 -0.29084337 0.32569113 -0.10272165 0.14293839 0.09154798 0.07289523 0.20620328 -0.072909474 0.09524362 0.02765302 -0.024131592 -0.096953094 -0.1637144 0.092721954 -0.3381958 0.21510789 -0.1405095 -0.28505653 0.44927818 0.21230641 0.2588056 0.24875423 0.4391097 0.17323437 0.1871345 0.07076937 0.4522121 0.057197973 0.061326973 0.095008366 -0.06839674 -0.13823298
nanpa -0.027130293 0.11303891 -0.19634284 0.1797026 -0.004032808 -0.20746425 0.13910408 0.68160605 -0.2760274 0.041487977 -0.10782735 -0.3220373 0.027772177 0.06582603 0.1771751 -0.18821941 0.13541415 -0.4742265 -0.1792608 -0.6861841 0.47659588 0.17443995 0.07450067 -0.36755463 -0.11094593 -0.12689157 -0.26013082 -0.06399077 -0.2028549 0.09291791 0.3651512 -0.01273701 0.39259845 -0.54289985 -0.042944137 0.5003459 0.13589433 0.03923475 -0.11190375 -0.40795648 -0.011262924 -0.06603809 -0.3216505 0.14862037 0.1294512 -0.15343776 -0.085617654 -0.04585204 0.06727038 0.058828983 0.12703823 -0.2074075 -0.0058843666 0.08442383 0.07580312 0.03918464 0.029187283 -0.020636605 -0.23027831 0.22650316 0.15742181 0.039041195 0.191288 -0.22288933 -0.23887384 0.49174193 0.17128322 0.43695852 -0.31207684 0.2291425 -0.12421723 0.31501403 0.01767986 -0.03625406 0.2047344 -0.06306004 0.034159258 -0.009170855 -0.07392264 -0.06136852 -0.17942294 0.02975773 -0.34727114 0.24969801 -0.24013701 -0.2246141 0.39927173 0.14132583 0.15642658 0.31138062 0.38499224 0.13364892 0.1888616 0.06981751 0.49734804 0.026833069 0.095118985 0.18305172 -0.0003417963 -0.09825556
kin -0.07671896 0.08465926 -0.15582503 0.19973104 -0.0028270024 -0.20285296 0.16667204 0.53250176 -0.18103787 -0.020861706 -0.058616728 -0.22605225 0.07447161 0.14313854 0.08959723 -0.17750537 0.08271095 -0.33778736 -0.21836492 -0.5715331 0.32339764 0.13294818 0.026521958 -0.23192742 -0.0014927172 -0.067199826 -0.17507343 0.008928034 -0.22821337 0.07529704 0.21133764 0.020258438 0.28175023 -0.45382318 -0.029484807 0.36510256 0.11323583 0.008301831 -0.06619486 -0.28712606 -0.01187863 -0.12068897 -0.24131547 0.071205996 0.14975765 -0.14130287 -0.09895611 0.01226411 0.08898029 0.107237644 0.08533152 -0.22276688 -0.018173026 -0.04861682 0.12871915 0.11531515 -0.0003379371 0.006641693 -0.23805127 0.20362116 0.09887118 -0.07649996 0.22262208 -0.16619664 -0.2232496 0.38977438 0.15232381 0.4179727 -0.24512815 0.3016966 -0.05701539 0.21763137 0.077289596 -0.017052252 0.18534952 -0.018854033 0.04973653 0.011587825 -0.029479336 -0.09118793 -0.1608004 0.061314162 -0.32688823 0.18301296 -0.1511275 -0.22355053 0.35340068 0.08594422 0.19921902 0.24525459 0.3345165 0.17007801 0.19730707 0.072308935 0.37619254 0.06691468 0.10169431 0.11940762 -0.0014519227 -0.06854701
luka 0.0061877305 0.14816271 -0.1929503 0.17359754 0.067414254 -0.2824785 0.19507083 0.6308441 -0.33824372 0.06251896 -0.1088594 -0.31756225 0.08033209 0.04226966 0.17298296 -0.15133606 0.058586307 -0.39906284 -0.22082667 -0.6653833 0.39198735 0.19300725 0.13537641 -0.3244088 -0.10714719 -0.12475475 -0.2089463 -0.1966947 -0.18260181 0.08775919 0.33124527 0.045280565 0.47015452 -0.48246348 -0.07763001 0.60426503 0.120987035 0.03826168 -0.07084477 -0.53241456 0.060418166 -0.08141131 -0.32547265 0.083895184 0.123836115 -0.09245994 -0.1077619 -0.09181576 0.10524128 -0.0011957467 0.117875956 -0.25087953 -0.07147642 0.032104 0.064448886 0.0011461009 0.016898774 -0.045583762 -0.2522235 0.2428522 0.23727837 0.04087676 0.1310264 -0.24431552 -0.21649608 0.5227176 0.23030862 0.3972455 -0.37914583 0.24066757 -0.19742768 0.28614542 0.05343276 0.08157809 0.2084028 -0.034440998 0.024442647 -0.014901489 -0.07719431 -0.0767625 -0.07730772 0.037326965 -0.41416463 0.27508026 -0.2703222 -0.252987 0.4640446 0.18435578 0.19445902 0.31133306 0.4165312 0.22606033 0.17611417 0.09676231 0.5947173 0.020735148 0.13047916 0.1480687 0.0014749232 -0.17907822
pimeja 0.057446938 0.17269263 -0.051453996 0.29375333 0.031712204 -0.27214587 0.25953367 0.42676058 -0.17392844 0.07484176 -0.058840267 -0.21941367 0.069365926 0.14125137 0.0784834 -0.08774558 0.025542952 -0.3107265 -0.41208175 -0.5836525 0.2504029 0.15900403 0.10433305 -0.16588351 -0.06351386 0.0038477594 -0.21663463 -0.17711993 -0.18066104 0.13295053 0.12812686 0.09900931 0.40145287 -0.43245807 -0.09413277 0.39457354 0.0965305 0.010872382 -0.0765593 -0.36929545 -0.028938282 -0.18697049 -0.17212829 0.03993376 0.17368573 -0.117602825 -0.13210319 -0.057744823 0.16369484 0.18474045 0.07449035 -0.19016574 -0.050611354 -0.1881354 0.16478556 0.097982585 0.08281861 -0.08259998 -0.3263599 0.27119184 0.10309364 -0.18467735 0.08602043 -0.16354978 -0.1661466 0.36365545 0.1357399 0.39468876 -0.22062564 0.3602152 -0.14204915 0.016884634 0.079429366 0.138905 0.12803794 -0.020250384 0.0895272 0.030036608 -0.0072290264 -0.08890904 -0.09631371 0.10129759 -0.2553148 0.16335392 -0.12542397 -0.22756596 0.4155623 0.2058885 0.22086239 0.18217322 0.43097973 0.15540196 0.16170067 0.052537836 0.33416548 0.0354254 -0.016239403 0.071322955 -0.09918732 -0.12508665
kulupu -0.031730007 0.16570356 -0.159319 0.25672957 0.00077693246 -0.29345798 0.26707548 0.63222474 -0.2450643 -0.018873714 -0.029889459 -0.29330838 0.081356265 0.13678113 0.14074266 -0.18983491 0.1409546 -0.43265375 -0.31299153 -0.6940791 0.3654844 0.12572744 0.08866686 -0.28703186 -0.06575923 -0.08661031 -0.26600483 -0.06039345 -0.22328706 0.056111842 0.24902986 0.03050386 0.3069069 -0.50395936 -0.024010172 0.4106384 0.12875919 0.01556029 -0.054927573 -0.37408593 0.028691197 -0.2248977 -0.22539094 0.047765482 0.21947965 -0.106436774 -0.1484777 -0.004941891 0.14213641 0.1789363 0.10160274 -0.19292465 -0.021527953 -0.09876597 0.13286996 0.14176074 0.081619665 0.00056268944 -0.2924498 0.28002807 0.09103669 -0.097683795 0.19183233 -0.19164257 -0.21262738 0.45072734 0.10105383 0.48991603 -0.24515103 0.31207827 -0.065484144 0.13773014 0.120574296 0.043785203 0.2258809 -0.09967789 0.10280972 0.008994104 -0.00945994 -0.07099708 -0.20151116 0.03609197 -0.34903607 0.21938014 -0.106652446 -0.284421 0.4168958 0.17016374 0.27741858 0.22232752 0.3932525 0.13856824 0.22287197 0.054213267 0.4198993 0.0400172 0.0928325 0.0938865 -0.0747813 -0.08771991
ali -0.04529163 0.12609385 -0.114617 0.22070459 -0.010705921 -0.22227396 0.17723185 0.5221015 -0.1719578 -0.018490504 -0.05846385 -0.22630715 0.061425805 0.16816983 0.12123234 -0.1566916 0.083828926 -0.3207329 -0.2752925 -0.55711466 0.27237532 0.124360554 0.043275885 -0.20486669 -0.024823176 -0.061787635 -0.19345658 -0.027586373 -0.20259443 0.085408695 0.18535368 0.011906177 0.24385917 -0.45083854 -0.050419576 0.32619506 0.114824206 0.023241179 -0.058745645 -0.29683262 -0.0048761447 -0.141936 -0.2151515 0.04489567 0.16306202 -0.11119677 -0.14778665 0.00625636 0.115555435 0.15520674 0.07097233 -0.20313157 -0.025275402 -0.115502626 0.1231705 0.13927533 0.030535793 -0.009059534 -0.24761516 0.2091902 0.060083818 -0.08848027 0.18521297 -0.13730802 -0.2119476 0.3672541 0.096810676 0.43858826 -0.23260792 0.3140063 -0.032067563 0.15242112 0.07967805 0.012638322 0.17715938 -0.05424183 0.088667996 0.031489674 -0.02922808 -0.07091035 -0.17096016 0.038194273 -0.29714403 0.19403927 -0.11417329 -0.23346151 0.36214828 0.12555102 0.2170347 0.19953023 0.3384402 0.14433627 0.19489862 0.066692345 0.34582773 0.068615794 0.0761089 0.10150629 -0.04290633 -0.059552938
lape -0.019915026 0.17847425 -0.12335128 0.3219276 -0.011261472 -0.27599424 0.23479973 0.56071365 -0.20609514 0.019338591 -0.03809701 -0.2161765 0.09405609 0.22951758 0.1289472 -0.12089659 0.05707659 -0.3465307 -0.37696102 -0.6364528 0.29192722 0.13093707 0.05745716 -0.22719306 -0.039883234 -0.017740913 -0.19185904 -0.07089644 -0.2065931 0.17552988 0.21501085 0.07659816 0.3790657 -0.5108184 -0.07534324 0.39349386 0.14798506 0.042391833 -0.089039534 -0.38138312 -0.018350314 -0.16741574 -0.23663682 0.045581207 0.17953017 -0.15243521 -0.112979904 -0.02300002 0.11285367 0.1924659 0.06740581 -0.2396888 -0.060948092 -0.16728358 0.19524688 0.14106475 -0.00063222944 -0.027448164 -0.33477575 0.26037046 0.12969318 -0.1820906 0.20590986 -0.1412873 -0.20184632 0.41044146 0.20323434 0.46419078 -0.28386956 0.45297852 -0.07879571 0.10504982 0.087118864 0.047023837 0.14147446 0.009399668 0.05494 0.03728501 0.005921509 -0.08740069 -0.12760116 0.08888366 -0.31842402 0.16181204 -0.16855232 -0.28553805 0.4285669 0.167266 0.24565624 0.24827853 0.44967693 0.15811057 0.21785726 0.08223018 0.39598715 0.050433524 0.035380065 0.10409387 -0.08589845 -0.0835783
pipi 0.04865439 0.1558364 -0.078569785 0.27123135 0.109959744 -0.30615366 0.28443885 0.42918947 -0.24218647 0.022742536 -0.053486273 -0.3155845 0.13034506 0.11859317 -0.0029008149 -0.047085036 -0.053787775 -0.19600862 -0.34366834 -0.66457385 0.21809396 0.17571555 0.152386 -0.1713041 -0.069203 0.042590972 -0.10394961 -0.12462681 -0.2619312 0.15455283 0.16653423 0.027396396 0.54608285 -0.4074172 -0.06879489 0.49084076 0.15298791 0.048796732 -0.027210522 -0.3989764 0.030943584 -0.17321181 -0.3105062 0.034535166 0.12119383 -0.12343011 -0.03642108 -0.09292421 0.18702595 0.055607233 0.025642198 -0.25988677 -0.0474096 -0.14516206 0.15809327 0.060414683 0.0005345845 -0.03902186 -0.2632338 0.27020425 0.22171262 -0.22809201 0.11106246 -0.13951221 -0.18119855 0.41784883 0.2637961 0.31425545 -0.3219425 0.35248795 -0.19257084 0.11963118 0.18114145 0.12694184 0.14258865 0.014917018 0.032870296 -0.064737834 -0.02691083 -0.11083214 -0.053207465 0.10898546 -0.32174855 0.17389186 -0.23141395 -0.29214364 0.40216666 0.15915844 0.22150564 0.20261528 0.34449178 0.299215 0.21989228 0.13052107 0.5016801 -0.0042265872 0.081431255 0.038165435 -0.037854902 -0.17263222
awen -0.012482106 0.1111032 -0.14403717 0.21673411 0.01263295 -0.20715523 0.1773675 0.50723904 -0.20125265 0.026445594 -0.089649774 -0.27484196 0.06880124 0.116242915 0.09731636 -0.13320531 0.07421778 -0.34397423 -0.23467734 -0.5927384 0.33193895 0.15746097 0.077473305 -0.24854647 -0.059166238 -0.064443335 -0.19552714 -0.03333888 -0.20765081 0.09440417 0.24662277 0.011931766 0.3437261 -0.44791043 -0.04884158 0.4057247 0.10662699 0.017795578 -0.080615126 -0.3046143 -0.0031375657 -0.14736567 -0.2446212 0.07603127 0.12964576 -0.13791622 -0.108951285 -0.019919822 0.08644229 0.09773445 0.100915305 -0.22078453 0.00502802 -0.057670612 0.10921833 0.090936236 0.038234968 -0.012169299 -0.26795912 0.22376779 0.11748768 -0.06657837 0.16546632 -0.14057349 -0.19670758 0.3945343 0.14448817 0.40226993 -0.26279092 0.2795562 -0.085719615 0.18743369 0.07765036 0.0047079227 0.19438095 -0.051766664 0.048272915 -0.0055207503 -0.01865429 -0.061316706 -0.17927969 0.032427657 -0.3062273 0.2040953 -0.16102315 -0.23527505 0.3748346 0.1268012 0.19016382 0.22068354 0.35225773 0.16696699 0.2037863 0.054431587 0.38189593 0.03634345 0.062031873 0.11193984 -0.025201183 -0.06655384
sike 0.07946542 0.19864362 -0.028650085 0.28812578 0.049395625 -0.26760855 0.26137894 0.43621296 -0.22506875 0.07464838 -0.053039685 -0.2395868 0.08407711 0.1423047 0.08857892 -0.0405142 0.020984016 -0.26656985 -0.36465162 -0.59953773 0.22422239 0.120343976 0.13506663 -0.18527554 -0.10374185 -0.0050573107 -0.16700934 -0.20305677 -0.17196712 0.11519122 0.17093213 0.09290662 0.4096805 -0.3748216 -0.069907404 0.39809245 0.12706575 0.02431376 -0.046014115 -0.41179174 0.0028156452 -0.19083717 -0.16867213 0.021809995 0.150879 -0.07421936 -0.15673515 -0.027206197 0.17175291 0.15883666 0.057315752 -0.15176609 -0.05532153 -0.18313454 0.16772972 0.101922736 0.10395107 -0.08317532 -0.29102603 0.25383624 0.1224317 -0.15730156 0.054995123 -0.163934 -0.1689882 0.37133616 0.112130165 0.37351346 -0.21622023 0.33532017 -0.15513812 -0.0069726645 0.06603198 0.13829277 0.15822308 -0.059862226 0.0949199 0.03198453 0.007910408 -0.08001464 -0.060398567 0.07642967 -0.26214898 0.18174645 -0.12533467 -0.23119941 0.4048887 0.18802057 0.23938516 0.15298377 0.41746327 0.15669212 0.15799873 0.09071587 0.3438853 0.010407337 -0.04063725 0.029601755 -0.1012327 -0.111214064
kalama -0.095423274 0.05837512 -0.19955266 0.23619767 -0.012674013 -0.20935826 0.21523134 0.58948123 -0.17850639 0.006750275 -0.04584858 -0.22468695 0.105270475 0.16761053 0.15501642 -0.23057018 0.10276817 -0.40562266 -0.27213302 -0.64260674 0.3394461 0.17873262 -0.03323317 -0.19475816 0.0015573176 -0.06337306 -0.23425698 -0.017580865 -0.23025537 0.07004277 0.19444624 0.038672592 0.24589722 -0.48922515 -0.031334877 0.3951235 0.0937858 -0.025564922 -0.055335276 -0.32107913 -0.031060046 -0.15036188 -0.26074138 0.107254274 0.16669744 -0.09016553 -0.13994698 0.027146064 0.08231016 0.17391255 0.103156984 -0.2656648 -0.042956192 -0.11157968 0.1448562 0.1334876 0.0009050103 0.0634867 -0.28437552 0.2570856 0.063314505 -0.068722926 0.24202259 -0.19721976 -0.28798476 0.40695694 0.1270808 0.53856754 -0.30202624 0.34125906 -0.043732714 0.26050606 0.105649985 -0.021766603 0.21131448 -0.0751151 0.046937257 0.084883355 -0.045324944 -0.1046859 -0.16105603 0.10056742 -0.3582584 0.2401203 -0.12124736 -0.22622782 0.37047774 0.11004357 0.22688387 0.24307624 0.3818298 0.17085026 0.24651839 0.11326123 0.41631764 0.11225273 0.16315798 0.13318712 0.013200292 -0.122810885
lipu -0.06075145 0.076301135 -0.20093659 0.18247716 -0.0026368608 -0.1830259 0.14922972 0.6420708 -0.22974451 -0.031993248 -0.09138459 -0.28922048 0.040670495 0.11949781 0.15971966 -0.21667151 0.1405463 -0.43114397 -0.15895608 -0.61369073 0.45829687 0.12506656 0.040269326 -0.3025652 -0.04359381 -0.1248521 -0.2492859 0.04780125 -0.23715879 0.08464436 0.2983048 -0.022570498 0.24944676 -0.5343382 -0.0064239944 0.4030273 0.13836032 0.04124643 -0.13395095 -0.27791935 -0.018866416 -0.09892678 -0.2982718 0.12921669 0.15977211 -0.15619756 -0.09614157 0.0036241142 0.074523054 0.112605475 0.12969303 -0.22494744 0.028995821 0.043918535 0.077829555 0.076453485 0.007856728 0.009944883 -0.24648325 0.21347485 0.08377588 0.0065672095 0.25123784 -0.18079935 -0.24737123 0.43561795 0.13596682 0.46087742 -0.29211265 0.25811765 -0.044175938 0.32349914 0.07396335 -0.10785973 0.21027222 -0.07517862 0.07718513 -0.015652847 -0.043688484 -0.06980066 -0.23981296 0.014036953 -0.3432049 0.20943521 -0.18507794 -0.26835936 0.36315098 0.12820503 0.18381642 0.28574657 0.3256588 0.13403042 0.18080646 0.052757856 0.42016008 0.05883069 0.1192301 0.15915516 -0.010711118 -0.048559416
a -0.29056993 0.07406563 -0.2604957 0.162143 -0.118943095 -0.17416582 0.084495604 0.70355994 -0.09710035 0.029536951 -0.19122039 -0.2344627 0.03927678 0.3630532 0.07556996 -0.44489986 0.124184445 -0.51086414 -0.2442969 -0.5139686 0.5204376 0.24145149 -0.3117579 -0.3817285 0.1689415 -0.17099461 -0.2393135 0.018708812 -0.31104517 0.033903327 0.34438437 0.06914587 -0.047936194 -0.73634505 -0.084940135 0.40642887 -0.047604095 -0.018701006 0.0033955853 -0.40298092 -0.16113785 0.027060159 -0.18102427 0.11417528 0.15934087 -0.27533418 -0.16745126 0.09648357 0.03488167 0.07246802 0.37759712 -0.38389254 -0.00523976 0.009860066 0.04670546 0.3136062 -0.2771395 0.03345594 -0.3729152 0.14978041 -0.042651113 0.07386889 0.45323393 -0.26808506 -0.27251595 0.34513256 0.08249446 0.6367465 -0.2123673 0.28182358 0.23055016 0.41639847 -0.1203277 -0.18857965 0.22475652 0.11871248 -0.0199867 0.22639038 -0.010819721 -0.10217106 -0.33871576 0.107393965 -0.43214285 0.02404124 -0.11168305 -0.20716624 0.5598019 0.018506732 0.27638027 0.41695073 0.48059776 0.15991649 0.14207801 -0.114745095 0.2877728 0.17345688 0.25900945 0.35647225 0.12006074 0.07726372
kiwen 0.06626557 0.2224978 -0.07059451 0.37624544 0.03814468 -0.35007358 0.32672614 0.49440026 -0.26214275 0.084970176 -0.08010417 -0.30246428 0.1169235 0.22268829 0.07162271 -0.10502161 0.063365735 -0.3366529 -0.5088356 -0.71862596 0.2704985 0.17121583 0.11225629 -0.18722048 -0.05685358 0.0070127216 -0.22538394 -0.18995512 -0.24873456 0.15919574 0.1829347 0.13733658 0.4639461 -0.539937 -0.10449276 0.47453263 0.14115879 0.005411483 -0.05171016 -0.48046073 -0.023506768 -0.27122036 -0.20460005 0.021233363 0.22852738 -0.12624082 -0.1912983 -0.063802324 0.22667712 0.18563373 0.09231545 -0.24610387 -0.060073517 -0.26220894 0.16960923 0.13216162 0.05919131 -0.080992036 -0.39564645 0.37197953 0.13921843 -0.2455956 0.11619231 -0.1601269 -0.21343346 0.46148628 0.17618576 0.50376546 -0.27367336 0.47569063 -0.15515015 0.008351356 0.12701899 0.17586978 0.16024265 -0.026579618 0.09319139 0.051235586 0.034826677 -0.09547316 -0.15045778 0.11132443 -0.31403482 0.1827496 -0.11394483 -0.29763234 0.52900606 0.2435252 0.32187787 0.19984706 0.5195251 0.23779887 0.23666677 0.061603464 0.40517008 0.020329522 0.0053748377 0.059774168 -0.098723516 -0.13167866
mije -0.016696272 0.124969766 -0.13840747 0.2909316 0.024042092 -0.2363021 0.2284548 0.49088237 -0.24072747 0.048648253 -0.08263185 -0.21533756 0.13007377 0.1429545 0.04493892 -0.13613172 -5.362046e-06 -0.29539412 -0.30810678 -0.6142786 0.28138515 0.15697868 0.060698286 -0.19858493 -0.012818265 -0.028784774 -0.13019194 -0.030371837 -0.24450704 0.114538334 0.20524037 0.05966866 0.4163711 -0.4095806 -0.036855742 0.43359244 0.11288796 0.020630496 -0.05044465 -0.35314295 -0.0134830605 -0.13396159 -0.2556533 0.048444398 0.13254532 -0.14985307 -0.09278676 -0.026087185 0.11440335 0.088994056 0.066646144 -0.2390079 -0.04648485 -0.14936978 0.19845082 0.10805572 -0.024793716 0.012156019 -0.26799828 0.24243215 0.15278171 -0.16417061 0.18509138 -0.16344914 -0.212681 0.39713922 0.22164689 0.39333332 -0.2615232 0.3543839 -0.11797361 0.134739 0.103046976 0.054425437 0.15442334 -0.009065614 0.048790105 -0.017231457 -0.005590161 -0.084656976 -0.08178741 0.104151905 -0.32012454 0.15944698 -0.17065635 -0.2690654 0.40273213 0.11140109 0.22446541 0.20861208 0.3480069 0.24185379 0.20456131 0.09143722 0.42983684 0.008302408 0.079393 0.110671885 -0.016892731 -0.10600181
